Id,Predicted
1,-2.058573125
2,-0.188753528
3,-1.964677737
4,-1.939445381
5,-0.725347176
6,-3.41591228
7,-3.170716631
8,-1.600716811
9,-1.092306497
10,-2.228386799
11,-2.763997736
12,-1.007181906
13,2.175542732
14,-1.550872301
15,-3.463733958
16,-2.962679938
17,-2.361931412
18,-1.08722913
19,-0.522805806
20,-0.759563158
21,-2.817364687
22,-2.531672526
23,-0.100697927
24,-1.945699842
25,-2.052486019
26,-2.519261788
27,-0.965790042
28,0.111334138
29,-1.919146174
30,-1.024196828
31,0.730135805
32,-2.228386799
33,-3.045909001
34,-2.455204828
35,-2.23200858
36,-1.405195119
37,-3.378468146
38,-3.198848048
39,1.49181604
40,-2.485649234
41,-3.045909001
42,-0.754570179
43,-3.522068951
44,-3.201619512
45,-3.41591228
46,-3.209976872
47,-0.224685503
48,-1.853425986
49,3.123055074
50,-2.676553898
51,-2.962679938
52,-3.546592218
53,-2.071776027
54,-0.703712147
55,-2.806749732
56,0.903223019
57,0.730135805
58,-2.046223245
59,-3.045909001
60,-0.001153722
61,-2.519392447
62,-1.884942748
63,-1.78523589
64,-3.895768935
65,-1.297186573
66,-1.304575475
67,-2.064358666
68,1.016452552
69,-2.756303453
70,-1.078846527
71,-3.932448954
72,-3.053320911
73,-2.383278825
74,-1.884942748
75,-1.30463723
76,0.378227174
77,-0.497665296
78,-0.936019541
79,-3.638188351
80,-0.177559146
81,-2.597863537
82,1.806704103
83,-0.88855538
84,-2.804068204
85,-1.859974376
86,-0.777856932
87,-0.759563158
88,2.082334076
89,-1.127414913
90,-2.458240176
91,-1.537555886
92,-0.42517428
93,2.805205201
94,-2.478264981
95,-3.359815376
96,0.010171472
97,-3.268151753
98,-3.608878909
99,-1.928788439
100,-2.237107343
101,-2.629650629
102,0.397182054
103,-2.026356493
104,-2.498133194
105,-1.213177853
106,-2.449056757
107,-2.453709885
108,0.306356678
109,-1.77180017
110,1.624142774
111,-3.45584573
112,-0.598845487
113,-2.307237483
114,-2.168766496
115,-0.785931738
116,-0.969571928
117,-3.488633502
118,-0.715814507
119,-0.920686912
120,-0.655199683
121,0.010171472
122,-3.748300843
123,-3.448235465
124,-3.105777384
125,-2.455204828
126,-1.247027834
127,-3.260928447
128,-1.77319801
129,-2.458240176
130,0.170194227
131,-1.092306497
132,-1.373018445
133,-1.907867966
134,-1.238763032
135,-1.765564029
136,-0.070640344
137,-3.051047565
138,-3.216989993
139,-2.213776005
140,2.579542444
141,-0.801498177
142,-3.108992916
143,-3.45584573
144,2.501018745
145,-1.801716377
146,-2.711766764
147,-2.730338263
148,-1.775727938
149,0.191524353
150,3.39740741
151,-0.512456944
152,-2.06343188
153,-1.670388681
154,-1.278478276
155,-2.752164598
156,-0.347469797
157,3.610083385
158,-2.597863537
159,-2.667392709
160,-2.237107343
161,-2.842484126
162,-1.42731433
163,-1.691261866
164,-0.589990144
165,-1.988952934
166,-0.476427001
167,-1.431932525
168,-0.941147678
169,-2.171094906
170,-2.68171955
171,2.565906262
172,-2.851530055
173,-1.694052862
174,-1.248900567
175,1.664763636
176,-0.776766208
177,-1.378258905
178,-1.378258905
179,-0.951168229
180,0.010171472
181,0.219412565
182,-2.620996722
183,0.684491548
184,0.378962939
185,-2.546497852
186,-1.504220433
187,-3.742239439
188,-0.615448872
189,0.647075884
190,-0.338304059
191,-1.700698565
192,-0.510724841
193,-1.859974376
194,-1.682836491
195,-3.493943033
196,-3.445372883
197,-1.010768622
198,-1.713651658
199,-1.614734233
200,0.673024674
201,-2.31924636
202,-2.683574581
203,-2.774284095
204,-3.142551074
205,-2.088120697
206,-1.159933775
207,-0.300145335
208,0.838473291
209,-3.326275986
210,-1.179124913
211,0.075143505
212,-1.443929668
213,1.163751448
214,-0.886890675
215,-2.597251039
216,-1.928788439
217,-0.945524506
218,-3.679619087
219,-1.420262982
220,-0.329543384
221,2.936628393
222,-3.736682009
223,-1.654289807
224,-2.360474447
225,-1.205831958
226,-2.465243442
227,-1.267855121
228,-0.412112213
229,-0.853870927
230,-0.738811448
231,-0.920686912
232,-2.910677865
233,-0.248195692
234,-0.248195692
235,-2.599326215
236,-1.885742919
237,-3.026315736
238,1.803459603
239,0.832600454
240,-0.275106431
241,-1.49848856
242,-1.471134736
243,0.498208138
244,-0.680660134
245,-1.526578152
246,1.016452552
247,-2.855986016
248,2.192282993
249,1.65270407
250,-2.603913154
251,-1.027587678
252,-3.050832076
253,-0.001153722
254,0.294808746
255,-2.734847407
256,-0.679047868
257,0.22967049
258,-0.840560789
259,-1.784435856
260,-1.566905979
261,-1.478426374
262,-2.06343188
263,1.49181604
264,-1.020934858
265,-2.810838543
266,-1.830731808
267,2.936628393
268,-2.932037352
269,1.238049462
270,-1.909483616
271,-2.228386799
272,-0.518563219
273,-1.299855855
274,-2.61484706
275,-3.197485229
276,-0.590027459
277,-1.803164904
278,1.803459603
279,1.803459603
280,-1.278942801
281,-2.603152296
282,-0.663072549
283,-1.37868147
284,-0.182584946
285,-3.042606285
286,-1.699773011
287,-1.886779628
288,0.512829934
289,-0.937514278
290,-0.879151286
291,3.39740741
292,-3.026779921
293,-2.209028511
294,0.303677513
295,1.779315937
296,-1.649428688
297,-0.596906743
298,-0.300857863
299,-1.27130948
300,-2.415604249
301,0.471055261
302,-2.450435306
303,-0.820505235
304,-0.089359909
305,0.034899008
306,-1.651699757
307,0.378227174
308,-0.615448872
309,1.364347301
310,-1.323271884
311,-0.240134261
312,1.876187483
313,-1.684937198
314,-1.16511015
315,2.960621468
316,-0.241786456
317,-3.244571505
318,-2.220088877
319,-1.765564029
320,-3.412798705
321,-2.957120218
322,-0.643849582
323,-2.61484706
324,-1.842979478
325,0.874865247
326,2.00936981
327,-1.642354696
328,-3.591986217
329,-2.639286476
330,-1.346984863
331,-2.523934696
332,-1.504220433
333,1.078993473
334,-0.803547837
335,-2.13364431
336,0.756098846
337,-0.886890675
338,-1.527035505
339,-1.025072378
340,-1.776600837
341,-2.907262859
342,-0.630420564
343,-0.510724841
344,-1.335120615
345,-2.870016517
346,0.281773475
347,-1.682836491
348,-2.988096036
349,-1.629300822
350,-2.352356437
351,-0.979275942
352,-2.683574581
353,0.161925009
354,-3.635700703
355,-2.42762434
356,-3.137545492
357,-2.53803616
358,-0.366430449
359,1.738338256
360,-2.741603285
361,-1.338331328
362,-1.237074995
363,-2.536747413
364,-2.892097726
365,-3.601021325
366,-0.10747948
367,-0.481619879
368,-3.097336903
369,-2.258710733
370,-0.936250751
371,0.206159895
372,0.075143505
373,-2.989930124
374,1.994177472
375,-4.057912744
376,-0.217651583
377,1.851859873
378,-3.694321323
379,-3.722658967
380,-0.187605868
381,-2.602609156
382,-2.131964691
383,-1.196277363
384,-1.778864356
385,-1.134375835
386,-3.051047565
387,3.208002857
388,1.880405438
389,-1.612362402
390,-2.68171955
391,-2.551540083
392,-1.792079321
393,-2.730338263
394,2.192702687
395,-0.943056229
396,1.876187483
397,-0.942451459
398,-1.742189124
399,-1.488050712
400,0.619779714
401,1.74687548
402,0.340455643
403,-1.836864488
404,1.880573701
405,-2.603913154
406,-1.687822347
407,-0.608066968
408,-2.464466746
409,-2.716060614
410,-0.225515495
411,-2.638604826
412,-2.694709872
413,-1.332553061
414,-2.574737065
415,-1.920916365
416,-1.680057026
417,-3.491768153
418,-1.018367707
419,-0.596215408
420,-2.788858215
421,-1.824275175
422,-0.334618692
423,1.195315318
424,-1.511645489
425,-2.252090094
426,-0.347469797
427,-1.231683499
428,0.123658883
429,-2.144364563
430,2.649979219
431,-0.918203866
432,-2.675583043
433,-3.043337831
434,-1.387841169
435,-1.827934854
436,0.812353124
437,-1.718237311
438,0.48726973
439,-2.464466746
440,2.192323878
441,-2.826690581
442,-2.956099761
443,-2.655971536
444,-2.356561259
445,-2.456945622
446,-2.231161778
447,0.5111305
448,-0.765109828
449,-2.792879675
450,-2.514113752
451,-1.294998282
452,0.095801669
453,0.034899008
454,-2.063446338
455,-2.944646756
456,3.480645973
457,-1.233357054
458,-2.539392449
459,-1.905978376
460,-1.16511015
461,-0.942332912
462,-0.71154369
463,-1.566817955
464,1.343653057
465,-0.699078293
466,-1.039809039
467,-2.934293362
468,-1.178915905
469,-3.33162831
470,-3.183897077
471,0.91574429
472,-0.88704291
473,1.312561723
474,2.191783056
475,-2.691002496
476,-2.497780142
477,2.310749936
478,-2.20790762
479,-1.985350004
480,0.03484071
481,-2.008169669
482,-2.271913669
483,-0.373836111
484,0.039644719
485,-3.137545492
486,-2.43854633
487,-2.826690581
488,-1.267224538
489,-2.516701384
490,2.116182894
491,-2.166133049
492,-2.510662275
493,-2.942301094
494,-2.677794783
495,-0.958512407
496,-1.692406091
497,-0.046039328
498,0.933914777
499,0.044611154
500,-2.191545745
501,-0.255144621
502,-0.74494704
503,1.981939674
504,-1.087634841
505,0.164852108
506,-1.159933775
507,1.336661056
508,1.897371628
509,-0.338304059
510,-1.242541428
511,-0.198841339
512,-2.722847771
513,-2.114901013
514,-1.93533423
515,2.847659554
516,-3.110647151
517,-0.790672919
518,-0.667041694
519,-1.364181489
520,-1.335120615
521,-0.933538606
522,-1.332442317
523,2.501018745
524,-2.065119221
525,-0.757391431
526,-0.726674534
527,-3.137545492
528,-1.736639993
529,-3.293110018
530,-2.143257452
531,-2.655118175
532,-2.512658638
533,0.500577576
534,-1.376504896
535,-2.382773378
536,-0.682441298
537,-1.35002574
538,-1.115615769
539,-1.047865363
540,-0.433441821
541,-0.615141492
542,-1.202770957
543,-2.443485961
544,-1.553176108
545,-1.764688473
546,1.456475435
547,-3.668387376
548,-1.355349488
549,-0.886661816
550,-0.448955534
551,-0.152820555
552,-2.536747413
553,0.941961172
554,-1.383145875
555,-3.142305165
556,-2.629650629
557,-1.42731433
558,0.624023277
559,-2.949325763
560,1.655104627
561,-1.642354696
562,-0.906468425
563,2.143986003
564,-0.374613092
565,-0.86686803
566,1.20327097
567,0.4982156
568,-1.400936103
569,-2.655118175
570,-2.433727539
571,-2.942301094
572,-2.385880826
573,-2.306991709
574,0.494602407
575,-1.179021568
576,0.756098846
577,2.302347792
578,-1.50792707
579,2.122518815
580,-1.517944697
581,1.228566728
582,-0.768569055
583,2.289628898
584,-3.924145346
585,-0.152820555
586,2.246902594
587,1.655104627
588,-0.869905405
589,-1.809827394
590,-3.920162672
591,-0.533173748
592,-1.975365197
593,-2.714362278
594,-0.876628404
595,-0.491994392
596,2.931581256
597,-0.833495911
598,-1.34996421
599,-0.122137836
600,-2.099082196
601,1.929955822
602,2.339470768
603,-1.209209642
604,-2.805588403
605,-0.504867915
606,1.496056353
607,-0.859167068
608,-0.710063587
609,-0.420264712
610,-3.959365945
611,-0.074098011
612,-1.094780431
613,-0.43193494
614,-3.41091249
615,-2.071995519
616,-3.115646812
617,-0.953879949
618,-2.53803616
619,2.280882642
620,-0.546645434
621,-1.06915097
622,0.841931203
623,-1.566817955
624,-3.184940196
625,-3.197485229
626,-2.119271208
627,-1.518292961
628,1.706262458
629,-3.347073193
630,0.161925009
631,-1.242541428
632,-1.28299052
633,-3.864525281
634,0.915830544
635,-0.289424597
636,-3.137545492
637,-2.944301978
638,-2.041627035
639,-1.275297316
640,-0.366430449
641,-2.368155373
642,-2.689919647
643,-1.859189942
644,-2.214458446
645,-3.508914737
646,-1.767849599
647,2.25356666
648,-2.550605135
649,-2.523934696
650,-2.131964691
651,-1.131733083
652,-0.46540714
653,-0.987346044
654,-3.824308433
655,-3.694321323
656,-2.479259165
657,-1.664498034
658,-1.280136108
659,-0.202912578
660,-2.13512591
661,-2.159689077
662,-1.448655241
663,2.310275714
664,-4.005003433
665,-2.063064323
666,-2.70737779
667,-2.000053908
668,-2.815742223
669,-1.158542829
670,-0.826304119
671,-1.001915699
672,0.542252717
673,3.171856595
674,-1.846661583
675,-2.420783459
676,-1.999365041
677,-0.834829269
678,0.144137873
679,-2.461277792
680,0.835336908
681,-2.730312675
682,-2.356561259
683,1.394594783
684,-1.375777905
685,-2.606690705
686,0.822361195
687,0.432496216
688,-1.442567142
689,3.480645973
690,-0.327170798
691,2.649979219
692,-0.633838551
693,-0.010758529
694,1.185758401
695,-2.20790762
696,1.84760681
697,0.867521649
698,0.18677393
699,-0.561983778
700,-2.033247802
701,-1.345497593
702,-3.245468076
703,-1.638486199
704,-2.419166618
705,-1.836486726
706,-1.301578682
707,-1.702110749
708,1.031160579
709,-2.065165942
710,-2.13364431
711,-2.815808763
712,-2.370423225
713,-0.412112213
714,0.473077178
715,-0.203680899
716,-0.381402498
717,-1.16115468
718,-0.047547206
719,-2.156903068
720,-1.594421506
721,-2.127143086
722,0.74338115
723,-0.018696678
724,1.589740922
725,-3.254897925
726,-2.858318711
727,2.766506334
728,-2.536855371
729,-3.102797218
730,-0.790672919
731,-0.201030512
732,-0.163787332
733,-0.048566945
734,1.52693094
735,-1.551073968
736,-2.407252437
737,-3.518021997
738,-0.589990144
739,0.886043699
740,-2.367218478
741,-1.07444916
742,-1.800112749
743,0.835336908
744,-0.868548671
745,0.968734235
746,-2.730312675
747,-2.612748832
748,-1.681360467
749,-2.047161352
750,-1.592139622
751,1.157026757
752,2.931581256
753,-2.669070465
754,-1.913023507
755,0.519505284
756,-0.255144621
757,-1.62297115
758,-3.106366986
759,0.577594584
760,-1.010000765
761,-2.944348335
762,-2.441478445
763,-0.082954054
764,-0.655880699
765,-2.875214225
766,-1.788358745
767,-0.318860909
768,-1.021239892
769,-1.083546727
770,-1.738670529
771,-0.06091944
772,-2.833038172
773,-1.980673932
774,-1.907867966
775,-2.657741412
776,-1.687104987
777,-0.222777771
778,-3.205229689
779,-1.409588472
780,1.795873392
781,-0.960485026
782,-0.263500921
783,1.84760681
784,1.84760681
785,1.976955633
786,0.48726973
787,-0.316616521
788,-3.003542475
789,-2.832188242
790,-2.546497852
791,-0.978752647
792,-2.694108083
793,-2.352356437
794,-2.097310135
795,-2.354459745
796,-1.390989517
797,-1.743557832
798,-2.347012893
799,-0.18053296
800,-2.310587567
801,-2.090613582
802,-1.401771774
803,-3.15300223
804,-1.396865045
805,-0.176578865
806,-0.986491863
807,-1.920580137
808,-0.71154369
809,-0.336300656
810,-1.706897413
811,-2.650241001
812,-1.749795073
813,0.898284229
814,-3.42702149
815,2.298427946
816,-2.536747413
817,-1.496040364
818,-3.192272585
819,-1.38239802
820,-0.612133318
821,-2.894421649
822,-3.518021997
823,-1.961772131
824,2.310749936
825,0.001161788
826,-0.43193494
827,-2.303514222
828,0.48726973
829,2.499848793
830,-0.037435012
831,-1.221815901
832,-0.50818986
833,-2.097310135
834,-1.8414572
835,-1.621447939
836,0.248177094
837,-0.157870354
838,-0.2754317
839,-2.286192066
840,-1.650818845
841,-1.735716085
842,0.10902287
843,-1.778864356
844,-0.315420841
845,-1.503071801
846,-0.937514278
847,-1.984367378
848,0.636172956
849,-0.647333047
850,-0.855159458
851,-1.380389805
852,-0.241260752
853,-0.285300722
854,-2.741603285
855,-2.269005597
856,-0.926570522
857,-1.24810218
858,2.339470768
859,0.730659475
860,-0.628373695
861,-3.111210295
862,-0.48206515
863,-2.344738625
864,-2.613498909
865,-3.483450259
866,-1.907867966
867,-1.912552358
868,-3.217394465
869,-2.417624955
870,-2.760376289
871,-2.357947718
872,-2.671461487
873,-2.450634055
874,-2.617889611
875,-0.758846368
876,-1.209830247
877,-2.215854376
878,-0.720572422
879,-1.894973607
880,-1.767849599
881,-2.538729225
882,-0.629257638
883,2.670536293
884,-0.526627056
885,-3.906062215
886,-1.345207604
887,-2.985283241
888,-2.479985662
889,-1.520824785
890,-2.433727539
891,-2.942301094
892,-2.168766496
893,-1.679796826
894,-2.914206791
895,-0.956573465
896,-2.530757443
897,-3.526274286
898,-0.89465402
899,-1.089152483
900,-1.34996421
901,-2.627527043
902,-1.233764851
903,-1.824918741
904,-1.384462946
905,-0.87161618
906,-1.042747809
907,-1.730597595
908,0.490745425
909,-0.307375756
910,-1.581816384
911,-2.494242116
912,-1.331088517
913,-0.71154369
914,-1.878771591
915,0.29319007
916,-1.527270003
917,-0.55310791
918,-0.28081511
919,2.711749946
920,-3.279412161
921,2.183359563
922,-1.28299052
923,-2.039616061
924,-2.077255639
925,-1.339062664
926,-1.262918395
927,-2.182337467
928,1.93948132
929,-0.174233259
930,-0.187605868
931,-2.866997607
932,-0.087258434
933,-1.277531631
934,0.926115602
935,-2.172023967
936,-2.397018624
937,-2.397018624
938,-1.607872623
939,-0.740022593
940,-0.589990144
941,2.562890263
942,-3.519225908
943,-0.560569876
944,-0.885326978
945,-0.367448783
946,-2.342169106
947,-0.868548671
948,-2.510662275
949,-2.456945622
950,0.209012104
951,-1.007181906
952,-1.604241457
953,-1.860958374
954,-0.2754317
955,-0.901745657
956,-1.367093783
957,-2.102411503
958,-1.413656794
959,2.319978664
960,-1.594942399
961,-0.87161618
962,2.009879655
963,-0.219220509
964,-0.310034008
965,-0.808535012
966,-2.562039626
967,-0.241786456
968,-1.735721566
969,3.924317179
970,-0.633838551
971,-1.752302981
972,-3.283527603
973,0.327808679
974,-2.981586398
975,1.608429233
976,-1.38730506
977,0.160530972
978,-3.189052514
979,-3.216349387
980,-0.705259113
981,-0.174082468
982,-0.572036532
983,-0.821916478
984,-1.858136531
985,-1.462380092
986,2.635612141
987,0.769988577
988,-0.182584946
989,-2.769818234
990,-2.233782615
991,-2.568337476
992,-1.132649194
993,-1.267614895
994,-1.159933775
995,-0.27195226
996,0.741844643
997,-2.21780135
998,-0.775807057
999,-0.775807057
1000,-2.379580731
1001,-1.93796792
1002,-4.029075938
1003,-0.283577458
1004,2.036534009
1005,2.360662013
1006,-0.94529104
1007,0.810217468
1008,-4.12117153
1009,-1.594959477
1010,-3.205293526
1011,-1.961772131
1012,-0.494353094
1013,-1.862951583
1014,-1.256023184
1015,-3.494980537
1016,-2.597362656
1017,2.348423931
1018,-1.681360467
1019,-0.849597736
1020,-1.280136108
1021,-1.378662824
1022,-1.126578902
1023,-3.292233664
1024,1.009502372
1025,-1.568904223
1026,-1.23285501
1027,-2.671773627
1028,2.687668779
1029,1.683982278
1030,-2.586022107
1031,-3.55135674
1032,-1.968069691
1033,-1.72361243
1034,-2.925792881
1035,-0.0487599
1036,1.577536135
1037,-0.736080234
1038,-0.896335182
1039,-2.417624955
1040,-3.325891935
1041,-2.223912379
1042,2.65308936
1043,-0.909412313
1044,-0.758484491
1045,-3.260530126
1046,-3.693868384
1047,-1.930480866
1048,-2.504696855
1049,2.494718305
1050,-3.860483704
1051,-3.193776325
1052,-1.868417134
1053,2.20585107
1054,-1.572230606
1055,2.182283206
1056,-2.13512591
1057,-1.93796792
1058,-1.767359101
1059,-3.59446693
1060,2.099297914
1061,1.743864697
1062,-2.015721154
1063,1.728849217
1064,-2.509827431
1065,0.926115602
1066,-1.809827394
1067,-3.388883344
1068,-0.540451378
1069,-1.664498034
1070,0.36117897
1071,-2.548220049
1072,-1.812189377
1073,-1.10578088
1074,-2.299480963
1075,-0.462802945
1076,-2.039616061
1077,-3.432584246
1078,-2.059007569
1079,-2.290660388
1080,-1.225650187
1081,-1.298594622
1082,-3.121773595
1083,-3.866396136
1084,-3.962850991
1085,0.69798384
1086,0.915402738
1087,0.915402738
1088,-3.574825763
1089,-1.955177949
1090,2.184766403
1091,-3.526274286
1092,2.192604234
1093,-1.854082626
1094,2.163638462
1095,-3.22772285
1096,-1.795290792
1097,-3.468600372
1098,-1.693139786
1099,-3.722658967
1100,-3.776497045
1101,-3.361116638
1102,2.081799929
1103,2.017899398
1104,-0.564019063
1105,-2.306991709
1106,-1.807976125
1107,-1.267855121
1108,-1.941897651
1109,-2.897887321
1110,-2.41982507
1111,-1.747856763
1112,1.453737202
1113,-2.835266664
1114,-2.450431882
1115,0.417685304
1116,-3.584482767
1117,0.247949486
1118,-0.460012925
1119,0.082625213
1120,-1.713889789
1121,-0.958231303
1122,-1.433856944
1123,0.493905234
1124,-2.75155851
1125,2.316098896
1126,-2.880498504
1127,2.310749936
1128,2.359689437
1129,-2.568594847
1130,-3.009549245
1131,-2.781081478
1132,-3.000758012
1133,-2.467520369
1134,-1.55943826
1135,-1.386267499
1136,-0.168349876
1137,0.694576748
1138,-2.502405539
1139,-2.614003252
1140,0.511481809
1141,-1.317545348
1142,-0.84260047
1143,0.405531123
1144,-1.213636133
1145,-0.420098479
1146,0.323481917
1147,-2.557950707
1148,3.657857871
1149,-1.332315388
1150,-1.713332243
1151,0.558987674
1152,-0.657845435
1153,-1.00855573
1154,-1.75440181
1155,-2.722847771
1156,-1.957282667
1157,-0.832759197
1158,-2.95884417
1159,-1.415151414
1160,-1.383145875
1161,-2.702042486
1162,0.403246725
1163,-2.577725288
1164,0.516993362
1165,-1.596893216
1166,-0.563034853
1167,-2.669413479
1168,-0.34808304
1169,-2.374391551
1170,0.285484956
1171,-2.138960823
1172,-2.861302754
1173,-1.493243729
1174,-2.938623328
1175,-2.997299818
1176,-2.743338082
1177,-0.927917117
1178,-2.37847592
1179,-2.574737065
1180,-1.117357784
1181,-1.429618014
1182,-2.563896
1183,0.106531614
1184,0.511481809
1185,-2.250742807
1186,1.157026757
1187,1.623707106
1188,-0.753769339
1189,-1.380762888
1190,-2.148070121
1191,-2.556041071
1192,-1.488877308
1193,-1.879478349
1194,-1.860748107
1195,2.725701541
1196,2.18765996
1197,-1.661658188
1198,-0.726236654
1199,-1.12398216
1200,2.264415833
1201,2.185966
1202,-0.841020465
1203,-2.532779478
1204,-2.440757744
1205,-0.56514563
1206,-0.485274746
1207,0.110366264
1208,-0.347893107
1209,-0.031205871
1210,-2.691002496
1211,-2.82971321
1212,-2.622168406
1213,-2.235330867
1214,-1.180471368
1215,-2.029694634
1216,-1.65500913
1217,-2.303514222
1218,-1.919803406
1219,-2.36468892
1220,-2.178511495
1221,-3.355333853
1222,-2.02731125
1223,-1.549008028
1224,-0.927917117
1225,-1.279347981
1226,-2.612077758
1227,1.659023257
1228,0.405531123
1229,-0.817328442
1230,-1.818337986
1231,-1.763612417
1232,-1.786058171
1233,-3.02487721
1234,0.842177106
1235,-2.717070238
1236,-2.347012893
1237,-2.035778039
1238,-1.780731517
1239,-0.161960972
1240,0.512829934
1241,-2.139868464
1242,-1.52354257
1243,-1.316051505
1244,-1.276739974
1245,-1.445491058
1246,-0.332551336
1247,-1.764346138
1248,-2.341326136
1249,-2.187270046
1250,-2.749185675
1251,0.553721677
1252,1.560166537
1253,-0.018381259
1254,2.303479262
1255,-1.206477086
1256,2.102206782
1257,-2.876886702
1258,-2.576524522
1259,-2.322461201
1260,-0.64271279
1261,-1.580496522
1262,2.399215118
1263,-2.08112262
1264,-3.267858409
1265,-1.974619992
1266,-1.315749987
1267,-1.114606016
1268,-2.683306957
1269,-2.511091812
1270,-3.05113942
1271,-3.05113942
1272,-2.794356778
1273,-2.407252437
1274,1.189903635
1275,-1.557553997
1276,-1.665628264
1277,1.751946011
1278,-1.648295628
1279,-2.134002181
1280,-1.611647949
1281,-0.581512257
1282,-1.862951583
1283,-1.744972357
1284,-1.720636735
1285,-1.518292961
1286,0.763896508
1287,-1.899170149
1288,-2.639286476
1289,-2.030414056
1290,-1.766967622
1291,-1.983699245
1292,-2.368482598
1293,-2.927505961
1294,-1.143491084
1295,-1.98176454
1296,-1.685927974
1297,-2.720233769
1298,-2.522063053
1299,-3.584482767
1300,2.245167088
1301,-2.881656675
1302,-1.716747755
1303,-0.409878566
1304,-1.995073796
1305,2.404563859
1306,2.3108311
1307,-2.596683827
1308,-0.807631812
1309,-0.9866666
1310,-0.121867484
1311,-1.07392106
1312,-0.561927369
1313,-2.492422045
1314,0.020328542
1315,-1.747192222
1316,-1.925945644
1317,-2.306023816
1318,-1.863153966
1319,-3.142248695
1320,1.988102163
1321,-0.842243982
1322,0.277191173
1323,-2.687562791
1324,1.876187483
1325,-1.908119773
1326,-2.856692247
1327,-2.232110974
1328,-3.081309846
1329,-2.689995617
1330,-1.527270003
1331,-0.242698961
1332,-2.402588173
1333,-1.106682887
1334,-2.14193911
1335,-3.212747696
1336,-1.889118263
1337,-2.22183609
1338,-3.004274909
1339,-2.263372693
1340,-0.662831665
1341,-1.55003693
1342,-0.998000351
1343,2.190445032
1344,-1.536642365
1345,-1.244070831
1346,-2.595367103
1347,-1.171759614
1348,-2.39148197
1349,-2.422387215
1350,-2.460004695
1351,2.499667045
1352,-2.411699331
1353,2.456531737
1354,1.041632831
1355,-2.031060621
1356,-3.675674091
1357,-1.473247921
1358,-2.397018624
1359,-1.740167298
1360,-2.220965844
1361,0.049219335
1362,-1.916774538
1363,0.133760772
1364,-1.134189609
1365,-1.771044201
1366,-1.862951583
1367,-2.418405545
1368,-2.753669018
1369,-1.159922631
1370,-1.986899011
1371,-2.379078718
1372,-1.161699839
1373,-2.738010244
1374,-2.451433899
1375,-3.503738181
1376,-1.297645629
1377,-2.740525572
1378,-0.10747948
1379,-1.245678856
1380,-3.499880557
1381,-3.117797524
1382,-2.270393275
1383,-1.217793228
1384,0.452333053
1385,-2.271542769
1386,-3.182766995
1387,-1.720189276
1388,-2.546497852
1389,2.479029623
1390,-0.354044882
1391,-1.328443156
1392,2.479822769
1393,-1.245349832
1394,0.74551933
1395,-2.369091245
1396,1.013082323
1397,-2.755482019
1398,-0.713180863
1399,-2.06135045
1400,-1.13370064
1401,-2.285120472
1402,-2.190928281
1403,1.590889337
1404,-1.423591258
1405,-1.645900611
1406,-2.692142654
1407,-2.46813307
1408,-1.27130948
1409,-0.764011531
1410,-1.318563776
1411,-0.610740711
1412,-0.891943076
1413,-0.304603988
1414,1.781147424
1415,1.461073407
1416,0.42382533
1417,-0.465442655
1418,-2.085939584
1419,-2.14292324
1420,0.387870816
1421,0.112739052
1422,-0.751356575
1423,0.480560301
1424,-1.80065835
1425,0.494728329
1426,-0.20341692
1427,-2.567651337
1428,-2.568248877
1429,-1.945197845
1430,-1.735716085
1431,-2.271903673
1432,-2.189957232
1433,-2.725116698
1434,-0.714199455
1435,-2.272187254
1436,2.319978664
1437,2.280882642
1438,-1.000821735
1439,-1.496670244
1440,-2.869069296
1441,-2.461898437
1442,-1.578463732
1443,-0.673185877
1444,-1.169838307
1445,-0.45649859
1446,-1.863428488
1447,-1.89713679
1448,-1.697621399
1449,-1.008258649
1450,-1.396461948
1451,-2.100059127
1452,-2.368958379
1453,-2.099938202
1454,-0.592848215
1455,-0.647765221
1456,-2.02421023
1457,-1.021250186
1458,-2.262014185
1459,-2.442236005
1460,-2.187467194
1461,-2.374977947
1462,-2.403632607
1463,0.088872269
1464,-3.305781697
1465,2.299040932
1466,0.195724332
1467,-2.761381315
1468,-2.196767543
1469,-1.017397963
1470,-0.718888742
1471,0.819159543
1472,-1.864733018
1473,-0.942687473
1474,-0.986920276
1475,-1.962239732
1476,-1.98748073
1477,-1.421716315
1478,-0.043059536
1479,-1.687161109
1480,-2.666456774
1481,-1.84443639
1482,-3.039356247
1483,-0.652145924
1484,-2.694389987
1485,-2.167161259
1486,-2.018378743
1487,-2.093673015
1488,-1.674238199
1489,-3.385244174
1490,2.202879132
1491,-1.884765714
1492,-2.711743297
1493,-0.81334358
1494,-2.771489951
1495,-0.758623649
1496,-0.223401974
1497,-0.997716226
1498,-3.152596877
1499,-3.397905916
1500,-1.533458768
1501,-2.007029314
1502,-0.975646085
1503,-1.192004161
1504,-2.284735056
1505,-2.985550438
1506,-2.182337467
1507,-2.143446217
1508,-1.711087332
1509,-1.849854772
1510,-2.190479419
1511,0.264691995
1512,-2.866997607
1513,-1.157992868
1514,-3.009472678
1515,-1.627800016
1516,1.312561723
1517,-2.290660388
1518,-1.49255319
1519,0.981130559
1520,-2.702042486
1521,-2.568771872
1522,-2.794356778
1523,-1.32205826
1524,-1.83424276
1525,-1.884057153
1526,-1.307759466
1527,-2.010779263
1528,-1.347701558
1529,-1.803493675
1530,0.1514278
1531,-2.31171044
1532,-1.461693998
1533,-0.461334613
1534,-0.869905405
1535,-1.52263063
1536,-1.389455866
1537,-1.414036384
1538,-0.429632417
1539,-0.906468425
1540,-0.670227489
1541,-0.188218794
1542,-0.649445257
1543,-1.767849599
1544,-1.901522264
1545,0.18677393
1546,-1.525637201
1547,-1.555762909
1548,-2.260974302
1549,-1.9330423
1550,-1.562482446
1551,-2.010635035
1552,-1.865610766
1553,-3.236205844
1554,-1.507866196
1555,0.08762405
1556,-1.97494145
1557,-2.863428969
1558,-2.249616207
1559,-1.071527936
1560,-3.168765042
1561,-1.64100739
1562,-2.727435627
1563,-0.367448783
1564,-2.663423719
1565,-1.293401108
1566,-1.009664594
1567,1.323848285
1568,-2.93175132
1569,-0.298125431
1570,-0.962225282
1571,1.229581936
1572,2.066885805
1573,-1.860767852
1574,-2.369151223
1575,-2.809319053
1576,-3.083544025
1577,-3.264864208
1578,-2.654777007
1579,-3.928416447
1580,2.635612141
1581,1.928458988
1582,-1.245349832
1583,-4.190853035
1584,-1.782825707
1585,-1.987658903
1586,-4.199714856
1587,-2.062808383
1588,-2.396462802
1589,-1.991733548
1590,-4.020262726
1591,-3.649993309
1592,-2.631259753
1593,-1.64421954
1594,2.262049884
1595,-1.256329825
1596,-0.657072966
1597,-2.001795177
1598,-3.48676044
1599,-2.516510206
1600,-2.624299603
1601,-0.326611872
1602,-0.327218376
1603,-1.768239668
1604,-2.746558162
1605,-1.931402276
1606,-1.90540747
1607,-2.568374257
1608,-2.364189768
1609,-1.219935844
1610,-1.116979101
1611,-1.910649903
1612,0.195564687
1613,-0.037267536
1614,-1.994156547
1615,-3.702830931
1616,-1.55451874
1617,-2.596980456
1618,-0.857084829
1619,-1.614467493
1620,-1.118630612
1621,-2.106600357
1622,-1.578368789
1623,-0.617138843
1624,-2.436940238
1625,-0.524124786
1626,-2.374977947
1627,-1.790097557
1628,-1.173588802
1629,-2.33552715
1630,-1.017397963
1631,-1.68306935
1632,-0.921147415
1633,-2.084088323
1634,-2.698309213
1635,-2.935536724
1636,-0.266826776
1637,-1.760622779
1638,-2.483800176
1639,-2.074547015
1640,-2.275543782
1641,-1.739775635
1642,-2.78462848
1643,-2.146485095
1644,-1.19201653
1645,-1.920580137
1646,-1.951018876
1647,0.035491314
1648,-1.920932698
1649,0.995635864
1650,-2.126199341
1651,0.5225564
1652,-0.279160431
1653,-2.65047814
1654,-2.629011137
1655,-2.872187614
1656,-0.856821253
1657,-0.55310791
1658,-0.761176955
1659,-2.144497681
1660,-2.341677328
1661,-2.501278808
1662,-1.4330383
1663,3.167338136
1664,-1.868170595
1665,-1.297159302
1666,-2.212922157
1667,-2.666369942
1668,-1.73330038
1669,-3.629964687
1670,-3.818344473
1671,-2.451862977
1672,-4.153932162
1673,-4.284883898
1674,-0.851814789
1675,-1.590125754
1676,-1.986046049
1677,-3.601542633
1678,-2.034947526
1679,-1.44289987
1680,-2.413653868
1681,-2.81257163
1682,-2.960262964
1683,-2.726648981
1684,-1.869050072
1685,-2.413729497
1686,-1.894993879
1687,-2.840213155
1688,-0.0947145
1689,-1.895799637
1690,-4.031946509
1691,-1.192004161
1692,2.321226009
1693,-1.783229517
1694,-0.341899905
1695,-1.813857903
1696,-1.121567816
1697,-1.54143557
1698,-2.640325649
1699,-2.635081266
1700,-2.010809226
1701,-0.335925839
1702,-0.332189309
1703,-0.796885396
1704,1.127745096
1705,-2.217523238
1706,-0.124575582
1707,-2.693687595
1708,-1.63594343
1709,-1.879232053
1710,0.085234261
1711,-1.659481614
1712,-2.635335459
1713,-2.004490133
1714,-3.172133748
1715,-0.291465877
1716,-2.941333065
1717,-2.92424834
1718,-0.64252964
1719,-3.41392868
1720,-1.318178988
1721,-4.051404594
1722,-2.194474964
1723,-2.367193228
1724,-2.49210153
1725,-2.660728455
1726,-2.010566019
1727,-3.120749693
1728,-1.564330398
1729,-3.120587083
1730,-3.672909583
1731,-1.879812989
1732,-3.876321784
1733,-2.752099564
1734,-2.68639497
1735,-1.017000972
1736,-3.048345641
1737,-2.377397401
1738,-1.899592012
1739,-2.305435678
1740,-1.90076397
1741,-1.65500913
1742,-2.137122977
1743,2.359689437
1744,1.919718279
1745,1.581995903
1746,-1.5332981
1747,-0.935623196
1748,0.305292013
1749,-1.258802031
1750,-2.418405545
1751,-2.204177346
1752,-3.12100656
1753,1.657167287
1754,-3.156069431
1755,-2.467370064
1756,-2.699636127
1757,0.188803466
1758,-2.701475076
1759,-2.68171955
1760,-2.688789879
1761,-0.177148648
1762,-0.182584946
1763,2.280882642
1764,-2.177050892
1765,2.192025344
1766,-0.883537961
1767,2.192148225
1768,-0.949841433
1769,0.990914619
1770,-1.968069691
1771,-2.833038172
1772,2.264415833
1773,-0.26725972
1774,-3.475222754
1775,1.374241154
1776,-1.691540319
1777,-3.216737101
1778,-2.82971321
1779,-2.420616907
1780,-0.712653601
1781,-2.137122977
1782,-1.502213711
1783,0.198403998
1784,1.749673077
1785,1.659052262
1786,-2.518977905
1787,-1.280845445
1788,-2.566212232
1789,-2.686600591
1790,-3.083544025
1791,-3.249031204
1792,-2.867110603
1793,-3.138392945
1794,-0.304603988
1795,-2.568337476
1796,-2.325595748
1797,1.464030071
1798,-2.368155373
1799,1.929955822
1800,-0.716077958
1801,-2.115405952
1802,-1.706897413
1803,0.042692752
1804,1.249187478
1805,2.126292288
1806,-2.785701376
1807,-3.325891935
1808,-4.322702069
1809,-1.759291006
1810,-1.879232053
1811,-0.054650678
1812,0.341170064
1813,1.53964856
1814,0.948102086
1815,-3.950585487
1816,-0.741929102
1817,-3.722658967
1818,-1.988936192
1819,-1.974213652
1820,2.192116717
1821,-1.263806908
1822,2.494718305
1823,0.185695171
1824,-2.221974733
1825,0.500577576
1826,0.500577576
1827,-3.696281635
1828,-2.525408167
1829,2.054239539
1830,-0.178009168
1831,-1.690657769
1832,2.411520992
1833,-0.524124786
1834,-2.774284095
1835,-2.465243442
1836,-3.088415906
1837,1.159890402
1838,-1.314660299
1839,2.164204647
1840,0.330069314
1841,-1.10578088
1842,-0.934636004
1843,-2.759182961
1844,-2.286811706
1845,-1.382341264
1846,-0.933913357
1847,0.327808679
1848,-1.006409957
1849,-1.881252531
1850,-3.770120868
1851,-0.289424597
1852,-2.818112791
1853,-2.671461487
1854,-3.508914737
1855,-3.276929026
1856,1.92521395
1857,-0.253739119
1858,-2.770116283
1859,-3.171457938
1860,-1.968059688
1861,-2.619296172
1862,1.777448621
1863,-0.586964413
1864,-1.172860643
1865,4.219399899
1866,-1.697621399
1867,-2.846222563
1868,0.539263588
1869,-2.232110974
1870,2.177222565
1871,-1.64252136
1872,1.176220345
1873,-0.727152797
1874,-3.56852394
1875,-1.527930025
1876,-0.817142106
1877,-1.427898796
1878,-1.356189862
1879,-1.233042703
1880,-2.164398568
1881,-1.77229582
1882,-3.680813226
1883,-1.124635562
1884,-3.497477328
1885,-1.912860449
1886,-1.366567429
1887,-3.286538067
1888,-2.762426331
1889,-3.748929203
1890,0.824467035
1891,-4.247048527
1892,-1.216258128
1893,-3.419708675
1894,-1.56937582
1895,-3.350341535
1896,-2.700125959
1897,2.033049651
1898,-4.231935919
1899,-0.178009168
1900,1.859997113
1901,-3.145608393
1902,0.015711492
1903,-1.233764851
1904,2.504828861
1905,2.28675485
1906,-1.854082626
1907,-1.458886135
1908,-0.283577458
1909,-1.173383314
1910,3.277687495
1911,-2.367887433
1912,2.777048066
1913,2.437392355
1914,-0.906009199
1915,-3.457927091
1916,-1.356189862
1917,-2.141142076
1918,-1.451851593
1919,-0.054650678
1920,-1.5332981
1921,-5.330273141
1922,-3.307478657
1923,-1.027582964
1924,-2.96646874
1925,-3.436424325
1926,-0.442851299
1927,-2.062808383
1928,-1.463706542
1929,-3.518148261
1930,-2.726670186
1931,-2.651361821
1932,-4.683304286
1933,-3.104438345
1934,-2.448606311
1935,0.999548169
1936,2.309071172
1937,-2.176429008
1938,-1.777626499
1939,-2.566598136
1940,-1.633820141
1941,2.072713079
1942,0.016461593
1943,-3.706406699
1944,-3.747147242
1945,-3.42234523
1946,-3.1492192
1947,-2.097072558
1948,-0.828089049
1949,-2.567400718
1950,-2.505890376
1951,-2.490778177
1952,2.051073117
1953,-4.844555427
1954,-3.36936067
1955,-4.326359078
1956,-2.898895324
1957,-2.903570674
1958,-2.510288063
1959,-3.38780847
1960,-4.61556867
1961,-2.990915382
1962,-3.105758366
1963,-3.663906423
1964,-1.020748113
1965,-1.821290332
1966,-2.713755316
1967,-2.051356497
1968,-1.846061013
1969,-3.155223038
1970,-3.526550122
1971,-2.074450205
1972,-3.907633687
1973,-1.829168201
1974,-1.235645404
1975,-4.064907422
1976,-3.306379226
1977,-2.530146848
1978,1.769943965
1979,-3.667268345
1980,-1.463925026
1981,-3.06166165
1982,-2.349451912
1983,-1.018367707
1984,-1.706253124
1985,-2.209403442
1986,1.818728228
1987,2.092499865
1988,1.139616242
1989,1.599635237
1990,-0.34808304
1991,1.453737202
1992,-1.771892685
1993,-1.456430593
1994,-3.097336903
1995,-1.786200506
1996,-2.619016131
1997,-1.126578902
1998,-2.786039047
1999,1.9293197
2000,-2.609461905
