Id,Predicted
1,-1.968517451
2,0.095365889
3,-1.841762408
4,-1.784307217
5,-0.374874196
6,-3.185682171
7,-3.0388385
8,-1.244016367
9,-0.923806778
10,-2.085275785
11,-2.728929485
12,-0.49599982
13,2.677233897
14,-1.664752532
15,-3.192083319
16,-2.655185908
17,-2.157529692
18,-0.69130418
19,-0.188305887
20,-0.6042362
21,-2.572116077
22,-2.460190342
23,0.033009543
24,-1.586636494
25,-1.789911221
26,-2.315061646
27,-0.840771477
28,0.256383666
29,-1.660999112
30,-0.896508361
31,-0.388964048
32,-2.085275785
33,-2.856982471
34,-2.352854311
35,-2.078062466
36,-1.117100384
37,-3.385275737
38,-2.986364441
39,1.636290535
40,-2.399054093
41,-2.856982471
42,-0.437406632
43,-3.299813318
44,-3.003483873
45,-3.185682171
46,-2.814446434
47,0.104706692
48,-1.619300431
49,3.608036574
50,-2.329778864
51,-2.655185908
52,-3.275261259
53,-1.757716197
54,-0.338287696
55,-2.629864917
56,1.166378904
57,-0.388964048
58,-2.07634763
59,-2.856982471
60,0.043867467
61,-2.317931056
62,-1.611508633
63,-1.488928841
64,-3.654803001
65,-1.217039788
66,-1.148790358
67,-1.89381109
68,1.273512299
69,-2.799988957
70,-0.687832726
71,-3.61336863
72,-2.851872811
73,-2.226914797
74,-1.611508633
75,-1.128087478
76,0.581035698
77,-0.426256239
78,-0.739630565
79,-3.398111135
80,-0.118683804
81,-2.520499916
82,2.264042699
83,-0.732564529
84,-2.830022905
85,-1.542527097
86,-0.544473309
87,-0.6042362
88,2.511397761
89,-0.752503219
90,-2.254929795
91,-1.446692509
92,-0.556350435
93,2.301072756
94,-2.566871151
95,-3.070933334
96,-0.261815122
97,-3.006438516
98,-3.312848318
99,-1.745973995
100,-2.105771007
101,-2.752496495
102,0.518715924
103,-1.833839888
104,-2.403188121
105,-0.931285139
106,-2.189029742
107,-2.358490415
108,0.416924653
109,-1.577128723
110,2.019526588
111,-3.246052083
112,-0.404166387
113,-2.105392056
114,-2.087479533
115,-0.802473227
116,-0.840967854
117,-3.255089273
118,-0.381016698
119,-0.742642699
120,-0.62485088
121,-0.261815122
122,-3.450022885
123,-3.21840309
124,-2.735784249
125,-2.352854311
126,-0.960490815
127,-3.182430865
128,-1.599579347
129,-2.254929795
130,0.113400276
131,-0.923806778
132,-1.476724322
133,-1.832447008
134,-1.585241943
135,-1.468077912
136,-0.128897047
137,-2.722033138
138,-2.951983522
139,-1.941653597
140,2.956559207
141,-0.820476417
142,-3.150718545
143,-3.246052083
144,2.834098994
145,-1.763473265
146,-2.741843004
147,-2.676466239
148,-1.569764972
149,0.457106788
150,3.51347392
151,-0.631362868
152,-1.888608344
153,-1.600827189
154,-1.189145553
155,-2.70271325
156,-0.293022053
157,4.753271833
158,-2.520499916
159,-2.516569135
160,-2.105771007
161,-2.855886289
162,-1.355790849
163,-1.520410775
164,-0.499125596
165,-1.85176144
166,-0.395128242
167,-1.409761807
168,-0.871382615
169,-1.952927491
170,-2.625093332
171,2.339204358
172,-2.800942688
173,-1.519342327
174,-1.012044975
175,2.195245549
176,-0.4330358
177,-1.028714381
178,-1.028714381
179,-0.830469332
180,-0.261815122
181,0.018675059
182,-2.537604211
183,1.11281144
184,0.812840422
185,-2.518271599
186,-1.23549914
187,-3.445118502
188,-0.875346372
189,1.093486197
190,-0.14645491
191,-1.542117651
192,-0.686462553
193,-1.542527097
194,-1.467230506
195,-3.253482353
196,-3.149824304
197,-0.84658095
198,-1.513562497
199,-1.704536362
200,1.112172155
201,-2.196740216
202,-2.743819483
203,-2.56058886
204,-3.02155322
205,-1.985233339
206,-1.411717688
207,-0.057104066
208,-0.262730279
209,-3.151619342
210,-1.11142919
211,0.365720171
212,-1.372194565
213,0.766459993
214,-0.893862612
215,-2.443276074
216,-1.745973995
217,-0.748433999
218,-3.40988365
219,-1.286641401
220,-0.74496925
221,3.054777271
222,-3.415780672
223,-1.838024425
224,-2.139673995
225,-0.988775004
226,-2.287834549
227,-1.290539938
228,-0.839018873
229,-0.439722209
230,-0.544969055
231,-0.742642699
232,-2.773042337
233,-0.988762524
234,-0.988762524
235,-2.529002094
236,-1.973244331
237,-2.786526189
238,2.099960769
239,-1.149963291
240,-0.169102506
241,-1.265455004
242,-1.277503389
243,0.969584513
244,-0.645673751
245,-1.36744627
246,1.273512299
247,-2.871459709
248,3.023096
249,1.081417568
250,-2.497882894
251,-0.94958045
252,-3.006272122
253,0.043867467
254,0.478052426
255,-2.666203008
256,-0.587380579
257,0.643824979
258,-0.663950263
259,-1.662902523
260,-1.359022837
261,-1.300658595
262,-1.888608344
263,1.636290535
264,-1.060687004
265,-2.697643671
266,-1.460601518
267,3.054777271
268,-2.775431844
269,1.709111761
270,-1.978914879
271,-2.085275785
272,-0.252734211
273,-1.102531454
274,-2.66583075
275,-3.032867463
276,-0.597961059
277,-1.61659298
278,2.099960769
279,2.099960769
280,-1.270069786
281,-2.8146812
282,-0.375598832
283,-1.169046603
284,-0.394207305
285,-2.977954412
286,-1.466208872
287,-1.795712607
288,0.358335837
289,-0.852725707
290,-0.751730895
291,3.51347392
292,-2.774434153
293,-2.051066128
294,0.266773917
295,1.92433647
296,-1.517577186
297,-0.520470811
298,-0.0211123
299,-1.124529218
300,-2.230826485
301,-0.024236498
302,-2.419739649
303,-0.491751212
304,-0.083476331
305,0.087613278
306,-1.596449104
307,0.581035698
308,-0.875346372
309,0.306680139
310,-1.793193769
311,-0.0070399
312,1.804662575
313,-1.636500881
314,-0.953213879
315,3.827791852
316,-0.463884494
317,-3.117007125
318,-2.079273133
319,-1.468077912
320,-3.412020066
321,-2.999928517
322,-0.679050327
323,-2.66583075
324,-1.825905924
325,1.310637918
326,2.343991124
327,-1.473315906
328,-3.337525435
329,-2.732383106
330,-0.95839404
331,-2.358062007
332,-1.23549914
333,1.309374089
334,-1.003939747
335,-2.052475927
336,0.551463434
337,-0.893862612
338,-1.376532262
339,-0.81548579
340,-1.614454536
341,-2.758131941
342,-0.559903369
343,-0.686462553
344,-1.273859696
345,-2.975940449
346,-0.253549853
347,-1.467230506
348,-2.787180489
349,-1.235358405
350,-2.22120739
351,-0.684083537
352,-2.743819483
353,-0.544246801
354,-3.424940021
355,-2.22355233
356,-3.185514546
357,-2.411639248
358,-0.363006522
359,0.537542551
360,-2.827981223
361,-1.099374683
362,-1.360533596
363,-2.520004421
364,-2.696320612
365,-3.328783418
366,0.014254414
367,-0.363935249
368,-2.995566896
369,-2.148236052
370,-1.013082694
371,0.576123522
372,0.365720171
373,-2.99141101
374,2.453397549
375,-3.953861269
376,0.187060444
377,2.424460967
378,-3.599919183
379,-3.721765056
380,-0.588659055
381,-2.42825493
382,-1.975901079
383,-1.068233086
384,-1.768199467
385,-1.411674951
386,-2.722033138
387,3.663035045
388,1.830446776
389,-1.387777661
390,-2.625093332
391,-2.356901671
392,-1.808340228
393,-2.676466239
394,3.095410179
395,-0.665031059
396,1.804662575
397,-0.786763386
398,-1.533984977
399,-1.183501297
400,0.734483094
401,1.944734185
402,0.52663952
403,-1.885537451
404,1.462388144
405,-2.497882894
406,-1.638619187
407,-0.571583294
408,-2.256677546
409,-2.720332581
410,-0.338068339
411,-2.620957658
412,-2.693484822
413,-1.280891133
414,-2.704832417
415,-1.673116337
416,-1.310621546
417,-3.530676079
418,-0.812546818
419,-0.342742506
420,-2.576636996
421,-1.594730033
422,-0.554045262
423,1.561096586
424,-1.291557078
425,-2.132507185
426,-0.293022053
427,-1.142395196
428,0.269270483
429,-2.06950922
430,3.007837778
431,-0.736520607
432,-2.699476965
433,-3.001319731
434,-1.387508558
435,-1.519534436
436,1.009315554
437,-1.961118176
438,0.458779654
439,-2.256677546
440,3.093934964
441,-2.737910219
442,-2.928687262
443,-2.636448477
444,-2.190363114
445,-2.288975607
446,-2.02574849
447,0.81046286
448,-1.186017715
449,-2.648527106
450,-2.369932255
451,-1.122299375
452,0.320730534
453,0.087613278
454,-1.94722053
455,-2.644451784
456,3.521296696
457,-1.33166024
458,-2.487685537
459,-1.984797658
460,-0.953213879
461,-0.728116165
462,-0.965316273
463,-1.35641204
464,-0.008616018
465,-0.708328929
466,-1.021727206
467,-2.91549116
468,-0.973563006
469,-3.089544089
470,-3.166976568
471,0.442634734
472,-1.609355021
473,1.853080444
474,3.094386167
475,-2.495419704
476,-2.322337573
477,2.643980763
478,-2.164004057
479,-1.827602196
480,0.195096986
481,-2.014875452
482,-2.277342757
483,-0.453342321
484,-0.213664319
485,-3.185514546
486,-2.575147243
487,-2.737910219
488,-1.168293251
489,-2.221271545
490,2.117729147
491,-2.046669947
492,-2.356984902
493,-2.92480002
494,-2.499343071
495,-0.716651544
496,-1.466469992
497,0.23286055
498,0.886983749
499,-0.598887505
500,-2.142744666
501,-0.622411337
502,-0.859037989
503,1.50855062
504,-1.131613003
505,0.424178698
506,-1.411717688
507,1.716693477
508,2.073512387
509,-0.14645491
510,-0.990841957
511,-0.284503571
512,-2.686408524
513,-1.844126546
514,-1.866933806
515,3.069901035
516,-3.073265082
517,-0.70266013
518,-0.72237621
519,-1.629057178
520,-1.273859696
521,-0.857433993
522,-1.510145757
523,2.834098994
524,-1.91436985
525,-0.720120094
526,-0.817389367
527,-3.185514546
528,-1.733119549
529,-3.298630913
530,-1.943491291
531,-2.497948906
532,-2.309886155
533,0.561789236
534,-1.123872002
535,-2.202077143
536,-0.509335001
537,-1.184145185
538,-1.393532939
539,-0.843252489
540,-0.413275619
541,-0.480473156
542,-1.088731951
543,-2.427719391
544,-1.354142898
545,-1.59181924
546,1.187376557
547,-3.436961719
548,-1.338342761
549,-0.452233762
550,-0.846754186
551,0.058978358
552,-2.520004421
553,1.446386334
554,-1.076908934
555,-2.981405095
556,-2.752496495
557,-1.355790849
558,-0.011481332
559,-2.974691052
560,1.483390498
561,-1.473315906
562,-0.4711503
563,2.708815588
564,-0.232491815
565,-0.807646948
566,1.519256443
567,0.43514577
568,-1.301333102
569,-2.497948906
570,-2.286117407
571,-2.92480002
572,-2.161837137
573,-2.184426802
574,0.62751094
575,-1.10939067
576,0.551463434
577,3.072377368
578,-1.312603612
579,2.410533333
580,-1.476270466
581,1.894509256
582,-0.723298069
583,2.848978236
584,-3.939060794
585,0.058978358
586,3.121400176
587,1.483390498
588,-1.463037087
589,-1.610249116
590,-3.575170958
591,-0.408315342
592,-1.731827825
593,-2.510501005
594,-1.154997187
595,-0.273020032
596,3.238774743
597,-0.598390591
598,-1.134466238
599,0.146350743
600,-1.943701365
601,2.158016425
602,3.338408493
603,-1.617992043
604,-2.793226853
605,-0.395913212
606,2.064370742
607,-0.90348499
608,-0.409114139
609,-0.32351841
610,-3.850427291
611,-0.284251012
612,-0.876677712
613,-0.626131714
614,-3.642316542
615,-1.953408929
616,-2.922234353
617,-0.934475174
618,-2.411639248
619,2.11726028
620,-0.288692512
621,-0.757561489
622,1.34727261
623,-1.35641204
624,-3.027323587
625,-3.032867463
626,-1.980351044
627,-1.277833432
628,1.280543425
629,-3.240030616
630,-0.544246801
631,-0.990841957
632,-1.324830018
633,-3.648490056
634,1.445014053
635,0.207074756
636,-3.185514546
637,-2.770590646
638,-1.819762065
639,-0.982832555
640,-0.363006522
641,-2.173537632
642,-2.650902692
643,-1.745340114
644,-2.071693923
645,-3.630335351
646,-1.644795219
647,3.118340908
648,-2.393992796
649,-2.358062007
650,-1.975901079
651,-0.97669222
652,-0.267229243
653,-1.027994932
654,-3.527708458
655,-3.599919183
656,-2.260990674
657,-1.479786516
658,-1.136234711
659,-0.027853693
660,-1.950295003
661,-2.526958597
662,-1.143447825
663,3.213145577
664,-4.132985303
665,-1.776856535
666,-2.640469574
667,-1.878598116
668,-2.820440322
669,-0.843313634
670,-0.654192809
671,-0.878668561
672,0.830371397
673,3.763328631
674,-1.724085492
675,-2.977566333
676,-1.833788474
677,-0.239505236
678,-1.058589351
679,-2.375355516
680,0.024297862
681,-2.696708142
682,-2.190363114
683,1.877288571
684,-1.129178513
685,-2.396422765
686,1.07238984
687,0.734147827
688,-1.316405701
689,3.521296696
690,-0.084375155
691,3.007837778
692,-0.728361718
693,-0.435947209
694,1.728162106
695,-2.164004057
696,1.829629943
697,0.584695724
698,-0.072853578
699,-0.150039595
700,-1.825052448
701,-1.054029754
702,-3.044150723
703,-1.419337997
704,-2.419138098
705,-1.494771602
706,-1.274029958
707,-1.536378344
708,1.163541378
709,-1.781990567
710,-2.052475927
711,-2.848297478
712,-2.198150525
713,-0.839018873
714,0.838225377
715,-0.307385427
716,-0.286970937
717,-0.844304112
718,-0.133505655
719,-1.924775916
720,-1.337270126
721,-1.954683812
722,0.150348206
723,0.270543231
724,1.769123492
725,-3.122592746
726,-2.720552149
727,3.688954585
728,-2.700304508
729,-2.910450272
730,-0.70266013
731,-0.692522194
732,0.11117319
733,-0.50402892
734,2.157729617
735,-1.359983332
736,-2.208411335
737,-3.566976366
738,-0.499125596
739,-0.913490799
740,-2.160649115
741,-0.894512605
742,-1.735472249
743,0.024297862
744,-0.816229998
745,1.343059231
746,-2.696708142
747,-2.49283009
748,-1.606835332
749,-1.865411649
750,-1.241273512
751,1.360051465
752,3.238774743
753,-2.617279071
754,-1.713611175
755,0.602105476
756,-0.622411337
757,-1.451056147
758,-3.044116545
759,0.608916103
760,-0.866952918
761,-2.889677052
762,-2.249960232
763,-0.073072146
764,-0.600620713
765,-2.845877808
766,-1.758178386
767,-0.216102685
768,-0.907956415
769,-0.925412169
770,-1.486193296
771,0.198484831
772,-2.747129415
773,-1.803844979
774,-1.832447008
775,-2.605577583
776,-2.027565324
777,-0.080598093
778,-3.300649955
779,-1.166172844
780,1.736281463
781,-1.175211947
782,-1.433805871
783,1.829629943
784,1.829629943
785,2.095491475
786,0.458779654
787,-0.274729757
788,-2.847199789
789,-2.671294791
790,-2.518271599
791,-0.823386723
792,-2.5883346
793,-2.22120739
794,-1.966978821
795,-2.227433736
796,-1.474212227
797,-1.509358045
798,-2.22865841
799,-0.414259631
800,-2.113891751
801,-1.896535649
802,-1.352031489
803,-3.2054456
804,-1.286262211
805,-0.378725607
806,-0.87830251
807,-1.791456674
808,-0.965316273
809,-0.456616765
810,-1.651967767
811,-2.554659095
812,-1.54396947
813,1.171866355
814,-3.278382075
815,3.201264992
816,-2.520004421
817,-1.29707506
818,-3.052320754
819,-0.994011561
820,-0.357878211
821,-2.9560396
822,-3.566976366
823,-1.818569411
824,2.643980763
825,-0.155283352
826,-0.626131714
827,-2.145864654
828,0.458779654
829,2.827914138
830,-0.536081647
831,-1.002591872
832,-0.329736144
833,-1.966978821
834,-1.750586515
835,-1.435101862
836,0.566679692
837,0.220259321
838,-0.077385562
839,-2.086862622
840,-1.4959349
841,-1.554936498
842,0.441965732
843,-1.768199467
844,-0.208226536
845,-1.372550148
846,-0.852725707
847,-1.58404263
848,0.680936738
849,-0.652085838
850,-0.977529098
851,-1.202845063
852,-0.758844023
853,-0.200145021
854,-2.827981223
855,-2.155076206
856,-0.72525637
857,-1.056971458
858,3.338408493
859,0.869557355
860,-0.41664233
861,-2.945999555
862,-0.390310641
863,-2.187451477
864,-2.528585287
865,-3.282269052
866,-1.832447008
867,-1.805683338
868,-3.071824536
869,-2.258777276
870,-2.558774515
871,-2.263129925
872,-2.553952436
873,-2.116122275
874,-2.397582003
875,-0.59892254
876,-0.991837358
877,-2.365832882
878,-0.569080042
879,-1.695339358
880,-1.644795219
881,-2.548945586
882,-0.481388916
883,3.32096644
884,-0.410721019
885,-3.710188601
886,-1.045480901
887,-2.746373796
888,-2.316898505
889,-1.329574337
890,-2.286117407
891,-2.92480002
892,-2.087479533
893,-1.469605073
894,-2.859132453
895,-0.676180453
896,-2.390803265
897,-3.391724015
898,-0.857471725
899,-0.885882039
900,-1.134466238
901,-2.515420633
902,-1.037119672
903,-1.625827438
904,-1.421562464
905,-1.019788135
906,-1.088568327
907,-1.531118449
908,0.675865733
909,-0.078257689
910,-1.39064023
911,-2.401507395
912,-1.097280997
913,-0.965316273
914,-1.67901212
915,0.814987414
916,-1.571148001
917,-0.404514365
918,-0.092556048
919,3.356524575
920,-3.042058347
921,3.085744698
922,-1.324830018
923,-1.841234276
924,-1.868458956
925,-1.312238996
926,-1.071768036
927,-2.179793768
928,1.84972773
929,-0.054181127
930,-0.588659055
931,-2.89652709
932,0.111375227
933,-1.043807179
934,0.844439428
935,-2.243361306
936,-2.433636687
937,-2.433636687
938,-1.490053241
939,-0.412300089
940,-0.499125596
941,2.431047146
942,-3.577415694
943,-0.310195038
944,-0.661045047
945,-0.083200473
946,-2.183902137
947,-0.816229998
948,-2.356984902
949,-2.288975607
950,0.525051755
951,-0.49599982
952,-1.550733409
953,-1.596720647
954,-0.077385562
955,-0.892742667
956,-1.271324854
957,-1.976952368
958,-1.180428591
959,2.360217457
960,-1.425549351
961,-1.019788135
962,2.474996496
963,0.074337323
964,0.155503244
965,-0.59911435
966,-2.392228858
967,-0.463884494
968,-1.882518703
969,4.384762499
970,-0.728361718
971,-1.922123925
972,-3.23412451
973,-0.045732555
974,-3.040180525
975,1.335662433
976,-1.182716869
977,0.235456333
978,-3.220996779
979,-3.210883418
980,-0.572902948
981,-0.287531323
982,-0.45222109
983,-0.676464772
984,-1.763722981
985,-1.471086263
986,2.167613819
987,1.112368237
988,-0.394207305
989,-3.203900891
990,-2.175515061
991,-2.39885491
992,-1.560566378
993,-1.504108343
994,-1.411717688
995,-0.081703105
996,0.970763911
997,-2.065663193
998,-0.821244922
999,-0.821244922
1000,-2.166264477
1001,-1.631992468
1002,-3.733453079
1003,-0.155525629
1004,2.112832203
1005,1.782630622
1006,-0.676265942
1007,1.144566054
1008,-3.897002218
1009,-1.421021262
1010,-3.131222051
1011,-1.818569411
1012,-0.293397714
1013,-1.6086476
1014,-1.537432197
1015,-3.310231023
1016,-2.544770351
1017,3.251328762
1018,-1.606835332
1019,-0.581097596
1020,-1.136234711
1021,-0.976422474
1022,-0.937481942
1023,-3.169873061
1024,-0.059298632
1025,-1.504439638
1026,-1.314045637
1027,-2.498124913
1028,3.46988133
1029,1.831475907
1030,-2.39987057
1031,-3.35951444
1032,-1.809307019
1033,-1.714689719
1034,-2.831381661
1035,-0.644415891
1036,1.766710472
1037,-0.822384922
1038,-1.130906722
1039,-2.258777276
1040,-3.239402016
1041,-2.058785402
1042,3.414311421
1043,-0.839882711
1044,-0.528854926
1045,-3.241335748
1046,-3.481522953
1047,-1.698143809
1048,-2.937313566
1049,2.426838263
1050,-3.829428083
1051,-3.107500064
1052,-2.09629865
1053,3.108338893
1054,-1.373379455
1055,2.868447919
1056,-1.950295003
1057,-1.631992468
1058,-1.567758626
1059,-3.423917231
1060,1.3342752
1061,1.166841848
1062,-1.818373765
1063,1.661082863
1064,-2.28924812
1065,0.844439428
1066,-1.610249116
1067,-3.578821235
1068,-1.631833526
1069,-1.479786516
1070,-0.139413508
1071,-2.281210383
1072,-1.611743584
1073,-1.39557858
1074,-2.147700973
1075,-0.619035107
1076,-1.841234276
1077,-3.302470396
1078,-1.836386075
1079,-2.092104977
1080,-0.974531982
1081,-1.478748531
1082,-3.017430637
1083,-3.615847171
1084,-3.710895041
1085,0.193833811
1086,1.267310889
1087,1.267310889
1088,-3.421612767
1089,-1.609201229
1090,2.595810691
1091,-3.391724015
1092,3.09463921
1093,-1.594330368
1094,2.892018043
1095,-3.172274665
1096,-2.074422021
1097,-3.359402362
1098,-1.533168688
1099,-3.721765056
1100,-3.912979561
1101,-3.404969452
1102,2.836189663
1103,1.552925739
1104,-0.50386203
1105,-2.184426802
1106,-1.773422639
1107,-1.290539938
1108,-1.728364773
1109,-2.935339033
1110,-2.163061832
1111,-1.573523973
1112,1.848385485
1113,-2.998122063
1114,-2.44058864
1115,0.68029988
1116,-3.426228566
1117,-0.816364397
1118,-0.018932227
1119,0.38682806
1120,-1.688411645
1121,-0.572696963
1122,-1.285379015
1123,0.620604796
1124,-2.781199176
1125,2.293212624
1126,-2.901369648
1127,2.643980763
1128,3.175989096
1129,-2.582675468
1130,-2.917699832
1131,-2.870171561
1132,-2.911879507
1133,-2.355873606
1134,-1.848743249
1135,-1.533565329
1136,-1.048482254
1137,-0.370482672
1138,-2.516521132
1139,-2.652466863
1140,1.086354723
1141,-1.263577862
1142,-0.629453682
1143,0.93551003
1144,-0.876783597
1145,-0.407207233
1146,0.541836519
1147,-2.408377406
1148,4.418524185
1149,-1.275103883
1150,-1.495239819
1151,0.31048112
1152,-0.279729012
1153,-1.176383258
1154,-1.498412794
1155,-2.686408524
1156,-1.758887238
1157,-1.184120441
1158,-2.957107459
1159,-1.199198179
1160,-1.076908934
1161,-2.680408848
1162,0.67356871
1163,-2.259258301
1164,0.785106253
1165,-1.285005779
1166,-0.99781142
1167,-2.747943229
1168,-1.299432831
1169,-2.297228182
1170,-0.643964943
1171,-2.213901364
1172,-2.826871269
1173,-1.341265063
1174,-2.915998533
1175,-2.772485213
1176,-2.72681622
1177,-0.655796885
1178,-2.200925101
1179,-2.704832417
1180,-0.854193538
1181,-1.447554807
1182,-2.466144238
1183,-0.774884134
1184,1.086354723
1185,-2.110039375
1186,1.360051465
1187,2.414375893
1188,-0.652665255
1189,-1.226838793
1190,-1.934393531
1191,-2.468415755
1192,-1.289263278
1193,-1.875463332
1194,-1.736502379
1195,3.204540844
1196,3.096239559
1197,-1.449874488
1198,-0.536046136
1199,-1.233876685
1200,2.223817974
1201,2.771563491
1202,-0.591642161
1203,-2.416983099
1204,-2.391751312
1205,-0.434278649
1206,-0.40213256
1207,0.491159898
1208,-0.612829198
1209,0.050411591
1210,-2.495419704
1211,-2.928320992
1212,-2.452216403
1213,-2.03972317
1214,-1.117419804
1215,-1.82855545
1216,-1.455882077
1217,-2.145864654
1218,-1.755957523
1219,-2.425359586
1220,-1.925792956
1221,-3.244070219
1222,-1.99025891
1223,-1.320832643
1224,-0.655796885
1225,-1.319997504
1226,-2.477475926
1227,2.057298927
1228,0.93551003
1229,-0.752338967
1230,-1.608742315
1231,-1.709475204
1232,-1.605179608
1233,-2.866596094
1234,1.350044081
1235,-2.63524717
1236,-2.22865841
1237,-1.885303359
1238,-1.58274032
1239,0.067077191
1240,0.358335837
1241,-1.903682057
1242,-1.448182716
1243,-1.290569246
1244,-1.235599529
1245,-1.471177347
1246,-0.513985104
1247,-1.694601685
1248,-2.34162157
1249,-1.962218976
1250,-2.537544159
1251,1.228073071
1252,2.117527247
1253,0.154087174
1254,3.20528384
1255,-1.428957561
1256,2.653528966
1257,-2.923342932
1258,-2.554616492
1259,-2.213938448
1260,-0.454734529
1261,-1.251639816
1262,2.612990494
1263,-2.130828555
1264,-3.063173742
1265,-1.927271777
1266,-1.052127769
1267,-1.033190259
1268,-2.605574187
1269,-2.3774603
1270,-3.031913266
1271,-3.031913266
1272,-2.631564777
1273,-2.208411335
1274,0.425299533
1275,-1.387085673
1276,-1.398464314
1277,1.902927746
1278,-1.448866215
1279,-1.934166532
1280,-1.522568776
1281,-0.467256164
1282,-1.6086476
1283,-1.746478533
1284,-1.495942461
1285,-1.277833432
1286,1.03588644
1287,-1.672013854
1288,-2.732383106
1289,-2.110214446
1290,-1.645617814
1291,-1.901703164
1292,-2.158917052
1293,-2.778032873
1294,-1.007222314
1295,-1.7562339
1296,-1.51333385
1297,-2.633489069
1298,-2.499262143
1299,-3.426228566
1300,2.283554788
1301,-2.927254173
1302,-1.460505107
1303,0.00092535
1304,-1.999180075
1305,3.245909043
1306,3.065480893
1307,-2.455191487
1308,-0.70276709
1309,-0.981050582
1310,-0.178890452
1311,-0.977412053
1312,-0.515281586
1313,-2.390878237
1314,-0.251531336
1315,-1.537178093
1316,-1.72057398
1317,-2.062824492
1318,-1.663021043
1319,-2.987175002
1320,2.768982193
1321,-0.685942686
1322,-0.757571527
1323,-2.487734907
1324,1.804662575
1325,-1.676057288
1326,-2.796143547
1327,-2.03254611
1328,-2.897312209
1329,-2.636023508
1330,-1.571148001
1331,-0.081778802
1332,-2.358657455
1333,-1.732833437
1334,-1.993985676
1335,-3.248421269
1336,-1.969152259
1337,-2.330461259
1338,-2.904063756
1339,-2.094187457
1340,-0.716766998
1341,-1.588857504
1342,-0.948549293
1343,2.878789112
1344,-1.339979343
1345,-0.994016563
1346,-2.621226043
1347,-1.070579531
1348,-2.19184368
1349,-2.409366008
1350,-2.309908335
1351,2.971664519
1352,-2.251342277
1353,2.245336441
1354,1.457847514
1355,-1.90538312
1356,-3.833789539
1357,-1.20130199
1358,-2.433636687
1359,-1.617634846
1360,-1.97856993
1361,0.214492852
1362,-1.708408936
1363,0.24387331
1364,-0.941600561
1365,-1.574130829
1366,-1.6086476
1367,-2.261115892
1368,-3.23365921
1369,-1.171723087
1370,-1.698727182
1371,-2.254601811
1372,-0.972626178
1373,-2.540254814
1374,-2.444554592
1375,-3.385821087
1376,-1.193354251
1377,-2.576288546
1378,0.014254414
1379,-1.271643288
1380,-3.509142727
1381,-3.165062161
1382,-2.14125574
1383,-1.045892957
1384,0.470667267
1385,-2.054558219
1386,-2.953053857
1387,-1.570914942
1388,-2.518271599
1389,3.358372454
1390,-0.80347681
1391,-1.367746402
1392,3.116871221
1393,-1.027603463
1394,0.523265031
1395,-2.233270921
1396,1.6963033
1397,-2.647753515
1398,-0.329035575
1399,-1.778390577
1400,-0.920298057
1401,-1.917640627
1402,-2.314785053
1403,1.925382505
1404,-1.30948829
1405,-1.602623959
1406,-2.449340963
1407,-2.269240628
1408,-1.124529218
1409,-0.648831285
1410,-1.375474155
1411,-1.044924258
1412,-0.498555216
1413,-0.935274217
1414,2.517551649
1415,2.223085112
1416,0.680628995
1417,-0.482542197
1418,-2.112557147
1419,-1.916532411
1420,0.78605145
1421,0.404977901
1422,-0.499838509
1423,-0.883799922
1424,-1.594666881
1425,0.349993845
1426,0.105002817
1427,-2.482310665
1428,-2.387139362
1429,-1.815886571
1430,-1.554936498
1431,-2.078187801
1432,-2.098118772
1433,-2.6510737
1434,-0.615971982
1435,-2.215825723
1436,2.360217457
1437,2.11726028
1438,-0.824477869
1439,-1.207347529
1440,-2.658515027
1441,-2.420321413
1442,-1.791486267
1443,-0.365344882
1444,-1.240986721
1445,-0.590470598
1446,-1.795949851
1447,-1.755125006
1448,-1.504844204
1449,-0.843794407
1450,-1.174445595
1451,-1.959239026
1452,-2.171990654
1453,-1.865534902
1454,-0.44205247
1455,-0.531098802
1456,-1.919808939
1457,-0.863405888
1458,-2.076451529
1459,-2.189347667
1460,-1.943805127
1461,-2.175903118
1462,-2.258287401
1463,0.498160917
1464,-3.60171002
1465,2.823577248
1466,0.327809695
1467,-2.64654133
1468,-2.157667974
1469,-0.899600352
1470,-0.354576615
1471,0.591166798
1472,-1.940173534
1473,-0.954086262
1474,-0.968832193
1475,-1.88590768
1476,-1.844664759
1477,-1.472040428
1478,-0.042490677
1479,-1.483324903
1480,-2.785440856
1481,-1.64581765
1482,-2.832613776
1483,-0.401732632
1484,-2.644464566
1485,-1.967656296
1486,-1.839347029
1487,-1.979054749
1488,-1.707754679
1489,-3.390863641
1490,2.275194419
1491,-1.631603388
1492,-2.855983662
1493,-0.9017294
1494,-2.635747865
1495,-1.23850677
1496,0.014213322
1497,-0.787193394
1498,-2.830515236
1499,-3.338903149
1500,-1.394380841
1501,-2.030935357
1502,-0.807409923
1503,-1.343967217
1504,-2.130147552
1505,-3.008183062
1506,-2.179793768
1507,-1.928165097
1508,-1.566401088
1509,-1.578608981
1510,-2.05953706
1511,0.407204636
1512,-2.89652709
1513,-1.071920799
1514,-2.990959233
1515,-1.499881437
1516,1.853080444
1517,-2.092104977
1518,-1.258473439
1519,0.666767253
1520,-2.680408848
1521,-2.369970279
1522,-2.631564777
1523,-1.120577162
1524,-1.603430049
1525,-1.655015336
1526,-1.179770675
1527,-2.61243571
1528,-1.152102316
1529,-1.814096652
1530,0.395035819
1531,-2.081805364
1532,-1.078030439
1533,-1.185125243
1534,-1.463037087
1535,-1.791557523
1536,-1.303191588
1537,-1.50138949
1538,-0.07088746
1539,-0.4711503
1540,-1.13021307
1541,0.124957682
1542,-0.841147742
1543,-1.644795219
1544,-1.956996808
1545,-0.072853578
1546,-1.434675934
1547,-1.543585671
1548,-2.085591518
1549,-1.726810737
1550,-1.509481336
1551,-1.922925507
1552,-2.013219062
1553,-3.244646682
1554,-1.376304114
1555,0.401284451
1556,-1.834632894
1557,-2.891059776
1558,-2.098706778
1559,-1.044192659
1560,-3.087343507
1561,-1.549033393
1562,-2.538535766
1563,-0.083200473
1564,-2.450215574
1565,-1.063383831
1566,-1.178707846
1567,1.875616433
1568,-3.238351882
1569,0.097680183
1570,-1.091204181
1571,1.167425592
1572,2.783692235
1573,-1.659533344
1574,-2.221128427
1575,-2.833091798
1576,-2.900447454
1577,-3.073296245
1578,-2.40469356
1579,-3.977133861
1580,2.167613819
1581,1.406739292
1582,-1.027603463
1583,-4.204281606
1584,-1.786529138
1585,-1.791020847
1586,-4.27547684
1587,-2.494613287
1588,-2.642405537
1589,-1.656398987
1590,-4.043763655
1591,-3.49698234
1592,-2.750417339
1593,-1.427265319
1594,3.165531784
1595,-1.217492853
1596,-0.417117224
1597,-1.802586653
1598,-3.502494361
1599,-2.308697286
1600,-2.471031781
1601,-0.637645279
1602,-1.083793291
1603,-1.574619646
1604,-2.474519125
1605,-1.854498662
1606,-1.762927471
1607,-2.569486156
1608,-2.361776923
1609,-0.90857204
1610,-0.921654313
1611,-1.687342389
1612,0.250193381
1613,0.126758136
1614,-1.772568817
1615,-3.711750943
1616,-1.501803669
1617,-2.456859014
1618,-0.750013869
1619,-2.152966107
1620,-1.002141495
1621,-1.993185344
1622,-1.501712617
1623,-0.450677738
1624,-2.180502963
1625,-0.249336251
1626,-2.175903118
1627,-1.590823001
1628,-0.885161981
1629,-2.20698207
1630,-0.899600352
1631,-1.532699086
1632,-1.101091372
1633,-1.884571603
1634,-2.712974093
1635,-2.894870326
1636,-0.073700763
1637,-1.496848376
1638,-2.270711393
1639,-1.841622039
1640,-2.245170846
1641,-1.558583185
1642,-2.648079514
1643,-2.061458724
1644,-1.128979784
1645,-1.791456674
1646,-1.696725415
1647,0.292703734
1648,-1.729694508
1649,1.690389151
1650,-1.927008045
1651,0.724480902
1652,-0.140210717
1653,-2.393393597
1654,-2.429160565
1655,-2.834727742
1656,-0.760736415
1657,-0.404514365
1658,-0.665666193
1659,-1.945610682
1660,-2.185558812
1661,-2.33046488
1662,-1.435862291
1663,3.141605646
1664,-1.86047765
1665,-1.251559328
1666,-2.254743873
1667,-2.752599641
1668,-1.533914002
1669,-3.695248455
1670,-3.991130567
1671,-2.339644071
1672,-4.249936673
1673,-4.395439947
1674,-0.694346581
1675,-1.703496431
1676,-2.35815726
1677,-3.589146254
1678,-2.361909023
1679,-1.884517592
1680,-2.184318163
1681,-2.666956977
1682,-3.068960735
1683,-2.590254683
1684,-1.66978754
1685,-2.271120214
1686,-1.696246686
1687,-2.809186848
1688,0.208722952
1689,-1.748878876
1690,-4.234533909
1691,-1.343967217
1692,3.223155418
1693,-1.587010385
1694,-0.536728804
1695,-1.629959665
1696,-0.802041688
1697,-1.403663549
1698,-2.486697131
1699,-2.505274507
1700,-1.811877974
1701,-0.416198685
1702,-0.108229493
1703,-1.172759403
1704,1.352070562
1705,-2.194135344
1706,0.302256006
1707,-2.52510338
1708,-1.470280314
1709,-1.81486199
1710,0.538921178
1711,-1.360716408
1712,-2.523771108
1713,-1.774735213
1714,-3.098021767
1715,-0.508024428
1716,-2.822149847
1717,-2.895936746
1718,-0.317164924
1719,-3.382639594
1720,-1.335262368
1721,-4.091109981
1722,-2.135241472
1723,-2.174243745
1724,-2.361985429
1725,-2.747736261
1726,-1.826837402
1727,-3.052535315
1728,-1.344251702
1729,-2.948528219
1730,-3.504725693
1731,-1.76400994
1732,-3.993403044
1733,-2.636850786
1734,-3.126906933
1735,-1.246779988
1736,-3.238484581
1737,-2.431807217
1738,-1.762383837
1739,-2.251662519
1740,-1.822203296
1741,-1.455882077
1742,-2.347536796
1743,3.175989096
1744,2.463539199
1745,1.951272842
1746,-1.65046434
1747,-0.889285108
1748,-0.702970202
1749,-0.907616604
1750,-2.261115892
1751,-2.023178909
1752,-3.27039248
1753,1.103860838
1754,-3.231091501
1755,-2.347822562
1756,-2.514882456
1757,0.100807109
1758,-2.515384528
1759,-2.625093332
1760,-2.928245113
1761,0.22076179
1762,-0.394207305
1763,2.11726028
1764,-1.977319772
1765,3.094138282
1766,-1.317372293
1767,3.094406058
1768,-0.863991265
1769,1.089655404
1770,-1.809307019
1771,-2.747129415
1772,2.223817974
1773,-0.195898488
1774,-3.319620177
1775,2.01808585
1776,-1.516608484
1777,-3.076262682
1778,-2.928320992
1779,-2.229211284
1780,-0.610873595
1781,-2.347536796
1782,-1.432936009
1783,-0.941859717
1784,1.53335675
1785,2.164627854
1786,-2.316506972
1787,-1.044760446
1788,-2.4623044
1789,-2.614116084
1790,-2.900447454
1791,-3.22930897
1792,-2.851166292
1793,-2.950065771
1794,-0.935274217
1795,-2.39885491
1796,-2.645446453
1797,1.227619988
1798,-2.173537632
1799,2.158016425
1800,-0.387495847
1801,-1.880006809
1802,-1.651967767
1803,0.239389731
1804,1.738988289
1805,2.890582843
1806,-2.807311569
1807,-3.239402016
1808,-4.378364959
1809,-1.605708428
1810,-1.81486199
1811,0.120218143
1812,-0.579363239
1813,2.028992038
1814,0.684941624
1815,-3.707350039
1816,-1.034643046
1817,-3.721765056
1818,-1.789047484
1819,-1.942539632
1820,3.094474872
1821,-1.208439323
1822,2.426838263
1823,0.076891223
1824,-2.188674486
1825,0.561789236
1826,0.561789236
1827,-4.763031375
1828,-2.570884613
1829,2.598309298
1830,0.10638722
1831,-1.618534333
1832,3.371197755
1833,-0.249336251
1834,-2.56058886
1835,-2.287834549
1836,-2.998376648
1837,0.690384661
1838,-1.396003801
1839,3.003831019
1840,0.32182821
1841,-1.39557858
1842,-0.903975292
1843,-2.561954528
1844,-2.17207602
1845,-1.357873147
1846,-0.540431199
1847,-0.045732555
1848,-0.787508095
1849,-2.000195901
1850,-3.760547434
1851,0.207074756
1852,-2.637091657
1853,-2.553952436
1854,-3.630335351
1855,-3.223126679
1856,1.793955055
1857,-0.092128816
1858,-2.56701941
1859,-3.184178775
1860,-1.839412021
1861,-2.398078581
1862,1.601536396
1863,-0.138061114
1864,-1.267012739
1865,8.278463532
1866,-1.504844204
1867,-2.779102739
1868,-0.539559048
1869,-2.03254611
1870,2.341237637
1871,-1.704855223
1872,1.001236916
1873,-1.166734467
1874,-3.408048103
1875,-1.512305141
1876,-1.138979666
1877,-1.247723831
1878,-1.321920608
1879,-1.209821839
1880,-2.255518923
1881,-1.498047627
1882,-3.890846444
1883,-1.005639793
1884,-3.300811109
1885,-2.083897438
1886,-1.099896846
1887,-3.233315362
1888,-2.562298283
1889,-3.508741209
1890,0.156507574
1891,-4.293603325
1892,-1.211257403
1893,-3.294169774
1894,-1.300948596
1895,-2.983261817
1896,-2.501917743
1897,2.128967357
1898,-4.073825266
1899,0.10638722
1900,2.419993952
1901,-2.94117214
1902,0.414240817
1903,-1.037119672
1904,3.160181821
1905,3.095184542
1906,-1.594330368
1907,-1.264533425
1908,-0.155525629
1909,-1.345475015
1910,3.684845584
1911,-2.169241008
1912,3.475072761
1913,3.339821736
1914,-1.180475494
1915,-3.490701244
1916,-1.321920608
1917,-2.153876951
1918,-1.101989041
1919,0.120218143
1920,-1.65046434
1921,-5.639688955
1922,-3.297835347
1923,-1.064407363
1924,-2.768368175
1925,-3.599340589
1926,-1.406537019
1927,-2.494613287
1928,-1.125681064
1929,-3.567397282
1930,-2.451678919
1931,-3.51120409
1932,-4.877418121
1933,-3.138606952
1934,-2.249936535
1935,1.085895357
1936,3.212003231
1937,-1.971146358
1938,-1.982508746
1939,-2.515422532
1940,-1.704397201
1941,1.895034659
1942,0.164676703
1943,-3.66234397
1944,-3.475180258
1945,-3.34488502
1946,-3.048496027
1947,-2.171911503
1948,-0.421584147
1949,-2.654468966
1950,-2.336369891
1951,-2.291647796
1952,3.116465489
1953,-5.133176786
1954,-3.533355156
1955,-4.461866285
1956,-2.784472383
1957,-2.730107725
1958,-3.165256476
1959,-3.180636906
1960,-4.872226334
1961,-2.979172496
1962,-2.805941365
1963,-3.755844375
1964,-1.429654102
1965,-1.621454786
1966,-2.834173047
1967,-2.256145376
1968,-2.267196752
1969,-3.050957436
1970,-3.736693688
1971,-2.853400274
1972,-3.980921693
1973,-1.852520027
1974,-0.97730065
1975,-4.129500398
1976,-3.255802197
1977,-2.430289392
1978,1.816757034
1979,-3.714112439
1980,-1.17055875
1981,-2.926741191
1982,-2.329568643
1983,-0.812546818
1984,-1.464446376
1985,-2.048267219
1986,2.52871038
1987,2.58896435
1988,-0.156662191
1989,0.058264463
1990,-1.299432831
1991,1.848385485
1992,-1.651322955
1993,-1.348457973
1994,-2.995566896
1995,-1.765825038
1996,-2.444406882
1997,-0.937481942
1998,-2.612485658
1999,2.326941509
2000,-2.580516386
