Id,Predicted
1,-3.5796792666002557
2,-1.4434091142326515
3,-3.2609633555906137
4,-3.2393251484406926
5,-1.9294640851417852
6,-3.4056790508110746
7,-3.2733633020477546
8,-2.4675559938375313
9,-2.2188273086382906
10,-3.9368871819571196
11,-3.813376711126012
12,-1.5676360823094404
13,1.9413002093618792
14,-3.463087440399238
15,-3.791405526678635
16,-3.088991890985647
17,-3.418665129030752
18,-1.7419861183549998
19,-1.2896064480823737
20,-2.039526428696445
21,-2.9820913102785656
22,-3.647515722601031
23,-1.4127235371944038
24,-2.675657981448217
25,-3.244478606237995
26,-3.1283827283990155
27,-2.074170537714245
28,-1.296277782983917
29,-2.888589092695981
30,-2.32460417981405
31,-2.2990019789297937
32,-3.9368871819571196
33,-3.2033921519337802
34,-3.50457024998447
35,-3.4976985480938096
36,-2.508205166102221
37,-3.9326297553449767
38,-3.2695797060603713
39,0.23807881314390184
40,-3.5764497250297747
41,-3.2033921519337802
42,-1.926240067036184
43,-3.7644116999846116
44,-3.4558624476367066
45,-3.4056790508110746
46,-3.385687273761852
47,-1.0830300774538557
48,-2.922854315816773
49,3.637672853195388
50,-2.9444749419633287
51,-3.088991890985647
52,-3.5893812079950353
53,-2.9697393433766304
54,-2.043636691343115
55,-3.322211738016903
56,0.2049580961813694
57,-2.2990019789297937
58,-4.226110059112983
59,-3.2033921519337802
60,-0.854736820154961
61,-3.25507105064558
62,-2.964003813844079
63,-2.8401995289491024
64,-4.0873403356207625
65,-2.843577009138677
66,-2.7935679864272798
67,-3.2895541943023257
68,0.48493067113054766
69,-3.9417463457026503
70,-2.05659560341556
71,-3.8728427086934674
72,-3.19601159890259
73,-3.0765440483504256
74,-2.964003813844079
75,-2.2368932120036793
76,-0.3978610970058788
77,-2.1449052297783813
78,-2.3068936689051274
79,-3.9290132919265925
80,-1.164470444249396
81,-3.5915158444307074
82,1.3294035073612191
83,-2.2618431786898574
84,-3.937644669458655
85,-2.370021074551785
86,-1.7277620747046916
87,-2.039526428696445
88,2.109806524449145
89,-1.5887714105589077
90,-3.228815090010332
91,-2.8243743653339837
92,-1.7277779207878132
93,1.2978539745492292
94,-3.840062783282962
95,-3.519687594239999
96,-2.060248424015362
97,-3.383480725501558
98,-3.6531363032215087
99,-3.4563654999936526
100,-3.945453296806837
101,-4.055220405631393
102,-0.6286683739880986
103,-3.603037277260803
104,-3.483440941633032
105,-2.348928872606172
106,-3.172435436385243
107,-2.868988405161484
108,-0.8705321684867249
109,-2.8492714624096234
110,1.1359827152402788
111,-3.4571367122474896
112,-1.987597977211011
113,-3.345109031823623
114,-3.668425199462448
115,-1.930355464235894
116,-2.6583894915247575
117,-3.6228018682824525
118,-1.847472072127234
119,-2.286814530395369
120,-2.3415193821868314
121,-2.060248424015362
122,-3.6683135177562174
123,-3.4232812040100207
124,-3.22258287729916
125,-3.50457024998447
126,-1.889549838764805
127,-4.281919052441688
128,-3.2316808252104945
129,-3.228815090010332
130,-1.49899539398652
131,-2.2188273086382906
132,-3.044158435533896
133,-3.2702437728996014
134,-3.3942585095463755
135,-2.8039835564097966
136,-1.1769417810313796
137,-3.1753261564403368
138,-3.403608192014493
139,-2.990929843849915
140,2.929062773371947
141,-2.4372644327503035
142,-3.628121658245878
143,-3.4571367122474896
144,2.8145057363853523
145,-2.9295905592017015
146,-3.930807065948702
147,-3.762942814173953
148,-2.805286061633411
149,-0.1992211733167673
150,4.024204419933141
151,-2.2850315561458157
152,-2.978946982268616
153,-3.3618272004834697
154,-2.9971228051635856
155,-3.753464785190247
156,-1.3725489600937668
157,5.436218642238943
158,-3.5915158444307074
159,-3.4832153504170944
160,-3.945453296806837
161,-3.943070600854223
162,-2.3722113981920234
163,-3.066282163614276
164,-2.125881669574056
165,-2.970593777755873
166,-1.7772647420917354
167,-2.9141962322068955
168,-2.585369355776569
169,-3.2699003877203747
170,-3.664649336645713
171,1.3702340626504674
172,-3.80305172874652
173,-3.090461558856291
174,-2.50197759396573
175,2.3662060898287733
176,-1.6976457867568884
177,-2.087118102222766
178,-2.087118102222766
179,-2.3282870489327347
180,-2.060248424015362
181,-1.573911490038811
182,-3.589060399151102
183,-0.0662603824097797
184,-0.1697536168984135
185,-3.6421062400737108
186,-2.533490872336861
187,-3.599766822960153
188,-2.73173442705053
189,-0.5200450338067517
190,-1.829260404308847
191,-2.9380660137704373
192,-1.6886342123648364
193,-2.370021074551785
194,-2.7108718534445417
195,-3.5814485787949213
196,-3.4490221322631163
197,-2.4398547423050165
198,-2.778809012485442
199,-3.214785812619664
200,-0.06735781469918194
201,-3.0418764021494042
202,-3.927981081333058
203,-3.43766152217262
204,-4.34056091323183
205,-3.191184627935117
206,-2.9124040822810198
207,-1.3973246067993603
208,-1.8647146306127054
209,-4.097104455320603
210,-2.5315051720144215
211,-0.9718552755701071
212,-3.273248997538718
213,-0.5419716954467135
214,-2.6568973425732385
215,-3.4372354835579513
216,-3.4563654999936526
217,-2.319229478624753
218,-3.8077584375377884
219,-3.0001464900529076
220,-2.481489401165992
221,2.875167128446195
222,-3.6267900859627185
223,-3.18812647378747
224,-3.2982745638936843
225,-2.0619248167377635
226,-3.172913944584667
227,-2.7613384520499573
228,-2.771385464713556
229,-2.0295241718780512
230,-1.9698764605359529
231,-2.286814530395369
232,-3.6229752320250346
233,-2.6401880413203416
234,-2.6401880413203416
235,-3.6310273462274996
236,-3.2218887316573133
237,-3.5962445669638385
238,1.7707599371284577
239,-2.8180506437679322
240,-1.6220528568010002
241,-2.7331383225573025
242,-2.764145490489554
243,0.28157672816354257
244,-2.5203220323611433
245,-3.4866536428601815
246,0.48493067113054766
247,-3.967295571276477
248,1.0062926126194436
249,-0.657603485449196
250,-3.4545316548202463
251,-2.31778325557321
252,-4.022605027917177
253,-0.854736820154961
254,-0.7807789400777196
255,-3.7111248373479535
256,-2.187505520014525
257,-0.42780470065069914
258,-2.3760805814129804
259,-3.2471300334198987
260,-2.719223039574459
261,-3.0017007001492817
262,-2.978946982268616
263,0.23807881314390184
264,-3.055431474467026
265,-3.0751639230922883
266,-2.7039821613865205
267,2.875167128446195
268,-3.6140125910782985
269,1.434467574221121
270,-4.0497721494457934
271,-3.9368871819571196
272,-1.732123240963803
273,-2.629593285378804
274,-3.8299299354217027
275,-3.610794137574495
276,-2.3555564947742798
277,-2.796712715374871
278,1.7707599371284577
279,1.7707599371284577
280,-3.0710593434723115
281,-4.080413359400629
282,-1.509237298102184
283,-2.451952672716752
284,-1.850556718893488
285,-3.838344682483237
286,-3.0591947587047326
287,-3.264496749804482
288,-1.203404937164376
289,-2.684079338545404
290,-2.092630320861307
291,4.024204419933141
292,-3.275909039440582
293,-3.2329692535414285
294,-1.2312061985988905
295,1.0918055690484558
296,-2.7933944802160475
297,-1.787985271285597
298,-1.3971268232738672
299,-2.1364547271075014
300,-3.2041290733626173
301,-1.9673848815155583
302,-3.509839357560341
303,-1.7539048012021763
304,-1.5236946636347035
305,-1.3036495432717354
306,-3.086464656193925
307,-0.3978610970058788
308,-2.73173442705053
309,-1.7484036750049186
310,-3.4890500051345112
311,-0.9276099387249962
312,0.5957299530714051
313,-2.735559768847778
314,-2.3593569174568296
315,3.2067424471230104
316,-2.320576307551988
317,-3.774988838111244
318,-3.3820881326155128
319,-2.8039835564097966
320,-4.612767891735077
321,-4.167450967076509
322,-2.1911488313145617
323,-3.8299299354217027
324,-3.100928563091019
325,0.911773768078813
326,1.798915800543519
327,-2.8662266998014863
328,-3.7376186027949565
329,-3.9815919267559887
330,-2.297385041646049
331,-3.3904877961081867
332,-2.533490872336861
333,0.1057106101696874
334,-2.6117476725371027
335,-2.9408747822018877
336,-0.7440468315683485
337,-2.6568973425732385
338,-2.3872029266387282
339,-2.187455405873874
340,-3.078777256698057
341,-3.28718416628005
342,-1.996175286030414
343,-1.6886342123648364
344,-2.6772470258824415
345,-4.636458351444156
346,-1.7874692127614351
347,-2.7108718534445417
348,-3.624043123480892
349,-2.2735520159082476
350,-3.4846707484279738
351,-2.0534648513822242
352,-3.927981081333058
353,-2.4667851714817224
354,-4.1285322798179225
355,-3.24766391721098
356,-4.242641773454669
357,-3.49927092303026
358,-1.689700099960648
359,-1.654463389037835
360,-3.774481360948149
361,-2.560695296872312
362,-2.976321543011698
363,-3.598386939863319
364,-3.9794661949074737
365,-3.7223003498706295
366,-0.8604252340801457
367,-1.5861980949053667
368,-3.9751476290769254
369,-3.4181237755834526
370,-2.556904543152127
371,0.18992035974646906
372,-0.9718552755701071
373,-4.088476858243698
374,1.6996233496189532
375,-4.460802143864367
376,-0.47699764841111103
377,1.2238438751053178
378,-4.674242753858827
379,-4.932839883734888
380,-2.6454861501335714
381,-3.264637151983499
382,-3.038701017517311
383,-2.601472808633748
384,-3.7130424894636582
385,-3.0772562848006273
386,-3.1753261564403368
387,3.841989641656842
388,0.3919187105792875
389,-2.7934819928577106
390,-3.664649336645713
391,-3.6123842256621943
392,-3.038381909832264
393,-3.762942814173953
394,2.512714226703438
395,-2.3536485644782976
396,0.5957299530714051
397,-2.5934833393336025
398,-3.0094488990552395
399,-1.9934366483023387
400,-0.5611114087821206
401,0.824843008033407
402,-0.8349588401606454
403,-3.9300612441265104
404,0.2732646686087767
405,-3.4545316548202463
406,-3.2762761677389727
407,-2.1248676506175395
408,-3.022665043215935
409,-3.851588172925322
410,-2.1986917006532045
411,-3.7563879143989096
412,-3.837667648860534
413,-2.8054658415575675
414,-3.8608920558678603
415,-3.138700433078087
416,-2.6419680273910875
417,-4.560462696449036
418,-2.033967619467925
419,-1.3735989068215182
420,-3.4915924594111556
421,-2.7878399998733983
422,-2.2332185581173394
423,0.7531590105303942
424,-2.866572807014974
425,-3.077533133900328
426,-1.3725489600937668
427,-2.5481981727833336
428,-1.315711158341135
429,-2.9545963854013864
430,3.060780107220617
431,-2.2772804527342525
432,-3.8331433474721246
433,-3.8205897135784435
434,-2.8597066834731812
435,-2.7494091825624807
436,-0.3054441789852046
437,-3.2701019056365017
438,-1.0908894672499996
439,-3.022665043215935
440,3.6126795809077072
441,-3.6713971543186594
442,-3.776161757481278
443,-3.773568567100268
444,-3.2638622070931085
445,-3.2798779124726476
446,-3.04688368337006
447,0.09648930253787394
448,-2.8400744863738825
449,-3.7020293734247307
450,-3.4325610076838093
451,-2.1814237487940336
452,-0.7942194088665943
453,-1.3036495432717354
454,-3.113568459883387
455,-3.1403121682896677
456,2.846098785803651
457,-3.306856078370881
458,-4.02795159156479
459,-3.6722272013369173
460,-2.3593569174568296
461,-1.8621888563484192
462,-2.1884320895292606
463,-2.744618124225871
464,-2.1053491870724685
465,-2.4070409033131313
466,-2.4166657754586174
467,-3.9381016685958903
468,-2.65285009069416
469,-3.5906107782069245
470,-3.9580448032005706
471,-1.134762490268519
472,-3.041479504603492
473,1.8979026691011929
474,4.541158827738529
475,-3.2746579820660466
476,-3.2433324818861196
477,1.6720743066509898
478,-3.5071991272185854
479,-3.042437157643736
480,-0.3225329150083649
481,-3.283745226074555
482,-3.4439364585264585
483,-1.758710385015992
484,-2.0392529139877396
485,-4.242641773454669
486,-3.997780625183828
487,-3.6713971543186594
488,-2.5948263875043707
489,-3.0871565409182615
490,1.5034445087322825
491,-3.0697351744738124
492,-3.3165998001771433
493,-3.916619585783815
494,-3.4714544880492593
495,-2.1835676881278157
496,-2.8092545582126025
497,-1.1255238512915786
498,-0.31786255856198165
499,-2.7620896714872356
500,-3.8630834702270476
501,-2.3174565320560876
502,-2.6253760221108253
503,0.07482580575807404
504,-2.809911733541629
505,-0.42128795414997305
506,-2.9124040822810198
507,0.3954517594058195
508,1.066845160691121
509,-1.829260404308847
510,-2.007961874399164
511,-2.102109577926658
512,-3.775973656474675
513,-3.1815682439319715
514,-3.334076298075527
515,3.2823680718589334
516,-3.982682947448482
517,-1.9862676519004496
518,-2.0536756984955296
519,-3.4589575497902914
520,-2.6772470258824415
521,-2.572386361259243
522,-3.079220880181827
523,2.8145057363853523
524,-3.1350271397554375
525,-1.93800857410912
526,-2.4419467241647648
527,-4.242641773454669
528,-3.0682419028642856
529,-4.4039334930415155
530,-3.1627469205072396
531,-3.4880924072496464
532,-3.1229569197728124
533,-0.5691447361619789
534,-2.405809339461047
535,-3.1789232824271467
536,-2.2154235610651445
537,-2.893114296709322
538,-3.0183530778877645
539,-2.107790645351536
540,-2.054777972595793
541,-2.203041257693359
542,-3.0332284864937953
543,-4.2611988811314845
544,-3.0777571509113746
545,-2.863976013972025
546,-0.35937505147518656
547,-4.058183349760725
548,-2.8514094540699073
549,-0.7801453404414775
550,-2.7379566089518086
551,-1.4127519101263504
552,-3.598386939863319
553,1.4425103425330499
554,-2.1135649814378463
555,-3.6291510144929706
556,-4.055220405631393
557,-2.3722113981920234
558,-1.4473888879099421
559,-4.19877067958158
560,-0.14974675661343143
561,-2.8662266998014863
562,-0.7981695165487146
563,1.883309968884323
564,-1.0491362904543415
565,-2.31365727531608
566,0.8279306584977024
567,-1.1846290804334771
568,-2.8090986737695505
569,-3.4880924072496464
570,-3.3010072637026124
571,-3.916619585783815
572,-3.3695672912921015
573,-3.3656685765938072
574,-0.547043273726618
575,-2.384132451084386
576,-0.7440468315683485
577,2.221837788300478
578,-3.0773507812460763
579,1.0459876365644678
580,-3.272109375378
581,2.283710561622315
582,-1.9394862632509267
583,1.119940406179082
584,-4.80123572608054
585,-1.4127519101263504
586,1.3320432483217302
587,-0.14974675661343143
588,-2.8948046638779705
589,-3.079382314225882
590,-3.8212463978020166
591,-2.0702494067010537
592,-3.0371769523157757
593,-3.914855534213096
594,-2.87497561805689
595,-1.6976680299895461
596,3.175598622876988
597,-1.9830371143642476
598,-2.92643964808842
599,-1.0559536680452457
600,-3.2700569623722795
601,2.0617843896073644
602,3.57498942045801
603,-3.335447462777659
604,-3.9080904843841346
605,-1.372438085621885
606,1.5929324537763834
607,-2.4405214994853024
608,-1.5472542424940627
609,-1.9639477650204271
610,-4.911513355453898
611,-1.7390032713043415
612,-2.0504032292058594
613,-1.9551144689358408
614,-4.834474012044047
615,-3.1113602570878274
616,-3.8455798666616774
617,-2.467671302287912
618,-3.49927092303026
619,0.7273039912169278
620,-1.6382817394182316
621,-1.95671246296974
622,0.3449863711650947
623,-2.744618124225871
624,-3.6206163082703453
625,-3.610794137574495
626,-3.1918509345210757
627,-2.6123271534769645
628,0.43167983168584434
629,-3.869414065859053
630,-2.4667851714817224
631,-2.007961874399164
632,-3.078695473453203
633,-4.010250855391375
634,-0.1881840228266462
635,-0.4105647293460111
636,-4.242641773454669
637,-3.5197181813860126
638,-2.9278015075928545
639,-2.2813217969446042
640,-1.689700099960648
641,-3.214755164988349
642,-3.751499710068594
643,-3.359327788525084
644,-3.051098034329244
645,-4.717253077646409
646,-3.058234958292621
647,1.330864434087778
648,-3.3660133687664446
649,-3.3904877961081867
650,-3.038701017517311
651,-2.600283514072098
652,-1.9590257955499963
653,-2.6571971535136827
654,-3.8641707417096844
655,-4.674242753858827
656,-3.02073703255096
657,-2.8775454710624264
658,-2.3796678629702024
659,-1.8725370267158683
660,-3.02143474477568
661,-4.095902988641749
662,-2.357268280983925
663,3.6293080937032958
664,-5.161921033359906
665,-3.000608837697569
666,-3.744029855145625
667,-3.104613300896018
668,-3.89408702230085
669,-2.2462478044398964
670,-2.224908327021229
671,-2.6618838287136257
672,0.04590537063929282
673,4.543218509743853
674,-3.338328194037928
675,-4.569851158141079
676,-3.304115133208617
677,-1.0223347636652849
678,-3.078240359985945
679,-3.363640081653518
680,-1.849971288562334
681,-3.7588255192194677
682,-3.2638622070931085
683,1.6295606841966237
684,-2.127432934088039
685,-3.3518635118908153
686,-0.2588347646429025
687,-0.755875539354555
688,-3.1621442869740273
689,2.846098785803651
690,-1.4365163359576048
691,3.060780107220617
692,-2.4207633434774585
693,-2.1374293194691063
694,2.023282026523704
695,-3.5071991272185854
696,0.34684604817886083
697,-0.8992108158294185
698,-2.0085964998195784
699,-1.1043204536326539
700,-3.2175452061542082
701,-2.4411084228790707
702,-3.862009877559071
703,-3.144778585037195
704,-3.6434927487814086
705,-2.537100213780117
706,-3.0346435422588196
707,-2.8952350708742536
708,-0.3318046537801689
709,-2.9459668946870265
710,-2.9408747822018877
711,-3.8738523368937217
712,-3.211554382348633
713,-2.771385464713556
714,-0.2361022047832141
715,-1.8842256144428562
716,-1.686061415053601
717,-2.1669337512942817
718,-1.653936971245416
719,-3.3651575730420076
720,-2.8892737293053123
721,-3.1816645295620805
722,-0.8558518161775387
723,-1.2521667266372611
724,0.5503820782940766
725,-4.04759830079116
726,-3.5551974532283346
727,5.158402342515225
728,-3.860534809108386
729,-3.543631788102712
730,-1.9862676519004496
731,-2.5651691204361167
732,-0.7601197304059361
733,-2.4751205797746567
734,1.4234757708832038
735,-2.306314696744282
736,-3.078846428370875
737,-4.566221178845807
738,-2.125881669574056
739,-3.079502791208887
740,-3.3927159136928062
741,-2.508050720018561
742,-3.1506357207720646
743,-1.849971288562334
744,-2.227864050392833
745,-0.11707122959715882
746,-3.7588255192194677
747,-3.50307815087422
748,-2.7313701572514986
749,-3.1371820987666474
750,-2.585228037659707
751,1.0566826196030692
752,3.175598622876988
753,-3.6301929886629387
754,-3.0128220159833465
755,-0.8512969949546637
756,-2.3174565320560876
757,-3.0242057871982966
758,-3.936997137125049
759,-0.31362778343783465
760,-2.16298918719169
761,-4.263504703580802
762,-3.2042741595869892
763,-1.770824835485794
764,-2.20340044534637
765,-3.90044839220875
766,-3.599604588536212
767,-1.357244922725857
768,-2.345553624641576
769,-2.693691730329864
770,-2.6836409707696647
771,-1.206683500338209
772,-3.809028020610742
773,-2.7418644005063366
774,-3.2702437728996014
775,-3.6770486158066795
776,-3.383363881814963
777,-1.5745413826602146
778,-4.448799706255149
779,-2.515704067399364
780,0.30674499864475024
781,-2.7652815589132147
782,-3.0784471925280217
783,0.34684604817886083
784,0.34684604817886083
785,1.6419745028418704
786,-1.0908894672499996
787,-2.1690687517202756
788,-3.5272947660579916
789,-3.6226180946063757
790,-3.6421062400737108
791,-2.400437588416825
792,-3.733125822671543
793,-3.4846707484279738
794,-3.3778686525568036
795,-3.306003694216339
796,-2.9520775856818946
797,-2.8282976960325312
798,-3.651988975261452
799,-1.9922476381475565
800,-3.411500592297344
801,-3.375512761091207
802,-3.0696372648549057
803,-4.432100561216279
804,-3.1142478211357902
805,-1.6507060778632312
806,-2.8067787853921504
807,-3.0436188026468574
808,-2.1884320895292606
809,-2.136100379655711
810,-3.2441552099870203
811,-3.137604902372605
812,-2.9497015789754033
813,1.1238351852952133
814,-4.072474000107024
815,4.540331825662299
816,-3.598386939863319
817,-3.078717200253349
818,-3.866308490918552
819,-2.325279347670999
820,-1.740983695289198
821,-4.076858096664286
822,-4.566221178845807
823,-3.231691562089209
824,1.6720743066509898
825,-1.5936344372385374
826,-1.9551144689358408
827,-3.39280662996212
828,-1.0908894672499996
829,2.799791249666026
830,-2.5319158583090124
831,-2.397762490442122
832,-1.8502870007129417
833,-3.3778686525568036
834,-3.592663241034001
835,-2.5023045265724893
836,0.38094708493372326
837,-0.6997211184687369
838,-1.388121864828095
839,-3.0785382107460495
840,-2.852669151532535
841,-3.0743541196230812
842,-0.9121857944768305
843,-3.7130424894636582
844,-1.697034630151216
845,-2.7515070113518902
846,-2.684079338545404
847,-2.77867528932723
848,-0.6249730525239191
849,-2.174646547464733
850,-3.0043967810784498
851,-2.7055229751528125
852,-2.7576740109106397
853,-2.0049473681245304
854,-3.774481360948149
855,-3.884299866149519
856,-2.0573860835856315
857,-2.414367877434912
858,3.57498942045801
859,-0.40482188209223785
860,-1.9029996541723817
861,-3.7527491387657554
862,-1.6736149645227179
863,-3.2606319000374935
864,-3.602851865510406
865,-4.092962437117716
866,-3.2702437728996014
867,-3.316855743016984
868,-3.79748531478833
869,-3.28062361951488
870,-3.3447365475480986
871,-3.1843796507031823
872,-3.5442651140686325
873,-3.763653593329213
874,-3.480160557661821
875,-2.2035930485615283
876,-2.314511157566322
877,-4.2316781390894995
878,-2.2380462923105338
879,-3.077018015077449
880,-3.058234958292621
881,-3.9421960040584905
882,-2.036946296036981
883,2.609502491796522
884,-1.9973223200811012
885,-4.332272781184738
886,-2.2377108827730248
887,-3.3551273413105442
888,-3.164880828774875
889,-2.9163985248331237
890,-3.3010072637026124
891,-3.916619585783815
892,-3.668425199462448
893,-3.0328380216716493
894,-3.902362928976269
895,-2.1992342898969626
896,-3.3435599949116375
897,-3.8645708107064247
898,-2.4446929235229202
899,-2.2973001634566317
900,-2.92643964808842
901,-4.086190001331451
902,-2.485616055683393
903,-3.079634667389545
904,-3.1169045991736266
905,-3.0791980935513243
906,-2.976806508932982
907,-3.0790197628410922
908,-1.004229846643647
909,-1.6896502231764574
910,-3.084249398757108
911,-3.8221486295369838
912,-2.54558322552906
913,-2.1884320895292606
914,-3.0775650419090663
915,0.14606295101594685
916,-3.2469607014709654
917,-1.841703015416214
918,-1.5317543163874716
919,4.540745716798531
920,-3.422755934141113
921,1.0179722809324463
922,-3.078695473453203
923,-3.4362186987883714
924,-3.2329126134551203
925,-3.37608206700928
926,-2.7314159630250896
927,-3.9461136631263845
928,1.2801441179470496
929,-1.6002339205503193
930,-2.6454861501335714
931,-4.0981833229856734
932,-1.33401290520102
933,-2.2972949824083164
934,0.1528216463759814
935,-3.8151382035489796
936,-3.7414175278577146
937,-3.7414175278577146
938,-3.042888066858774
939,-1.3352524978555862
940,-2.125881669574056
941,2.263798026928011
942,-4.848950074499713
943,-1.5732697469546035
944,-2.006917393444011
945,-1.174158670181767
946,-3.434542434546154
947,-2.227864050392833
948,-3.3165998001771433
949,-3.2798779124726476
950,0.12226443203685643
951,-1.5676360823094404
952,-3.077687624289973
953,-2.64417112452272
954,-1.388121864828095
955,-2.5026183306242022
956,-2.770414422975402
957,-3.7356661083273064
958,-2.6289518694966607
959,2.2391704586636827
960,-2.621481192792244
961,-3.0791980935513243
962,2.3585835457615736
963,-1.0948922520177118
964,0.17393689843524093
965,-1.8318381881993013
966,-4.160924501850321
967,-2.320576307551988
968,-3.6192673395780375
969,4.898751278613779
970,-2.4207633434774585
971,-3.5448340879363913
972,-4.118338474690728
973,-1.7833633991463416
974,-3.955242756780581
975,-0.6985950586300924
976,-2.437971829233695
977,-1.2351139109761429
978,-3.9504010655747215
979,-3.887836663727522
980,-2.281056504281049
981,-1.9899146498012066
982,-1.9801200668937515
983,-2.2585764692485744
984,-2.9412968029376336
985,-2.444449257711259
986,1.3986865499085528
987,0.07489081802928266
988,-1.850556718893488
989,-4.461793940059794
990,-3.2947183604558963
991,-3.3166672401977846
992,-3.5719482099938085
993,-2.929299597946748
994,-2.9124040822810198
995,-1.544398836244857
996,-0.059502530771247064
997,-3.133586202195166
998,-2.1527979904179024
999,-2.1527979904179024
1000,-3.082953767503453
1001,-2.8517998486002183
1002,-4.1931556150156215
1003,-1.562320980993079
1004,1.0254235883054765
1005,-0.18928735340725616
1006,-2.2423308142601472
1007,-0.69920191502205
1008,-4.345113506216375
1009,-2.6870494640207845
1010,-3.9591475277350647
1011,-3.231691562089209
1012,-1.7064196638210327
1013,-2.9683812146875597
1014,-3.077286993973086
1015,-3.7377505057801037
1016,-3.496504662407267
1017,4.5429708727755385
1018,-2.7313701572514986
1019,-1.8936926355551342
1020,-2.3796678629702024
1021,-2.1466718963970393
1022,-2.1613789315408027
1023,-3.7809743807791896
1024,-0.7983747828230896
1025,-3.0785182785541996
1026,-3.2831463533145935
1027,-3.1599413536919685
1028,4.542835690505364
1029,1.357421331157786
1030,-3.163377367109777
1031,-4.133419510595919
1032,-2.7380142264031195
1033,-3.079817295317746
1034,-3.7831285139864996
1035,-1.8843843014421982
1036,0.4219095062016355
1037,-2.447130668854509
1038,-2.896696373984113
1039,-3.28062361951488
1040,-3.8050830166999745
1041,-3.0636433161671808
1042,4.542091167300454
1043,-2.3899359599175876
1044,-1.627513114653964
1045,-3.7880015489565237
1046,-3.8636008213951505
1047,-2.6191961160729194
1048,-4.452827509471719
1049,1.4997460901189081
1050,-4.728769993278123
1051,-3.9007711802941967
1052,-3.970676191310199
1053,4.525870126685311
1054,-3.0781159328821324
1055,0.744910201441266
1056,-3.02143474477568
1057,-2.8517998486002183
1058,-3.0782800734102036
1059,-3.9311034750750182
1060,-0.9949200761430267
1061,1.1381262175782572
1062,-3.0559018085510403
1063,0.4761843226135888
1064,-3.119802359034109
1065,0.1528216463759814
1066,-3.079382314225882
1067,-4.723912073061574
1068,-3.0704594895324426
1069,-2.8775454710624264
1070,-1.7347357262737755
1071,-2.893967404322598
1072,-3.078642013555082
1073,-2.8740685104313575
1074,-3.027120206275267
1075,-1.952089242946579
1076,-3.4362186987883714
1077,-3.8144882200202193
1078,-2.915746144621609
1079,-3.0784451837254334
1080,-2.1714066488890005
1081,-2.848859882201206
1082,-3.679768497836406
1083,-3.9106449735313404
1084,-4.027508515167839
1085,-0.8096777863751028
1086,0.0968663855254148
1087,0.0968663855254148
1088,-3.9483403621807835
1089,-2.4511693219934214
1090,2.5943281161688754
1091,-3.8645708107064247
1092,0.9953323546740478
1093,-3.153277167468272
1094,1.327940366472414
1095,-3.945415137746791
1096,-4.00115605291706
1097,-4.161733886128704
1098,-2.725681717050605
1099,-4.932839883734888
1100,-4.895008390852221
1101,-4.580698836477611
1102,2.818791638285271
1103,-0.3168763460103931
1104,-2.028522382490164
1105,-3.3656685765938072
1106,-3.3332059534009253
1107,-2.7613384520499573
1108,-3.0542471474141224
1109,-4.034261710284711
1110,-2.8741276095087183
1111,-2.7844526907710767
1112,0.5383512948281537
1113,-4.448291259480179
1114,-3.684125812806019
1115,-0.15888104662281152
1116,-3.9630908423738953
1117,-2.7597100726592436
1118,-1.7534377761209297
1119,0.09343881627070498
1120,-3.5456078981989108
1121,-2.012829974051744
1122,-2.741998025817345
1123,-1.043220988625667
1124,-3.8754602531270903
1125,1.3869016394514833
1126,-4.031051074425738
1127,1.6720743066509898
1128,3.403319148611954
1129,-3.745272188223168
1130,-3.7625771485410215
1131,-4.130034926978441
1132,-3.8987885545818846
1133,-3.3704184741200716
1134,-3.4048099021408262
1135,-3.0778532640101823
1136,-2.933299007810173
1137,-2.417529184894023
1138,-3.7397313389555897
1139,-3.8712936768032717
1140,0.41902083793849537
1141,-2.923289244927344
1142,-2.2928421403406314
1143,0.11665025495498375
1144,-2.31901752774352
1145,-2.056987694981206
1146,-0.5607332284312934
1147,-3.649582126656322
1148,4.793955322724207
1149,-2.7765246348476005
1150,-3.2242900131734196
1151,-1.5782897336858968
1152,-1.8203433818865975
1153,-3.042929355122567
1154,-2.935746572460973
1155,-3.775973656474675
1156,-2.8955634857812442
1157,-2.7816631280530517
1158,-4.017509126893466
1159,-2.9339471380420843
1160,-2.1135649814378463
1161,-3.6791606082117108
1162,-0.2452388321309322
1163,-3.1236747798992623
1164,-0.4260507117173011
1165,-2.574391990572007
1166,-2.732829248609542
1167,-3.996575593009296
1168,-3.190088849331937
1169,-3.5194302859663296
1170,-2.620927193676134
1171,-3.47538959847552
1172,-3.821417925708587
1173,-3.0767139684251306
1174,-3.942307230553439
1175,-3.188703020987336
1176,-3.7951945771482825
1177,-1.8994255909908149
1178,-3.198273866436583
1179,-3.8608920558678603
1180,-2.1382369177966885
1181,-2.927004313428527
1182,-3.5080874488801683
1183,-2.814023070886446
1184,0.41902083793849537
1185,-3.5662196204462617
1186,1.0566826196030692
1187,2.7930316590362505
1188,-2.105978284052881
1189,-2.7233482494549124
1190,-3.173205380511801
1191,-4.331666395771209
1192,-3.0782839615329207
1193,-3.743717521483414
1194,-3.2301105259149527
1195,3.2105577716008655
1196,4.533689920076805
1197,-3.0028200993395435
1198,-1.624117136806702
1199,-2.885402206236842
1200,2.5973781536171736
1201,0.3074069221810676
1202,-2.2452422146087345
1203,-3.5453603770477606
1204,-4.304339631983653
1205,-1.5853211342191313
1206,-1.5679083088599723
1207,-0.5291084517122221
1208,-2.453842984385949
1209,-1.3289765697865523
1210,-3.2746579820660466
1211,-4.051000109441162
1212,-3.4690225206495127
1213,-3.25686512569336
1214,-2.68876623766683
1215,-3.378825649444435
1216,-3.078247264492611
1217,-3.39280662996212
1218,-3.2953062539356024
1219,-3.589402414762722
1220,-2.981114683701345
1221,-3.873113865147847
1222,-3.4489862692246276
1223,-2.7243332654422665
1224,-1.8994255909908149
1225,-3.0777186559217897
1226,-3.5042302733715958
1227,1.6492340947991595
1228,0.11665025495498375
1229,-2.404414194133643
1230,-2.9496667874178266
1231,-3.2423260027738556
1232,-2.951908042041443
1233,-3.6568946538380667
1234,0.5130483927575582
1235,-3.735720098580448
1236,-3.651988975261452
1237,-3.256084395950731
1238,-3.1458820612530776
1239,-1.567163094855809
1240,-1.203404937164376
1241,-3.4124774394109383
1242,-3.300215353426236
1243,-2.9958124143368097
1244,-3.078255249109206
1245,-2.719977406881024
1246,-2.3833294697755663
1247,-3.2713969554319986
1248,-3.9499366056087832
1249,-3.370851692736141
1250,-3.196085623008668
1251,1.2957171087227453
1252,2.8299034836927057
1253,-1.4333092933844414
1254,4.541557956735552
1255,-3.078824921468949
1256,2.2883764570384417
1257,-3.6167218752073906
1258,-3.7178053125313975
1259,-3.4353389924398794
1260,-1.926907888952564
1261,-2.6653419359223633
1262,2.1589661660283443
1263,-3.772682977661859
1264,-3.670449123672987
1265,-3.134332883811246
1266,-2.3587881959168016
1267,-2.627657654585433
1268,-3.598298215265874
1269,-3.377413378986458
1270,-4.081631609727703
1271,-4.081631609727703
1272,-3.642771514175275
1273,-3.078846428370875
1274,-1.373502376028461
1275,-2.6126437960534363
1276,-2.8423849897813835
1277,0.6780135803647244
1278,-3.0779562396877136
1279,-3.0777971219688096
1280,-3.443479228928973
1281,-1.747112229541442
1282,-2.9683812146875597
1283,-3.326142061370956
1284,-2.7947915804757395
1285,-2.6123271534769645
1286,-0.33226970372893494
1287,-3.046047110173337
1288,-3.9815919267559887
1289,-3.8165621470020503
1290,-2.750975580956924
1291,-3.250377793232979
1292,-3.3110910774988938
1293,-3.537584965017403
1294,-2.0825333476336345
1295,-3.1599529640788235
1296,-2.4572781321503427
1297,-3.677316600383405
1298,-3.6252703008818496
1299,-3.9630908423738953
1300,2.347187799372415
1301,-3.9248061636882734
1302,-2.6464046548673306
1303,-0.9672798450857197
1304,-3.6105641300080817
1305,4.543529637804683
1306,3.024514064855058
1307,-3.8375080506296824
1308,-2.198745301954296
1309,-2.5563576825716443
1310,-1.6297775870183309
1311,-2.7164450100553403
1312,-1.9632932712113467
1313,-3.8825767461364915
1314,-2.048818714580991
1315,-3.016939740611909
1316,-3.2065316564593505
1317,-3.2199857085274908
1318,-3.0774500568263394
1319,-3.976163226631861
1320,2.992010942802737
1321,-1.8733029725172756
1322,-2.7359895765985627
1323,-3.2277152009138814
1324,0.5957299530714051
1325,-3.0502286251802464
1326,-3.8344056680647696
1327,-3.07779447863907
1328,-4.510925089630448
1329,-3.728874022925138
1330,-3.2469607014709654
1331,-1.6203529055281036
1332,-3.41735576268424
1333,-3.459226971225044
1334,-3.278168162568436
1335,-4.434754497823445
1336,-3.2169683814563808
1337,-3.9087989425191605
1338,-3.78578118048708
1339,-3.4924761886846087
1340,-2.575044454871345
1341,-3.6679417934995757
1342,-2.66711122602641
1343,0.8547246486987564
1344,-3.206179720126061
1345,-2.5896779781053145
1346,-3.8178436957075745
1347,-2.575865320879648
1348,-3.1560149869899674
1349,-3.715344597818163
1350,-3.312216949534008
1351,3.9267635549995497
1352,-3.2797768249121413
1353,1.5429036815008947
1354,0.656620463330015
1355,-3.3617669560368384
1356,-5.392027260303956
1357,-3.033867556520812
1358,-3.7414175278577146
1359,-2.910504374387916
1360,-3.2505827827194214
1361,-0.7454400415370985
1362,-2.903537481231681
1363,-0.7669429333230882
1364,-2.3969339716648217
1365,-3.159301126043645
1366,-2.9683812146875597
1367,-3.676228751543918
1368,-4.110184655769405
1369,-3.0596527817020758
1370,-2.7487952204601505
1371,-3.483337484785869
1372,-2.216474079104459
1373,-3.539433486927816
1374,-3.562191177270618
1375,-3.9378581210516983
1376,-2.548674815717351
1377,-3.5006836537830752
1378,-0.8604252340801457
1379,-2.978294588767519
1380,-4.4485501494899475
1381,-4.145665599515637
1382,-3.4694433094828625
1383,-2.5088585440211872
1384,-1.089895437982844
1385,-3.1436208326183377
1386,-3.274250909838306
1387,-2.7566967322454623
1388,-3.6421062400737108
1389,2.161227750994281
1390,-2.5351262386039353
1391,-2.532905584686029
1392,1.75105071932604
1393,-2.615414052099493
1394,-0.5999024416557778
1395,-3.5159840005645253
1396,1.1484035180100238
1397,-3.6729720999752424
1398,-1.4567776667131789
1399,-2.960182525762163
1400,-2.4140659605783643
1401,-3.433774665343673
1402,-4.327569638058257
1403,0.1035687286038485
1404,-2.8686179155182874
1405,-3.2438435534310694
1406,-3.3052191485791895
1407,-3.076938770712694
1408,-2.1364547271075014
1409,-2.0281212128757335
1410,-2.6358113837205726
1411,-3.0785587208117904
1412,-1.5479235982181538
1413,-3.0771470150049782
1414,2.859148864425123
1415,2.133304199117236
1416,-0.3361919905586688
1417,-2.230568849559611
1418,-3.5906685980914146
1419,-3.394912232787606
1420,-0.21658884045806212
1421,-0.6847367317788401
1422,-2.206397446020136
1423,-3.07846071369473
1424,-3.0951100777192533
1425,-1.2946196918323527
1426,-1.2906834391000592
1427,-3.605383379769261
1428,-3.2414042443478945
1429,-3.1689113148027817
1430,-3.0743541196230812
1431,-3.395055833238158
1432,-3.7043242269410492
1433,-4.197931384053296
1434,-1.989090225595826
1435,-4.014336468467437
1436,2.2391704586636827
1437,0.7273039912169278
1438,-1.9858380913247866
1439,-2.542116946422883
1440,-3.6395696178053676
1441,-4.230965700124104
1442,-3.668333782229836
1443,-1.981426741350231
1444,-3.059326046525735
1445,-2.0216847234443103
1446,-3.2759053103242213
1447,-3.1697451104978094
1448,-3.019844480375324
1449,-2.4779111817513466
1450,-2.7768316491390537
1451,-3.2559781953807154
1452,-3.339326960354731
1453,-3.05746561501514
1454,-2.0692621503915847
1455,-2.020336762100907
1456,-3.5881855525430923
1457,-2.489477724034586
1458,-3.4032108949017563
1459,-3.4313668982292
1460,-3.3314418687800296
1461,-3.0772411199418515
1462,-3.3348007633945453
1463,-0.4658933468974975
1464,-5.3101170278238525
1465,3.2572725514051752
1466,-0.4676785320375686
1467,-3.6661384905166123
1468,-3.873722843718693
1469,-2.5636873094815376
1470,-1.5816971887505553
1471,-1.156796706448044
1472,-3.846111440963767
1473,-2.7569310953265806
1474,-3.037969161324119
1475,-3.193811872473934
1476,-3.137685441120563
1477,-3.2082576846185256
1478,-1.4415611280258775
1479,-3.0226596780610957
1480,-4.743688557166708
1481,-3.079264197804761
1482,-3.6264272743384396
1483,-1.6838946471797422
1484,-3.4857936376965295
1485,-3.0768031316316824
1486,-3.101385065510456
1487,-3.3150157572136862
1488,-2.864667571946911
1489,-4.1699061990273885
1490,2.0668458801111833
1491,-2.8412345163064043
1492,-3.6883385155050403
1493,-2.7329936702649125
1494,-3.8171902247651666
1495,-2.4900643659099218
1496,-1.354378819395747
1497,-1.6805383043606248
1498,-3.3247546023588535
1499,-4.175821456131051
1500,-2.7504064966490627
1501,-3.5835798580140334
1502,-1.6792442070245504
1503,-3.322381227757386
1504,-3.5692357326239943
1505,-4.096874967649827
1506,-3.9461136631263845
1507,-3.8500687401433065
1508,-3.3417787000824575
1509,-3.0051238262773756
1510,-3.6171338222230847
1511,-0.8639378632330161
1512,-4.0981833229856734
1513,-3.1498016983488366
1514,-3.447702465265031
1515,-3.077160804456398
1516,1.8979026691011929
1517,-3.0784451837254334
1518,-2.4470494910748815
1519,0.12159127535273791
1520,-3.6791606082117108
1521,-3.2305694625855623
1522,-3.642771514175275
1523,-2.6581000488018405
1524,-2.916466086109024
1525,-2.508508041130295
1526,-2.6744670344833823
1527,-4.510883272247031
1528,-2.7019657540682966
1529,-3.4444872529198647
1530,-0.5263448631274832
1531,-3.337655905475026
1532,-2.416187525539302
1533,-2.8487645607551206
1534,-2.8948046638779705
1535,-3.1949592697910667
1536,-3.081328234075121
1537,-3.008210678216307
1538,-0.8616588897280836
1539,-0.7981695165487146
1540,-3.079598699793635
1541,-0.591873870312465
1542,-2.7424971072578788
1543,-3.058234958292621
1544,-3.1365592808321163
1545,-2.0085964998195784
1546,-2.633689347370568
1547,-2.65274015189606
1548,-3.2064114095184566
1549,-3.102019688088611
1550,-2.597025217302131
1551,-3.2453799642799854
1552,-3.594058487904329
1553,-4.428481440495087
1554,-2.953587377258953
1555,-0.599745305861707
1556,-3.157010538068279
1557,-3.9680279719239437
1558,-3.369834610456457
1559,-2.7317205164087737
1560,-3.3718951490385565
1561,-2.963306649392526
1562,-3.4653092086807042
1563,-1.174158670181767
1564,-3.3314916959144445
1565,-2.2470324262521992
1566,-2.272132429616544
1567,2.432701521109603
1568,-4.531503921565517
1569,-1.4668435907357404
1570,-2.540644135316293
1571,-0.46669905683065516
1572,2.1094993547426517
1573,-2.785658091758822
1574,-3.8757105070600133
1575,-4.224791460030229
1576,-3.7009786849451154
1577,-3.9013047683910482
1578,-3.171633451823241
1579,-4.990674207980952
1580,1.3986865499085528
1581,-0.061012019871203624
1582,-2.615414052099493
1583,-5.330805465850997
1584,-3.2596293666275677
1585,-3.0724084414584802
1586,-5.118278170665303
1587,-4.597975052258533
1588,-4.099079501848081
1589,-2.970653810137006
1590,-5.105213292977385
1591,-4.464836019863144
1592,-4.082704481492897
1593,-2.7807228199274543
1594,4.5425430360140995
1595,-2.838433164172082
1596,-1.9173901981470327
1597,-3.0777477744237705
1598,-4.686327260028653
1599,-3.866654183920081
1600,-4.222840373617749
1601,-2.7333998831790747
1602,-3.4657357728268354
1603,-2.750360355519415
1604,-3.532075542047393
1605,-3.0693532010713516
1606,-3.133242846597938
1607,-4.445269994502101
1608,-4.243381254579096
1609,-2.1407524048895326
1610,-2.2030964934221475
1611,-2.6451874438007557
1612,-1.3443721320534963
1613,-1.4403657016722429
1614,-3.0855877955732427
1615,-4.589900225263494
1616,-2.4989216812081803
1617,-3.553516373573877
1618,-2.669934895941591
1619,-3.830103089746783
1620,-2.4558284728149036
1621,-3.376370021659704
1622,-3.0231883346880424
1623,-1.9111339361163222
1624,-3.422539689436158
1625,-0.9452240941287255
1626,-3.0772411199418515
1627,-3.0780170859687863
1628,-2.2451187196443443
1629,-3.1856620613677142
1630,-2.5636873094815376
1631,-3.2148930310343955
1632,-3.1007153958032463
1633,-3.0787839319925627
1634,-3.8401547807841605
1635,-3.9165164019664105
1636,-1.4565606461248635
1637,-2.8905281922534476
1638,-3.6471125233156525
1639,-3.2157361429396225
1640,-4.11853620760525
1641,-2.8814863567944298
1642,-3.646332694384475
1643,-3.5651666657447425
1644,-2.680189933180628
1645,-3.0436188026468574
1646,-3.1226606872479556
1647,-0.3623754399419522
1648,-3.1404997791376634
1649,0.7486108840488408
1650,-3.0779679578049435
1651,-0.5433689324337898
1652,-1.5817866186643907
1653,-3.7510393115787863
1654,-3.0778134897879066
1655,-3.749443838004405
1656,-2.3342934081342297
1657,-1.841703015416214
1658,-2.163247059151654
1659,-3.098159510588598
1660,-3.2606141954561387
1661,-3.4882567768286683
1662,-3.0783894750646588
1663,2.129324313147189
1664,-3.4341095798422323
1665,-2.717998099627733
1666,-3.782553218547928
1667,-4.4376704218582255
1668,-3.0779115018351986
1669,-4.5980992711170305
1670,-5.633379130430973
1671,-3.5680554356234344
1672,-5.133248624802088
1673,-5.259245797565544
1674,-2.0506064126495795
1675,-3.077297222751011
1676,-4.2017541270287095
1677,-4.697351098336491
1678,-4.431782094030491
1679,-4.266143660475154
1680,-3.4055221982543737
1681,-3.1715499346638936
1682,-4.430045699508015
1683,-3.912081269148501
1684,-3.0797501498471624
1685,-3.8849359665611076
1686,-3.077011640130007
1687,-3.868662549798312
1688,-0.9900798965657374
1689,-3.1860056758807658
1690,-5.591991865317014
1691,-3.322381227757386
1692,4.542790214538333
1693,-2.881312696527836
1694,-2.05061413315465
1695,-3.1397965082370782
1696,-2.63711932402783
1697,-2.7488250979682776
1698,-4.181165195010286
1699,-3.595466609263777
1700,-3.0789766439766204
1701,-2.082210343414437
1702,-0.9559241507248994
1703,-3.078113925772426
1704,0.32419268535806056
1705,-3.8593250877331875
1706,-0.04491016035588712
1707,-3.725284685230075
1708,-2.9890178920250547
1709,-3.278865950872677
1710,-0.19172762882608113
1711,-2.707870635452201
1712,-3.4408958839358816
1713,-2.8355241528929556
1714,-4.15321209171599
1715,-1.7889355085756127
1716,-3.797633912786314
1717,-3.7449462093749695
1718,-1.2655561192262643
1719,-4.2626350410757325
1720,-3.0549875432598554
1721,-5.263602253825721
1722,-3.5542461980625633
1723,-3.2693201090816286
1724,-3.4064771987954456
1725,-4.310685127522694
1726,-3.1017238986538787
1727,-4.178785509559292
1728,-2.705289228864145
1729,-4.053305532793746
1730,-4.507315344593282
1731,-3.3851538904789296
1732,-4.8945096274783335
1733,-3.739382032722118
1734,-4.903379263766584
1735,-2.796253810261796
1736,-4.393676445256217
1737,-4.07243670973646
1738,-3.0258081875124043
1739,-3.49574795686007
1740,-3.4492717922682914
1741,-3.078247264492611
1742,-3.9684955909021324
1743,3.403319148611954
1744,1.795072839897296
1745,1.5776250345006515
1746,-3.0798664407356626
1747,-2.4881299672405306
1748,-3.0793938451149225
1749,-2.155168068793303
1750,-3.676228751543918
1751,-3.2807010331013173
1752,-4.860604618360273
1753,-0.6373628188952335
1754,-4.448885716518493
1755,-3.3090825365456915
1756,-3.3163198516827173
1757,-0.8785503651800877
1758,-3.2286220533485257
1759,-3.664649336645713
1760,-4.274444058333788
1761,-1.4965773908863178
1762,-1.850556718893488
1763,0.7273039912169278
1764,-3.0776407467092226
1765,2.7779224218828324
1766,-3.0787985826819297
1767,3.173025709865002
1768,-1.8960451534073415
1769,-0.44215163566098475
1770,-2.7380142264031195
1771,-3.809028020610742
1772,2.5973781536171736
1773,-0.6769850495611454
1774,-4.042348557140136
1775,1.9797230162504722
1776,-3.054317897269258
1777,-3.7249020624365508
1778,-4.051000109441162
1779,-3.373202291518485
1780,-1.8886273194121745
1781,-3.9684955909021324
1782,-2.730257318594035
1783,-3.038140543785067
1784,0.04342170849227275
1785,2.702408890707235
1786,-3.2373089754466817
1787,-2.5198585556224846
1788,-3.3548469144003916
1789,-3.539085254493028
1790,-3.7009786849451154
1791,-4.150709955562365
1792,-3.8507807803219634
1793,-3.539013102692404
1794,-3.0771470150049782
1795,-3.3166672401977846
1796,-4.469046244072726
1797,-1.2632688203087035
1798,-3.214755164988349
1799,2.0617843896073644
1800,-1.5198050152930966
1801,-2.775974045026845
1802,-3.2441552099870203
1803,-1.237704506358776
1804,1.5139267446532279
1805,0.7883456821157151
1806,-3.9944463695198325
1807,-3.8050830166999745
1808,-5.101595652435393
1809,-3.223185001608202
1810,-3.278865950872677
1811,-0.9459828643950368
1812,-2.3628928424030464
1813,1.5356506728720214
1814,1.0077852088904764
1815,-4.025369030241494
1816,-3.079084311305813
1817,-4.932839883734888
1818,-3.0799746339972147
1819,-3.628203842628423
1820,4.268229224025377
1821,-2.608541615989428
1822,1.4997460901189081
1823,-1.772864115742155
1824,-3.374417233304965
1825,-0.5691447361619789
1826,-0.5691447361619789
1827,-7.661189409471422
1828,-3.309302068779851
1829,0.28424929749136557
1830,-0.8276022724908633
1831,-3.01604337677224
1832,4.542080723963274
1833,-0.9452240941287255
1834,-3.43766152217262
1835,-3.172913944584667
1836,-3.7066168661979693
1837,-0.656380471272463
1838,-3.0785503794117055
1839,3.4249935822230113
1840,-1.3856234754671661
1841,-2.8740685104313575
1842,-2.6712906829579395
1843,-3.2554790915060923
1844,-2.883718147965098
1845,-3.0775019882472767
1846,-1.7025052824104896
1847,-1.7833633991463416
1848,-2.262596568222562
1849,-3.347142171386789
1850,-4.263838940291763
1851,-0.4105647293460111
1852,-3.485302989994124
1853,-3.5442651140686325
1854,-4.717253077646409
1855,-3.9834613345391094
1856,0.14073744409659275
1857,-1.0106825549921212
1858,-3.2612206661458565
1859,-4.048922829756764
1860,-3.1499040199967356
1861,-3.173298176381873
1862,0.12787674649042408
1863,-1.3169840046696553
1864,-3.0785145978016115
1865,13.03699906502173
1866,-3.019844480375324
1867,-3.6163264791444787
1868,-2.5420412218449115
1869,-3.07779447863907
1870,0.9509054011322905
1871,-3.077144284224063
1872,-0.8692299115844907
1873,-2.372067816024508
1874,-3.7104066949128947
1875,-3.088373257227084
1876,-2.54232205865485
1877,-2.7077747314358063
1878,-2.8958410579121656
1879,-3.049412424242422
1880,-3.87807230370156
1881,-3.0202682260461677
1882,-5.012674054445379
1883,-2.6804207128538824
1884,-3.743421965892701
1885,-3.7841416637404595
1886,-2.3751194703549108
1887,-3.7383289773774835
1888,-3.255456286631438
1889,-3.787388966331556
1890,-0.09061010779773566
1891,-4.826472819691134
1892,-2.663310526026176
1893,-3.6988808394304002
1894,-2.6281071714927045
1895,-3.45411096161458
1896,-3.078598755317626
1897,1.1603822237286594
1898,-4.350941523232054
1899,-0.8276022724908633
1900,2.4582007467586813
1901,-3.5403868791925426
1902,0.17496837071434881
1903,-2.485616055683393
1904,3.692134574890772
1905,3.8501369974300736
1906,-3.153277167468272
1907,-2.8395155459736268
1908,-1.562320980993079
1909,-3.078645187171945
1910,4.541270390301546
1911,-3.0793227432602928
1912,4.542373269333647
1913,4.542921835866632
1914,-3.078884365972945
1915,-4.569030395477082
1916,-2.8958410579121656
1917,-3.341357583133315
1918,-2.5884685295894427
1919,-0.9459828643950368
1920,-3.0798664407356626
1921,-6.816412575128229
1922,-3.8386738444065074
1923,-2.5824620475525544
1924,-3.865391531601238
1925,-4.885473086304327
1926,-3.2558519283141623
1927,-4.597975052258533
1928,-1.7363910672810423
1929,-4.6762598829817685
1930,-3.1138634099094533
1931,-5.627764213517603
1932,-5.57239385007501
1933,-3.8127890118119097
1934,-3.13481613966571
1935,0.13425823142337232
1936,3.7699918188316786
1937,-3.243220569712389
1938,-3.4765255265953403
1939,-3.8068873904578004
1940,-3.0789603815413207
1941,1.406448043357813
1942,-1.1837550820945337
1943,-4.121960607075025
1944,-3.8958979086313663
1945,-3.9345183521617675
1946,-4.004202735335046
1947,-3.4676305193371193
1948,-1.3097802020010396
1949,-4.206787185864794
1950,-3.717777678724641
1951,-3.1710810106550213
1952,3.6886093924081558
1953,-6.262935451397433
1954,-4.719332624378844
1955,-5.419987972332731
1956,-3.5270684275471775
1957,-3.2542635925669154
1958,-5.390856605759605
1959,-3.675062585155559
1960,-5.7471684106757035
1961,-4.066445651567685
1962,-3.423517003651816
1963,-4.9199852549644625
1964,-3.3795468755786406
1965,-3.078659234483583
1966,-4.352558593748151
1967,-3.6716030613478874
1968,-3.6661742828259647
1969,-3.7841951395428715
1970,-5.525513450531334
1971,-5.384529271169893
1972,-5.173558485524112
1973,-3.140263453342116
1974,-2.6381652533432938
1975,-5.025615527944586
1976,-3.9109565361226046
1977,-3.3518565059392285
1978,0.2454324801663135
1979,-4.996843549048736
1980,-1.983835573672797
1981,-3.8726331507254037
1982,-3.488840982071859
1983,-2.033967619467925
1984,-2.674845351997665
1985,-3.8262246144132095
1986,3.1046199585051735
1987,0.964338436958801
1988,-2.243602924831576
1989,-2.105461996937678
1990,-3.190088849331937
1991,0.5383512948281537
1992,-2.757476685419922
1993,-2.970031512709923
1994,-3.9751476290769254
1995,-3.0498576136536877
1996,-3.4453531603342844
1997,-2.1613789315408027
1998,-3.311188403637707
1999,2.4160474587041962
2000,-3.6516111621812453
