Id,Predicted
1,-4.457063632
2,-1.82322585
3,-3.552696161
4,-3.324763976
5,-1.884759136
6,-3.585161865
7,-3.363170708
8,-2.830009431
9,-2.441384704
10,-3.08706989
11,-4.043187868
12,-2.354301002
13,1.38029235
14,-3.048183931
15,-3.687428834
16,-3.083190316
17,-3.473432261
18,-2.183336794
19,-2.163632568
20,-1.349152732
21,-2.984095411
22,-3.8859102
23,-1.197885287
24,-3.614906433
25,-3.443479845
26,-3.446092837
27,-2.369105954
28,-1.062144445
29,-2.751732542
30,-2.794821275
31,-1.081505049
32,-3.08706989
33,-3.269204512
34,-3.73645593
35,-3.642186305
36,-2.736997474
37,-3.77044817
38,-3.489293581
39,0.199332824
40,-3.756542059
41,-3.269204512
42,-1.559790561
43,-4.03734041
44,-3.76799103
45,-3.585161865
46,-3.220326553
47,-1.438496914
48,-3.15780434
49,2.203774843
50,-2.865484278
51,-3.083190316
52,-3.767687291
53,-3.381905073
54,-2.125913859
55,-3.7806276
56,-0.318968486
57,-1.081505049
58,-4.335175549
59,-3.269204512
60,-1.170932534
61,-3.380622745
62,-3.182819037
63,-2.806010939
64,-4.118553512
65,-3.627907375
66,-3.520270048
67,-3.25075808
68,-0.04453898
69,-4.137638797
70,-1.861897345
71,-3.806678747
72,-3.29505531
73,-3.236045949
74,-3.182819037
75,-3.535049051
76,-0.567639556
77,-1.73288599
78,-1.943906809
79,-4.187160016
80,-1.627131605
81,-3.833615741
82,1.970802586
83,-2.167421913
84,-4.120250797
85,-2.585297186
86,-1.931974168
87,-1.349152732
88,1.210441514
89,-1.891603637
90,-2.953802503
91,-2.706641206
92,-2.051389195
93,1.564807051
94,-3.882589922
95,-3.739865768
96,-2.332603203
97,-3.390856603
98,-3.720366656
99,-2.750364752
100,-3.043128769
101,-4.150511856
102,0.039858006
103,-2.797895381
104,-3.772232394
105,-2.16383018
106,-3.36751438
107,-2.616723991
108,-1.912788072
109,-3.011414827
110,0.377924724
111,-3.562640047
112,-1.703708762
113,-3.4978031
114,-3.975637211
115,-2.119024716
116,-3.088034539
117,-3.806619163
118,-2.010848239
119,-2.46523028
120,-2.076766505
121,-2.332603203
122,-3.727232357
123,-3.564358292
124,-3.159053873
125,-3.73645593
126,-2.862956413
127,-3.762708672
128,-3.523328994
129,-2.953802503
130,-1.181651117
131,-2.441384704
132,-2.37858357
133,-3.651165759
134,-2.369154482
135,-3.013738939
136,-1.374601035
137,-3.512023333
138,-3.682351226
139,-3.656096456
140,2.040490122
141,-2.097859596
142,-3.567746981
143,-3.562640047
144,1.019694354
145,-2.787901605
146,-3.33846858
147,-4.024431277
148,-3.459597439
149,-0.944183287
150,2.001417312
151,-2.176306614
152,-2.730234215
153,-3.537274543
154,-3.520335315
155,-4.038520939
156,-1.626890281
157,4.313635172
158,-3.833615741
159,-4.033559873
160,-3.043128769
161,-4.122460732
162,-2.308920271
163,-3.174733513
164,-2.21349797
165,-2.515227453
166,-1.802507288
167,-2.849612931
168,-2.353955728
169,-3.608658417
170,-3.640566901
171,-0.027509758
172,-4.033297702
173,-3.134550109
174,-3.194925093
175,0.892296876
176,-1.900304058
177,-2.489604168
178,-2.489604168
179,-2.247916309
180,-2.332603203
181,-2.032242224
182,-3.866246861
183,-0.448187097
184,-1.096478092
185,-3.508082992
186,-3.501281829
187,-3.588901995
188,-2.546055222
189,0.027950752
190,-1.704812511
191,-2.810547958
192,-0.519267434
193,-2.585297186
194,-4.026752824
195,-3.801218082
196,-3.618180273
197,-2.425077142
198,-2.483097825
199,-3.88391078
200,-0.476459815
201,-4.068842006
202,-4.345587941
203,-3.629174686
204,-4.143171393
205,-3.034131912
206,-2.995274468
207,-0.933183435
208,0.246675168
209,-4.255366848
210,-2.913985713
211,-0.134288512
212,-2.782983603
213,-1.731255745
214,-1.8535068
215,-3.965027938
216,-2.750364752
217,-1.946592686
218,-3.767326909
219,-3.377464134
220,-1.919134945
221,2.307703868
222,-3.721912666
223,-2.679114865
224,-3.412829208
225,-1.283422323
226,-3.00916554
227,-2.439172807
228,-2.378150385
229,-0.98440124
230,-2.311891305
231,-2.46523028
232,-3.653153427
233,-1.446609976
234,-1.446609976
235,-3.952591027
236,-3.317607111
237,-3.785948799
238,0.705049056
239,-1.137344883
240,-1.466580096
241,-3.075984849
242,-2.786238582
243,-0.549390949
244,-2.3306752
245,-3.097189812
246,-0.04453898
247,-4.137171789
248,2.177932658
249,0.405669957
250,-3.589224054
251,-1.897750361
252,-4.219562738
253,-1.170932534
254,-1.336289609
255,-3.332463095
256,-2.232696968
257,-0.598679617
258,-2.657979266
259,-3.170381326
260,-3.144227036
261,-3.120743547
262,-2.730234215
263,0.199332824
264,-3.371299679
265,-3.237121256
266,-3.170411584
267,2.307703868
268,-3.366387891
269,0.49150789
270,-3.722622132
271,-3.08706989
272,-1.792668844
273,-2.727924552
274,-3.999985628
275,-4.286164609
276,-2.054504588
277,-3.020655179
278,0.705049056
279,0.705049056
280,-2.584745665
281,-3.928988615
282,-2.828248231
283,-3.094734566
284,-1.811678643
285,-4.001306493
286,-2.421512546
287,-3.387823519
288,-0.375290382
289,-3.107008474
290,-2.367233808
291,2.001417312
292,-3.431315726
293,-3.111221962
294,-1.422699919
295,1.436791694
296,-3.044230098
297,-1.568953595
298,-1.756566633
299,-3.520532497
300,-3.48434179
301,-2.004962787
302,-3.361623151
303,-1.143752234
304,-1.59970762
305,-1.483245119
306,-3.389380044
307,-0.567639556
308,-2.546055222
309,-0.042615042
310,-4.277247969
311,-1.87317142
312,1.080707779
313,-2.938996383
314,-2.455022689
315,2.837642433
316,-2.410683418
317,-4.101779014
318,-3.781676793
319,-3.013738939
320,-4.886696536
321,-4.365108835
322,-1.841339136
323,-3.999985628
324,-3.027697066
325,-0.443229528
326,1.537130244
327,-3.46841601
328,-3.647346543
329,-4.067319285
330,-2.15123838
331,-3.266497972
332,-3.501281829
333,-0.108719122
334,-1.999690113
335,-3.247194736
336,-0.950220775
337,-1.8535068
338,-2.772626762
339,-2.282509139
340,-3.321548957
341,-3.160669716
342,-2.362004875
343,-0.519267434
344,-2.504502772
345,-4.707039027
346,-0.751200714
347,-4.026752824
348,-4.16836708
349,-2.40348418
350,-3.772022741
351,-1.778401714
352,-4.345587941
353,-0.656068431
354,-4.337764937
355,-3.26187685
356,-4.490295336
357,-3.617628173
358,-1.779627809
359,0.146792188
360,-4.017481667
361,-2.559083355
362,-3.233518621
363,-4.053418046
364,-3.915137985
365,-3.666459388
366,-1.298907721
367,-1.633015524
368,-3.882713886
369,-3.556061991
370,-2.181950958
371,-0.578851322
372,-0.134288512
373,-4.206001986
374,1.684988863
375,-4.490901621
376,-1.356732377
377,1.321026898
378,-4.789416939
379,-4.871727673
380,-2.4406934
381,-3.591630189
382,-3.046266784
383,-2.227326314
384,-3.577744277
385,-3.379651286
386,-3.512023333
387,1.842966452
388,0.331776344
389,-2.76185308
390,-3.640566901
391,-3.436519587
392,-3.312586909
393,-4.024431277
394,2.251162681
395,-2.861435516
396,1.080707779
397,-2.920746345
398,-3.288215815
399,-2.645206304
400,-0.797353605
401,0.676832965
402,-1.611032316
403,-3.684218609
404,1.039093442
405,-3.589224054
406,-2.883365015
407,-1.69175589
408,-3.496605343
409,-4.100827585
410,-1.538855645
411,-3.56603446
412,-3.456725939
413,-2.890850301
414,-4.122424589
415,-2.981867585
416,-2.97797509
417,-5.208158559
418,-1.839565162
419,-2.227392708
420,-3.709748509
421,-3.467801215
422,-2.371236676
423,-0.036136367
424,-3.22450457
425,-3.45220833
426,-1.626890281
427,-2.403176064
428,-1.689426817
429,-3.401334455
430,2.857042991
431,-2.567065353
432,-3.995343403
433,-4.409045002
434,-1.668948756
435,-2.745395664
436,0.654578883
437,-2.692842899
438,-1.587701592
439,-3.496605343
440,2.250007888
441,-3.506698557
442,-4.163247474
443,-3.647895351
444,-3.163861235
445,-3.272258684
446,-3.343862759
447,-0.706907323
448,-2.41583659
449,-3.624101198
450,-3.868978258
451,-3.414444386
452,-1.249299619
453,-1.483245119
454,-3.130585388
455,-3.398360769
456,1.610856985
457,-3.156495756
458,-4.066395939
459,-3.546063393
460,-2.455022689
461,-2.459320517
462,-2.34020964
463,-2.930603715
464,-0.748387201
465,-2.286274688
466,-3.150937243
467,-4.12182364
468,-2.520613367
469,-3.575291315
470,-4.333571255
471,-0.740511507
472,-2.879195952
473,1.656264736
474,2.25081734
475,-3.58244234
476,-3.844846311
477,1.714794008
478,-4.41901874
479,-4.094719612
480,-0.241311667
481,-2.972870453
482,-2.928517195
483,-1.630592438
484,-2.213611451
485,-4.490295336
486,-3.361180356
487,-3.506698557
488,-1.788456894
489,-3.131842643
490,1.349026959
491,-3.197766978
492,-3.326431721
493,-3.986381228
494,-3.531162548
495,-2.547836883
496,-2.838623496
497,-1.372561904
498,-0.065460461
499,-2.728754012
500,-3.840784375
501,-2.540595676
502,-1.899641216
503,0.041201218
504,-3.315919004
505,-1.044098325
506,-2.995274468
507,0.212329237
508,1.162046434
509,-1.704812511
510,-2.507173841
511,-2.878753559
512,-4.040874235
513,-3.527012594
514,-3.051057355
515,1.480323688
516,-4.038310447
517,-2.243892189
518,-1.68153929
519,-2.982320498
520,-2.504502772
521,-2.409117292
522,-2.741327494
523,1.019694354
524,-3.260796779
525,-1.983299509
526,-1.967271971
527,-4.490295336
528,-3.751202134
529,-4.529111427
530,-3.32113326
531,-4.032876408
532,-3.441063443
533,-1.096540499
534,-1.88189485
535,-3.54500053
536,-1.328801418
537,-2.733282908
538,-2.482980712
539,-2.382611417
540,-1.368551379
541,-2.480585085
542,-3.324881532
543,-4.445732053
544,-3.342525688
545,-3.128941662
546,1.25936042
547,-4.258830003
548,-3.230453784
549,-1.525130527
550,-2.411118193
551,-1.308033573
552,-4.053418046
553,0.49230774
554,-2.761353132
555,-3.882625905
556,-4.150511856
557,-2.308920271
558,-1.287987668
559,-4.722641533
560,0.62937569
561,-3.46841601
562,-1.519509553
563,1.7633161
564,-1.486219806
565,-1.922850656
566,-0.012955558
567,-1.622818552
568,-3.08372445
569,-4.032876408
570,-3.264391747
571,-3.986381228
572,-4.048661322
573,-4.352972645
574,-1.17936755
575,-2.648795012
576,-0.950220775
577,2.020990297
578,-3.322061576
579,1.331804186
580,-3.295941971
581,1.34748893
582,-1.999705206
583,1.907372291
584,-4.697258888
585,-1.308033573
586,2.223009878
587,0.62937569
588,-1.667281222
589,-3.451440901
590,-3.791321077
591,-1.631196544
592,-3.09578282
593,-4.028636868
594,-3.121355223
595,-2.032100549
596,1.933029863
597,-2.658789617
598,-3.127576485
599,-1.914154477
600,-3.897772157
601,1.682817518
602,2.394863525
603,-2.749426812
604,-3.783204166
605,-1.590390613
606,0.796119142
607,-2.415243409
608,-1.958103712
609,-2.028154439
610,-4.785272401
611,-2.089598196
612,-2.358847471
613,-1.616679274
614,-4.654740402
615,-3.428458276
616,-3.832488709
617,-2.195454343
618,-3.617628173
619,0.452907458
620,-1.612196483
621,-2.505721388
622,0.092410288
623,-2.930603715
624,-4.287448503
625,-4.286164609
626,-3.381715985
627,-2.303978279
628,-0.540469103
629,-3.810260061
630,-0.656068431
631,-2.507173841
632,-3.273981251
633,-3.701458721
634,-0.00398556
635,-0.384600191
636,-4.490295336
637,-3.515471235
638,-2.77683154
639,-1.744672339
640,-1.779627809
641,-3.135078217
642,-3.904139105
643,-3.530422523
644,-3.232429962
645,-4.465941043
646,-3.041326387
647,2.234935604
648,-3.363478326
649,-3.266497972
650,-3.046266784
651,-2.541884035
652,-1.983474157
653,-1.796369774
654,-4.348632601
655,-4.789416939
656,-3.49289166
657,-3.000448544
658,-0.806294799
659,-2.274881063
660,-2.749380667
661,-4.298688991
662,-2.568424273
663,2.510268351
664,-4.664465423
665,-3.066262759
666,-4.01278991
667,-3.365023171
668,-4.182374052
669,-2.420019916
670,-2.346746729
671,-2.785658607
672,-0.440478531
673,2.370171116
674,-3.367838401
675,-4.10874875
676,-3.221363885
677,-1.208028607
678,-2.633138376
679,-3.720981245
680,-1.88721479
681,-3.400486985
682,-3.163861235
683,0.074894579
684,-2.748359854
685,-3.315485473
686,-0.299687222
687,-1.182881329
688,-3.66000914
689,1.610856985
690,-1.234266809
691,2.857042991
692,-2.61577911
693,-0.853344065
694,0.228827867
695,-4.41901874
696,1.535426104
697,-0.226374367
698,-2.02529758
699,-1.023538734
700,-3.307230994
701,-2.501368141
702,-4.161193117
703,-3.594089825
704,-3.568762426
705,-2.810944094
706,-3.565827414
707,-3.436399915
708,0.263358649
709,-3.223594029
710,-3.247194736
711,-3.742479833
712,-2.853313346
713,-2.378150385
714,-0.575379012
715,-1.982707561
716,-1.81208575
717,-2.383322438
718,-1.172940113
719,-3.470401184
720,-3.417102356
721,-3.392874444
722,-1.283472395
723,-1.391994719
724,-0.335531049
725,-4.452523492
726,-4.167224202
727,3.258570789
728,-3.653212975
729,-3.031703911
730,-2.243892189
731,-1.853291854
732,-1.243156779
733,-2.40595923
734,1.075739968
735,-2.575129541
736,-3.321993539
737,-4.952297586
738,-2.21349797
739,-1.555255109
740,-3.995507069
741,-2.462736693
742,-3.557686596
743,-1.88721479
744,-2.138990311
745,-0.580451544
746,-3.400486985
747,-3.345038564
748,-2.788826122
749,-3.524103317
750,-3.119517407
751,0.123707691
752,1.933029863
753,-3.381149487
754,-3.286177939
755,-1.498768157
756,-2.540595676
757,-2.893336996
758,-4.178037351
759,-1.246657609
760,-2.405358544
761,-4.075091293
762,-3.267456679
763,-1.643948909
764,-2.62181666
765,-3.964556793
766,-3.849219506
767,-1.589570421
768,-2.851940656
769,-2.442068312
770,-2.703799833
771,-1.118657058
772,-4.000004649
773,-3.185930687
774,-3.651165759
775,-3.90249962
776,-3.226048644
777,-1.76786074
778,-4.258145702
779,-2.878208416
780,0.837077983
781,-2.601878526
782,-1.341369465
783,1.535426104
784,1.535426104
785,0.603883918
786,-1.587701592
787,-1.802430356
788,-3.585040396
789,-3.538840889
790,-3.508082992
791,-2.139326478
792,-3.992117716
793,-3.772022741
794,-3.632274708
795,-3.506718398
796,-2.909334403
797,-3.248772422
798,-3.616777063
799,-2.142788117
800,-3.929642098
801,-3.325203169
802,-3.110847296
803,-4.011265074
804,-3.404721976
805,-2.59668098
806,-3.244097674
807,-3.308385068
808,-2.34020964
809,-2.16978237
810,-3.259071798
811,-3.517666459
812,-3.05082892
813,0.008409685
814,-4.179922828
815,2.251163556
816,-4.053418046
817,-3.322289248
818,-3.267003405
819,-2.81288878
820,-1.802720085
821,-4.132122981
822,-4.952297586
823,-3.525749721
824,1.714794008
825,-2.644247873
826,-1.616679274
827,-3.503416727
828,-1.587701592
829,1.007907298
830,-2.814060558
831,-2.58791024
832,-2.187676067
833,-3.632274708
834,-3.151336291
835,-3.578532055
836,-0.133845976
837,-0.794331358
838,-2.105809156
839,-3.32099793
840,-3.348047951
841,-3.224165959
842,-1.566886845
843,-3.577744277
844,-2.148181195
845,-2.904825262
846,-3.107008474
847,-3.55098941
848,-0.638546658
849,-2.656253228
850,-2.759900584
851,-3.301138153
852,-1.380037501
853,-1.860903536
854,-4.017481667
855,-3.620102323
856,-1.885069008
857,-2.798681433
858,2.394863525
859,-0.517302135
860,-2.102799556
861,-3.937789875
862,-1.903692881
863,-3.694127184
864,-3.632300916
865,-4.726201672
866,-3.651165759
867,-3.862820111
868,-4.318958052
869,-3.360565089
870,-3.523180543
871,-3.585168407
872,-3.667283943
873,-4.19149798
874,-3.6077663
875,-1.80139199
876,-1.793099725
877,-4.18053107
878,-2.228088042
879,-3.320560103
880,-3.041326387
881,-3.903180274
882,-2.043937808
883,1.652617233
884,-2.088568401
885,-4.131737347
886,-2.162754728
887,-3.877026907
888,-3.934774935
889,-2.682760214
890,-3.264391747
891,-3.986381228
892,-3.975637211
893,-3.179458804
894,-3.715116682
895,-2.609169624
896,-3.509279679
897,-3.777323456
898,-1.884426662
899,-2.533536242
900,-3.127576485
901,-3.900018138
902,-2.492184667
903,-3.504702374
904,-2.869928296
905,-2.690011775
906,-2.81236754
907,-3.406093073
908,-0.634575894
909,-2.393675377
910,-3.353874562
911,-4.082512842
912,-2.019135609
913,-2.34020964
914,-3.320778516
915,-0.25373914
916,-3.363800375
917,-1.935001456
918,-1.455255128
919,2.259305443
920,-3.471970034
921,2.250490959
922,-3.273981251
923,-3.273466014
924,-3.512494234
925,-3.631601631
926,-2.885683313
927,-3.68819109
928,0.29800489
929,-1.409536431
930,-2.4406934
931,-4.212660558
932,-1.445358763
933,-3.229356289
934,-0.129889763
935,-3.943677603
936,-4.147683424
937,-4.147683424
938,-3.244640218
939,-2.369803216
940,-2.21349797
941,1.644788912
942,-4.151791455
943,-1.173613021
944,-2.308727574
945,-1.748146729
946,-3.354654887
947,-2.138990311
948,-3.326431721
949,-3.272258684
950,-0.808639388
951,-2.354301002
952,-3.321225088
953,-2.894500811
954,-2.105809156
955,-1.982201041
956,-2.789092962
957,-3.872824617
958,-2.800835071
959,0.618793974
960,-3.306551862
961,-2.690011775
962,1.41368518
963,-1.516240137
964,0.117989889
965,-1.825457269
966,-4.098532399
967,-2.410683418
968,-3.839154525
969,3.574164096
970,-2.61577911
971,-3.49530891
972,-4.394867688
973,-2.008841816
974,-4.029555226
975,1.075135139
976,-3.153353824
977,-1.397688253
978,-3.775934347
979,-3.789951951
980,-2.211625574
981,-2.078843859
982,-1.254202653
983,-2.022922588
984,-2.955785618
985,-2.887040195
986,0.085860672
987,-0.502207721
988,-1.811678643
989,-4.450446111
990,-3.496689383
991,-3.354009509
992,-2.26761651
993,-3.128303896
994,-2.995274468
995,-1.561277471
996,-0.519545299
997,-2.651910312
998,-2.699551107
999,-2.699551107
1000,-3.052896156
1001,-3.004196124
1002,-4.216166572
1003,-2.123903332
1004,1.820102973
1005,-0.086975073
1006,-1.879813994
1007,-0.223740394
1008,-4.322799698
1009,-2.663641482
1010,-4.246107573
1011,-3.525749721
1012,-1.324798565
1013,-3.269325737
1014,-3.041424237
1015,-3.848250536
1016,-3.616444058
1017,2.401921413
1018,-2.788826122
1019,-2.037146553
1020,-0.806294799
1021,-2.822638054
1022,-3.265818142
1023,-3.893524465
1024,-2.095188489
1025,-3.321659692
1026,-3.105259554
1027,-3.926646091
1028,2.548794516
1029,1.27476679
1030,-3.229769721
1031,-4.390748199
1032,-2.943690986
1033,-3.321626496
1034,-4.123898532
1035,-0.801938106
1036,0.438638059
1037,-1.980054502
1038,-2.119688161
1039,-3.360565089
1040,-3.786165114
1041,-3.300837576
1042,2.439903572
1043,-2.220637571
1044,-2.022463671
1045,-4.01509521
1046,-4.291369967
1047,-3.289740423
1048,-4.487237106
1049,1.089490037
1050,-5.123795174
1051,-4.689187805
1052,-3.748754434
1053,2.236340159
1054,-3.078113343
1055,2.034052787
1056,-2.749380667
1057,-3.004196124
1058,-2.820447874
1059,-4.112679411
1060,0.583020188
1061,0.63390439
1062,-3.695049415
1063,1.374862089
1064,-3.643409845
1065,-0.129889763
1066,-3.451440901
1067,-4.867343261
1068,-1.937783341
1069,-3.000448544
1070,-1.522155501
1071,-3.346074763
1072,-3.320649351
1073,-3.136466897
1074,-3.163371275
1075,-1.751596995
1076,-3.273466014
1077,-3.836031018
1078,-3.346392621
1079,-3.496670355
1080,-2.478677713
1081,-1.38619142
1082,-4.012305843
1083,-4.419914343
1084,-4.425569311
1085,-1.170691364
1086,0.340626191
1087,0.340626191
1088,-4.282962474
1089,-3.231460059
1090,1.332266469
1091,-3.777323456
1092,2.25059479
1093,-3.385704091
1094,2.076854276
1095,-4.383809844
1096,-3.559507279
1097,-4.031630974
1098,-2.646393362
1099,-4.871727673
1100,-5.052445301
1101,-5.117950588
1102,2.102289889
1103,1.21773647
1104,-2.298002715
1105,-4.352972645
1106,-3.042275676
1107,-2.439172807
1108,-3.37171785
1109,-4.044800118
1110,-2.981320214
1111,-3.038248832
1112,0.510892741
1113,-4.041172625
1114,-3.589044133
1115,-0.324367318
1116,-4.302710369
1117,-2.199218732
1118,-1.69145223
1119,-1.137493221
1120,-3.723929311
1121,-2.41805041
1122,-3.067889459
1123,-1.010151758
1124,-3.888497584
1125,0.951959466
1126,-4.066431785
1127,1.714794008
1128,2.107522766
1129,-2.739351113
1130,-3.828584357
1131,-4.102200519
1132,-4.329937736
1133,-3.496779119
1134,-2.630578401
1135,-1.603125496
1136,-2.37948553
1137,-1.735130467
1138,-3.602693671
1139,-3.793461204
1140,0.046716279
1141,-2.849355551
1142,-2.022683991
1143,-0.272759244
1144,-1.903289417
1145,-1.386512532
1146,-1.071586674
1147,-3.819856276
1148,3.094874964
1149,-2.341969623
1150,-3.059147796
1151,-1.341955595
1152,-1.681181731
1153,-2.757835795
1154,-3.091453643
1155,-4.040874235
1156,-3.435936196
1157,-1.671671278
1158,-4.064841149
1159,-3.022947354
1160,-2.761353132
1161,-3.835156223
1162,0.265202558
1163,-3.090518099
1164,-1.277685696
1165,-2.854817013
1166,-1.392986682
1167,-3.486435091
1168,-1.529561385
1169,-3.177668802
1170,-1.492933039
1171,-3.155100044
1172,-3.842721769
1173,-3.321272822
1174,-4.075147823
1175,-3.297132487
1176,-3.769791858
1177,-2.218742704
1178,-3.255220978
1179,-4.122424589
1180,-2.068798869
1181,-2.374498822
1182,-3.514748438
1183,-2.545698392
1184,0.046716279
1185,-3.73544257
1186,0.123707691
1187,1.438745423
1188,-1.932322761
1189,-2.703370332
1190,-3.911624689
1191,-4.293605672
1192,-3.320786487
1193,-4.331141933
1194,-3.01431572
1195,2.248113433
1196,2.230611877
1197,-3.052441257
1198,-1.840177436
1199,-2.032282196
1200,1.28525057
1201,1.933603202
1202,-2.155653579
1203,-3.774409197
1204,-3.554839202
1205,-3.589817318
1206,-2.092385378
1207,-0.651060011
1208,-2.325915236
1209,-0.919907982
1210,-3.58244234
1211,-4.052269635
1212,-3.663414952
1213,-3.474995355
1214,-2.72679329
1215,-3.18399054
1216,-2.849548716
1217,-3.503416727
1218,-3.68928603
1219,-3.490304105
1220,-3.624572533
1221,-3.823980923
1222,-2.445081505
1223,-2.924230086
1224,-2.218742704
1225,-3.321415663
1226,-3.627805515
1227,0.966693504
1228,-0.272759244
1229,-2.582989863
1230,-3.341907753
1231,-2.774033804
1232,-3.326287954
1233,-3.594486796
1234,-0.670784373
1235,-3.634517812
1236,-3.616777063
1237,-3.296147585
1238,-3.242318036
1239,-1.284820164
1240,-0.375290382
1241,-3.868337265
1242,-3.038441083
1243,-3.479982432
1244,-3.295382703
1245,-2.60234318
1246,-2.995106148
1247,-3.626427863
1248,-3.853732866
1249,-4.098117515
1250,-3.684067914
1251,0.483725958
1252,1.629956532
1253,-1.825490643
1254,2.250734072
1255,-3.322388834
1256,1.419022227
1257,-3.667853838
1258,-3.544957138
1259,-3.639357369
1260,-2.639771524
1261,-2.017090755
1262,1.563628849
1263,-3.441016704
1264,-3.539357238
1265,-2.979975941
1266,-2.605899858
1267,-2.232778793
1268,-3.763444783
1269,-3.646211954
1270,-4.111125068
1271,-4.111125068
1272,-3.760641903
1273,-3.321993539
1274,0.582858119
1275,-2.047130162
1276,-3.08446547
1277,0.747023737
1278,-3.564243601
1279,-3.597264307
1280,-3.465440513
1281,-1.779297176
1282,-3.269325737
1283,-3.624150415
1284,-2.782270752
1285,-2.303978279
1286,-0.829526172
1287,-3.194487071
1288,-4.067319285
1289,-3.559754796
1290,-2.604419399
1291,-3.428739815
1292,-3.497133183
1293,-3.693414425
1294,-2.541909903
1295,-3.410388353
1296,-3.168164733
1297,-3.557331698
1298,-3.455369919
1299,-4.302710369
1300,1.536150303
1301,-4.167805821
1302,-2.964510314
1303,-1.539608529
1304,-3.42951641
1305,2.249977199
1306,2.037007547
1307,-3.876236686
1308,-2.025056655
1309,-2.28562637
1310,-1.566804541
1311,-2.207715726
1312,-1.998064475
1313,-3.949753161
1314,-2.311282313
1315,-3.288271713
1316,-3.634761583
1317,-3.754089332
1318,-3.378888689
1319,-4.094851107
1320,1.822041449
1321,-1.609272477
1322,-1.998914344
1323,-3.962645627
1324,1.080707779
1325,-3.208629227
1326,-4.119406037
1327,-3.321415857
1328,-4.833470651
1329,-3.950455123
1330,-3.363800375
1331,-1.593802121
1332,-3.562770485
1333,-2.712540118
1334,-3.422777867
1335,-4.361059063
1336,-3.37292182
1337,-4.356606473
1338,-4.099677689
1339,-3.534798032
1340,-2.322689233
1341,-3.433692738
1342,-3.227508555
1343,2.036537268
1344,-3.428490291
1345,-2.797301717
1346,-3.987881553
1347,-2.431880236
1348,-3.373461575
1349,-3.815801681
1350,-3.440857748
1351,2.288139171
1352,-2.910663297
1353,1.068557494
1354,-0.8710119
1355,-3.48651249
1356,-5.287475733
1357,-2.319947717
1358,-4.147683424
1359,-4.080105146
1360,-3.697977891
1361,-0.403551366
1362,-2.688668624
1363,-0.375777474
1364,-2.218332238
1365,-3.323801019
1366,-3.269325737
1367,-3.070744333
1368,-2.791688198
1369,-3.271589576
1370,-2.767305136
1371,-4.255944315
1372,-2.838677255
1373,-4.051570051
1374,-3.546216076
1375,-4.250461532
1376,-2.999020418
1377,-4.054175075
1378,-1.298907721
1379,-3.379052743
1380,-4.410408981
1381,-4.556926182
1382,-4.16225419
1383,-2.525727944
1384,-0.771688319
1385,-3.362314955
1386,-3.424651484
1387,-1.918790658
1388,-3.508082992
1389,2.227844002
1390,-1.969366945
1391,-2.940564345
1392,1.985455047
1393,-2.737572031
1394,-1.085875972
1395,-3.979524681
1396,0.789753759
1397,-3.88580664
1398,-1.915673942
1399,-2.995739236
1400,-2.318799566
1401,-3.954434581
1402,-4.482360823
1403,1.682697315
1404,-2.573166557
1405,-3.40948297
1406,-3.796371156
1407,-3.321388452
1408,-3.520532497
1409,-1.768032315
1410,-2.566264944
1411,-2.447485941
1412,-1.808353419
1413,-3.062446873
1414,1.447553676
1415,0.935136354
1416,-0.384339826
1417,-2.332812688
1418,-3.645636537
1419,-3.220099967
1420,-1.340298201
1421,-1.457304178
1422,-1.781046534
1423,-2.146750078
1424,-3.3210972
1425,-1.143004229
1426,-1.227582676
1427,-3.490899
1428,-3.490884832
1429,-3.538528231
1430,-3.224165959
1431,-3.611096784
1432,-3.821339326
1433,-4.210259676
1434,-2.178380008
1435,-3.848160233
1436,0.618793974
1437,0.452907458
1438,-2.25812415
1439,-3.244536152
1440,-4.412550917
1441,-4.561908401
1442,-3.412201525
1443,-2.258350034
1444,-3.091098884
1445,-2.271528719
1446,-3.340620034
1447,-3.655958722
1448,-3.41104108
1449,-2.170611671
1450,-2.593558935
1451,-3.745203504
1452,-3.397867652
1453,-3.383298367
1454,-2.226215851
1455,-2.328247266
1456,-3.229873352
1457,-2.270089634
1458,-3.707368137
1459,-3.647502403
1460,-3.621480244
1461,-3.321292545
1462,-3.582790819
1463,-0.844253077
1464,-5.485367408
1465,1.872211161
1466,-1.019729162
1467,-3.559372538
1468,-3.850904018
1469,-2.790691434
1470,-1.498938477
1471,-1.190669752
1472,-4.02221146
1473,-2.334442297
1474,-3.333492387
1475,-3.006034747
1476,-3.385891601
1477,-3.454092592
1478,-1.437708827
1479,-3.631750446
1480,-5.155957357
1481,-3.598762825
1482,-3.624711249
1483,-1.942231087
1484,-3.575787139
1485,-3.331271964
1486,-3.567782927
1487,-3.570624747
1488,-2.715567146
1489,-4.470123097
1490,0.524802953
1491,-3.041475766
1492,-3.741110565
1493,-2.747400014
1494,-3.891715751
1495,-1.918150944
1496,-1.815649972
1497,-2.491704501
1498,-3.408469977
1499,-4.618388004
1500,-2.824897167
1501,-3.843183405
1502,-2.541095259
1503,-3.504739579
1504,-3.666837128
1505,-4.269452952
1506,-3.68819109
1507,-3.263509227
1508,-3.152102746
1509,-2.815262451
1510,-3.618442448
1511,-0.817703063
1512,-4.212660558
1513,-3.219217863
1514,-3.519374067
1515,-2.844654399
1516,1.656264736
1517,-3.496670355
1518,-3.255007634
1519,-0.036447449
1520,-3.835156223
1521,-3.533758192
1522,-3.760641903
1523,-2.675291194
1524,-3.469139262
1525,-2.258607196
1526,-2.588811571
1527,-4.625132824
1528,-2.654669439
1529,-3.552229719
1530,-0.806456748
1531,-4.017433097
1532,-2.708850097
1533,-1.489836625
1534,-1.667281222
1535,-2.404066357
1536,-3.315803066
1537,-2.77530135
1538,-0.854478556
1539,-1.519509553
1540,-1.913912653
1541,-1.488942319
1542,-2.555951761
1543,-3.041326387
1544,-2.966449163
1545,-2.02529758
1546,-2.77369793
1547,-2.134252239
1548,-3.782385329
1549,-3.786183413
1550,-1.255935619
1551,-2.901643835
1552,-3.726706316
1553,-4.529335711
1554,-3.064380407
1555,-1.149296202
1556,-3.323312335
1557,-3.94279223
1558,-3.61996182
1559,-2.733593063
1560,-3.720964215
1561,-2.8518369
1562,-4.190799335
1563,-1.748146729
1564,-3.438896787
1565,-2.668826498
1566,-2.107076176
1567,0.86583939
1568,-4.79241451
1569,-1.372145811
1570,-2.552847156
1571,-0.825365643
1572,1.912318185
1573,-3.739751413
1574,-3.805408254
1575,-4.112405208
1576,-4.17191066
1577,-4.160272092
1578,-3.716841346
1579,-4.985115272
1580,0.085860672
1581,-0.14731006
1582,-2.737572031
1583,-4.889424416
1584,-3.188677043
1585,-3.487697506
1586,-4.478933202
1587,-3.618569055
1588,-4.184624938
1589,-3.300320109
1590,-5.066273555
1591,-4.284124999
1592,-4.040087831
1593,-3.01902686
1594,2.330586832
1595,-3.095274903
1596,-2.318954074
1597,-3.321443845
1598,-3.800894235
1599,-4.346325614
1600,-4.767241571
1601,-1.652615144
1602,-2.278820377
1603,-2.609478265
1604,-4.166519284
1605,-2.895519461
1606,-3.665114887
1607,-4.777156161
1608,-4.085320174
1609,-3.309481476
1610,-2.947008325
1611,-2.915018233
1612,-1.030259855
1613,-0.978034877
1614,-3.381043474
1615,-4.130667961
1616,-3.134393409
1617,-3.68616666
1618,-2.43079138
1619,-3.130240424
1620,-2.457220911
1621,-4.001441645
1622,-2.797477179
1623,-2.225499202
1624,-3.640307721
1625,-1.919517065
1626,-3.321292545
1627,-3.322181026
1628,-2.634544137
1629,-3.662852589
1630,-2.790691434
1631,-3.59320912
1632,-3.217700526
1633,-3.321518386
1634,-3.994469625
1635,-4.16632594
1636,-1.474355931
1637,-2.879347609
1638,-4.060361085
1639,-3.142821801
1640,-3.867163358
1641,-3.288915103
1642,-3.650505568
1643,-3.982976874
1644,-2.936245305
1645,-3.308385068
1646,-3.197879781
1647,-1.215602994
1648,-3.72170848
1649,0.663235137
1650,-3.322187044
1651,-0.439379416
1652,-2.01902198
1653,-4.283778211
1654,-3.321815189
1655,-3.771855211
1656,-2.448559182
1657,-1.935001456
1658,-2.866711059
1659,-3.716095586
1660,-3.686183733
1661,-3.941378752
1662,-2.430062856
1663,2.845904652
1664,-4.08917548
1665,-3.228864894
1666,-4.324740687
1667,-4.646088076
1668,-3.321104593
1669,-5.216744069
1670,-5.794588557
1671,-3.708665165
1672,-4.965033712
1673,-4.960426527
1674,-1.951223621
1675,-3.430021423
1676,-3.619428354
1677,-4.611493239
1678,-3.759236433
1679,-3.759142944
1680,-3.670003237
1681,-3.660249927
1682,-4.314870606
1683,-4.227742165
1684,-3.32170731
1685,-3.6956328
1686,-3.321774306
1687,-3.454466003
1688,-0.768809024
1689,-3.420124661
1690,-5.974556825
1691,-3.504739579
1692,2.257720911
1693,-2.427812543
1694,-2.587663692
1695,-3.234680398
1696,-2.048801755
1697,-3.09156103
1698,-3.786979711
1699,-3.86584726
1700,-3.424261064
1701,-1.642035135
1702,-1.298179597
1703,-3.214083158
1704,-0.301313601
1705,-3.943212197
1706,-0.475845258
1707,-3.317351507
1708,-3.168588287
1709,-3.493738025
1710,-0.726169898
1711,-2.703928716
1712,-3.91896756
1713,-3.077842951
1714,-4.228673663
1715,-2.266676251
1716,-3.914333921
1717,-4.086157584
1718,-1.607714345
1719,-4.690225974
1720,-3.335809174
1721,-4.991796001
1722,-3.749525513
1723,-3.488117614
1724,-3.842336761
1725,-4.442540504
1726,-3.147080069
1727,-4.332042702
1728,-2.464653176
1729,-4.252145407
1730,-4.576536174
1731,-3.340611416
1732,-5.491280284
1733,-4.14860322
1734,-4.676857139
1735,-2.713660057
1736,-4.784482467
1737,-4.003958388
1738,-4.11089583
1739,-3.761023659
1740,-3.706266858
1741,-2.849548716
1742,-3.910188559
1743,2.107522766
1744,1.500254245
1745,0.368652233
1746,-2.982649421
1747,-3.040715069
1748,-2.560204177
1749,-2.174028898
1750,-3.070744333
1751,-3.636775181
1752,-4.555006464
1753,-0.698407815
1754,-4.3512947
1755,-3.460062031
1756,-3.421282509
1757,-0.174601439
1758,-3.554609812
1759,-3.640566901
1760,-4.783726866
1761,-0.697029091
1762,-1.811678643
1763,0.452907458
1764,-3.320872854
1765,2.25003987
1766,-2.364333816
1767,2.370206681
1768,-1.607334462
1769,-0.015963411
1770,-2.943690986
1771,-4.000004649
1772,1.28525057
1773,-0.740805853
1774,-4.183061124
1775,1.13548164
1776,-3.208018814
1777,-3.651843857
1778,-4.052269635
1779,-3.321887203
1780,-2.381624102
1781,-3.910188559
1782,-3.174697926
1783,-2.490223772
1784,1.131405068
1785,0.89246198
1786,-3.735009087
1787,-2.885578831
1788,-3.754228772
1789,-3.211650602
1790,-4.17191066
1791,-4.407344053
1792,-3.514199822
1793,-3.65096411
1794,-3.062446873
1795,-3.354009509
1796,-4.792860194
1797,0.720445078
1798,-3.135078217
1799,1.682817518
1800,-0.797466791
1801,-3.147621482
1802,-3.259071798
1803,-1.391070493
1804,0.588457711
1805,2.112393186
1806,-4.107665164
1807,-3.786165114
1808,-5.289949469
1809,-3.366899061
1810,-3.493738025
1811,-1.051777956
1812,-1.217624521
1813,0.086848973
1814,-0.311430296
1815,-4.500552873
1816,-3.21254137
1817,-4.871727673
1818,-3.321398969
1819,-3.674610972
1820,2.576965555
1821,-2.601055413
1822,1.089490037
1823,-0.690692335
1824,-3.704307174
1825,-1.096540499
1826,-1.096540499
1827,-6.49793604
1828,-3.5650659
1829,1.891901112
1830,-1.14567488
1831,-3.14734763
1832,2.701981351
1833,-1.919517065
1834,-3.629174686
1835,-3.00916554
1836,-3.981103033
1837,-0.578302837
1838,-2.989429983
1839,2.361321175
1840,-2.049894988
1841,-3.136466897
1842,-2.548120816
1843,-3.666779166
1844,-2.67736616
1845,-3.32109875
1846,-1.777715782
1847,-2.008841816
1848,-1.996564895
1849,-2.47150999
1850,-4.763368442
1851,-0.384600191
1852,-3.666646728
1853,-3.667283943
1854,-4.465941043
1855,-3.941318796
1856,1.216484698
1857,-1.016280547
1858,-3.684280718
1859,-4.309450371
1860,-3.45924862
1861,-3.71816462
1862,0.131446587
1863,-1.469934928
1864,-3.007400406
1865,8.405000178
1866,-3.41104108
1867,-4.215757544
1868,-1.967288842
1869,-3.321415857
1870,1.511552232
1871,-3.41305985
1872,0.087444243
1873,-2.096810862
1874,-4.126963072
1875,-2.288580456
1876,-1.898993611
1877,-2.963533349
1878,-3.271972773
1879,-3.189976772
1880,-3.614540056
1881,-2.967975895
1882,-5.648271609
1883,-2.996776276
1884,-3.800178126
1885,-3.54569727
1886,-1.184195338
1887,-4.018718436
1888,-3.671857171
1889,-4.317761947
1890,-1.730501947
1891,-4.818439433
1892,-1.900769204
1893,-4.870961071
1894,-2.713790715
1895,-3.911931852
1896,-3.322534917
1897,1.444335468
1898,-4.796442554
1899,-1.14567488
1900,1.696881063
1901,-3.96183728
1902,-1.107946218
1903,-2.492184667
1904,2.122422299
1905,2.592050943
1906,-3.385704091
1907,-3.146989979
1908,-2.123903332
1909,-3.321901792
1910,2.957544445
1911,-3.773615786
1912,2.656504923
1913,2.250676578
1914,-3.321855817
1915,-4.588832058
1916,-3.271972773
1917,-3.653614859
1918,-2.490104933
1919,-1.051777956
1920,-2.982649421
1921,-6.403959874
1922,-4.167446669
1923,-2.741072937
1924,-3.957859089
1925,-4.181340275
1926,-3.483618707
1927,-3.618569055
1928,-2.539365815
1929,-4.9341257
1930,-3.57286327
1931,-5.226146382
1932,-5.378532075
1933,-3.958567242
1934,-3.385887553
1935,0.089828972
1936,2.251115426
1937,-3.342254184
1938,-4.261581286
1939,-3.83959194
1940,-3.131589018
1941,1.76782668
1942,-1.36254757
1943,-4.061332773
1944,-3.868259921
1945,-3.689586254
1946,-3.735604243
1947,-3.361142115
1948,-1.669296811
1949,-4.282920737
1950,-4.175402074
1951,-3.352337468
1952,2.471790987
1953,-5.478405698
1954,-4.276531907
1955,-5.440282756
1956,-3.511961484
1957,-3.79710515
1958,-5.794977669
1959,-4.788742856
1960,-5.838172557
1961,-3.949686712
1962,-3.764998559
1963,-5.307568428
1964,-2.87199696
1965,-3.429836314
1966,-4.187783998
1967,-3.473174596
1968,-3.514789198
1969,-4.039203069
1970,-5.481945232
1971,-4.275046286
1972,-5.180606127
1973,-2.827255817
1974,-1.314889073
1975,-4.079440758
1976,-4.525730706
1977,-3.526221351
1978,1.269407081
1979,-4.381253911
1980,-2.608270348
1981,-3.598935613
1982,-3.42953181
1983,-1.839565162
1984,-3.211189045
1985,-3.830182384
1986,1.596274434
1987,2.012628618
1988,-1.929341934
1989,-0.515039335
1990,-1.529561385
1991,0.510892741
1992,-2.855148049
1993,-2.443238363
1994,-3.882713886
1995,-3.374813084
1996,-3.570661633
1997,-3.265818142
1998,-3.715365234
1999,2.044739021
2000,-3.40626049
