Id,Predicted
1,-3.485713444145476
2,-1.7393703680592796
3,-3.4947728054055784
4,-3.4115331919867042
5,-2.118251868356858
6,-4.064400369323569
7,-3.7107184273158516
8,-3.046884275512173
9,-2.412043942768959
10,-4.110253628548093
11,-3.9573809128853576
12,-2.4611861976387934
13,1.001490835706528
14,-3.024926224932278
15,-4.3036669884978505
16,-3.7805348122538622
17,-3.7567016468312078
18,-2.6208296250133385
19,-1.6033415396582942
20,-2.161735263734312
21,-3.541685186024851
22,-3.80921107402609
23,-1.5088634380222878
24,-3.4507338042591793
25,-3.5898581083802354
26,-3.586011932724997
27,-2.232161994140938
28,-1.2343687173560984
29,-3.206766605779408
30,-2.5161417107180712
31,0.11835015764881757
32,-4.110253628548093
33,-3.7360271177196456
34,-3.6400784888886637
35,-3.977805801118937
36,-2.681141086760256
37,-3.878847391767877
38,-3.854818236439571
39,0.10971665810441517
40,-3.682302438059075
41,-3.7360271177196456
42,-2.1736680015631054
43,-4.321796901421558
44,-3.9466450855647968
45,-4.064400369323569
46,-4.249389654335728
47,-1.5549878153425452
48,-3.430095798188568
49,2.307832321456641
50,-3.7193388752603664
51,-3.7805348122538622
52,-4.262988544290443
53,-3.581450919151009
54,-2.130130512311941
55,-3.8101828937441966
56,-0.39474097773533723
57,0.11835015764881757
58,-4.022020323783509
59,-3.7360271177196456
60,-1.3056405375907716
61,-3.5202086090637783
62,-3.3725283429785624
63,-3.456083734250338
64,-4.7202036728160826
65,-2.8721474082042424
66,-3.0760366626961773
67,-3.578402114085824
68,-0.25914500804120144
69,-3.9187896629631402
70,-2.358107742869412
71,-4.7195695237125275
72,-3.7515465090370403
73,-3.3303288587605184
74,-3.3725283429785624
75,-2.569195015405321
76,-0.9335194401710557
77,-2.1290620480380973
78,-2.5208696461660542
79,-4.518941201530329
80,-1.3013722958627134
81,-3.7795451588863465
82,0.9381251548852687
83,-2.506359593530911
84,-3.962590680850772
85,-2.802482936277525
86,-2.204485215438476
87,-2.161735263734312
88,0.7510219573066539
89,-2.459433857277446
90,-3.4808717773533733
91,-2.9370189514850478
92,-1.8246281790372694
93,1.8119581254296309
94,-3.67721146693612
95,-4.000894005477841
96,-1.4580397111143082
97,-4.081023290837456
98,-4.44566171243313
99,-3.7801557074535137
100,-4.097568541812306
101,-3.8557556372898807
102,-0.766644300821268
103,-3.7991951786701557
104,-3.634368871612629
105,-2.7450472440482945
106,-3.5332396179332157
107,-3.1326910973911404
108,-1.1290423925223363
109,-3.2723025313745904
110,0.27512941679733427
111,-4.077570669722873
112,-2.0410744387967896
113,-3.663783751496409
114,-3.7535224171127672
115,-1.8100163655832275
116,-2.770194118930356
117,-4.389801773173976
118,-2.2403294665101905
119,-2.613296106606978
120,-2.1981345825060497
121,-1.4580397111143082
122,-4.474732604633064
123,-4.076763313552705
124,-4.037370291969923
125,-3.6400784888886637
126,-2.444495220589995
127,-4.493036021991302
128,-3.539612538400798
129,-3.4808717773533733
130,-0.9717701460256355
131,-2.412043942768959
132,-2.7887681694936632
133,-3.6098435009912033
134,-2.8013080208911414
135,-3.3157336812191764
136,-1.0448644546636898
137,-3.700288645144398
138,-3.8465057773716222
139,-3.562880227410423
140,1.3661113240357383
141,-2.183790501274041
142,-3.4933941229609777
143,-4.077570669722873
144,1.5082474045093968
145,-3.032814696684763
146,-3.8918842804259266
147,-3.9320872879524438
148,-3.1318385523374204
149,-1.077489630992457
150,2.494837068639147
151,-2.0169662741011787
152,-3.1856770022822296
153,-3.2593536818753472
154,-3.166086924879082
155,-3.917508421432004
156,-1.6210261459546327
157,2.730997652142651
158,-3.7795451588863465
159,-3.9993773866345976
160,-4.097568541812306
161,-4.0035190767709095
162,-2.4665379634200195
163,-3.297105564655512
164,-1.9746062079860411
165,-3.0248461360485495
166,-1.879995675392104
167,-2.917286868090875
168,-2.6883710851325326
169,-3.5563107021083367
170,-3.813055347337118
171,1.5414856901127119
172,-3.998199991666771
173,-3.339969136711654
174,-2.7800317464472752
175,0.6693757691275445
176,-2.294539738202356
177,-2.9132108706351514
178,-2.9132108706351514
179,-2.4105277472275284
180,-1.4580397111143082
181,-1.2621280236805306
182,-3.803522412824112
183,-0.3969642553149928
184,-0.8677549659295716
185,-3.778635624498423
186,-2.998522446058607
187,-4.438838635440989
188,-2.008088285647881
189,-0.5674477362176248
190,-1.8300917059683834
191,-3.053574510148706
192,-1.5913936944266853
193,-2.802482936277525
194,-3.1922567536633926
195,-4.161867242424227
196,-4.212786287130555
197,-2.580334936415078
198,-2.992379529958513
199,-3.1249334927072576
200,-0.42217446353643256
201,-3.8226262245845493
202,-3.8540952708295673
203,-3.872581530660784
204,-4.417492921527205
205,-3.3648278387513413
206,-2.536283829532587
207,-1.454656472893248
208,1.5298741225784198
209,-4.3877750267874305
210,-2.500525540785217
211,-0.9403713461798395
212,-2.9575345377848548
213,-0.2811188264414729
214,-2.5130403469359743
215,-3.7883633640313534
216,-3.7801557074535137
217,-2.5345388358231906
218,-4.472308140936339
219,-3.148923724408732
220,-1.5741459852243331
221,1.8313044677658845
222,-4.470524989992007
223,-3.0112603375116156
224,-3.6681025773010725
225,-2.4997160422650246
226,-3.4080226568991567
227,-2.646795320503958
228,-1.8077806843393411
229,-2.2287590459647912
230,-2.3554505727824733
231,-2.613296106606978
232,-3.8946892927196726
233,-0.9857440122019443
234,-0.9857440122019443
235,-3.712848167723251
236,-2.994249521122504
237,-4.143394844281827
238,0.6158262413458998
239,1.0880236471879292
240,-1.6351915750358863
241,-3.219549393358361
242,-3.0926960140685873
243,-0.9427527501094085
244,-2.182674311001393
245,-3.430873623281422
246,-0.25914500804120144
247,-4.019568998236557
248,1.528782877251945
249,0.43621993423795363
250,-3.6960400897951646
251,-2.416777867899377
252,-4.16293642430233
253,-1.3056405375907716
254,-1.1295405786942088
255,-3.9557049338184607
256,-2.16042769767163
257,-1.1075667234525248
258,-2.4901473072201172
259,-3.2981695632319674
260,-2.956174643941229
261,-3.2172841633454894
262,-3.1856770022822296
263,0.10971665810441517
264,-2.7509083484974406
265,-3.390963232293781
266,-3.4657157109261054
267,1.8313044677658845
268,-3.869983433306443
269,0.04089118141280394
270,-3.6452441388765884
271,-4.110253628548093
272,-2.1105507130297894
273,-2.8681405601246435
274,-3.790976674680725
275,-4.193984033539094
276,-1.9779506118995014
277,-3.3096167932510117
278,0.6158262413458998
279,0.6158262413458998
280,-2.7066738719486794
281,-3.8431376838692293
282,-2.282477579682735
283,-2.7430684410956627
284,-1.830962076933
285,-3.9955349276971748
286,-3.42983754301726
287,-3.3787203392538174
288,-0.8220458111438538
289,-2.761350886081814
290,-2.2462906665452915
291,2.494837068639147
292,-3.82021866126001
293,-3.7077177151706637
294,-1.1109403847935548
295,1.0421192287177796
296,-2.9266012892410918
297,-1.9682928521513539
298,-1.7540520860487874
299,-2.533229607972751
300,-3.590724054206266
301,-0.9619611634161759
302,-3.592793256117186
303,-2.1612096833589463
304,-1.476401725598047
305,-1.344639053234676
306,-3.1957454691281697
307,-0.9335194401710557
308,-2.008088285647881
309,0.86079292663651
310,-2.733201939010815
311,-1.7381305319478135
312,0.7517470470777398
313,-2.891418315628025
314,-2.6127463941533327
315,2.0480706061682263
316,-1.6375417566040649
317,-4.293682436199095
318,-3.587640912792449
319,-3.3157336812191764
320,-4.339592246562626
321,-4.043975356531523
322,-2.1426419880875476
323,-3.790976674680725
324,-3.1167514288961677
325,-0.39207106519063073
326,0.8455740304078876
327,-3.096606409545628
328,-4.4531154407845825
329,-3.853842392268116
330,-2.646672442536464
331,-3.669695921824088
332,-2.998522446058607
333,-0.12401387950980718
334,-2.344411582906556
335,-3.0292638523278423
336,-0.6015370254736812
337,-2.5130403469359743
338,-2.7375276032879197
339,-2.444807999258746
340,-3.4977350893051047
341,-3.454466797095654
342,-2.2688638054482575
343,-1.5913936944266853
344,-2.668315985356698
345,-4.319812214024276
346,-0.6109775644458914
347,-3.1922567536633926
348,-4.004592050458642
349,-3.0257176834880313
350,-3.6820073237758812
351,-2.478312412514112
352,-3.8540952708295673
353,-0.7014685125672544
354,-4.653218082633027
355,-3.6373183949281396
356,-4.235230716694715
357,-3.75947306913593
358,-1.80545467955182
359,1.5291895136035676
360,-3.4632722291551103
361,-2.8445673878871767
362,-2.7578370151771963
363,-3.667922445434426
364,-4.418523676053106
365,-4.470753846478597
366,-1.4092949773072825
367,-1.9273992365060089
368,-4.440888094088218
369,-3.598016002131906
370,-2.493021183110413
371,-0.6858683361175464
372,-0.9403713461798395
373,-4.191703262372419
374,1.0848406558532488
375,-4.833661818775617
376,-1.459344458441706
377,0.7570427772084325
378,-5.019339901773528
379,-5.052577905978155
380,-1.5583394609276846
381,-3.7189112875747408
382,-3.164747428537819
383,-2.776574484523618
384,-3.4770422976250632
385,-2.479156613308763
386,-3.700288645144398
387,2.2889405045377416
388,0.8351093442221293
389,-3.1459450848371633
390,-3.813055347337118
391,-3.9905908182578713
392,-3.124790330090818
393,-3.9320872879524438
394,1.5305026146390464
395,-2.7226371558247746
396,0.7517470470777398
397,-2.667879547438695
398,-3.517393168333283
399,-2.618804446650996
400,-0.7629952071257072
401,0.620616579692774
402,-1.1298932855094046
403,-3.567494313808502
404,0.8363711152665911
405,-3.6960400897951646
406,-3.1334569603329046
407,-1.9876261234070867
408,-3.503096877652085
409,-3.8361287139797686
410,-1.686051524115952
411,-3.873985080356494
412,-3.9472194315712357
413,-2.8059633787072924
414,-3.5630317718572804
415,-3.492219291193247
416,-3.1783710750925285
417,-4.487485435822629
418,-2.4451471362014883
419,-1.7136223690855146
420,-3.9193346720091506
421,-3.230909801633303
422,-1.6880656108280119
423,0.0
424,-3.3238493590696914
425,-3.3346231596795253
426,-1.6210261459546327
427,-2.6582972068085837
428,-1.3479048275687067
429,-3.2247665025611294
430,2.3653440255136116
431,-2.3877606585248
432,-3.8574618785081585
433,-4.090227982608306
434,-2.7223271253227392
435,-3.4330764990450047
436,-0.5520189819894482
437,-2.8537141100611234
438,-0.8647670082169908
439,-3.503096877652085
440,1.530043507748153
441,-3.659405744151384
442,-3.9498881829163244
443,-3.927537156543123
444,-3.4550142544339026
445,-3.6456209001692397
446,-3.522568373022065
447,-0.6608378322091015
448,-1.7672551772407068
449,-3.976112622471396
450,-3.713091925043277
451,-2.5526386590589154
452,-1.224949439385563
453,-1.344639053234676
454,-3.0692784443901044
455,-3.7057604844029846
456,3.0132377881797914
457,-2.932624469380312
458,-4.260439548552237
459,-3.5532784363073135
460,-2.6127463941533327
461,-2.328355431041284
462,-2.0986676516423346
463,-3.1295576706839032
464,0.8987564531654808
465,-2.257099566876275
466,-2.6798785869195814
467,-3.980125297114956
468,-2.8610909970365723
469,-4.069005385521897
470,-3.983856642895934
471,-0.38418216555718976
472,-1.5678687689056625
473,0.18260833011678115
474,1.5292327547491786
475,-3.68700718706204
476,-3.606656220862314
477,1.2672792432626145
478,-3.649408226711826
479,-3.5439633398878496
480,-1.116508287146053
481,-3.1816036488982475
482,-3.5645457760407693
483,-1.6625804273656466
484,-1.4022551518315576
485,-4.235230716694715
486,-3.4938857773914447
487,-3.659405744151384
488,-2.645548999247381
489,-3.5344239995810782
490,1.5293475688035247
491,-3.294045758219716
492,-3.697143793839358
493,-4.200569932989326
494,-3.911217295613129
495,-2.72595970052013
496,-3.1016228192113946
497,-1.3526054619332062
498,-0.3588916946683112
499,-1.4495430989930689
500,-3.9653678970754473
501,-1.597617613053568
502,-2.1024200623659794
503,0.6880105878638316
504,-2.6442715019140843
505,-0.9180405418653211
506,-2.536283829532587
507,0.0
508,0.6988963443802181
509,-1.8300917059683834
510,-2.533462597219941
511,-1.7034944133093275
512,-3.9088680911218083
513,-3.989232106760759
514,-3.639419299947781
515,1.7435643247668737
516,-4.08502151390573
517,-1.9111758093051894
518,-1.9905484373367703
519,-3.0893104222386545
520,-2.668315985356698
521,-2.2623837712259656
522,-2.816538682557038
523,1.5082474045093968
524,-3.3253853908947812
525,-2.217165049520199
526,-2.2937713367049937
527,-4.235230716694715
528,-3.2906201020036954
529,-4.51961244388136
530,-3.5726099526017006
531,-3.806534055450537
532,-3.5777639953118356
533,-1.0127554404790273
534,-2.7563025564390937
535,-3.561260252663606
536,-2.082716368982842
537,-3.0427971331625194
538,-2.5587281270148448
539,-2.361224138925393
540,-2.02765004852886
541,-2.25370065076738
542,-2.9712459164956093
543,-4.375426605648218
544,-3.5711941083475316
545,-3.1052760827502945
546,0.401883516907032
547,-4.6270259392670186
548,-2.927577576245687
549,-1.8374778019581661
550,-1.76250165700269
551,-1.5217953852302792
552,-3.667922445434426
553,-0.1716714734780776
554,-2.7442671478701532
555,-4.132901816551007
556,-3.8557556372898807
557,-2.4665379634200195
558,-0.4843343248667055
559,-4.207680196679314
560,0.3170377933563856
561,-3.096606409545628
562,-1.8597724012691117
563,1.1068524951253567
564,-1.5488291043185876
565,-2.093163405818564
566,0.046041352200882776
567,-1.0212995701893122
568,-3.0745228773248225
569,-3.806534055450537
570,-3.6537610584323597
571,-4.200569932989326
572,-3.799104829101828
573,-3.7358577292108253
574,-0.9070141183162865
575,-2.7397833375796536
576,-0.6015370254736812
577,1.33907896898224
578,-3.5646758259773845
579,1.2228154080205724
580,-3.290779387905545
581,0.23154464404908104
582,-2.236711928922523
583,1.529212895657901
584,-4.819998975319429
585,-1.5217953852302792
586,1.5300303973394143
587,0.3170377933563856
588,-1.745699996573677
589,-3.573109982364686
590,-4.710688985153696
591,-1.9687838264602022
592,-3.3957297460693043
593,-4.235712511964567
594,-2.2524788321724065
595,-2.0685448088823164
596,1.8884473549896599
597,-2.2668563734497957
598,-3.302224196402771
599,-1.4268709044360515
600,-3.6178018157267213
601,1.3598606874193115
602,1.5411033604049733
603,-2.684138459790006
604,-4.121263328916797
605,-1.9336088867304306
606,0.5724159143147999
607,-2.531021071667069
608,-2.121038489584157
609,-1.9248694634719248
610,-4.995660949680777
611,-1.4829510661114316
612,-2.3918727741128523
613,-1.388855931368455
614,-4.788427749513096
615,-3.34795210173527
616,-4.054730617852101
617,-2.4376802218076445
618,-3.75947306913593
619,1.2036884176687328
620,-1.9520471501947625
621,-2.5275090213436977
622,-0.4670528182352232
623,-3.1295576706839032
624,-4.180043027393321
625,-4.193984033539094
626,-3.5718979262681083
627,-2.884640714209619
628,0.4660024228549599
629,-4.031692968971527
630,-0.7014685125672544
631,-2.533462597219941
632,-3.0895743909254474
633,-4.606851900083114
634,-0.14722760292006964
635,-1.5160412721757166
636,-4.235230716694715
637,-4.022767655575063
638,-3.412021094469608
639,-2.8648049194870944
640,-1.80545467955182
641,-3.548204108329688
642,-3.819289824188258
643,-3.685805224854344
644,-3.2158254857967066
645,-4.367097399024105
646,-3.3820041250600985
647,1.5466425464350342
648,-3.5717892637572106
649,-3.669695921824088
650,-3.164747428537819
651,-2.781087315584977
652,-2.076490271515698
653,-2.363640422332003
654,-4.671305731610916
655,-5.019339901773528
656,-3.5208217660401386
657,-3.3065164389825092
658,-2.34253032475548
659,-1.7790817048371335
660,-3.2555345194576035
661,-3.2585273259278935
662,-2.883944657725953
663,1.529750897554282
664,-4.986372935561316
665,-3.4829744947946835
666,-3.849751123482542
667,-3.3013758181196704
668,-3.975491575057289
669,-2.645530300326492
670,-2.3712996681129925
671,-2.720002816088608
672,-0.7787004746883284
673,2.225660811828811
674,-3.5237247999451755
675,-3.788076002960967
676,-3.468486859752847
677,-1.9442439965325358
678,-0.7674594874710053
679,-3.551223510034963
680,-0.41275237296909045
681,-3.9958730565553373
682,-3.4550142544339026
683,0.19657017876892782
684,-2.635992145261448
685,-3.7241890535904223
686,-0.6112439613149564
687,-0.9496410857450472
688,-3.4396625132899072
689,3.0132377881797914
690,-1.5452753127121555
691,2.3653440255136116
692,-2.0607751878427707
693,-0.9570537647946982
694,0.32228875783437694
695,-3.649408226711826
696,0.9140526897573724
697,-0.34046080219743863
698,-0.9321147470241652
699,-1.6692461831741763
700,-3.5535145972466884
701,-2.969219448094815
702,-4.35847788110149
703,-3.641351529805754
704,-3.617718168584984
705,-3.0813786936357963
706,-3.0760127740447394
707,-3.1712832229845045
708,-0.22550340221584145
709,-3.40437741386018
710,-3.0292638523278423
711,-4.0163372053437705
712,-3.4341273436781283
713,-1.8077806843393411
714,-1.0420644507876227
715,-1.463703723727173
716,-1.8741128612424496
717,-2.691571641353421
718,-1.4831797720775726
719,-3.7194633633042518
720,-3.288015764791939
721,-3.5698741932879807
722,-0.5714995024905476
723,-1.4848550592158178
724,0.14568892177865814
725,-4.547348085205459
726,-4.044030601128554
727,2.2660686956087877
728,-3.5955354967494686
729,-3.844380557902125
730,-1.9111758093051894
731,-1.3115253411235088
732,-1.4013584265756094
733,-1.5258976129922701
734,0.5691976713797785
735,-2.6549939123038566
736,-3.572214432294601
737,-4.400266026454466
738,-1.9746062079860411
739,0.4259452187235432
740,-3.8363350322565033
741,-2.7506347042766506
742,-3.221420566872005
743,-0.41275237296909045
744,-2.212164533071058
745,-0.3652241815683789
746,-3.9958730565553373
747,-3.9114317344879694
748,-3.1678262664169825
749,-3.6662171791672895
750,-3.0787440630404332
751,0.11424052247010569
752,1.8884473549896599
753,-3.767404091196627
754,-3.3597656799060176
755,-0.8726215835358258
756,-1.597617613053568
757,-3.2381657585564203
758,-3.9442087984866046
759,-0.6453071988929858
760,-2.541317435691713
761,-4.3545397774207775
762,-3.577366545338153
763,-1.4935222480143124
764,-2.316462293845428
765,-4.0364372815206515
766,-3.6836620332786016
767,-1.626499492862294
768,-2.516544491112377
769,-2.6642060824611766
770,-3.0964121585098803
771,-1.4297395860831823
772,-4.099616279094678
773,-3.086593890173898
774,-3.6098435009912033
775,-3.8593771054284742
776,-3.3037500929009957
777,-1.7664585776591446
778,-4.21061346383915
779,-2.8169384272813387
780,0.49997776747656136
781,-2.05373014386015
782,-0.8336466817397763
783,0.9140526897573724
784,0.9140526897573724
785,0.9088798851097554
786,-0.8647670082169908
787,-1.9682037181408483
788,-4.013355470746828
789,-4.066733243605863
790,-3.778635624498423
791,-2.5606627622131533
792,-4.136926495216471
793,-3.6820073237758812
794,-3.68311438555143
795,-3.6142915793646235
796,-2.7868616966001873
797,-3.292280569606884
798,-3.9807304163679413
799,-1.472844072009256
800,-3.760574672625022
801,-3.5894268693738054
802,-2.9564201844270626
803,-4.250872439649423
804,-3.4432355874879566
805,-1.6918670077288147
806,-2.782001275296727
807,-3.3884862645944227
808,-2.0986676516423346
809,-1.713960894426615
810,-3.2801864286741793
811,-3.423405332534316
812,-3.379893629200192
813,-0.0538990414264851
814,-4.447303961215694
815,1.5297203135574011
816,-3.667922445434426
817,-3.572090491517369
818,-4.20064741678862
819,-2.812086705490147
820,-2.060166664972218
821,-4.117484842901619
822,-4.400266026454466
823,-3.5724961817070775
824,1.2672792432626145
825,-1.3724495661464282
826,-1.388855931368455
827,-3.6879538783872268
828,-0.8647670082169908
829,1.5123253305930773
830,-1.6191440771494447
831,-2.6401259059419897
832,-2.139457996143438
833,-3.68311438555143
834,-3.695795227488334
835,-2.913340762178932
836,-0.6370051970210696
837,-1.1771505668054958
838,-1.8659429268998087
839,-3.571311967260394
840,-3.0968933054696297
841,-3.334651174034625
842,-1.3012800996001759
843,-3.4770422976250632
844,-1.9011935270602447
845,-3.02273791367955
846,-2.761350886081814
847,-3.617849776772656
848,-0.6746406286078349
849,-2.14395286770076
850,-2.490573715227501
851,-2.9759591830608683
852,-1.724908460466737
853,-1.9820929300980128
854,-3.4632722291551103
855,-4.276592382946284
856,-2.4550087161508634
857,-2.665705025316193
858,1.5411033604049733
859,-0.4998393379886485
860,-2.1505346144454993
861,-4.273561391580466
862,-1.995773719043881
863,-3.55436861260811
864,-3.9050307454953406
865,-4.866620886975509
866,-3.6098435009912033
867,-3.578841158353908
868,-4.235484731082082
869,-3.617391233968051
870,-3.7289489379201903
871,-3.2380333654389344
872,-3.9406241347366895
873,-4.266044595698098
874,-4.134764983602666
875,-2.3469720671039176
876,-2.7185613769553663
877,-3.8796869541604937
878,-2.126394452269398
879,-3.5716256193502556
880,-3.3820041250600985
881,-4.016569117943048
882,-2.2249482600183352
883,1.6146737284590778
884,-2.1254728189832566
885,-4.795823238331994
886,-2.442296974461853
887,-3.8951192387479705
888,-3.542174685764602
889,-3.084793579324208
890,-3.6537610584323597
891,-4.200569932989326
892,-3.7535224171127672
893,-3.269836295481893
894,-4.210269936005654
895,-2.653416639731083
896,-3.583263578466704
897,-4.292236919823935
898,-2.2680628924674338
899,-2.631144855899062
900,-3.302224196402771
901,-4.384682982207649
902,-2.726686373231761
903,-3.5713885352166175
904,-2.8233879464260947
905,-2.876607565492702
906,-2.9070740461468643
907,-3.572437184987398
908,-0.9201719741312331
909,-1.8012330926546738
910,-3.5655394265617097
911,-4.127570831646634
912,-2.8461449872291826
913,-2.0986676516423346
914,-3.5716281141895054
915,-0.8915148919060861
916,-3.184909737899939
917,-1.9543358602707201
918,-1.6341116282772958
919,2.045891590364115
920,-3.8860348528349693
921,1.529852077213219
922,-3.0895743909254474
923,-3.624193006488215
924,-3.6965407501144574
925,-3.0687797579821687
926,-2.9755825697497325
927,-3.912542320270916
928,0.9658706870235896
929,-1.7045092834580564
930,-1.5583394609276846
931,-4.09942450111375
932,-1.4866788445089623
933,-2.7715746765993963
934,0.03829936657848769
935,-3.4289362760430753
936,-3.537568449757853
937,-3.537568449757853
938,-3.18823336574656
939,-1.7999518985557184
940,-1.9746062079860411
941,1.9542966304205764
942,-4.653052665863263
943,-1.9431957717658137
944,-2.3206645194229516
945,-1.8118385630474263
946,-3.736585150665089
947,-2.212164533071058
948,-3.697143793839358
949,-3.6456209001692397
950,-0.9329528577493443
951,-2.4611861976387934
952,-3.280291964691616
953,-3.1085560218814154
954,-1.8659429268998087
955,-2.2851689237675616
956,-2.918299943516788
957,-3.95514322355993
958,-2.9867054750396838
959,1.2808465001386087
960,-3.079139572247545
961,-2.876607565492702
962,1.0353991181990316
963,-1.7203072085725182
964,-1.4097341326882287
965,-2.11569220712534
966,-4.372098271535034
967,-1.6375417566040649
968,-3.5718788593456288
969,3.712869993681675
970,-2.0607751878427707
971,-3.427582265877495
972,-4.367106806426437
973,-1.1465680398947755
974,-3.953229729647957
975,1.5296839175433896
976,-2.7193216259983126
977,-1.3474437697771917
978,-4.351994368533201
979,-4.3592815762118216
980,-2.3513757831886384
981,-1.6727701147836276
982,-1.817814007685871
983,-2.0656633694188016
984,-3.0851756803168118
985,-2.7432154189646094
986,1.6875332339703832
987,-0.6847593203964217
988,-1.830962076933
989,-3.79019991637744
990,-3.2885245230288622
991,-3.696793925079232
992,-2.915722471154404
993,-2.762558424388261
994,-2.536283829532587
995,-1.555534011826099
996,-0.6167299264229947
997,-3.238916300694969
998,-2.282872821033997
999,-2.282872821033997
1000,-3.4768708017174546
1001,-3.3478230229996107
1002,-4.984611099262951
1003,-1.8725253728889415
1004,1.2330557482080997
1005,1.3983177089489716
1006,-2.518458273627345
1007,-0.1867235875529332
1008,-4.9445614309253525
1009,-2.9033017111494455
1010,-4.1585894525491005
1011,-3.5724961817070775
1012,-1.741695844101213
1013,-3.3417873626428887
1014,-2.1078362460050495
1015,-4.356894769888383
1016,-3.8080948057061716
1017,1.5296504480102309
1018,-3.1678262664169825
1019,-2.2742358011832056
1020,-2.34253032475548
1021,-2.7975922483714304
1022,-2.7263237745415583
1023,-4.011424999757068
1024,-0.14469134608448617
1025,-3.302624165383201
1026,-2.9344087272009363
1027,-3.45560021058884
1028,1.7702583062545245
1029,1.014791357642947
1030,-3.500019323736665
1031,-4.6319342447313385
1032,-2.901379113157323
1033,-3.1924248841292506
1034,-4.04688442717483
1035,-0.8686378255744238
1036,0.684144442116936
1037,-2.309231546907594
1038,-2.284781807196083
1039,-3.617391233968051
1040,-3.92770641368381
1041,-3.3585524335712504
1042,1.8130941696993539
1043,-2.396822513699344
1044,-2.103613160020901
1045,-4.1578363814310855
1046,-4.458546051076854
1047,-3.2214018861904923
1048,-3.741475710969545
1049,1.3857006296698167
1050,-4.865908489634701
1051,-4.2138211521248365
1052,-3.571371254077513
1053,1.5291559324836799
1054,-3.5724994628516753
1055,1.5296849892882918
1056,-3.2555345194576035
1057,-3.3478230229996107
1058,-3.5723940195305315
1059,-4.566597615561158
1060,1.5300454289315395
1061,0.5879969751667521
1062,-3.540593701954396
1063,1.0846041361284917
1064,-3.8198953833173364
1065,0.03829936657848769
1066,-3.573109982364686
1067,-4.459056883425139
1068,-0.9795696608293438
1069,-3.3065164389825092
1070,-0.6429448049323561
1071,-3.4249293268806715
1072,-3.572854554169663
1073,-2.6079401206563486
1074,-3.289632071465411
1075,-1.807371042001292
1076,-3.624193006488215
1077,-4.082831751199037
1078,-3.378112696980902
1079,-3.570937789244243
1080,-2.6858273493906166
1081,-2.6010506281504315
1082,-4.052753521349231
1083,-4.603014137209032
1084,-4.721932526680722
1085,-0.5910085942959916
1086,-0.3477003311579081
1087,-0.3477003311579081
1088,-4.398047290966574
1089,-3.1251892088476425
1090,1.1096709722149252
1091,-4.292236919823935
1092,1.5304436600495273
1093,-3.821460437214906
1094,1.5298025099673795
1095,-4.11087664906671
1096,-3.765810263556349
1097,-4.446186072215881
1098,-3.042180602961626
1099,-5.052577905978155
1100,-4.564886976245977
1101,-4.585478555829857
1102,1.5292123960973107
1103,1.5289962153587426
1104,-2.0190943478567034
1105,-3.7358577292108253
1106,-3.1981564771627657
1107,-2.646795320503958
1108,-3.406102580080427
1109,-4.15331262538517
1110,-3.3352658632235936
1111,-3.0986982352442283
1112,0.06733128424021984
1113,-4.264596173193015
1114,-3.7405505202360354
1115,-0.691821274487921
1116,-4.40608247249579
1117,-0.499364207410243
1118,-1.8146933052553604
1119,-1.0191126873334315
1120,-3.697580035407572
1121,-2.567136555456442
1122,-2.964581584490061
1123,-0.6757131396775976
1124,-3.976561941872154
1125,1.169065892771585
1126,-4.01876748280142
1127,1.2672792432626145
1128,1.5013198900811977
1129,-3.956779898830003
1130,-4.069955798367658
1131,-4.268912686181128
1132,-4.130652835998499
1133,-3.741745250871727
1134,-2.8301611976409866
1135,-2.878443404693865
1136,-1.0192139023483817
1137,0.12326894321960649
1138,-3.8535752214742462
1139,-3.949959476418631
1140,-0.653704422638637
1141,-2.8287415475974336
1142,-2.368947342247983
1143,-0.8132068853081932
1144,-2.7431997219179043
1145,-2.021121769371463
1146,-0.9591233878966537
1147,-3.8811541667519323
1148,2.7507472162614377
1149,-2.851144756755023
1150,-3.3419885782222947
1151,-0.18797711619564222
1152,-2.161243566291032
1153,-2.6828923083147647
1154,-3.2620047382840895
1155,-3.9088680911218083
1156,-3.4220667587162166
1157,-2.040646250171419
1158,-4.009329198347265
1159,-3.2038961985745136
1160,-2.7442671478701532
1161,-3.8447879175806308
1162,-0.4895419700677711
1163,-3.7281163093693865
1164,-0.6672794902699404
1165,-3.063559913735745
1166,-1.7349346370059917
1167,-4.0674011934348675
1168,-1.2307981258356464
1169,-3.5671054603971464
1170,-0.4439107663295363
1171,-3.3812464199663825
1172,-4.162812896440876
1173,-3.4767081540479476
1174,-4.088538135582021
1175,-3.770117903532715
1176,-3.9355471178697417
1177,-2.225111568936864
1178,-3.571956661960183
1179,-3.5630317718572804
1180,-2.4728802057632597
1181,-2.6980367626683828
1182,-3.6238980470285655
1183,-1.3846656277382254
1184,-0.653704422638637
1185,-3.9089125730761216
1186,0.11424052247010569
1187,0.7473649507804339
1188,-2.246184335350471
1189,-2.875964076820485
1190,-3.583828701586013
1191,-4.486518648078539
1192,-3.5717110393652076
1193,-3.662114904309266
1194,-3.488467955644533
1195,1.867701192529183
1196,1.5081961026354647
1197,-3.3136723289606396
1198,-2.089156859649869
1199,-2.532301704595466
1200,1.7162564819686232
1201,1.5287718924654252
1202,-2.3768780767782287
1203,-3.7662202114282857
1204,-4.312892756528362
1205,-1.9704204086946082
1206,-1.9554717053186799
1207,-1.0956191677224736
1208,-1.8103251315754558
1209,-1.3529270589212707
1210,-3.68700718706204
1211,-4.016695067809905
1212,-3.9153527611751637
1213,-3.602664884017768
1214,-2.6073398635971508
1215,-3.6467286989946848
1216,-3.5721344513413182
1217,-3.6879538783872268
1218,-3.6909064750949505
1219,-3.6121724380673315
1220,-3.4867080309307075
1221,-4.0440280721331225
1222,-3.572045332615329
1223,-3.085108154177967
1224,-2.225111568936864
1225,-3.0923913650856054
1226,-3.821030598032823
1227,0.518965062403059
1228,-0.8132068853081932
1229,-2.242415345772456
1230,-3.322601439937414
1231,-3.067636242144212
1232,-3.291705644639223
1233,-4.05462771067418
1234,-0.24955964286878965
1235,-3.580003038033838
1236,-3.9807304163679413
1237,-3.536964889841947
1238,-3.5550243636928935
1239,-1.7507511052362592
1240,-0.8220458111438538
1241,-4.080777341523428
1242,-3.5185394790115323
1243,-2.974590603435906
1244,-3.25520564309644
1245,-2.7859456570936763
1246,-2.0840542452810804
1247,-3.444913294338665
1248,-4.006173081472145
1249,-3.8843596336084936
1250,-3.6670764608235893
1251,-0.48595135996668015
1252,0.6258345078055169
1253,-1.4606456441019664
1254,1.530542203917087
1255,-2.7297978736818305
1256,1.2201389824394346
1257,-3.6981841159566966
1258,-3.7940679003797304
1259,-3.8421170693582383
1260,-2.1551626981177545
1261,-3.0545575918431225
1262,1.5304925871980317
1263,-3.749584535681362
1264,-4.184035460346608
1265,-3.1116874302720507
1266,-2.838208899536406
1267,-2.675218862285649
1268,-3.941834156983529
1269,-3.7651537422179504
1270,-4.3741283554670485
1271,-4.3741283554670485
1272,-4.1268947150657995
1273,-3.572214432294601
1274,1.5292082056686729
1275,-2.7170760332849353
1276,-3.28517707898528
1277,0.45357218540422806
1278,-3.5726382418273066
1279,-3.5715763097642004
1280,-3.4568022255482527
1281,-1.949811808338149
1282,-3.3417873626428887
1283,-3.313339758792632
1284,-3.2088628946141244
1285,-2.884640714209619
1286,-0.4663872494790783
1287,-3.412563448469615
1288,-3.853842392268116
1289,-3.7170824425556157
1290,-3.1705341434187306
1291,-3.3441528254630195
1292,-3.6941294911960907
1293,-4.021294542151985
1294,-2.6000068031070676
1295,-3.6309954426575155
1296,-2.9359923377507102
1297,-3.8183794201680974
1298,-3.749069964516549
1299,-4.40608247249579
1300,1.2671032289963073
1301,-4.073162720789994
1302,-3.085429497845843
1303,-1.3951470465439928
1304,-3.6474134534618203
1305,1.6506149341710177
1306,1.2762948517448955
1307,-3.9585902016650576
1308,-2.27868868638388
1309,-2.439114122561054
1310,-1.490676621547265
1311,-2.7521681441500423
1312,-2.0733631869907807
1313,-4.210067457891384
1314,-1.2841218778038692
1315,-3.527880324218733
1316,-3.8037842492106555
1317,-3.7652252896461476
1318,-3.57260239022208
1319,-4.476272364100806
1320,1.047152159655127
1321,-2.3173048815804957
1322,-1.102770650622532
1323,-3.5727092627615837
1324,0.7517470470777398
1325,-3.4279285197928213
1326,-3.937831190605716
1327,-3.572651981466632
1328,-5.103532487426684
1329,-3.8676010761246733
1330,-3.184909737899939
1331,-1.6173337881012155
1332,-3.572066520715898
1333,-2.166735237802713
1334,-3.4756836457653963
1335,-4.47651612329237
1336,-3.400805371304871
1337,-3.6999953299430093
1338,-4.0574712159824
1339,-3.8283407989894673
1340,-2.3345896338248426
1341,-3.3981854350593323
1342,-2.731671056277411
1343,1.5298618869605236
1344,-3.3374603365024447
1345,-2.8907964876884966
1346,-3.751441376793249
1347,-2.7082589433887247
1348,-3.5783666366366833
1349,-3.5711680973545805
1350,-3.7162753411298413
1351,1.6548771964144084
1352,-3.571539148875791
1353,1.5003565435229091
1354,-0.21865399270525698
1355,-3.6140194782708783
1356,-5.068329419531885
1357,-3.2336593053846556
1358,-3.537568449757853
1359,-3.2005245859212668
1360,-3.7367589179377703
1361,-0.8690697275751574
1362,-3.322481373757451
1363,-0.6260516414439474
1364,-2.4585707303196993
1365,-3.571936588166497
1366,-3.3417873626428887
1367,-4.047360396675005
1368,-2.856127449588624
1369,-2.857469426631988
1370,-3.1730416502911014
1371,-3.728384565236498
1372,-2.726904293508341
1373,-3.9603139021559866
1374,-3.7930366029304667
1375,-4.3947708799761
1376,-2.883003878933536
1377,-3.8547113521426555
1378,-1.4092949773072825
1379,-2.6841257307647446
1380,-4.565908027532063
1381,-4.199897690059799
1382,-3.747487889339329
1383,-2.7123207916168512
1384,-0.5795778699076677
1385,-3.578117653948482
1386,-3.923955084747868
1387,-2.87420391487465
1388,-3.778635624498423
1389,1.530329791798046
1390,-1.8317328094710028
1391,-2.6013077688065964
1392,1.529949191097481
1393,-2.6975338648510214
1394,-0.4314741257919807
1395,-3.857929415634704
1396,0.15139626721480973
1397,-3.9705796666360667
1398,-2.2644401573967503
1399,-3.321129962479917
1400,-2.6892221034506254
1401,-3.8632209157270143
1402,-3.9732268443080523
1403,1.5295208881358238
1404,-2.7777205439047563
1405,-3.4262509866412545
1406,-3.658629478461805
1407,-3.570918248503559
1408,-2.533229607972751
1409,-2.1025326299715292
1410,-2.572188973338049
1411,-2.3058888412778984
1412,-2.0026638710154563
1413,-1.911718534590316
1414,0.7814529714891311
1415,0.4244073824731611
1416,-0.8563593876396899
1417,-1.8817596242244015
1418,-3.589185463113691
1419,-3.678743890782073
1420,-0.8303795916430678
1421,-1.2883376452283692
1422,-2.3161923139633926
1423,-0.44515387570346504
1424,-3.59606897910264
1425,-0.7625313431459674
1426,-1.572010150625201
1427,-3.8043786275533695
1428,-3.571024078117613
1429,-3.449442833301585
1430,-3.334651174034625
1431,-3.576568906981908
1432,-3.726342298793534
1433,-4.349164848815781
1434,-2.044363522580625
1435,-4.097737564896056
1436,1.2808465001386087
1437,1.2036884176687328
1438,-2.430364243323692
1439,-3.3558552188638497
1440,-4.290673461680618
1441,-4.435996525100785
1442,-3.0979430361379445
1443,-2.188974740822526
1444,-2.731050898113679
1445,-1.884398786302247
1446,-3.3204124597839733
1447,-3.2533120452555875
1448,-3.3435595915920233
1449,-2.6233938762544198
1450,-2.9323090648404344
1451,-3.56438602660713
1452,-3.7460545299633394
1453,-3.6380868629253924
1454,-2.083514323200975
1455,-1.841925645151927
1456,-3.8566888623861484
1457,-2.363503882881573
1458,-3.6700288065683937
1459,-3.845420936063625
1460,-3.730837935963813
1461,-3.571990357518764
1462,-3.6024582365366737
1463,-1.070213880270611
1464,-4.829599199644391
1465,1.5288383964239025
1466,-0.8167043987648122
1467,-4.01226439179024
1468,-3.961992833348621
1469,-2.611001682367944
1470,-2.1402363844523946
1471,-0.4176293925768209
1472,-3.599942136368721
1473,-2.539577374577677
1474,-2.7569800167695893
1475,-3.3176212675598205
1476,-3.4531474150433303
1477,-2.8895287862028227
1478,-1.3870491238949885
1479,-3.431184151799498
1480,-4.573437452076457
1481,-3.570941046837548
1482,-4.149497506706097
1483,-2.075459089068393
1484,-3.5115599288345396
1485,-3.572319722870322
1486,-3.4225257523215853
1487,-3.5807063001869253
1488,-3.015351904412388
1489,-4.591690102644269
1490,1.043913429637405
1491,-3.2735299567419913
1492,-3.6012613186922646
1493,-2.158041647893418
1494,-4.038055831250501
1495,-1.618252872357348
1496,-1.745127921059909
1497,-2.2796321562530246
1498,-3.893654694754996
1499,-4.322979908154396
1500,-3.02149203808542
1501,-3.28736195018815
1502,-2.284299441471905
1503,-2.853441463965771
1504,-3.889991103957954
1505,-4.081883001379446
1506,-3.912542320270916
1507,-3.930627294055391
1508,-3.608457711995882
1509,-3.3520938076230773
1510,-3.8280842841021117
1511,-1.1113505072323822
1512,-4.09942450111375
1513,-2.9461756178256975
1514,-3.567809132379513
1515,-3.4289259054030095
1516,0.18260833011678115
1517,-3.570937789244243
1518,-2.600253983195369
1519,0.029112175743625165
1520,-3.8447879175806308
1521,-3.5733308768397265
1522,-4.1268947150657995
1523,-2.863432333546523
1524,-3.461716705543278
1525,-3.0574842280076977
1526,-2.7375076085487398
1527,-3.6299310013145654
1528,-2.7193347126057485
1529,-3.486106994915256
1530,-1.1783642338255467
1531,-3.79303811043685
1532,-3.2113112271654645
1533,-1.3961672587494525
1534,-1.745699996573677
1535,-2.703136703153293
1536,-3.3490621520564217
1537,-2.8029235349935653
1538,-1.5019521770057387
1539,-1.8597724012691117
1540,-2.253628237523988
1541,-1.5366688536040785
1542,-2.230348122025883
1543,-3.3820041250600985
1544,-3.1288550861225017
1545,-0.9321147470241652
1546,-2.882085748233447
1547,-2.7636145559922114
1548,-3.563523447061314
1549,-3.341523480717331
1550,-2.7807616079305757
1551,-3.200579003489603
1552,-3.2499799031027323
1553,-4.475003000689419
1554,-3.277094378531485
1555,-1.4043889240838119
1556,-3.4305397930687316
1557,-4.070331423696024
1558,-3.601975240231441
1559,-2.8554065008087113
1560,-3.6911721200311063
1561,-3.11329858816998
1562,-3.8675618378021124
1563,-1.8118385630474263
1564,-3.7855447571496432
1565,-2.783935150680946
1566,-1.871460464148437
1567,0.42365110177286985
1568,-4.107209577524036
1569,-1.7014280284331695
1570,-2.384914042606407
1571,-0.043687008247167744
1572,1.2203063310715827
1573,-3.2843008649963945
1574,-3.9852658521922972
1575,-4.3276622576803
1576,-4.130327711811885
1577,-4.36743938543438
1578,-3.698573669816634
1579,-4.790846078226842
1580,1.6875332339703832
1581,0.6175506416954962
1582,-2.6975338648510214
1583,-5.37430615733892
1584,-3.25081872070962
1585,-3.5632071648399313
1586,-5.188019629314318
1587,-3.5731290957048856
1588,-3.5230725279784987
1589,-3.5996836413814606
1590,-5.092110803462389
1591,-4.713853204471015
1592,-3.7115874385294783
1593,-3.168212597742406
1594,1.528868871832626
1595,-2.843429238436903
1596,-2.271460461944216
1597,-3.572501535217838
1598,-4.554575256449011
1599,-4.362080382055121
1600,-4.564682340755729
1601,-1.5494739187623896
1602,-1.8199026536021017
1603,-2.9659501994162247
1604,-3.9555117822675805
1605,-3.3444717500036067
1606,-3.4492454450392414
1607,-4.539617012145493
1608,-4.1886484723072535
1609,-2.620008473189832
1610,-2.71103293930011
1611,-3.0646795774751148
1612,-1.0732907448736895
1613,-1.5145636263628186
1614,-3.51774267051704
1615,-4.696292361685213
1616,-2.461573597065815
1617,-3.8648208867428635
1618,-2.5355942382068735
1619,-2.7403127753584298
1620,-2.853947016520237
1621,-3.7791382422707174
1622,-2.9101493012843274
1623,-2.099859756883565
1624,-3.8529101616629933
1625,-1.7004046932201426
1626,-3.571990357518764
1627,-3.572669004910063
1628,-2.501215841401827
1629,-3.570908416578796
1630,-2.611001682367944
1631,-3.5710222837273093
1632,-2.6636052316878684
1633,-3.57241892495757
1634,-3.86551974730196
1635,-3.999038614028185
1636,-1.4626781749573323
1637,-3.388049711245027
1638,-4.119979529499765
1639,-3.6720741043969225
1640,-4.015739985197448
1641,-3.2486772288427814
1642,-3.7976945302136413
1643,-3.5712523422975635
1644,-2.8618878415145446
1645,-3.3884862645944227
1646,-3.521318702379335
1647,-1.1638636347309124
1648,-3.3483006266573576
1649,-0.09697616305855863
1650,-3.573046907787494
1651,-1.0058932590852516
1652,-1.7601172068452537
1653,-4.257986432828875
1654,-3.5730516772271477
1655,-4.129146726727648
1656,-2.3958165411503596
1657,-1.9543358602707201
1658,-2.1148963679664043
1659,-3.570789195368813
1660,-3.5643072646051115
1661,-3.8493334263586014
1662,-3.1681910256810735
1663,2.8851096472407387
1664,-3.4906747084960337
1665,-2.9497036251076763
1666,-3.645555228700983
1667,-4.046216811436621
1668,-3.572071835988136
1669,-4.760587243915486
1670,-5.07866493447741
1671,-3.6853339767593325
1672,-4.960839738735038
1673,-5.010509457921762
1674,-2.3460453477091168
1675,-3.07265105860765
1676,-3.4799764586111426
1677,-4.755407521261522
1678,-3.7756093538634286
1679,-3.1659502138312
1680,-3.843322573615041
1681,-3.5107907614756932
1682,-4.337461749627638
1683,-4.078263642892046
1684,-3.5715105788639137
1685,-4.020798810940969
1686,-3.5719645230853034
1687,-3.930450664761955
1688,-1.2793967091955565
1689,-3.5776169914051636
1690,-5.206522903271383
1691,-2.853441463965771
1692,1.530632457087252
1693,-3.296738096946098
1694,-1.66661296213684
1695,-3.4376491275632484
1696,-2.7346319698887833
1697,-3.019016268352883
1698,-4.417952527784825
1699,-4.197801540776257
1700,-3.572267386418848
1701,-1.8507536856907076
1702,-1.446958681095647
1703,-2.4204883941987547
1704,0.0
1705,-3.8957777862689196
1706,-1.2267654163327073
1707,-4.112277644682848
1708,-3.3704137190227144
1709,-3.4628371241026636
1710,-1.2393489661112789
1711,-3.0077853851442367
1712,-3.6136423867803473
1713,-3.238069959727272
1714,-4.2304782220792925
1715,-1.2856241828089405
1716,-3.969696798693843
1717,-3.6923386880112554
1718,-1.996225468173076
1719,-4.39042659209749
1720,-2.786920323416609
1721,-5.241587411024882
1722,-3.782392452096032
1723,-3.62710230506202
1724,-3.8470582227629104
1725,-4.199071502185339
1726,-3.3460210895915754
1727,-4.329056784204677
1728,-3.26879367769703
1729,-4.413031293899029
1730,-4.928430118307991
1731,-3.511856084520834
1732,-4.950991559571425
1733,-3.982791277621746
1734,-3.8343170292605344
1735,-2.5252902547207303
1736,-3.7692731481158765
1737,-4.043627277234007
1738,-3.3407374862161476
1739,-3.6681089234708097
1740,-3.5721690161119306
1741,-3.5721344513413182
1742,-3.570573500670712
1743,1.5013198900811977
1744,1.0708170269384125
1745,0.6313918619794446
1746,-2.9380072942082642
1747,-2.558167668966186
1748,-1.1561619704256434
1749,-2.643740912332574
1750,-4.047360396675005
1751,-3.7088589888608587
1752,-4.532896962960043
1753,0.7946927886304724
1754,-4.365626003700684
1755,-3.3729584653412696
1756,-3.743038313774648
1757,-0.9632468391983686
1758,-3.6588806053375467
1759,-3.813055347337118
1760,-3.787907894018546
1761,-1.3183964592204025
1762,-1.830962076933
1763,1.2036884176687328
1764,-3.5723901901389326
1765,1.5296208794141983
1766,-2.305701240653713
1767,1.5296211469248362
1768,-2.2228886180305394
1769,-0.22940839166351795
1770,-2.901379113157323
1771,-4.099616279094678
1772,1.7162564819686232
1773,-1.2086548007117226
1774,-4.462450314581214
1775,0.38153919980389694
1776,-3.2680065013550372
1777,-3.9257426919405867
1778,-4.016695067809905
1779,-3.590444527550099
1780,-1.8851575529730502
1781,-3.570573500670712
1782,-2.9271250642296
1783,-0.8928409852349002
1784,1.5290961657066195
1785,0.7252539026146303
1786,-3.6500273208415956
1787,-2.9604413982301443
1788,-3.565124349415867
1789,-3.739915006888765
1790,-4.130327711811885
1791,-4.3518243802616485
1792,-3.944107913123595
1793,-4.016183799706018
1794,-1.911718534590316
1795,-3.696793925079232
1796,-3.943594404598223
1797,0.6083374851380088
1798,-3.548204108329688
1799,1.3598606874193115
1800,-1.992191441871048
1801,-3.159699643322166
1802,-3.2801864286741793
1803,-1.2891588662561286
1804,0.15223634816903542
1805,1.5303693257697855
1806,-4.046785534830628
1807,-3.92770641368381
1808,-5.165498248161577
1809,-3.5714881693623526
1810,-3.4628371241026636
1811,-1.2742198204007624
1812,-0.3965831854213465
1813,0.5734045576264218
1814,-0.09653966842306247
1815,-4.703766077823648
1816,-2.586613957635748
1817,-5.052577905978155
1818,-3.572041573964827
1819,-3.6792794063143135
1820,1.5298572858754191
1821,-2.588998913904922
1822,1.3857006296698167
1823,-0.8746448046457764
1824,-3.57211310482071
1825,-1.0127554404790273
1826,-1.0127554404790273
1827,-5.615142920431475
1828,-3.29662493375563
1829,1.5297098372333342
1830,-1.5581602421066398
1831,-3.0092503768799164
1832,1.7052198690907598
1833,-1.7004046932201426
1834,-3.872581530660784
1835,-3.4080226568991567
1836,-3.9566190971468647
1837,0.18871920380275461
1838,-3.011217138780889
1839,1.4276855729496174
1840,-1.119203915741778
1841,-2.6079401206563486
1842,-2.7390716845717535
1843,-3.6805058600527274
1844,-3.14463000503031
1845,-3.221588513460413
1846,-2.058415686408487
1847,-1.1465680398947755
1848,-2.5702895315362215
1849,-3.2416261731084877
1850,-4.507464444656662
1851,-1.5160412721757166
1852,-3.9727771354713117
1853,-3.9406241347366895
1854,-4.367097399024105
1855,-4.024112613547291
1856,1.529889871525728
1857,-1.4189443457964337
1858,-3.6981872491408496
1859,-3.994592176903651
1860,-3.4598190611284956
1861,-3.663449654110427
1862,0.6147176234956869
1863,-2.0601884482500648
1864,-2.984028159833068
1865,3.949507892089611
1866,-3.3435595915920233
1867,-3.7464006946328094
1868,-0.2940599005128478
1869,-3.572651981466632
1870,1.5287823013322381
1871,-3.047381739752852
1872,0.0
1873,-1.8397763951501709
1874,-4.275855382163639
1875,-3.2404620948798493
1876,-1.696665351143403
1877,-3.009697463869797
1878,-2.9937613310160796
1879,-2.768668157065911
1880,-3.5770915715389107
1881,-3.4053355971917885
1882,-5.218987561443317
1883,-2.837308854464693
1884,-4.247262770031622
1885,-3.4538235654375975
1886,-2.6749189378888834
1887,-4.170929276904656
1888,-3.6864650621264268
1889,-4.457558480905002
1890,-0.25732088871856235
1891,-5.017310060614271
1892,-2.6440615330766946
1893,-4.215488943473931
1894,-3.0572276546076167
1895,-4.205512091948347
1896,-3.571337624364502
1897,1.5298778724279978
1898,-4.932945706915814
1899,-1.5581602421066398
1900,0.9878172522553161
1901,-4.0250059676170515
1902,-0.8698230656546991
1903,-2.726686373231761
1904,1.789973837704104
1905,1.5420531251681944
1906,-3.821460437214906
1907,-3.137475250368914
1908,-1.8725253728889415
1909,-2.829669091766399
1910,2.6496540708498517
1911,-3.571912593890615
1912,1.9399711508619888
1913,1.5302716677241794
1914,-2.625487872931235
1915,-4.615936401869585
1916,-2.9937613310160796
1917,-3.432023988231385
1918,-2.745459985090144
1919,-1.2742198204007624
1920,-2.9380072942082642
1921,-6.278724134621342
1922,-4.225317117726776
1923,-2.214585096507777
1924,-4.259513683090418
1925,-4.731964855304968
1926,-1.2466419445146744
1927,-3.5731290957048856
1928,-2.4553444734914485
1929,-4.564787945229315
1930,-3.6847495050777184
1931,-4.510598107312526
1932,-5.437806896052723
1933,-3.8826203139859357
1934,-3.571420894376571
1935,-0.09640839183837992
1936,1.5297060336088146
1937,-3.6264245516879994
1938,-3.1852943550257806
1939,-4.020802797438206
1940,-3.0325209237836503
1941,1.305196912750836
1942,-1.494329343346636
1943,-4.363044757904519
1944,-4.558701811153345
1945,-4.064503139689927
1946,-4.203923926362952
1947,-3.5726683578462977
1948,-2.126922670010477
1949,-4.110524857894598
1950,-4.053660933540478
1951,-3.5724057241255665
1952,1.1830079063186423
1953,-5.772404788486574
1954,-4.3819175775187675
1955,-5.207562567440938
1956,-3.7680357687443666
1957,-3.5713671102180573
1958,-4.294652508475872
1959,-4.367941020192783
1960,-5.373720349639618
1961,-4.043614590858134
1962,-4.039949384512922
1963,-4.960396675564902
1964,-2.5728220871782566
1965,-3.572119451056685
1966,-3.887598606964758
1967,-3.2327894945728657
1968,-2.717523275045163
1969,-4.018103344532948
1970,-5.146816424748757
1971,-3.55248810682051
1972,-4.9502304009381195
1973,-2.991995859763462
1974,-2.868123863781652
1975,-5.018055384988068
1976,-4.093594883160806
1977,-3.687983443671235
1978,0.5238309527341544
1979,-4.8519884956363635
1980,-2.582102776027558
1981,-4.385805119382639
1982,-3.6302782721246727
1983,-2.4451471362014883
1984,-3.144616273169678
1985,-3.9798826799068308
1986,0.997433071249496
1987,1.5291377961183197
1988,0.8483845324646766
1989,1.5284778040132085
1990,-1.2307981258356464
1991,0.06733128424021984
1992,-3.052836068498597
1993,-2.95509330558295
1994,-4.440888094088218
1995,-2.9268892307960175
1996,-3.8769540301451286
1997,-2.7263237745415583
1998,-3.707257101421164
1999,1.3091370318703532
2000,-3.769005391286248
