Id,Predicted
1,-5.608525166234647
2,-2.4753201661444457
3,-3.8564501762004086
4,-3.548271088965319
5,-2.352212363170733
6,-3.5663835788268172
7,-3.2793792504871058
8,-3.326535474099798
9,-2.807724903381145
10,-2.3501081803003334
11,-4.199131323397958
12,-3.269779977912018
13,0.755711535736953
14,-2.843681175766317
15,-3.614491956305384
16,-3.000833879719522
17,-3.598966314675507
18,-2.5376938623984757
19,-3.3929234330134883
20,-0.847224115721619
21,-2.917002855303943
22,-4.105573695461951
23,-1.1543220752654573
24,-4.497205756366506
25,-3.8222511762760263
26,-3.71457402547971
27,-2.7560870426195563
28,-1.1800192282395534
29,-2.812992601256834
30,-3.3288777742451585
31,-0.04316054957111024
32,-2.3501081803003334
33,-3.180234965432252
34,-4.0375344031008895
35,-3.614459038735365
36,-3.369043332353234
37,-3.6484337651982397
38,-3.5487361385945677
39,0.0
40,-4.003971960545227
41,-3.180234965432252
42,-1.5802402150001145
43,-4.1973951841920085
44,-3.985608253224119
45,-3.5663835788268172
46,-2.9823243289317065
47,-1.980790403597168
48,-3.353763990223464
49,1.1297543644567936
50,-2.7051797474811177
51,-3.000833879719522
52,-3.8150479564865867
53,-3.810478887495548
54,-2.8525461074958645
55,-4.104841936149795
56,-0.7695077631479276
57,-0.04316054957111024
58,-4.588082004223355
59,-3.180234965432252
60,-1.126266910799743
61,-3.6439596642386
62,-3.5399779596121377
63,-2.7485522421102697
64,-3.9988352199710753
65,-4.543960911995984
66,-4.276073667901512
67,-3.2642091991563134
68,-0.34405244608595875
69,-4.269116922178582
70,-2.147714549077627
71,-3.5319486176149812
72,-3.241460312830477
73,-3.4544910939825964
74,-3.5399779596121377
75,-4.85400259172659
76,-0.6073767203269107
77,-1.4795280449880537
78,-1.7597219239285273
79,-4.335533263130788
80,-2.0706415962345446
81,-4.042413565769326
82,2.088802823606873
83,-2.1404659347689194
84,-4.226001511337205
85,-3.0030059935439946
86,-2.126230367110268
87,-0.847224115721619
88,0.8117337024121684
89,-2.0735968040278494
90,-2.8333539927717353
91,-2.6579902145243164
92,-2.015797900772513
93,2.325920866020105
94,-3.9107560374616006
95,-4.056601614177385
96,-2.6631935082035674
97,-3.2241163891369147
98,-3.5871327839393565
99,-2.086202684973465
100,-2.2513616681055533
101,-4.199576343905469
102,0.6032925739814986
103,-2.181628795219684
104,-4.099986060926689
105,-2.1463985434181163
106,-3.721843171271979
107,-2.29119582410196
108,-2.9176696998137217
109,-3.139870016401222
110,-0.31004759617069966
111,-3.4672967162543333
112,-1.7557012843724678
113,-3.735513302884534
114,-4.360325930259158
115,-2.3949500860286257
116,-3.6630831071306447
117,-3.6905250103063927
118,-2.4509626304613064
119,-2.6732528806713525
120,-2.0160960358307465
121,-2.6631935082035674
122,-3.5762880232149206
123,-3.51161801979014
124,-3.0207237221440977
125,-4.0375344031008895
126,-3.8544916434065866
127,-3.1893764843245225
128,-3.854282775685168
129,-2.8333539927717353
130,-1.277944183344605
131,-2.807724903381145
132,-1.7609872167827885
133,-3.8433299345886756
134,-1.2440431238689833
135,-3.3067164323732157
136,-1.5878242093104882
137,-3.9817868761015416
138,-4.04820961555999
139,-4.293557500611081
140,1.9608353947640296
141,-1.9739722118737708
142,-3.558648581991672
143,-3.4672967162543333
144,-0.13501919560794065
145,-2.6194747387101853
146,-2.7249003987637606
147,-4.224519314639145
148,-4.199282258500002
149,-1.3420418138738144
150,1.2758645343249242
151,-2.097835106117838
152,-2.6244385007238717
153,-3.9543183878783963
154,-4.053249151258496
155,-4.258436151721251
156,-1.74164990331867
157,3.609895795255561
158,-4.042413565769326
159,-4.369389508673906
160,-2.2513616681055533
161,-4.214598061881437
162,-2.294349540605106
163,-3.3940636446026096
164,-2.6341188277774696
165,-2.2799917576740985
166,-1.8876164179342199
167,-2.826280428986071
168,-2.1590704988131204
169,-4.097340960986511
170,-3.5813308921034723
171,-1.1431013975749555
172,-4.1695701459197405
173,-3.2785521507550346
174,-4.083529623841799
175,0.054254158167203
176,-2.19352919231526
177,-2.7650865132922267
178,-2.7650865132922267
179,-2.326702664736231
180,-2.6631935082035674
181,-2.400881410390384
182,-4.0957563303806985
183,-1.3560497226076562
184,-2.1929561849372083
185,-3.293982864840743
186,-4.5414837983670555
187,-3.3332072276623372
188,-2.5642271573784186
189,-0.26947138474707916
190,-1.9632316130754566
191,-2.8846832355270777
192,0.9043342493299629
193,-3.0030059935439946
194,-5.292460864337012
195,-3.921490281629508
196,-3.6146714163240627
197,-2.5981946901252053
198,-2.37399444278142
199,-4.463283808975785
200,-1.4090401291002277
201,-4.560070074186059
202,-4.716590805123811
203,-3.8131583110602674
204,-4.110845572636347
205,-2.909210703114961
206,-2.950697280320116
207,-0.8977929338515187
208,1.1658833517462426
209,-4.472271958257807
210,-3.4628373311922864
211,0.0906409895877456
212,-2.751902872002124
213,-2.386809753951983
214,-1.1800293804405475
215,-4.449642440613352
216,-2.086202684973465
217,-1.7528275504490907
218,-3.6018165516540948
219,-3.8732477042533877
220,-1.4332721749352888
221,2.547805510434036
222,-3.6151030159910444
223,-1.9795001558942695
224,-3.599156743707438
225,-0.5012425116620032
226,-2.965126208303698
227,-2.1861806597329667
228,-2.094706766807377
229,-0.5683408707462736
230,-2.656016822148449
231,-2.6732528806713525
232,-3.6868886163006884
233,-0.42634227516244894
234,-0.42634227516244894
235,-4.332982127343301
236,-3.465961877413608
237,-3.9080818462379594
238,0.2012695394261738
239,0.6024140763338897
240,-1.5099764683528503
241,-3.3984874178659745
242,-2.8670438426062814
243,-1.0987818975653945
244,-2.5486488550241595
245,-3.0817697655183864
246,-0.34405244608595875
247,-4.223827193888543
248,1.1654564230445474
249,1.5176929849795537
250,-3.69446853969376
251,-1.5347373092171435
252,-4.36530896093268
253,-1.126266910799743
254,-1.9095259996770204
255,-2.8465100549815556
256,-2.4883008189127716
257,-0.9181014890533398
258,-3.1790322766763524
259,-3.2856597548154434
260,-3.748045712456148
261,-3.3797384889980804
262,-2.6244385007238717
263,0.0
264,-3.9121867170370526
265,-3.3096690244226874
266,-3.6153680342537666
267,2.547805510434036
268,-3.1760033647708155
269,0.0
270,-3.6611375988510937
271,-2.3501081803003334
272,-2.006444990066998
273,-2.9823573457152257
274,-4.107027201346043
275,-4.707580715595571
276,-2.115191361129835
277,-3.1048374129707232
278,0.2012695394261738
279,0.2012695394261738
280,-2.480563487227276
281,-3.5917817360218764
282,-3.9489663157772905
283,-3.865670426522937
284,-1.369150490526276
285,-4.13638180456592
286,-1.8803158253699845
287,-3.579060742746199
288,0.3804532428447137
289,-3.622243202343549
290,-2.7430177338394417
291,1.2758645343249242
292,-3.5471043285077197
293,-2.83065097539402
294,-1.6606522608540712
295,1.5414230923267818
296,-3.4255619100926142
297,-1.3224862003683306
298,-2.3185723052679883
299,-4.801395910151839
300,-3.7475150556513026
301,-2.0573808925929216
302,-3.191844360073196
303,-0.7838028284236163
304,-1.7347806719138232
305,-1.7272797257224977
306,-3.6935159258967407
307,-0.6073767203269107
308,-2.5642271573784186
309,1.1693113126268155
310,-4.881450229085156
311,-2.4744010282493316
312,1.552718326401416
313,-3.0834470824152636
314,-2.7210915262220947
315,1.8928734916298646
316,-2.739629004913154
317,-4.165004351135886
318,-4.257344161067305
319,-3.3067164323732157
320,-5.435358102917776
321,-4.600625716891956
322,-1.469634794286276
323,-4.107027201346043
324,-2.972789812020634
325,-1.3659333349958347
326,1.5594438291834227
327,-4.178303190697555
328,-3.350499208981718
329,-4.0946029177138
330,-2.432985964035581
331,-3.1950454001052706
332,-4.5414837983670555
333,-0.5541855969055512
334,-1.2541848225096954
335,-3.6274623861051207
336,-0.8896336991048246
337,-1.1800293804405475
338,-3.108732406362654
339,-2.5393834555609747
340,-3.4696554262949726
341,-3.16513447020716
342,-2.596180336501824
343,0.9043342493299629
344,-2.463211397306379
345,-4.882417975151263
346,0.179222792712007
347,-5.292460864337012
348,-4.733973204648571
349,-2.569135510803508
350,-4.124336251348695
351,-1.6688758257714766
352,-4.716590805123811
353,0.8016752715881665
354,-4.443833154207968
355,-3.294579324477854
356,-4.649421846164481
357,-3.72857710301056
358,-1.7606487928083143
359,1.165986271484195
360,-4.398935227205189
361,-2.751512612488562
362,-3.462283023103324
363,-4.47239963129932
364,-3.8033065191232724
365,-3.4066407448366527
366,-1.4319882523565153
367,-1.5740010728345633
368,-3.528079693495711
369,-3.73505734275109
370,-1.7172168444313118
371,-1.2117615628326883
372,0.0906409895877456
373,-4.217338939067682
374,1.3666969162624363
375,-4.356244374942951
376,-2.063544351054422
377,0.7398088303177311
378,-4.7482982546655155
379,-4.692665262906436
380,-2.520940964147083
381,-3.813057542727471
382,-3.239913363387934
383,-1.9341666976793783
384,-3.699776035122586
385,-3.7255477255797933
386,-3.9817868761015416
387,0.4869280230710617
388,-0.07163933172640007
389,-2.8269305560995575
390,-3.5813308921034723
391,-3.2717251770470255
392,-3.4678616739049137
393,-4.224519314639145
394,1.1664077637218098
395,-3.5562842153688843
396,1.552718326401416
397,-3.48498928792747
398,-3.4754467561259585
399,-3.2807069919291196
400,-1.0611187637546415
401,0.3373319406847148
402,-2.464539100350208
403,-3.703596977749347
404,2.0781868842182725
405,-3.69446853969376
406,-2.731679390488576
407,-1.4688530044599135
408,-3.90569220627711
409,-4.35698252065841
410,-1.1665540799524268
411,-3.2933781743481547
412,-2.9686825475244585
413,-3.0790610807299768
414,-4.421626702569586
415,-2.96711593414862
416,-3.5164500641608343
417,-5.8510158308572855
418,-1.6456249649514687
419,-3.248108850088178
420,-3.924604784774262
421,-4.163782911153018
422,-2.615554603129012
423,-0.80383527069635
424,-3.565336603753347
425,-3.8089593173615945
426,-1.74164990331867
427,-2.3266315281443006
428,-2.322172007305427
429,-3.7276130920737804
430,2.6330248388112314
431,-3.1097365651769504
432,-4.085437085796226
433,-4.81189822160272
434,-0.6162356081862467
435,-2.6745156642629144
436,1.4672518894636408
437,-2.046209957517921
438,-2.2536560242698003
439,-3.90569220627711
440,1.1667500964468747
441,-3.5315520949144115
442,-4.431431763442625
443,-3.407299662367711
444,-3.2051045061662524
445,-3.234836497742104
446,-3.57598372004301
447,-1.3516415322344588
448,-2.222602228810003
449,-3.56079491031621
450,-4.313227585610728
451,-4.621647926243832
452,-1.723507528881259
453,-1.7272797257224977
454,-3.424343947523338
455,-3.691350997031813
456,0.12717473735098045
457,-3.183760669083414
458,-3.975766152833674
459,-3.3812097852656215
460,-2.7210915262220947
461,-3.0187190971613505
462,-2.074206461942194
463,-3.1524615887972613
464,0.30900729459129045
465,-2.2969485384479187
466,-3.658159565161922
467,-4.301126388092699
468,-2.590841534705184
469,-3.5657456868311606
470,-4.717126883669317
471,-0.15062173772257578
472,-2.745898912993028
473,2.0488837002275315
474,1.1671957049084913
475,-3.869043075017669
476,-4.433921537557537
477,1.4958471178211685
478,-5.276436378488115
479,-4.960971501430139
480,0.3133724024862067
481,-2.75072569128898
482,-2.281630436426142
483,-1.4395920287585922
484,-2.518349673267131
485,-4.649421846164481
486,-2.955273108085045
487,-3.5315520949144115
488,-1.1292273635862158
489,-3.3201209648849574
490,1.165613842368869
491,-3.340414402279497
492,-3.2630743933457933
493,-3.8071946690778717
494,-3.5080112253206703
495,-2.853435791002502
496,-3.0274963718715315
497,-1.9503181030386525
498,0.32183282754157977
499,-2.720967606893079
500,-3.8138030112989574
501,-2.7490403050771013
502,-1.4686804716973103
503,0.34116995768343183
504,-3.899610182812472
505,-1.688809286556013
506,-2.950697280320116
507,-0.33540636885006647
508,1.272915003810256
509,-1.9632316130754566
510,-2.9842840265527264
511,-3.8826882391359088
512,-4.245758873311043
513,-3.6063420162214266
514,-2.5994962599136393
515,0.7726000894206306
516,-4.066363516044145
517,-2.752634145898615
518,-1.2618611104538868
519,-2.345579196630782
520,-2.463211397306379
521,-2.708060038650308
522,-2.3107094254057525
523,-0.13501919560794065
524,-3.4977069081698424
525,-1.8239766402788873
526,-1.4593429394028974
527,-4.649421846164481
528,-4.218825053434123
529,-4.527568619878136
530,-3.4691888893883522
531,-4.57355729811263
532,-3.7099078576139943
533,-1.3027488765623692
534,-1.512752930339506
535,-3.890133277490897
536,-0.9210990601441071
537,-2.755529791506504
538,-1.851398958371241
539,-2.813224443419153
540,-0.7497851144909405
541,-2.9768061939670414
542,-3.9065951599695707
543,-4.547570641264275
544,-3.5119236889905814
545,-3.4983457086646386
546,2.6550350799004208
547,-4.353485380568985
548,-3.5673434461526643
549,-2.0816393616228606
550,-2.2641374266588117
551,-1.5178695873772272
552,-4.47239963129932
553,0.1474366273231141
554,-3.3909129962374056
555,-3.9541501350637067
556,-4.199576343905469
557,-2.294349540605106
558,-0.8206317958003971
559,-5.186872291150174
560,1.2851418445868632
561,-4.178303190697555
562,-2.0498829531008456
563,1.2901205357763588
564,-1.7078530624318555
565,-1.8709800699918597
566,-0.7039234149022943
567,-2.098197872516061
568,-3.2921320247193826
569,-4.57355729811263
570,-3.170242700968021
571,-3.8071946690778717
572,-4.746305194393508
573,-5.215217373042411
574,-1.7175380485142275
575,-2.697068481362095
576,-0.8896336991048246
577,1.1628424712743644
578,-3.470094241395508
579,0.8647639276744171
580,-3.3844530156360313
581,1.1315481616804548
582,-1.8532404540560141
583,1.1668330115794354
584,-4.544687906524723
585,-1.5178695873772272
586,1.1669941933096997
587,1.2851418445868632
588,-0.40259908338722
589,-3.7289283766675827
590,-3.561936596475647
591,-1.5433260744045614
592,-3.2829106389811167
593,-4.229283771484078
594,-3.433494047381003
595,-2.4336050085995864
596,1.3632253961261815
597,-3.5209335008929883
598,-3.3839247160560344
599,-2.9384152093047877
600,-4.4885041588168635
601,1.5496531424458981
602,1.250748239060113
603,-1.9971503622761708
604,-3.4698681016245643
605,-1.465081743748488
606,-0.11680640963890156
607,-2.210829904364448
608,-2.3970678297565877
609,-2.324932017120253
610,-4.792761160020008
611,-2.275939323032518
612,-2.7620276076534367
613,-1.4561090670233958
614,-4.058244949428456
615,-3.7461376312732995
616,-3.9970717172280503
617,-1.9920380134152942
618,-3.72857710301056
619,0.029371222230648395
620,-1.7882516587129074
621,-3.107112718499525
622,-0.35880941917743053
623,-3.1524615887972613
624,-4.710087195457617
625,-4.707580715595571
626,-3.469374371793006
627,-2.2042349000680623
628,-0.6955025614942549
629,-3.8029123073477797
630,0.8016752715881665
631,-2.9842840265527264
632,-3.37470911547156
633,-3.228135991048886
634,-0.9191105358131497
635,-0.24615781406734918
636,-4.649421846164481
637,-3.355597479649224
638,-2.585371924298145
639,-1.209469279472712
640,-1.7606487928083143
641,-3.111187809229169
642,-4.067022294349477
643,-3.6027394742904253
644,-3.534563484162578
645,-4.321943459355712
646,-2.9467574075196206
647,1.193680165466592
648,-3.4683920661454266
649,-3.1950454001052706
650,-3.239913363387934
651,-2.6127624812753183
652,-2.286813836908538
653,-1.147801349116609
654,-4.619159419953616
655,-4.7482982546655155
656,-3.9014985340464334
657,-3.063803685064897
658,0.44213793123150735
659,-3.1207981906041256
660,-2.6128886274412704
661,-4.604311616477362
662,-2.8633187197574452
663,1.685046076945489
664,-4.086594171440998
665,-3.2219665984004666
666,-4.3096451282340125
667,-3.6715821093090413
668,-4.379860330691136
669,-2.824967922112675
670,-2.666416410786624
671,-3.097808674604328
672,-0.6784939479882083
673,1.3317373499234157
674,-3.4571041855812954
675,-3.315855748683347
676,-3.305394045747422
677,-1.662461282614526
678,-2.0933628141560496
679,-4.062583532287335
680,-1.7395991152754375
681,-2.8723099802865377
682,-3.2051045061662524
683,-1.0121685983303157
684,-3.3539263455728126
685,-3.3273177726654257
686,-0.4881877715575329
687,-2.019424795870802
688,-4.1326786486790965
689,0.12717473735098045
690,-1.4088495901032967
691,2.6330248388112314
692,-2.981736698734389
693,0.10074299432806959
694,-0.9494404359172449
695,-5.276436378488115
696,2.192753252616703
697,0.4533639184104596
698,-2.5992253950873274
699,-1.2017196504897034
700,-3.4773380972600956
701,-2.6164525114788657
702,-4.366543059571825
703,-3.9851245249057174
704,-3.5198637233526324
705,-3.223939742051958
706,-4.1107395018516435
707,-4.032981417560537
708,0.4874591047246052
709,-3.609161394011759
710,-3.6274623861051207
711,-3.4036450316522338
712,-2.617044748056751
713,-2.094706766807377
714,-0.8389899725675899
715,-2.294302341887232
716,-1.9389217591215238
717,-2.708774371033628
718,-0.6907835564209529
719,-3.685593308380638
720,-4.060491707316182
721,-3.5607932435997243
722,-0.809379399428599
723,-1.8776141974166867
724,-1.1755161611167015
725,-4.622309256431524
726,-4.565950927276357
727,2.406176381336389
728,-3.3839921819192567
729,-2.6037211556057396
730,-2.752634145898615
731,-1.4120750046199186
732,-1.6348761752966756
733,-2.3750968973760216
734,0.32068491217811806
735,-2.877446440402456
736,-3.4694548489051216
737,-5.406420406434581
738,-2.6341188277774696
739,0.06261355700004916
740,-4.5678178301090675
741,-2.5347117912558264
742,-4.023233625101103
743,-1.7395991152754375
744,-2.17045343485929
745,-1.544328898316837
746,-2.8723099802865377
747,-3.0184828799764487
748,-2.558876247729945
749,-3.7454888600666134
750,-3.8620229726210065
751,-0.2728745556186367
752,1.3632253961261815
753,-3.0984776693721248
754,-3.61141486119292
755,-2.2901151144174783
756,-2.7490403050771013
757,-2.8923382380788003
758,-4.536366785024738
759,-1.9106510585934506
760,-2.5554953478187183
761,-3.904985373376915
762,-3.340583238241247
763,-1.8141393878527565
764,-3.0376909964827643
765,-3.951349136303319
766,-4.075137698674514
767,-1.7581577963732478
768,-3.413903775982724
769,-2.5361996578698665
770,-2.8161419735504514
771,-1.3263830706278876
772,-4.07221053228115
773,-3.6389253898408134
774,-3.8433299345886756
775,-4.049949792088438
776,-2.4674265205031265
777,-2.0536222588774145
778,-4.114837407629305
779,-3.4263096606808805
780,1.2933620565374544
781,-2.720573066892438
782,0.4915176519225979
783,2.192753252616703
784,2.192753252616703
785,0.06181626709938224
786,-2.2536560242698003
787,-1.7204305212391804
788,-3.469410692354404
789,-3.3327354383178975
790,-3.293982864840743
791,-2.0287220409774633
792,-4.058855903903257
793,-4.124336251348695
794,-3.842097660042903
795,-3.653197233489887
796,-2.865361688391528
797,-3.6736638483258375
798,-3.4895326755688325
799,-2.3452788200185513
800,-4.492101156684602
801,-3.4491353351438407
802,-3.3647549766188285
803,-3.6667709689557264
804,-3.5874140323476635
805,-3.097201466638003
806,-3.9225727777201347
807,-3.486530797970384
808,-2.074206461942194
809,-2.384971628520313
810,-3.3478164591557396
811,-3.8030913988705723
812,-3.1334154176606046
813,-0.47644584087965974
814,-4.2098205257265215
815,1.1669327041477167
816,-4.47239963129932
817,-3.4704186120471903
818,-2.613263056574216
819,-3.590463771259452
820,-2.053783718367843
821,-4.023525217073054
822,-5.406420406434581
823,-3.7654086985105932
824,1.4958471178211685
825,-3.603155899100613
826,-1.4561090670233958
827,-3.634178712527514
828,-2.2536560242698003
829,-0.15264142313130208
830,-3.0116837683556152
831,-2.974142633965168
832,-2.5928015697426123
833,-3.842097660042903
834,-2.7886187244693272
835,-4.616415501566856
836,-0.2676919515774188
837,-1.1677714987530805
838,-2.7417676591575124
839,-3.4693427814675015
840,-3.9089704867950856
841,-3.4752399170450605
842,-2.4983793150314684
843,-3.699776035122586
844,-2.6095574724038246
845,-3.0479559159025476
846,-3.622243202343549
847,-4.2847785389707385
848,-0.6919802521459325
849,-3.1590480063504627
850,-2.7844881712457923
851,-3.981406607750491
852,0.0
853,-1.910025542065263
854,-4.398935227205189
855,-3.1914710446660286
856,-1.7177576048125272
857,-3.313919285794894
858,1.250748239060113
859,-0.812560692621517
860,-2.4785272283934154
861,-3.932439838854535
862,-1.9951210614356696
863,-4.148460052412277
864,-3.529398331919873
865,-4.988144869763404
866,-3.8433299345886756
867,-4.36053710330497
868,-4.693571230143357
869,-3.421434300486995
870,-3.720615697361718
871,-4.121939033312179
872,-3.628961852740136
873,-4.785974923811742
874,-3.5213828323482885
875,-1.5756595677577847
876,-1.3036238513556357
877,-4.181418174804593
878,-2.632766390145341
879,-3.4687630866407217
880,-2.9467574075196206
881,-3.769358709730763
882,-2.158664801474143
883,0.38970044372988294
884,-2.28347605774535
885,-3.8593986848955506
886,-2.4826658883695476
887,-4.336753465101906
888,-4.653549498118483
889,-2.66322774591008
890,-3.170242700968021
891,-3.8071946690778717
892,-4.360325930259158
893,-3.5094648192741142
894,-3.3301121037065253
895,-3.1257086303738486
896,-3.7152041366086395
897,-3.5315105346333318
898,-1.575155022628934
899,-2.842468515655967
900,-3.3839247160560344
901,-3.639566114013646
902,-2.6509733181022197
903,-3.8361988200824313
904,-2.842269609754578
905,-2.207072074823327
906,-2.626019997754791
907,-3.6387072521252004
908,-0.7192204301959023
909,-3.4443537952114354
910,-3.52456200559832
911,-4.222924295138888
912,-1.6597412705271894
913,-2.074206461942194
914,-3.469447859830516
915,-0.6595580756869226
916,-3.4549350164008743
917,-2.212854142771219
918,-1.6529167516565908
919,1.1831700384318435
920,-3.532612843670416
921,1.1663595717880106
922,-3.37470911547156
923,-3.319502591735233
924,-3.7460410842374077
925,-4.248070838217429
926,-3.1780847744477048
927,-3.4689272583813864
928,-0.19035372654082272
929,-1.3546678430300123
930,-2.520940964147083
931,-4.2668376482142945
932,-1.8013060043413758
933,-4.15458680376624
934,-0.1347265442307169
935,-4.315744251015664
936,-4.6845622729497185
937,-4.6845622729497185
938,-3.536685834203576
939,-3.595099541944245
940,-2.6341188277774696
941,1.5989674283272648
942,-3.5341506712935424
943,-0.9047799464367258
944,-2.745354492670704
945,-2.252951514139238
946,-3.2892585610161404
947,-2.17045343485929
948,-3.2630743933457933
949,-3.234836497742104
950,-1.3164052209602404
951,-3.269779977912018
952,-3.4691743086784834
953,-3.2089210546068143
954,-2.7417676591575124
955,-1.6972391372121278
956,-2.8514238374745906
957,-4.041424280895015
958,-3.081421072050559
959,-0.12373613796764758
960,-3.8727502483611764
961,-2.207072074823327
962,0.8617375599341667
963,-1.8992887309473876
964,0.7146394063319901
965,-1.954063656431221
966,-4.16458806287674
967,-2.739629004913154
968,-3.812835915142381
969,2.514567557874275
970,-2.981736698734389
971,-3.2233936651110886
972,-4.521434753166127
973,-2.124033123428329
974,-3.988692468108448
975,1.1661199604358392
976,-3.996562405954075
977,-1.5977834578397578
978,-3.1359857961758677
979,-3.231554265411412
980,-2.3365876945124793
981,-2.258019893504115
982,-0.9302221837246878
983,-2.2710852181481385
984,-3.0152226558481625
985,-3.013452629049215
986,-0.5798152457348281
987,-1.0044154429037488
988,-1.369150490526276
989,-4.242526993528072
990,-3.821389351144754
991,-3.3501902253361395
992,-0.7636761808522909
993,-3.0210624709365153
994,-2.950697280320116
995,-1.9475192399667793
996,-0.880199208449397
997,-2.3691806375303277
998,-3.025353663244423
999,-3.025353663244423
1000,-3.055554016783451
1001,-3.272520128444474
1002,-4.038967762054218
1003,-2.631384950761684
1004,2.2545538098233844
1005,-0.41620507101736814
1006,-1.7792199101889927
1007,-0.9294543726513066
1008,-4.149376589901024
1009,-2.771857681984066
1010,-4.481768642931351
1011,-3.7654086985105932
1012,-1.3098120444176227
1013,-3.7054720752678985
1014,-3.412194201392946
1015,-3.70910533129394
1016,-3.5299779201269628
1017,1.4683827151996396
1018,-2.558876247729945
1019,-2.33705758413084
1020,0.44213793123150735
1021,-3.65216455996517
1022,-4.18350642965553
1023,-4.02034513714521
1024,-1.9080836237880177
1025,-3.4696243899337422
1026,-3.1137291254753023
1027,-4.744989398126645
1028,1.762905624296902
1029,1.239754963260692
1030,-3.3318231923165333
1031,-4.5332467513634
1032,-3.303528201502646
1033,-3.4686735304764182
1034,-4.389735076302598
1035,0.45607359651481816
1036,-0.1852169978589059
1037,-1.4782680831713924
1038,-1.4854514346917247
1039,-3.421434300486995
1040,-3.8176036517532
1041,-3.573376673246964
1042,1.5442688528576074
1043,-2.18351183222391
1044,-2.400573312502743
1045,-3.910742795004525
1046,-4.548884745172272
1047,-3.8227530744930363
1048,-4.367765080970502
1049,0.9290395281429605
1050,-5.443793098430864
1051,-5.337106979548118
1052,-3.470374581478926
1053,1.13854873940518
1054,-2.981429525039763
1055,1.1660911594966559
1056,-2.6128886274412704
1057,-3.272520128444474
1058,-2.467702677686727
1059,-3.9998606052225774
1060,1.166040376444254
1061,1.833857503563484
1062,-4.244199906487073
1063,1.8006527483815753
1064,-3.9080829287071626
1065,-0.1347265442307169
1066,-3.7289283766675827
1067,-4.895753855735681
1068,-0.713232724910357
1069,-3.063803685064897
1070,-1.4001812393273307
1071,-3.801239532668294
1072,-3.4693357332715964
1073,-3.0853982742117347
1074,-3.3406704572462433
1075,-1.38335862386571
1076,-3.319502591735233
1077,-3.8494579833253257
1078,-3.759915532643603
1079,-3.8195137424284242
1080,-2.7737644879428274
1081,0.1889756071197652
1082,-4.180544081750899
1083,-4.737912478867353
1084,-4.633117995804592
1085,-0.7420740778603337
1086,0.3251364104973809
1087,0.3251364104973809
1088,-4.474303647841687
1089,-4.029684349614968
1090,0.7327733915233329
1091,-3.5315105346333318
1092,1.1666759678518155
1093,-3.4694522592996995
1094,1.1671468808028995
1095,-4.767639409363511
1096,-2.794941837099904
1097,-3.8354718950404645
1098,-2.5705483162198064
1099,-4.692665262906436
1100,-5.267038594523683
1101,-5.562716992318507
1102,1.1665879138233728
1103,1.8364240430122434
1104,-2.6972251470997404
1105,-5.215217373042411
1106,-2.955501846378625
1107,-2.1861806597329667
1108,-3.764398875801184
1109,-3.861384186317649
1110,-3.140901041765182
1111,-3.326465007423218
1112,0.16515762910561302
1113,-3.492038280527978
1114,-3.457224231010358
1115,-0.48214251327320956
1116,-4.5158466667874215
1117,-1.7704454904042068
1118,-2.450372550710825
1119,-1.8642794482307887
1120,-3.80123487540784
1121,-3.0400329444341065
1122,-3.46815319235836
1123,-1.5979894994865187
1124,-3.7411518949281204
1125,0.780625582631299
1126,-4.072353798477145
1127,1.4958471178211685
1128,1.0811263259048216
1129,-1.4937610863750164
1130,-3.770911743452603
1131,-3.757308185967883
1132,-4.706979646082577
1133,-3.475106513979323
1134,-1.8523856252763222
1135,-0.033211926362449504
1136,-1.9794924014742752
1137,-1.4634110366194661
1138,-3.3235809346757144
1139,-3.5600357071473834
1140,-0.4026088476920105
1141,-2.9779045262830603
1142,-2.1027142168779878
1143,-0.7922694174659742
1144,-1.7370841821076464
1145,-0.7776857864739576
1146,-1.6207591645264485
1147,-4.057704986688084
1148,1.9176700849866428
1149,-1.947217500573574
1150,-3.2124918629858215
1151,-1.9989209651744413
1152,-1.957352740766975
1153,-2.4971242244399687
1154,-3.432880579565431
1155,-4.245758873311043
1156,-3.8465964894431486
1157,-0.5999738184142389
1158,-4.123826522490119
1159,-3.273904980049223
1160,-3.3909129962374056
1161,-3.8687918042717144
1162,0.4793031165220926
1163,-3.089853861394567
1164,-2.424317683802212
1165,-3.2698489859457514
1166,-0.18148559270145498
1167,-2.74840948966056
1168,0.07437493977246018
1169,-2.94255888169183
1170,-0.6830555134993459
1171,-2.7790725859322576
1172,-3.5914936099930608
1173,-3.4697948204322504
1174,-4.107007100867491
1175,-3.2737762802396104
1176,-3.637080321919865
1177,-2.756614301628229
1178,-3.2935869314191075
1179,-4.421626702569586
1180,-2.191046026495722
1181,-2.015087296868114
1182,-3.601102353619026
1183,-1.9438996599881821
1184,-0.4026088476920105
1185,-3.843379431218995
1186,-0.2728745556186367
1187,0.5487883200123059
1188,-1.82066935488301
1189,-2.83862477724823
1190,-4.666773858595336
1191,-4.275943327462133
1192,-3.4690899954423955
1193,-5.008198995545295
1194,-2.788654940387462
1195,1.6708470685268944
1196,1.1358684536696408
1197,-3.2147775832549685
1198,-1.9715790487487816
1199,-1.3124736385025397
1200,0.9354403748272443
1201,1.1672395313388977
1202,-2.4331856892036483
1203,-4.014190942964484
1204,-2.8947985110897623
1205,-5.470948190354648
1206,-2.3955834220236936
1207,-0.9680881207077654
1208,-2.3116331570135786
1209,-0.6501238282986129
1210,-3.869043075017669
1211,-3.8906286366798337
1212,-3.7513811510047996
1213,-3.738541217485963
1214,-2.972349844233552
1215,-3.1235307463596023
1216,-2.525217086133284
1217,-3.634178712527514
1218,-4.01535734927042
1219,-3.247094439790782
1220,-4.267874112997453
1221,-3.826461042897681
1222,-1.3922223571222831
1223,-3.2197027873815673
1224,-2.756614301628229
1225,-3.4691409145369203
1226,-3.7037840961316264
1227,0.6178706049007613
1228,-0.7922694174659742
1229,-3.0535433308901436
1230,-3.7804054090994135
1231,-2.5887057924923926
1232,-3.722627390937825
1233,-3.4509081130927286
1234,-2.10774305184981
1235,-3.85267872117845
1236,-3.4895326755688325
1237,-3.356279638201532
1238,-3.3255941029347293
1239,-1.2769655487290401
1240,0.3804532428447137
1241,-4.1282700024850945
1242,-2.7090623957403404
1243,-4.03633877929456
1244,-3.417840653750376
1245,-2.367368125428993
1246,-3.543290515991483
1247,-3.947431336436936
1248,-3.7007017822177497
1249,-4.761977536254538
1250,-4.124342399615126
1251,0.10470048763089124
1252,1.519357137564673
1253,-2.5352725073057174
1254,1.1673167837656966
1255,-3.470018845293566
1256,0.5152611045807313
1257,-3.5446110997323523
1258,-3.3396624353685898
1259,-3.653643173207122
1260,-3.5003368722545924
1261,-1.6373373292413116
1262,1.1692143572087497
1263,-3.033037002103166
1264,-3.304048349493317
1265,-2.942960881075176
1266,-2.900835252507102
1267,-1.953170238367088
1268,-3.7405209478178323
1269,-3.794533189206386
1270,-3.886574087196534
1271,-3.886574087196534
1272,-3.7199730948439007
1273,-3.4694548489051216
1274,1.1657162382354522
1275,-1.7181209379781848
1276,-3.4180817614282937
1277,0.7385118183588156
1278,-3.9547077851553682
1279,-4.022623602909319
1280,-3.652237146815014
1281,-1.8372947294465243
1282,-3.7054720752678985
1283,-3.931948718631209
1284,-2.805067158856813
1285,-2.2042349000680623
1286,-1.7366449576363814
1287,-3.4307232831295584
1288,-4.0946029177138
1289,-3.2428263700943707
1290,-2.2810042719159194
1291,-3.677318965968668
1292,-3.7192679669188378
1293,-3.664480481724647
1294,-2.7563505444426837
1295,-3.6408425420592905
1296,-3.7455253754280124
1297,-3.46977337679104
1298,-3.2072716940971406
1299,-4.5158466667874215
1300,1.728421977708619
1301,-4.171253924614393
1302,-3.356076424001474
1303,-2.505677845993788
1304,-3.203406808799389
1305,1.1666490958956195
1306,1.2884206551187773
1307,-4.076867849056651
1308,-1.9811540659316043
1309,-2.143370653772521
1310,-1.5288865230427324
1311,-1.8562813219201892
1312,-2.0160573271844098
1313,-3.892526481430173
1314,-2.7947229938520715
1315,-3.4686913605750065
1316,-3.876482244528775
1317,-4.229352020680206
1318,-3.5854408348629256
1319,-4.023577235324315
1320,1.0351706803370253
1321,-1.213842664795631
1322,-0.8255326364718218
1323,-4.7522377583315665
1324,1.552718326401416
1325,-3.453454904160383
1326,-4.422078282329766
1327,-3.4693094625030256
1328,-4.931404087473216
1329,-4.141253387022152
1330,-3.4549350164008743
1331,-1.8921107731315367
1332,-3.641335885912791
1333,-2.0060438988041915
1334,-3.665778955094451
1335,-4.174254855863486
1336,-3.1849702765393046
1337,-4.795967278681684
1338,-4.342306469551992
1339,-3.579625737594131
1340,-2.2029181659319876
1341,-3.391558893223196
1342,-3.8222481684512837
1343,1.1665244895487952
1344,-3.9128462904906427
1345,-3.2039154807691825
1346,-4.1726038481275385
1347,-2.357861695353962
1348,-3.567833093670954
1349,-4.08647767847642
1350,-3.465632875535198
1351,1.977406196139254
1352,-2.570501552997263
1353,1.0591490376569674
1354,-2.355799173571148
1355,-3.610360503561297
1356,-5.190391150928324
1357,-1.9501279905520765
1358,-4.6845622729497185
1359,-5.204750609529001
1360,-4.143988694755336
1361,-0.2685800378196867
1362,-2.471587077809999
1363,-0.34572838212451534
1364,-2.363271840137188
1365,-3.469492194721286
1366,-3.7054720752678985
1367,-2.408707575206629
1368,-1.7672685611437973
1369,-3.6621088125737717
1370,-2.937912278162265
1371,-5.032457877592174
1372,-3.3285975378249297
1373,-4.538337061189167
1374,-3.3131541621667613
1375,-4.341986371871174
1376,-3.3236197120056468
1377,-4.582112850472451
1378,-1.4319882523565153
1379,-4.022050892984021
1380,-4.236385593790231
1381,-4.819425400279866
1382,-4.83529555963965
1383,-2.682935637577878
1384,-1.000467197264423
1385,-3.580481356641332
1386,-3.384774159203015
1387,-1.261926071919344
1388,-3.293982864840743
1389,1.1666725498708208
1390,-1.2081372247381599
1391,-3.201214429844733
1392,1.1668639972904313
1393,-3.213102935343174
1394,-1.2957692188676462
1395,-4.372760594261331
1396,0.06166929613193855
1397,-4.016490622225811
1398,-2.335198302916977
1399,-3.236268255300475
1400,-2.375182195099506
1401,-4.7806079357204805
1402,-4.743781258811337
1403,1.1668874056625778
1404,-2.5968185054427266
1405,-3.479268256234319
1406,-4.419716214621309
1407,-3.4696435383887096
1408,-4.801395910151839
1409,-1.6638924913839763
1410,-2.4465201579105322
1411,-1.7207159474094733
1412,-2.4008186874427997
1413,-2.9518347522549475
1414,0.6408459293325541
1415,-0.07815808474215848
1416,-0.42592759340606745
1417,-2.749666669429665
1418,-3.64885248455208
1419,-3.2142377020009616
1420,-2.6465780783488846
1421,-2.210748409890944
1422,-1.7489368842108899
1423,-1.1196258352673811
1424,-3.4581083599367184
1425,-1.2340081465726742
1426,-1.499994675003496
1427,-3.348100717179409
1428,-3.772964615446397
1429,-3.8862361756189983
1430,-3.4752399170450605
1431,-4.033056404590604
1432,-4.100013273331222
1433,-4.219440497620809
1434,-2.508851439195131
1435,-3.7113059622084377
1436,-0.12373613796764758
1437,0.029371222230648395
1438,-2.4385717880642175
1439,-3.711862515524863
1440,-4.9555369125404924
1441,-4.770974326954983
1442,-3.3004149420401827
1443,-2.9434073183863156
1444,-3.3088500428661516
1445,-2.3907146340323555
1446,-3.4957848835179877
1447,-4.342628966315628
1448,-3.8640769586725296
1449,-2.0467579487291667
1450,-2.6988415092350477
1451,-4.207661183426492
1452,-3.4436162230064693
1453,-3.5973164708180514
1454,-2.670508869549229
1455,-3.047901724740476
1456,-2.8118604241041734
1457,-2.4923639818478147
1458,-4.115832779476393
1459,-3.955360546435295
1460,-3.9994466868722247
1461,-3.4687443894796384
1462,-3.8538138148026944
1463,-1.4368695706176806
1464,-5.549278972499242
1465,1.166511294204249
1466,-1.486924650756666
1467,-3.3361606546752136
1468,-3.818014340083653
1469,-3.2059764094921794
1470,-1.586264823782684
1471,-1.5077246225317134
1472,-4.293599752657281
1473,-2.1065096410685404
1474,-3.9461809235964016
1475,-2.847112329745902
1476,-3.604267727272587
1477,-3.918008172307521
1478,-1.489506247191465
1479,-4.239989152110242
1480,-5.500509098169515
1481,-4.0238220839868335
1482,-3.513409932240278
1483,-2.3098296685729434
1484,-3.7398651915736725
1485,-3.4892341323838294
1486,-4.071103530607504
1487,-3.789779726928974
1488,-2.3487494261850466
1489,-4.337317156945576
1490,-0.13893809781818836
1491,-3.315746225393749
1492,-3.592479081301274
1493,-3.1599867409869966
1494,-4.016859842796019
1495,-1.258282773213502
1496,-2.3614026155890486
1497,-3.1248225088309765
1498,-3.5674485402143987
1499,-5.031801633193725
1500,-2.9064581482818737
1501,-4.351192774892611
1502,-3.1343633998549953
1503,-3.852111581952184
1504,-3.752858161214309
1505,-4.411757654091282
1506,-3.4689272583813864
1507,-3.0269534010768715
1508,-2.9851202688412686
1509,-2.8209226763355346
1510,-3.670685329119922
1511,-0.809080901123072
1512,-4.2668376482142945
1513,-3.6644042462856663
1514,-3.507965893699261
1515,-2.516220051507355
1516,2.0488837002275315
1517,-3.8195137424284242
1518,-4.377920786631819
1519,0.5267195381146189
1520,-3.8687918042717144
1521,-3.891788693075828
1522,-3.7199730948439007
1523,-2.8901122514587088
1524,-3.938187239558577
1525,-1.917813797886462
1526,-2.696093116363955
1527,-4.417021752567471
1528,-2.9812026513829806
1529,-3.5971464894674616
1530,-0.9217653018059352
1531,-4.701638235808801
1532,-2.9737160857068323
1533,-0.1359247317227585
1534,-0.40259908338722
1535,-1.567142226853646
1536,-3.455072537713449
1537,-2.5729729522082505
1538,-0.9244948496963145
1539,-2.0498829531008456
1540,-0.6542259088668969
1541,-2.067568735626191
1542,-2.4981504290788483
1543,-2.9467574075196206
1544,-2.693094152469013
1545,-2.5992253950873274
1546,-2.847232645266328
1547,-1.5292443974587535
1548,-4.352012778236175
1549,-4.643306471055138
1550,0.16288815082597538
1551,-2.7781277217286977
1552,-3.9082161377579037
1553,-4.566786743092701
1554,-3.114790600310727
1555,-1.5215242815749994
1556,-3.496701988404495
1557,-3.759991421230074
1558,-3.9397672581069325
1559,-2.6664501786877253
1560,-3.9135993809730136
1561,-2.774323205150534
1562,-4.891836555562563
1563,-2.252951514139238
1564,-3.5186651074736166
1565,-3.0137524019158626
1566,-2.0046053858823343
1567,0.20449138251701057
1568,-4.864418317746699
1569,-1.8344748226675862
1570,-2.462822472434342
1571,-1.482731591930225
1572,1.170717178535777
1573,-4.597670977568641
1574,-3.9215962479804016
1575,-3.8496026660138765
1576,-4.579686750888992
1577,-4.3362407243470935
1578,-4.23527591701562
1579,-5.081949638405186
1580,-0.5798152457348281
1581,0.13126862956696048
1582,-3.213102935343174
1583,-4.377685533875658
1584,-3.1191285042800825
1585,-3.8054639589420556
1586,-3.6183228062124573
1587,-2.800399205483963
1588,-4.354291877914493
1589,-3.6716256971221983
1590,-4.993434448651204
1591,-4.160418730502881
1592,-4.130273051389591
1593,-3.303749562840016
1594,1.325340990458273
1595,-3.424794510944331
1596,-2.846359170726118
1597,-3.4688032011441945
1598,-3.015745372443475
1599,-4.7461966866721825
1600,-5.276336444302724
1601,-1.1336895553091724
1602,-1.2245882719765546
1603,-2.6402463738784294
1604,-4.921604860336052
1605,-2.600374400828794
1606,-4.165944325487378
1607,-5.012471512391645
1608,-3.9868175642454875
1609,-4.621682084258223
1610,-3.5736332848248686
1611,-3.2119719181819035
1612,-1.0964863523626132
1613,-0.7695574737839179
1614,-3.6875197372466886
1615,-3.5472035360003535
1616,-3.9126433640462266
1617,-3.787755317691252
1618,-2.540130441832037
1619,-2.443170844668555
1620,-2.293473039177646
1621,-4.450575074124592
1622,-2.8381174008760666
1623,-2.6840608562086237
1624,-3.9405798319865655
1625,-2.6882065065189615
1626,-3.4687443894796384
1627,-3.4702421582078067
1628,-3.3447260744439338
1629,-4.011886920040989
1630,-3.2059764094921794
1631,-3.9161364858531305
1632,-3.4119079068618396
1633,-3.4696512868951377
1634,-4.094089741556965
1635,-4.414946062961901
1636,-1.8722857128286536
1637,-2.898194312443225
1638,-4.4269202068487905
1639,-3.079419448777135
1640,-3.7793326022707214
1641,-3.6915378789741395
1642,-3.776414537141116
1643,-4.564754146549514
1644,-3.1366762583622667
1645,-3.486530797970384
1646,-3.383027780100469
1647,-1.781767194141784
1648,-4.477592713146738
1649,0.03393986441728865
1650,-3.469709771041351
1651,-0.2767145765766437
1652,-2.555826180002183
1653,-4.823739075490596
1654,-3.470279844929313
1655,-3.489483440624867
1656,-2.6934715007061465
1657,-2.212854142771219
1658,-3.8095472740922403
1659,-4.2591759743028605
1660,-4.120297233740251
1661,-4.3750519328334105
1662,-1.6862867051164943
1663,2.8581646374890806
1664,-4.703062140449245
1665,-3.599226111520639
1666,-4.920282712956218
1667,-5.073499944524011
1668,-3.468910105474424
1669,-5.542333357533611
1670,-6.164939991561005
1671,-3.9564341673445247
1672,-4.777218662303889
1673,-4.689231499452472
1674,-1.8713383098276266
1675,-3.560650433997513
1676,-3.0146578270203657
1677,-4.492371714018774
1678,-3.0889405167651964
1679,-3.4691002302661325
1680,-3.9553553109856083
1681,-4.100938398231955
1682,-4.074883922103521
1683,-4.650009283405237
1684,-3.4704291065498847
1685,-3.6556853557953137
1686,-3.4690784737155798
1687,-3.0405339540008303
1688,-0.8650962401754627
1689,-3.5564738523833412
1690,-6.337415948237964
1691,-3.852111581952184
1692,1.1809505450441822
1693,-1.9513252508409615
1694,-3.119056622296838
1695,-3.399508145465001
1696,-2.002023797224869
1697,-3.439649834621374
1698,-3.463263930410464
1699,-3.793506498955641
1700,-3.674117246225052
1701,-1.2727708936940747
1702,-1.5973201430718311
1703,-3.2559299064622285
1704,-1.0512781366064026
1705,-4.037422397901708
1706,-0.5785882760089356
1707,-2.85959379809616
1708,-3.2980890864529764
1709,-3.653379052993686
1710,-1.1203646623933443
1711,-2.9976024597785953
1712,-4.447421436733318
1713,-3.3771257827186916
1714,-4.375093066612122
1715,-2.814611217521595
1716,-4.097337479649572
1717,-4.536599667000137
1718,-1.8699326539781145
1719,-5.052603527502759
1720,-3.8505312659384496
1721,-4.6625938156294024
1722,-3.8351255579850334
1723,-3.7350318889307377
1724,-4.097847499125322
1725,-4.511993894420933
1726,-3.3155962826894716
1727,-4.471457374172339
1728,-2.1006700640338134
1729,-4.4353772487407666
1730,-4.561010009370916
1731,-3.4009728447390692
1732,-5.797406488610998
1733,-4.544912717570867
1734,-4.638373323422827
1735,-2.4424718276056954
1736,-5.419413904625257
1737,-3.8554698667727894
1738,-5.1554705229682485
1739,-3.961484712028806
1740,-3.997486047657946
1741,-2.525217086133284
1742,-3.82897598035534
1743,1.0811263259048216
1744,0.8420496232035904
1745,-0.6326412736912939
1746,-2.7929590675278666
1747,-3.61593864456869
1748,-1.9477219526768448
1749,-2.406687738779323
1750,-2.408707575206629
1751,-3.926688246813563
1752,-4.2783441277879515
1753,-1.0848955216161844
1754,-4.186919257991881
1755,-3.786260601232583
1756,-3.469034045147853
1757,0.7900366765818172
1758,-3.8225201142075065
1759,-3.5813308921034723
1760,-5.300635369822103
1761,-0.8714825980287959
1762,-1.369150490526276
1763,0.029371222230648395
1764,-3.468817758657386
1765,1.166232986532511
1766,-1.5552977252670592
1767,1.4062765497534482
1768,-1.1634806410365197
1769,0.0
1770,-3.303528201502646
1771,-4.07221053228115
1772,0.9354403748272443
1773,-0.4156793709710543
1774,-4.214877085082799
1775,0.6017346864867216
1776,-3.4978947977049804
1777,-3.658893861899513
1778,-3.8906286366798337
1779,-3.4361411257220937
1780,-3.0816506634771543
1781,-3.82897598035534
1782,-3.5608261927630265
1783,-1.8070791298786146
1784,1.1663466248864196
1785,0.048518872304207275
1786,-4.224932718197013
1787,-3.2828862603361237
1788,-4.151148859268567
1789,-2.8283552113260972
1790,-4.579686750888992
1791,-4.50230819476385
1792,-3.1161803534530095
1793,-3.6623987688316686
1794,-2.9518347522549475
1795,-3.3501902253361395
1796,-5.002424572465433
1797,1.3053728350061773
1798,-3.111187809229169
1799,1.5496531424458981
1800,-0.2599063627269301
1801,-3.606341607342147
1802,-3.3478164591557396
1803,-1.8863760768818316
1804,0.045077450793020536
1805,1.1658359351467302
1806,-4.125324408516798
1807,-3.8176036517532
1808,-5.30307490912682
1809,-3.4694751071587895
1810,-3.653379052993686
1811,-1.1790737342832067
1812,-0.19759925004795567
1813,-1.3783935669187666
1814,0.0
1815,-4.783810563026973
1816,-3.2530408937516673
1817,-4.692665262906436
1818,-3.4705337789140507
1819,-3.7332905776546736
1820,1.8193575145713972
1821,-2.7238470841028373
1822,0.9290395281429605
1823,-0.28913197151312486
1824,-3.903101735996513
1825,-1.3027488765623692
1826,-1.3027488765623692
1827,-5.247229681304741
1828,-3.7425539749290193
1829,1.1659528673577417
1830,-1.30198229692665
1831,-3.429691754503061
1832,1.7793893073037055
1833,-2.6882065065189615
1834,-3.8131583110602674
1835,-2.965126208303698
1836,-4.1856654856498
1837,-0.4063133965379998
1838,-2.80495582102799
1839,1.6157040335544663
1840,-2.9641038517548983
1841,-3.0853982742117347
1842,-2.4184913709349685
1843,-4.047509335670594
1844,-2.4395736862665593
1845,-3.469545220837014
1846,-2.2839801948930134
1847,-2.124033123428329
1848,-1.860643982014395
1849,-1.463507067691236
1850,-5.038419307675174
1851,-0.24615781406734918
1852,-3.7225585875577774
1853,-3.628961852740136
1854,-4.321943459355712
1855,-3.9661296739325826
1856,1.165597314854216
1857,-0.9368373543464376
1858,-4.076567931127197
1859,-4.598866892986995
1860,-3.7159735144574237
1861,-4.215314767236353
1862,0.0
1863,-1.777488005611585
1864,-2.842468459132522
1865,4.7423651968561
1866,-3.8640769586725296
1867,-4.819354041772258
1868,-1.4828725111521655
1869,-3.4693094625030256
1870,1.166292018640004
1871,-3.654070235371829
1872,0.5248553453464778
1873,-1.4746819887101323
1874,-4.299022434616893
1875,-1.3679485840182433
1876,-1.4576467518236629
1877,-3.2777191662774463
1878,-3.6187227245236295
1879,-3.657727114097569
1880,-3.469747829950709
1881,-3.0791125790027394
1882,-5.657489220446687
1883,-3.394235237626849
1884,-3.746425919420294
1885,-3.2954969968947596
1886,-0.2268129030571305
1887,-3.972953004797433
1888,-4.057505374671581
1889,-4.658341400578227
1890,-1.867764082985777
1891,-4.526459209832113
1892,-1.1674783238307993
1893,-5.7775110006119865
1894,-2.9072082248351276
1895,-4.352511049700951
1896,-3.470148642760993
1897,1.1669576498225307
1898,-4.9761607085151995
1899,-1.30198229692665
1900,1.2859511958393142
1901,-4.3075410988139495
1902,-2.143128020151735
1903,-2.6509733181022197
1904,1.1441648391604813
1905,2.0251893770656184
1906,-3.4694522592996995
1907,-3.545210127921988
1908,-2.631384950761684
1909,-3.4699510909354094
1910,2.451118641758461
1911,-4.372611827107091
1912,1.976989304482116
1913,1.1662227239545127
1914,-3.4692911699395146
1915,-4.496179410490343
1916,-3.6187227245236295
1917,-3.84973597969097
1918,-2.9344749866341737
1919,-1.1790737342832067
1920,-2.7929590675278666
1921,-5.910363984835145
1922,-4.128862841307557
1923,-3.193911977121659
1924,-4.052405625148451
1925,-3.3048831671658934
1926,-3.7932240274884315
1927,-2.800399205483963
1928,-3.2994381106923156
1929,-5.204965413068538
1930,-4.010959568747338
1931,-4.222010117884256
1932,-4.931029584069318
1933,-3.9661769543220435
1934,-3.597693764072816
1935,0.10337195901904041
1936,1.166660701232789
1937,-3.4686491169043414
1938,-4.928103722519464
1939,-3.760732292640935
1940,-3.0895029927879167
1941,2.5858132876251614
1942,-1.5271960164771174
1943,-3.8477462469015102
1944,-3.7217519998039768
1945,-3.4695897886376934
1946,-3.4687309067660412
1947,-2.9999379824036043
1948,-2.024680757587904
1949,-4.281180119568063
1950,-4.636184182168049
1951,-3.530529972788345
1952,1.629789323098697
1953,-4.607163890391184
1954,-3.843157264911454
1955,-5.401988531447528
1956,-3.4847330822428426
1957,-4.369769088398253
1958,-5.985366004392022
1959,-5.623887820861194
1960,-5.789309435993717
1961,-3.8792446052003338
1962,-4.089681735854592
1963,-5.470864278120515
1964,-2.3533598541252267
1965,-3.687224267824165
1966,-4.2471339268948585
1967,-3.3039819387079628
1968,-3.469783643815819
1969,-4.268833997579104
1970,-5.396786906529752
1971,-3.4397043274897783
1972,-5.26440584171859
1973,-2.6158121214734438
1974,-0.2783437894185838
1975,-3.011640178575591
1976,-5.059020586278315
1977,-3.5641741714595883
1978,1.9213570727475917
1979,-3.8168311401953456
1980,-3.221170471994998
1981,-3.081907023597418
1982,-3.2685518859663234
1983,-1.6456249649514687
1984,-3.7613753122809213
1985,-4.0027545333774
1986,0.775151492662997
1987,1.503190469820958
1988,-2.1145115355973187
1989,0.5241850733284696
1990,0.07437493977246018
1991,0.16515762910561302
1992,-2.898599489069527
1993,-2.1473286605739887
1994,-3.528079693495711
1995,-3.86348787402418
1996,-3.613587734968699
1997,-4.18350642965553
1998,-4.070580144628078
1999,1.9850973902762714
2000,-3.1014066274501424
