Id,Predicted
1,-2.286853799403314
2,-1.3927262454248348
3,-2.8752548120378343
4,-2.6639723405421276
5,-2.1296534123478157
6,-3.730196657769089
7,-3.5452691753422942
8,-2.474745810316264
9,-2.329298633061611
10,-3.0565909753421456
11,-2.777878288215355
12,0.9189326796931767
13,-1.9708517492127575
14,-2.8246918088087813
15,-4.003337680836496
16,-3.2868161215478966
17,-3.286313226522711
18,-2.4921764290177304
19,-2.7174040699485023
20,-2.608208208869984
21,-3.1067764867436924
22,-2.8627492524087
23,-2.4438887498831043
24,-2.760809459883243
25,-2.709053566489664
26,-3.184480146556391
27,-2.6195875240744666
28,-2.740137761785892
29,-2.453278123167759
30,-2.747073644138389
31,-1.705601365619067
32,-3.0565909753421456
33,-3.5879733347172715
34,-2.831539717979002
35,-2.405933438576135
36,-2.7211896452345044
37,-3.7519959256510975
38,-3.9273978433659984
39,-1.8370752246930098
40,-2.8563756821233506
41,-3.5879733347172715
42,-2.5938918013781604
43,-3.490778067214964
44,-3.188490702616853
45,-3.730196657769089
46,-3.3666103795561
47,-2.446023901744308
48,-2.6070494301855502
49,-0.8631226124358984
50,-3.1928348585071924
51,-3.2868161215478966
52,-3.605867401986085
53,-2.7679270253429373
54,-1.1052545284514572
55,-3.1411825974342005
56,-1.5012706069379096
57,-1.705601365619067
58,-2.5230902213820583
59,-3.5879733347172715
60,-2.453578242823372
61,-2.6837623334599554
62,-2.7871226730925374
63,-2.5200846796888463
64,-4.093549915587242
65,-2.08681145782071
66,-1.7760895969363357
67,-2.7236078314992684
68,-2.217979563383427
69,-2.8949731109781447
70,-2.2152840637752576
71,-4.1423106910720895
72,-3.595640901924707
73,-2.787746385869494
74,-2.7871226730925374
75,-2.700357509252684
76,-2.755071506454521
77,-1.8552666127808153
78,-2.550840036142401
79,-3.565331103764807
80,-1.522357930396488
81,-2.834202731717737
82,-0.8246967384850479
83,-2.1841187793648147
84,-2.9161127012200443
85,-2.4103576936275424
86,-2.465126428189364
87,-2.608208208869984
88,-0.04378860301521019
89,-2.5701440198297743
90,-2.684083125648252
91,-2.3734593750588395
92,-2.7946236723966753
93,-1.5475051235001596
94,-2.6879719477417243
95,-3.636575225072613
96,-2.323570152723437
97,-3.7798796443092217
98,-4.1215844458770015
99,-2.6934776378148952
100,-3.0724918427223726
101,-2.7186089335810197
102,-1.7817557875773213
103,-2.6349497148329144
104,-2.861419098232718
105,-2.397735147150044
106,-3.1185627185722553
107,-3.1635299285711174
108,-1.3653274673618638
109,-2.608336859326512
110,-2.168876741864614
111,-3.8871309123428834
112,-2.3666563730798797
113,-2.5598681668474126
114,-2.983611529118038
115,-1.9238662323994935
116,-2.4725875449831887
117,-3.3385870764037606
118,-2.212164107383969
119,-2.176620107617046
120,-2.2835644769538117
121,-2.323570152723437
122,-4.143922820165233
123,-3.8898422251376212
124,-3.3757395260479797
125,-2.831539717979002
126,-2.458172122923701
127,-2.925913743508403
128,-2.1411935346161357
129,-2.684083125648252
130,-2.134738874681047
131,-2.329298633061611
132,-2.748709731511822
133,-2.7251094387783064
134,-2.751578328074028
135,-2.686549282115231
136,-2.038162162613599
137,-3.1508145516648933
138,-3.4325506097682235
139,-2.754053951224687
140,1.4133102086043932
141,-2.782402427782752
142,-3.6241038474786245
143,-3.8871309123428834
144,-1.9834341156075328
145,-2.179667285831876
146,-2.650763817055239
147,-2.800233135735967
148,-2.5975493969631707
149,-2.5029964739725172
150,0.13909147294724075
151,-2.5720899078608697
152,-2.714881863298683
153,-2.5221726514105467
154,-1.6337706080702818
155,-2.759298510255356
156,-2.2994440651301167
157,-1.7285141730293188
158,-2.834202731717737
159,-2.8519746936849013
160,-3.0724918427223726
161,-2.8922559372707215
162,-1.8946175226107438
163,-2.5939266972809967
164,-1.9281699694335874
165,-2.769433243726183
166,-2.1343216208222686
167,-2.7439528797327513
168,-1.8961743988319242
169,-2.724559549288569
170,-2.502503427931387
171,-1.2184011741614884
172,-2.8921965801910057
173,-2.4511659186205015
174,-2.827570885069104
175,-0.22394352965313877
176,-2.259052779366323
177,-2.396278508808335
178,-2.396278508808335
179,-2.5984014364742283
180,-2.323570152723437
181,-2.1303847175789845
182,-2.847247821489246
183,-1.8562130590647232
184,-2.2426053179899
185,-2.60362309497295
186,-2.2821391898461747
187,-4.2096520276732345
188,-2.6329114418548025
189,-1.876900571139575
190,-2.000550354056473
191,-2.7198464755453475
192,-2.280590958305726
193,-2.4103576936275424
194,-2.156709340658029
195,-3.6254035551241777
196,-4.108837429705393
197,-2.111400995787499
198,-2.7926224121168395
199,-2.7082182568555653
200,-1.8864258569721053
201,-2.8995115912533937
202,-3.3370578649427025
203,-2.9431458253011993
204,-2.4645176555604746
205,-2.6776658427329667
206,-2.8275360071454876
207,-2.0486774006113992
208,2.5989981963332958
209,-2.758148929683021
210,-2.9692290825985683
211,-2.020101031769036
212,-2.0702143197785627
213,0.0
214,-1.991992831247031
215,-2.8457898642511172
216,-2.6934776378148952
217,-2.565584013566848
218,-3.408032857792346
219,-2.0588000990297766
220,-2.0211312046100742
221,0.5474490769661178
222,-4.141839309538366
223,-2.6211672971938222
224,-2.7238917077580167
225,-2.761682603427987
226,-2.6450685967541507
227,-1.5141907645461898
228,-2.2284813552769376
229,-1.7309690298215339
230,-2.294997029453405
231,-2.176620107617046
232,-2.790928877681408
233,-2.6625566242457377
234,-2.6625566242457377
235,-2.7280549650296386
236,-2.763438294908317
237,-3.674271472395356
238,-2.1579717152373536
239,2.4385032811543708
240,-2.2967399971362608
241,-2.665022047701386
242,-2.1092696208761477
243,-2.615467224370925
244,-2.2609464614713657
245,-2.4853206312576046
246,-2.217979563383427
247,-2.93571686005626
248,2.6000270670842727
249,-1.4823359458407923
250,-3.5672157803437012
251,-2.5007993637149863
252,-3.0512598702500875
253,-2.453578242823372
254,-1.8375729316278162
255,-2.688659514505883
256,-2.3852428480269814
257,-1.8435617243269182
258,-2.646272192214318
259,-2.8272521750289497
260,-2.739125735573024
261,-2.6270426442788906
262,-2.714881863298683
263,-1.8370752246930098
264,-0.6927100689959526
265,-3.0367540098371166
266,-2.091836965679743
267,0.5474490769661178
268,-3.0466625554864373
269,-1.806991079336358
270,-2.96627788770631
271,-3.0565909753421456
272,-2.0670586407325153
273,-2.737305698075568
274,-2.750554024813157
275,-2.9246280443037307
276,-1.1463026091303845
277,-2.775747715746719
278,-2.1579717152373536
279,-2.1579717152373536
280,-2.2342861688281332
281,-2.7601520036505813
282,-2.4318192857491927
283,-2.7530991616649816
284,-2.1007118256210178
285,-3.042179116989882
286,-2.164380797993602
287,-3.0037780182365346
288,-2.0980813752176335
289,-2.4797722220071234
290,-2.301510404935658
291,0.13909147294724075
292,-3.310660879981381
293,-2.5617066817423013
294,-2.47236101152266
295,-1.8702263786176798
296,-2.7416894710227577
297,-2.6642954147002094
298,-2.3790881784013087
299,-2.5582596922307115
300,-2.8964397657564365
301,-1.10011072259742
302,-2.750060157906473
303,-2.549833051281409
304,-2.5498654699598755
305,-2.5381505375714504
306,-2.4678188613543375
307,-2.755071506454521
308,-2.6329114418548025
309,-0.9841428471750765
310,-2.934909628305028
311,-1.222106893132727
312,-0.05319586675149624
313,-2.7804697503443747
314,-2.2860401957991137
315,-1.3122400374468888
316,-1.7447292201195452
317,-3.232763835807303
318,-2.8386971208225096
319,-2.686549282115231
320,-3.0567751964020924
321,-3.059835294286776
322,-1.70272132824206
323,-2.750554024813157
324,-2.745511661194359
325,-1.4368529282502007
326,-1.603470985734195
327,-2.64621080313312
328,-3.9431304964017566
329,-2.914914356264581
330,-2.301282382142833
331,-2.6608920122332074
332,-2.2821391898461747
333,-1.1983769669300561
334,-2.2237564034595056
335,-2.7224920272265565
336,-2.446265804226569
337,-1.991992831247031
338,-2.7192069227739024
339,-2.1349020542067256
340,-3.241215027865942
341,-3.530675931478536
342,-1.6054448630215687
343,-2.280590958305726
344,-2.0014396261968943
345,-2.981527254351646
346,-1.9730293129619692
347,-2.156709340658029
348,-3.331240169981771
349,-2.5101623312505663
350,-2.8488800968494483
351,-2.330794808537386
352,-3.3370578649427025
353,-0.6877206425029048
354,-3.448845701558614
355,-2.73186340236807
356,-3.0020500800823675
357,-2.8523362307478144
358,-2.0830032550296234
359,2.599930837672354
360,-3.481799686204574
361,-2.4057980900917215
362,-3.192461999477309
363,-2.768385525805378
364,-3.0144924967459454
365,-3.9315500513999684
366,-2.536870671470056
367,-2.427486256639478
368,-2.7625874997913367
369,-2.7990979832369804
370,-2.335860225649751
371,-1.7958757699410344
372,-2.020101031769036
373,-2.9626742100629655
374,1.1580957232909255
375,-3.622160458973669
376,-1.724391177542565
377,-1.6211435026248229
378,-4.4572752564692495
379,-4.412093212351998
380,-2.1878853354269494
381,-3.120180960605126
382,-2.5772674911016686
383,-2.7827827247468266
384,-1.2500646366246786
385,-2.7398804959602994
386,-3.1508145516648933
387,-0.9848140862824115
388,-1.4746792061124283
389,-2.674787528433656
390,-2.502503427931387
391,-2.5785363097035088
392,-2.5717156136006816
393,-2.800233135735967
394,2.600457994074722
395,-2.151897716761934
396,-0.05319586675149624
397,-1.5554899072886155
398,-2.6063398052674267
399,-2.4547544376766885
400,-1.7680418336303547
401,-1.8809169342655008
402,-2.1273680818674676
403,-2.8838181887911962
404,-1.4546935341053542
405,-3.5672157803437012
406,-2.747240586702573
407,-2.1875017167877364
408,-3.0300570799653244
409,-2.8089518041618686
410,-2.680012795967978
411,-2.591770588130065
412,-2.719908194202666
413,-1.218338882761885
414,-2.7201472398293403
415,-2.6495398096731155
416,-2.3917199126939965
417,-3.4376660774657943
418,-2.347813977253493
419,-2.830554006973488
420,-2.9407532600162605
421,-3.0730606127426663
422,0.11736300146583208
423,-2.125591200633483
424,-1.987929291209515
425,-2.7892304932502427
426,-2.2994440651301167
427,-2.1869748690457507
428,-2.154861759099291
429,-3.1839503953222854
430,3.6404661334880037
431,-2.47054810902243
432,-2.758780922168807
433,-3.0504753120713164
434,-3.027399836823473
435,-2.3824124484291196
436,-2.3960473662972426
437,-3.064343699470427
438,-2.0535390755241214
439,-3.0300570799653244
440,2.6004606451850503
441,-3.253133032613237
442,-3.0584728201946083
443,-2.617990130330807
444,-2.9634765509244443
445,-2.9112341014830045
446,-3.1460659420847183
447,-2.4992080191665083
448,-2.0825995526944285
449,-2.7140602964559215
450,-2.798529192315382
451,-2.708836285369865
452,-2.26332948565325
453,-2.5381505375714504
454,-2.751303574897525
455,-2.961570961076577
456,-1.001462636029555
457,-0.5303488248385294
458,-3.286909938969612
459,-2.1891311763258017
460,-2.2860401957991137
461,-2.7111077951891343
462,-2.821394229126224
463,-2.694207953562035
464,1.8924200316099158
465,-2.7188019215493555
466,-2.279599450556343
467,-3.0439072626883923
468,-2.156051655540592
469,-3.840075748661084
470,-3.4767645634965763
471,-1.6952016146871818
472,-2.848580188419809
473,-0.5594795831811743
474,2.6000717989024436
475,-3.4368911633245354
476,-2.878117841074961
477,-1.947039724973758
478,-2.881656931718353
479,-2.314236702618116
480,-2.8033074875228787
481,-2.8398789095170187
482,-3.1170062760703634
483,-2.59098310066862
484,-2.2776236549905198
485,-3.0020500800823675
486,-2.727838753022511
487,-3.253133032613237
488,-2.925790697407877
489,-2.92281827943358
490,2.599839978777587
491,-2.748025041074369
492,-2.9942670931148867
493,-3.241201174140441
494,-2.935715095648804
495,-2.0321113087765537
496,-2.617071680043742
497,-2.2400941765019287
498,-2.3412133633499552
499,-2.054120942500606
500,-3.218732677173783
501,0.0
502,-2.262229284743119
503,-1.463643842481595
504,-3.2481666019246545
505,-2.6844635920533646
506,-2.8275360071454876
507,-1.9492375999277047
508,-0.7492532374030977
509,-2.000550354056473
510,-1.7595840459129533
511,-1.2024277677135442
512,-2.778059057645271
513,-2.789561997253937
514,-2.7318146061440625
515,-1.4181585436085662
516,-3.0145218693064164
517,-2.7148566279637962
518,-2.3929376335193537
519,-2.496322775305716
520,-2.0014396261968943
521,-2.1893447630479153
522,-3.241676857170915
523,-1.9834341156075328
524,-2.6578283513204872
525,-2.3397864253243306
526,-2.7177228349979887
527,-3.0020500800823675
528,-2.079226332711158
529,-2.9999802114016445
530,-3.24107471727522
531,-2.88399373935196
532,-3.186333915261251
533,-1.485571919304711
534,-2.94299647524926
535,-2.9036406011001423
536,-2.5822505187891163
537,-1.8155360742842133
538,-2.471411077088219
539,-2.750629743987973
540,-2.231792101279917
541,-2.4422138271257188
542,-0.7120384074712552
543,-2.8588410079200233
544,-3.240750788101216
545,-2.858145086273333
546,-0.69279760365855
547,-3.55882182634938
548,-2.4623378327244105
549,-1.9701975512056435
550,-3.0349384747979964
551,-2.081020018914084
552,-2.768385525805378
553,-0.4859391950670067
554,-2.490795735658822
555,-3.399609497981734
556,-2.7186089335810197
557,-1.8946175226107438
558,-2.2861453253308324
559,-3.167415950606447
560,-1.648734420064306
561,-2.64621080313312
562,-2.0116219048414457
563,-1.4300779561493224
564,-2.079414875998044
565,-2.4333532478591984
566,-2.141593508290841
567,-2.4593580210098254
568,-3.1727627605834243
569,-2.88399373935196
570,-2.7183407803720883
571,-3.241201174140441
572,-3.239696185877458
573,-2.917299836957575
574,-2.1913482091919523
575,-2.678650977604411
576,-2.446265804226569
577,2.2710861885690017
578,-3.241205494985537
579,-1.2589632878363346
580,-1.7949076893066966
581,-0.8593341855404003
582,-2.365588568727342
583,2.5992512791510505
584,-3.2477728674028477
585,-2.081020018914084
586,2.6000777724388793
587,-1.648734420064306
588,-2.7256693083918373
589,-3.241295476123306
590,-4.130627251152598
591,-2.722286357345331
592,-2.733924283025739
593,-2.7729121342170115
594,-2.2075839807907736
595,-1.8443501521486505
596,-1.6511616378547962
597,-2.7398388855101903
598,-2.7936155999407903
599,-2.53846349982794
600,-3.2405413652153205
601,1.9243834914045959
602,-1.1728010717595851
603,-2.815548891641764
604,-3.2402364307017373
605,-2.347763767772599
606,0.07896846601238329
607,-2.3936955766799044
608,-1.4923471500148129
609,-1.5062614124141855
610,-2.600036136214791
611,-1.2409479398352274
612,-2.279106029902483
613,-2.7125330648497075
614,-3.0431189972953567
615,-2.193884622292538
616,-2.559648806914938
617,-2.312357976766456
618,-2.8523362307478144
619,-1.823964169787412
620,-2.4191610660219314
621,-2.74310392790418
622,-1.392046221168166
623,-2.694207953562035
624,-2.9212877298848334
625,-2.9246280443037307
626,-3.2425728443587407
627,-2.7414169932165713
628,-1.4151048556135943
629,-3.405949366504212
630,-0.6877206425029048
631,-1.7595840459129533
632,-3.241103206714115
633,-4.236423975100522
634,-0.4363955026847473
635,-1.365454562823854
636,-3.0020500800823675
637,-2.7480545771803238
638,-2.4740014203936287
639,-2.380017543191993
640,-2.0830032550296234
641,-3.189380709479004
642,-3.0400913636913334
643,-2.737518118072103
644,-2.5795650411316458
645,-2.660834627430969
646,-2.701807136246908
647,2.6188044739823395
648,-3.241664720427921
649,-2.6608920122332074
650,-2.5772674911016686
651,-2.684872839823359
652,-2.0749042328605585
653,-2.7079573557580066
654,-4.3199527272573865
655,-4.4572752564692495
656,-3.2101019423528685
657,-3.0424762398108625
658,-0.8041498329730062
659,-1.5455783022020921
660,-2.606968389776856
661,-3.2418413008551075
662,-2.876090004698277
663,2.6010300911524613
664,-3.277407952995951
665,-2.8982410872507147
666,-2.7201315501375882
667,-2.618250593192238
668,-2.7632194322746306
669,-1.916509144305049
670,-1.748679326206834
671,-2.126841177630769
672,-1.6668003601160633
673,2.599979607604491
674,-2.6759792411285965
675,-3.190279025459008
676,-3.2270954615151464
677,-2.8310863174828564
678,-3.241115613836086
679,-3.0105780732074843
680,-1.3483313921408824
681,-2.734392031206272
682,-2.9634765509244443
683,-1.7025618479665645
684,-2.823688920685397
685,-2.87625950548531
686,-2.387124142670294
687,-1.4384127779077789
688,-2.4015712741710096
689,-1.001462636029555
690,-2.3766796023400922
691,3.6404661334880037
692,-2.0611864133282585
693,-2.498643346438578
694,0.3430335173536171
695,-2.881656931718353
696,-0.5204722679491578
697,-2.0088905962008186
698,-2.032590180510158
699,-2.6819231185859365
700,-2.8276731754883295
701,-2.7096731832155205
702,-3.03348247955124
703,-2.8528003698878446
704,-2.8634986021350013
705,-2.701696373759918
706,-2.4284045773692173
707,-2.671869058310262
708,-2.0994240475854955
709,-2.6922777097498245
710,-2.7224920272265565
711,-2.9505064145743103
712,-2.7194793042175225
713,-2.2284813552769376
714,-2.6995057855493396
715,-1.6687148649218082
716,-1.6175659152778206
717,-2.1183347262474452
718,-2.127749248200968
719,-2.170191018923152
720,-2.4293984430487883
721,-2.970491926484605
722,-2.7399002972240414
723,-2.0384465543775003
724,-1.2885649405503596
725,-3.240673977915087
726,-2.4105918169625995
727,2.057061009296964
728,-2.428005186195971
729,-4.122412638216249
730,-2.7148566279637962
731,-2.999166144623459
732,-2.2950225848376835
733,-2.0066510079533684
734,-1.708077350866737
735,-2.7571814737672073
736,-3.240304389974555
737,-3.469662537034334
738,-1.9281699694335874
739,0.8239732121367495
740,-2.733990686650763
741,-2.727239705733429
742,-2.919956925545569
743,-1.3483313921408824
744,-2.8145895254028144
745,-2.252314660520923
746,-2.734392031206272
747,-2.730946800587754
748,-2.83614505235109
749,-2.6381413627877284
750,-2.3804725276647014
751,-0.7188001464080683
752,-1.6511616378547962
753,-2.752605647161589
754,-2.8312108494289805
755,-1.2133094156918844
756,0.0
757,-2.652300002523673
758,-2.646667904991302
759,-0.6002650975430555
760,-1.9397443738419764
761,-2.7002109847793396
762,-3.2198091290998003
763,-1.7756632052167307
764,-2.2207817387457305
765,-2.7605312550845866
766,-1.7565315280130553
767,-1.7820792376513532
768,-2.75490822568316
769,-1.8795058692007591
770,-2.939419824930361
771,-2.4602846482625402
772,-2.8429716445291446
773,-2.791399350245788
774,-2.7251094387783064
775,-2.9408735332617333
776,-1.4526372899671474
777,-2.3246933264511225
778,-2.932773710418737
779,-2.619689472317103
780,-1.652267544708049
781,-2.839258504934021
782,-3.240337337982
783,-0.5204722679491578
784,-0.5204722679491578
785,-2.0987787500167863
786,-2.0535390755241214
787,-2.0981941349334985
788,-3.24003119032574
789,-2.434803691272851
790,-2.60362309497295
791,-2.7821186850106208
792,-2.8653427189374088
793,-2.8488800968494483
794,-2.5526555282580428
795,-2.981156825107936
796,-2.865163627720158
797,-2.796939958044678
798,-2.9032070992708703
799,-0.19692610079334555
800,-2.762282619946476
801,-2.4944383211766312
802,-2.5147155254544202
803,-3.3847795666722784
804,-2.406271650509087
805,-2.2601375324014326
806,-1.336455246338636
807,-2.846495806215293
808,-2.821394229126224
809,-1.805224046533065
810,-2.485390986805494
811,-2.6785589117173805
812,-3.004508251283886
813,-2.0389671570308736
814,-3.1278629423925937
815,2.5994210137832843
816,-2.768385525805378
817,-3.2410947907829377
818,-2.7573284651479217
819,-2.418425054456322
820,-2.216229833367444
821,-3.240581344070106
822,-3.469662537034334
823,-3.2418370884077325
824,-1.947039724973758
825,-2.209063533890112
826,-2.7125330648497075
827,-3.28941684079678
828,-2.0535390755241214
829,-1.938592864232871
830,-1.8965416376645552
831,-2.807070697926649
832,-2.493932568857457
833,-2.5526555282580428
834,-2.2675974917995974
835,-2.8816487832933553
836,-2.1731799932305695
837,-2.325730033383104
838,-2.129345171618936
839,-3.2418774676640614
840,-2.6271400103816314
841,-2.3721996201608997
842,-2.3791629585566927
843,-1.2500646366246786
844,-2.2324186654652713
845,-3.040703871835982
846,-2.4797722220071234
847,-4.0245424557833696
848,-2.690101915678126
849,-2.333832853751176
850,-0.3719693065720938
851,-2.6910284064973826
852,-2.37936658110435
853,-1.6999010063326874
854,-3.481799686204574
855,-2.6880055811308767
856,-2.498077282974725
857,-2.335329307032101
858,-1.1728010717595851
859,-1.7864805478259995
860,-2.311771934575017
861,-2.941102690630182
862,-1.870939330817949
863,-2.7918746872005955
864,-2.7691648406956455
865,-3.3817636544768597
866,-2.7251094387783064
867,-2.0508031262335176
868,-2.924581884095665
869,-3.2642332765524533
870,-3.2535363707758433
871,-2.5746569989228756
872,-3.2409461551711276
873,-2.71825565706296
874,-3.0549566146175917
875,-2.176105580574154
876,-2.682218938294033
877,-2.1954629380663606
878,-1.9378950760616174
879,-3.240895806106761
880,-2.701807136246908
881,-3.24086771038233
882,-2.310154489872793
883,-1.033047767803243
884,-1.920628907742573
885,-3.6278876229292623
886,-2.6881020322880933
887,-3.119255576309443
888,-2.8496700756606037
889,-2.54235516771092
890,-2.7183407803720883
891,-3.241201174140441
892,-2.983611529118038
893,-2.572249156954952
894,-2.9557560665799287
895,-2.61237258592075
896,-3.0529173393662115
897,-4.059608648573059
898,-2.547130148360519
899,-2.4562389417447688
900,-2.7936155999407903
901,-2.604294560942962
902,-2.1219051150669186
903,-3.240869534925262
904,-2.196539167400323
905,-3.241234877796909
906,-2.642738601653024
907,-3.240986624721954
908,-0.6507722109860608
909,-1.9484670439640472
910,-3.233268877042355
911,-3.309212689846039
912,-3.035603672691772
913,-2.821394229126224
914,-3.2411486794553066
915,-2.1072278178595147
916,-3.0449508478317346
917,-2.3619113649962937
918,-1.855562852768135
919,2.600253427114085
920,-3.9191152610821582
921,2.5999525719578496
922,-3.241103206714115
923,-2.7980827717097165
924,-2.752333792590721
925,-1.5963444732685148
926,-2.4527009959357677
927,-3.596114192917668
928,-1.314025417403332
929,-1.8449184776063472
930,-2.1878853354269494
931,-2.8614603878141156
932,-1.9199902854836588
933,-2.295944113473932
934,-1.9457058420016096
935,-2.8955245211085314
936,-2.9294584778405115
937,-2.9294584778405115
938,-2.7188907457036877
939,-2.7138586205336095
940,-1.9281699694335874
941,-2.473601067023791
942,-2.8747986371602288
943,-2.7333173090421763
944,-2.177280768895894
945,-1.6349292254109482
946,-2.2802682205403326
947,-2.8145895254028144
948,-2.9942670931148867
949,-2.9112341014830045
950,-2.9827153324460403
951,0.9189326796931767
952,-3.2403399835983593
953,-3.1205927579205652
954,-2.129345171618936
955,-2.580156139305433
956,-2.0764588964463444
957,-2.7339962307301056
958,-2.9104679797603197
959,1.6385658233967884
960,-1.52832347877601
961,-3.241234877796909
962,-1.8436637915238747
963,-2.131199081558664
964,-1.1159838649988756
965,-2.6949839804049285
966,-2.7262158553032223
967,-1.7447292201195452
968,-3.24221920666291
969,4.725893600225612
970,-2.0611864133282585
971,-2.822041654693179
972,-2.678337037143211
973,-1.9862714907432681
974,-2.687062703444507
975,2.600667761012107
976,-2.9078141117156675
977,-2.3530972483849832
978,-3.450335605521559
979,-3.390368649094519
980,-2.176592506326015
981,-2.0596671707584417
982,-2.383965355295217
983,-2.4933280935822633
984,-3.023628105495234
985,-1.9574611366207009
986,-1.6968553584474528
987,-2.084791771556423
988,-2.1007118256210178
989,-3.8645613460455226
990,-3.2631592525197366
991,-2.8455807434728766
992,-1.6293423685235184
993,-2.9859363353303627
994,-2.8275360071454876
995,-1.724217271171063
996,-1.9156829433527482
997,-2.751840265302657
998,-2.5858538828306994
999,-2.5858538828306994
1000,-2.9196246432290036
1001,-2.7596036705640814
1002,-4.599429247284182
1003,-1.9217826971255638
1004,-0.23457803824964413
1005,-2.006113265372115
1006,-2.49984953613855
1007,-0.9452341131785952
1008,-4.0875143680537995
1009,-1.9907459058748742
1010,-3.425609700036117
1011,-3.2418370884077325
1012,-2.816434238089136
1013,-2.9013638993299784
1014,-2.471403088888847
1015,-3.643382931495134
1016,-3.2405349136454187
1017,2.5988917925077244
1018,-2.83614505235109
1019,-2.3187781015509974
1020,-0.8041498329730062
1021,-2.702560533035635
1022,-1.8376133494819633
1023,-3.6590113042399866
1024,-3.241119071526795
1025,-3.241383695009343
1026,-0.5221972851087147
1027,-2.8577256021962305
1028,2.600217072346927
1029,-1.063445268479826
1030,-3.0786242705205353
1031,-3.2315600409250265
1032,-3.1869686941660103
1033,-3.2410876413069016
1034,-2.925943669066858
1035,-1.5938859504051124
1036,0.0
1037,-2.736356151951955
1038,-2.4437694696147063
1039,-3.2642332765524533
1040,-3.525446919672709
1041,-2.7285588656321367
1042,2.600568531217887
1043,-2.412673412968169
1044,-2.5381312502807565
1045,-3.3025376477399857
1046,-4.042780417447227
1047,-3.011118963147696
1048,-3.634924456283794
1049,-2.0090597587683385
1050,-3.485215725675126
1051,-2.6464225604281086
1052,-3.240398743576298
1053,2.623770943264467
1054,-3.239682175257286
1055,2.601310615804485
1056,-2.606968389776856
1057,-2.7596036705640814
1058,-3.241663052358811
1059,-4.327216213821362
1060,2.600172338390012
1061,-3.241075401988043
1062,-2.046447400925701
1063,-1.873474868040445
1064,-3.2414382433160953
1065,-1.9457058420016096
1066,-3.241295476123306
1067,-3.5729470125327727
1068,-3.208110908955557
1069,-3.0424762398108625
1070,-1.6885981493750397
1071,-3.1136096321893896
1072,-3.241439499713299
1073,-2.882523528891877
1074,-2.815212918689424
1075,-2.3108963922371584
1076,-2.7980827717097165
1077,-3.721942562510017
1078,-2.5830500764203257
1079,-3.242426400091916
1080,-2.609727816615014
1081,-2.758735551309585
1082,-3.1300031024727484
1083,-4.856460759547555
1084,-5.592623593135303
1085,-1.469193114437463
1086,-0.5093244700369388
1087,-0.5093244700369388
1088,-3.9038678316609103
1089,-2.768700375428287
1090,-1.0884531854384836
1091,-4.059608648573059
1092,2.6000253998793106
1093,-3.176599496586649
1094,2.600666255261395
1095,-3.5061394881671086
1096,-4.0399094564232625
1097,-3.2411399262259413
1098,-2.9938562093787078
1099,-4.412093212351998
1100,-3.7996817777328444
1101,-3.2161936465320067
1102,2.600904639899021
1103,2.600129532827128
1104,-2.0843262558594113
1105,-2.917299836957575
1106,-2.7072780053400707
1107,-1.5141907645461898
1108,-1.9727584582815079
1109,-3.250415749340162
1110,-2.899973734596883
1111,-2.551453711487173
1112,-2.315921604144263
1113,-2.699040510632398
1114,-2.953515141383141
1115,-1.2362125370002908
1116,-3.7295594402667307
1117,-1.692269773304956
1118,-0.7946592123980363
1119,-1.1226871214835128
1120,-1.5765365191195135
1121,-2.408697821321771
1122,-2.4244044053109
1123,-1.5240138695288985
1124,-2.7380246692143713
1125,-1.8599627802439298
1126,-2.999825463377053
1127,-1.947039724973758
1128,-1.7969109856020682
1129,-3.1614093454989853
1130,-2.757647298073649
1131,-2.971838505961591
1132,-3.0377739401076207
1133,-2.8041274768598132
1134,-2.386071352312678
1135,-3.239886319832831
1136,-1.9677814086537717
1137,-1.5062050108427398
1138,-3.1371963244168546
1139,-3.1541266089330198
1140,-1.955250344719355
1141,-2.008943447050087
1142,-2.420551971062577
1143,-2.143025134951031
1144,-2.541646263227264
1145,-2.231921480530111
1146,-2.235590543401162
1147,-2.8919289907284327
1148,-1.1965461704924254
1149,-2.441066804827059
1150,-1.632067977609879
1151,-1.3266138059764903
1152,-2.543548799558829
1153,-1.697972501848554
1154,-2.538348656704526
1155,-2.778059057645271
1156,-3.0823743751146777
1157,-1.9905469311814248
1158,-2.9814478956664234
1159,-2.2365701829862457
1160,-2.490795735658822
1161,-3.271602906152296
1162,-2.4519092027352114
1163,-3.479213310537661
1164,-1.6403365061566568
1165,-2.3567975856769707
1166,-1.959774776626759
1167,-3.216639581688666
1168,-2.270854952237688
1169,-2.9476340525669817
1170,-1.87750082798968
1171,-2.945275058072764
1172,-3.2403526989092377
1173,-3.2410264150625587
1174,-2.3526202269263896
1175,-3.157873840916826
1176,-2.686710666604819
1177,-2.012873615261245
1178,-3.2409478885005867
1179,-2.7201472398293403
1180,-2.706145453161725
1181,-2.767750635482545
1182,-2.5274202262036964
1183,-2.222120855445694
1184,-1.955250344719355
1185,-2.7063208682265243
1186,-0.7188001464080683
1187,-1.0340062771699499
1188,-2.310099306278891
1189,-1.6645698552707984
1190,-2.966109976082245
1191,-3.050287174937023
1192,-3.2402841990244418
1193,-2.389691801987124
1194,-2.9709301331671494
1195,-0.901718167494508
1196,2.5749822348765017
1197,-2.621678301256802
1198,-1.8710588897004043
1199,-2.4798413295180533
1200,2.3968814491051953
1201,2.5989514330225356
1202,-1.495076860931767
1203,-2.787030861633218
1204,-2.9746232598091256
1205,-2.1274106915745126
1206,-2.7036552502985356
1207,-2.2272939844966935
1208,-2.124765282939598
1209,-2.1656526207775717
1210,-3.4368911633245354
1211,-3.2624312883163116
1212,-3.127321216375073
1213,-2.8327262418034933
1214,-2.359656060444906
1215,-2.807183552738823
1216,-3.2402556496027266
1217,-3.28941684079678
1218,-3.046163775195647
1219,-2.945976182825746
1220,-2.8651809630997613
1221,-3.4107096656725204
1222,-3.2414527768521273
1223,-1.9358847894980482
1224,-2.012873615261245
1225,-3.2411955102015004
1226,-3.2425447165571266
1227,-2.394209911060985
1228,-2.143025134951031
1229,-2.4366830320737014
1230,-2.7018074057740433
1231,-2.4087551718159532
1232,-2.7816667213439388
1233,-3.320680023846748
1234,-1.7375036946588673
1235,-2.865086948956332
1236,-2.9032070992708703
1237,-2.730104457751688
1238,-2.254586095917019
1239,-2.53438936031049
1240,-2.0980813752176335
1241,-2.8677472894823905
1242,-3.1184022785044667
1243,-2.3268100161038614
1244,-3.2399401633991554
1245,-2.4301686057947696
1246,-2.0873622159722585
1247,-2.37716414478081
1248,-3.0923239961797346
1249,-2.7466822962971356
1250,-3.1764324170317915
1251,-0.6762952207616775
1252,-0.5341577110512858
1253,-2.446485282272089
1254,2.6000819749193944
1255,-3.2411314133535254
1256,-0.9693380298060762
1257,-3.2917347249775846
1258,-2.6555885100076546
1259,-3.2416040374635955
1260,-2.2686957117398046
1261,-2.1370112763460423
1262,-1.5929617444170068
1263,-2.824029644990478
1264,-3.001063837006965
1265,-2.5231678870927423
1266,-2.7184198745494546
1267,-2.5241347785638157
1268,-2.726044343472042
1269,-3.11075280890962
1270,-3.2411563763086404
1271,-3.2411563763086404
1272,-3.2425702544084407
1273,-3.240304389974555
1274,2.601249878413846
1275,-2.698168786477038
1276,-2.3603306873221466
1277,-1.6905697636734582
1278,-3.240607023274893
1279,-3.240835175965037
1280,-2.1689229200659916
1281,-1.4073248289275777
1282,-2.9013638993299784
1283,-2.532612063933747
1284,-2.1034882130708015
1285,-2.7414169932165713
1286,-2.3932465280546147
1287,-2.6050121814732043
1288,-2.914914356264581
1289,-2.654218670225337
1290,-1.6198868563569084
1291,-2.658709384765944
1292,-2.6770893017576163
1293,-2.7277405193051
1294,-2.204124898262753
1295,-2.9946650865691002
1296,-2.475491028232069
1297,-3.2412740243509255
1298,-2.5804393508728984
1299,-3.7295594402667307
1300,-1.2486725157721466
1301,-2.9609485350082494
1302,-3.023402345371191
1303,-2.7095518081568484
1304,-3.2417837927230093
1305,2.600148684998476
1306,-0.35125823674626083
1307,-3.266180329712325
1308,-2.5733085400689246
1309,-2.0513606233525734
1310,-2.4460073192405583
1311,-1.4361023416335599
1312,-0.25551295698306753
1313,-3.2412806982006157
1314,-0.0407272965648161
1315,-2.6162774890078775
1316,-3.0174550175724977
1317,-2.3613533142205823
1318,-3.2411123381781906
1319,-2.30112813075594
1320,1.7257342271560847
1321,-2.307879218074247
1322,-3.2402835104013827
1323,-3.2410945964805427
1324,-0.05319586675149624
1325,-2.624247470385838
1326,-3.2420966768355046
1327,-3.2408278219376583
1328,-2.993138524247165
1329,-2.7342313999279955
1330,-3.0449508478317346
1331,-2.030803044805387
1332,-3.4181914321426605
1333,-3.255924926988493
1334,-2.5971334570485345
1335,-2.7002889003128576
1336,-2.392247662564139
1337,-2.493499989546915
1338,-3.2402864483909193
1339,-2.925116242290925
1340,-2.7485805414623004
1341,-2.3982417341103894
1342,-2.444221358631754
1343,2.600949045588061
1344,-2.466067028618121
1345,-2.0939547759918047
1346,-3.0011292752191188
1347,-2.622888241057119
1348,-3.2098372844404905
1349,-3.2404871959663586
1350,-2.7959454511827864
1351,1.057221955084289
1352,-2.749434603617606
1353,-0.2755840880746425
1354,-2.316732297734732
1355,-2.6563152160839296
1356,-3.2453679747942132
1357,-2.3388191403448504
1358,-2.9294584778405115
1359,-2.602432270059289
1360,-3.1137667751501303
1361,-0.9758068524029585
1362,-3.062462131182664
1363,-1.9549809095805568
1364,-2.7412281671726397
1365,-3.2413325004531552
1366,-2.9013638993299784
1367,-2.1884498250546818
1368,-0.9793143006101124
1369,-1.4570817105275242
1370,-2.7609218211906814
1371,-2.747051596036733
1372,-2.7293418704000016
1373,-3.2414976956489285
1374,-2.887940223740278
1375,-3.083964634912677
1376,-2.4875100210163033
1377,-2.8813484767931943
1378,-2.536870671470056
1379,-2.6926176533850588
1380,-3.036050735887968
1381,-2.716760925657685
1382,-2.9251066165933706
1383,-2.138801062253903
1384,-1.5632184981827975
1385,-2.7302578634829993
1386,-3.4172467244618274
1387,-3.217542748863219
1388,-2.60362309497295
1389,2.5991861455175513
1390,-2.80179992607255
1391,-2.6468533270976793
1392,2.5995549090676433
1393,-2.4312996634998094
1394,-0.6431386058811518
1395,-3.0961461054060417
1396,1.49665356677869
1397,-3.1740932981512415
1398,-2.548336674969511
1399,-2.569731746480134
1400,-2.6559883453352056
1401,-2.9208338048595404
1402,-2.8462176815521962
1403,2.6014917259837174
1404,-2.7419505921489926
1405,-3.2705616564095075
1406,-3.2410897038754105
1407,-3.24082492681257
1408,-2.5582596922307115
1409,-1.5983308842862567
1410,-2.807537753544673
1411,-3.2409714949510855
1412,-2.6820284828908383
1413,-3.239827331949947
1414,-1.4319932974050607
1415,-1.576566932715611
1416,-2.4796409336836804
1417,-2.4661287229940942
1418,-3.240206885361542
1419,-2.5424278833302063
1420,-1.7404656595142889
1421,-1.9542677361790288
1422,-1.6894706800093406
1423,-2.215207227352459
1424,-3.2418188734521434
1425,-1.7771391615725471
1426,-2.5190736955586086
1427,-2.889545407326336
1428,-2.6435571864181986
1429,-2.9197105039202333
1430,-2.3721996201608997
1431,-2.849771098310386
1432,-2.9279417505014274
1433,-2.8782195092949214
1434,-1.9871687238201952
1435,-3.254793818159322
1436,1.6385658233967884
1437,-1.823964169787412
1438,-2.80258569386223
1439,-2.4383602730930614
1440,-2.297817619915128
1441,-2.9991912192304415
1442,-3.0718428033593708
1443,-2.0711594994370146
1444,-2.5125671692717004
1445,-0.26784629372433155
1446,-2.4655462674590956
1447,-2.9513700382963517
1448,-2.2462545107714087
1449,-1.7422255644477629
1450,-2.3612130599432284
1451,-2.5999152854360563
1452,-2.79429163171249
1453,-2.4312680356426672
1454,-2.2734606230109375
1455,-2.284864214379546
1456,-2.7207920671365127
1457,-2.132023763871669
1458,-2.8728367527459726
1459,-3.032275491708126
1460,-3.241295338808547
1461,-3.2412211280102654
1462,-2.810085908306847
1463,-2.4704889438302007
1464,-3.0118553400024948
1465,2.599952827431812
1466,-1.5240111817131747
1467,-2.438042656396316
1468,-3.21321205678991
1469,-2.3517426513471347
1470,-2.2368675659639146
1471,-1.9568262118639665
1472,-2.3223992015520554
1473,-1.7585359863956758
1474,-0.7624912959436166
1475,-3.0706000956975457
1476,-2.073246918122727
1477,-2.0760674046531262
1478,-2.0172761325058657
1479,-2.1609372699355864
1480,-2.4124097889418312
1481,-3.240402979407965
1482,-3.0356493425612103
1483,-2.919410814353043
1484,-2.875481163792163
1485,-3.2405686948296037
1486,-2.730072823765417
1487,-2.732938941787448
1488,-2.905767691877739
1489,-2.7447414794390324
1490,1.514725472023961
1491,-2.8300843356384293
1492,-3.240620742538947
1493,-2.8053480614356494
1494,-2.5879823047710313
1495,-2.3578945005657097
1496,-2.3408303844872607
1497,-2.186893433244825
1498,-3.982402053365416
1499,-3.389849307705066
1500,-2.746224965173629
1501,-2.550601616353045
1502,-2.5524189852445636
1503,-2.9644611803333047
1504,-2.705067857708515
1505,-3.257362663867221
1506,-3.596114192917668
1507,-2.5001495178102067
1508,-3.032311369258437
1509,-2.669732824457414
1510,-3.1421488067746086
1511,-1.8895527605077984
1512,-2.8614603878141156
1513,-2.0150143847210162
1514,-3.3790661250256324
1515,-3.239978019593568
1516,-0.5594795831811743
1517,-3.242426400091916
1518,-2.8279778515096057
1519,-1.153214158616524
1520,-3.271602906152296
1521,-3.2416713939237947
1522,-3.2425702544084407
1523,-2.225252125985321
1524,-2.625541197562456
1525,-2.6038360119375255
1526,-2.7396496828543317
1527,-3.26843570963765
1528,-1.9240602664085151
1529,-2.9097690418420434
1530,-2.021889780984172
1531,-3.1933344427523993
1532,-2.61566242005611
1533,-2.5811323632073626
1534,-2.7256693083918373
1535,-3.2413599597290643
1536,-3.254357569913179
1537,-2.1920962618550774
1538,-2.524834077218498
1539,-2.0116219048414457
1540,-3.2417041846438197
1541,-1.6086954158399216
1542,-2.270072059761359
1543,-2.701807136246908
1544,-2.4831244910634758
1545,-2.032590180510158
1546,-2.6791908991983076
1547,-2.285721679215719
1548,-2.8092942815582567
1549,-2.538539477315688
1550,-2.2565248725436304
1551,-2.5945921103907588
1552,-3.0055657466453947
1553,-2.6138806506373076
1554,-2.8259062026384156
1555,-2.010727995956636
1556,-2.8823760971530192
1557,-2.7626749678862104
1558,-3.2413242667429185
1559,-2.0656065239475483
1560,-3.8121051274094624
1561,-2.6936067542285658
1562,-3.315156035362094
1563,-1.6349292254109482
1564,-3.2833079730562336
1565,-2.6996964324160917
1566,-2.661355604596229
1567,-1.1650680812080687
1568,-3.0652922418897997
1569,-1.4302909173646157
1570,-2.5350055750094223
1571,-1.9131435608870535
1572,-0.8823255762776222
1573,-3.0906595730990984
1574,-2.730513927624264
1575,-3.2404739715576376
1576,-3.2425005862550815
1577,-3.2578911055707027
1578,-3.1537813669540617
1579,-3.3808917420481968
1580,-1.6968553584474528
1581,-1.5553406707442377
1582,-2.4312996634998094
1583,-3.527892015271094
1584,-2.9637915477506067
1585,-3.2327035865589218
1586,-2.9049119374509997
1587,-3.8002575125284843
1588,-3.1283116135338704
1589,-2.146339528401835
1590,-3.2413756186801237
1591,-3.2410823906460697
1592,-2.5842214892860094
1593,-2.6286202585299425
1594,2.6000407895555218
1595,-2.5760949994911138
1596,-2.0143359660258104
1597,-3.240518640669963
1598,-2.9007105904907364
1599,-2.8228397468819986
1600,-2.7809091962023644
1601,-0.8011562519737131
1602,-3.1411524728424456
1603,-3.0036644621981896
1604,-2.738574854258442
1605,-2.5812919252125655
1606,-2.714482998168055
1607,-3.2401009518276265
1608,-3.2411170005859042
1609,-1.7485846457990073
1610,-1.8066616240234397
1611,-2.474867833698535
1612,-1.7937981935887584
1613,-2.311207898843675
1614,-3.41335075353037
1615,-2.668784773325973
1616,-1.9899746318365823
1617,-3.297529968837061
1618,-1.9596500768067797
1619,-3.117330151306085
1620,-2.8062743973486883
1621,-2.875471616504153
1622,-2.365559361597053
1623,-1.2270323577927225
1624,-2.9996255459711483
1625,-2.719684474226763
1626,-3.2412211280102654
1627,-3.241352433619197
1628,-2.5603856850834252
1629,-3.2411712112154007
1630,-2.3517426513471347
1631,-3.240310022516685
1632,-2.3522836888206786
1633,-3.2421833731150715
1634,-2.7796775557475373
1635,-3.1676358442931334
1636,-2.4549940359321503
1637,-2.5298608933725486
1638,-2.673550867568694
1639,-3.0443808679649864
1640,-2.96178794668082
1641,-2.7512440339351545
1642,-3.1498854827835263
1643,-3.239754909071638
1644,-2.687376649928587
1645,-2.846495806215293
1646,-3.245716053206153
1647,-2.3348664545929134
1648,-1.6317531070477027
1649,-1.788459181858731
1650,-3.2408916452150787
1651,-2.2292956381603815
1652,-1.6995104048447585
1653,-3.10455221212556
1654,-3.240388103265592
1655,-2.3134113583556917
1656,-1.8980857792344257
1657,-2.3619113649962937
1658,-2.7215997355338595
1659,-3.2411360568502436
1660,-2.7888154215884264
1661,-3.240460727147672
1662,-3.240043251641078
1663,-0.5168111554298324
1664,-2.7284834850687116
1665,-2.4825805072303897
1666,-3.1416773433159357
1667,-3.2414707478840032
1668,-3.2415694254785334
1669,-3.2406785670152893
1670,-3.4171152367273647
1671,-2.3797496964450473
1672,-3.2401096284373123
1673,-3.2421752585353367
1674,-2.078869300313407
1675,-3.2486599156979534
1676,-2.6927805199304844
1677,-3.0583418296760443
1678,-3.239658071893077
1679,-3.443866370776893
1680,-2.6542827998617473
1681,-3.0827031068195314
1682,-2.988722454810114
1683,-3.1277705546693637
1684,-3.241522188007754
1685,-2.7589220241028447
1686,-3.2412120356878495
1687,-3.136904924325619
1688,-1.2432740847479777
1689,-2.5398044203587493
1690,-4.124864783794592
1691,-2.9644611803333047
1692,2.6009652564253214
1693,-2.5370313488885445
1694,-2.2976123763190213
1695,-2.553085547438308
1696,-2.328949309821131
1697,-2.631677673539061
1698,-3.3654694898277357
1699,-2.3078604897064565
1700,-3.2412967029815793
1701,-2.2162802240169386
1702,-1.693503275522834
1703,-3.240458106037958
1704,-2.369561185424274
1705,-3.4487568817041083
1706,-2.5486292086997384
1707,-2.79724418566859
1708,-2.7622843431064705
1709,-2.805357298715451
1710,-1.9501723233816626
1711,-2.8050147394717904
1712,-3.25232285025657
1713,-2.894857898835903
1714,-3.2412360731276033
1715,-1.8105519576680171
1716,-2.6617414923687823
1717,-2.9046517160821788
1718,-2.932519051545447
1719,-2.5801310375809794
1720,-2.507214059045762
1721,-3.2417012084248356
1722,-3.240935500674207
1723,-3.24157557612954
1724,-3.366743564443865
1725,-2.7200069145865227
1726,-2.732521076628321
1727,-3.1750023609999074
1728,-2.764857020689523
1729,-2.6317154904977174
1730,-3.1619054788737886
1731,-2.7436603426165664
1732,-3.167894353443073
1733,-2.781668581539407
1734,-2.9500489778027426
1735,-3.2055075780162023
1736,-3.2410509369334757
1737,-3.241269179653926
1738,-2.7910041196129476
1739,-3.3397731663784014
1740,-3.2418235480257422
1741,-3.2402556496027266
1742,-3.081229847579682
1743,-1.7969109856020682
1744,-0.58962085947769
1745,-1.4988678877984154
1746,-2.7457165064412097
1747,-3.114704308786829
1748,-3.2412980623747556
1749,-1.9811842106923443
1750,-2.1884498250546818
1751,-3.2543201800951556
1752,-2.979385393220209
1753,-1.195459410205055
1754,-3.0034937807942663
1755,-3.008944086400533
1756,-3.239904176739706
1757,-1.6852748324572335
1758,-3.2287988184464287
1759,-2.502503427931387
1760,-3.4165069003145576
1761,-1.9268996117284158
1762,-2.1007118256210178
1763,-1.823964169787412
1764,-3.2400607673180706
1765,2.5989705592831664
1766,-3.241051333859782
1767,2.6003600825643396
1768,-2.5481029408718716
1769,-2.4912927722122036
1770,-3.1869686941660103
1771,-2.8429716445291446
1772,2.3968814491051953
1773,-2.118571947858953
1774,-3.72757599099953
1775,0.10127118239778718
1776,-2.4646555603677682
1777,-3.468127667894538
1778,-3.2624312883163116
1779,-2.9506261759331824
1780,-1.6170587819298623
1781,-3.081229847579682
1782,-2.5276695675545424
1783,-2.513633003087305
1784,2.6000706852369415
1785,-2.332008257520148
1786,-2.849339188677191
1787,-1.9035362492013936
1788,-3.027103629708065
1789,-2.9185977142218187
1790,-3.2425005862550815
1791,-3.5327401000431657
1792,-2.8248567510778195
1793,-3.2402376585747104
1794,-3.239827331949947
1795,-2.8455807434728766
1796,-2.3692701187004803
1797,-1.6516009060866994
1798,-3.189380709479004
1799,1.9243834914045959
1800,-1.977003596838645
1801,-2.941294091144755
1802,-2.485390986805494
1803,-1.7114215971511773
1804,1.1485473207063581
1805,2.6014704904159993
1806,-3.3813866347472796
1807,-3.525446919672709
1808,-3.572355769798365
1809,-3.240650933649994
1810,-2.805357298715451
1811,-1.9346597031177624
1812,-3.1971363448157226
1813,-2.2928948817146457
1814,-3.240449842415705
1815,-5.568852820598324
1816,-3.240640993336267
1817,-4.412093212351998
1818,-3.2423771128277767
1819,-3.533212560444652
1820,2.6000026953197697
1821,-2.6357293031038065
1822,-2.0090597587683385
1823,0.17972386534209622
1824,-3.2415417721741395
1825,-1.485571919304711
1826,-1.485571919304711
1827,-3.6033575762430616
1828,-2.61390381947871
1829,2.6013213750743844
1830,-1.3649956028077566
1831,-2.572042523000515
1832,2.694747739486934
1833,-2.719684474226763
1834,-2.9431458253011993
1835,-2.6450685967541507
1836,-3.242262633703202
1837,-2.6616635169101572
1838,-3.2397652684862868
1839,1.4888292986255567
1840,-1.703665837396792
1841,-2.882523528891877
1842,-3.0278927083752696
1843,-3.173537838972875
1844,-3.0949237509856813
1845,-3.2417776961031057
1846,-2.739000802069594
1847,-1.9862714907432681
1848,-2.4598001657215844
1849,-3.137815338443887
1850,-3.2555967584596264
1851,-1.365454562823854
1852,-2.9912380603589415
1853,-3.2409461551711276
1854,-2.660834627430969
1855,-3.1694833504130533
1856,2.599839769312273
1857,-1.21398926428977
1858,-3.1784131240906515
1859,-2.9832345454196423
1860,-2.257510191476617
1861,-3.010476953148789
1862,-2.445953320432942
1863,-2.4093607947837334
1864,-3.2415494036820323
1865,3.619834004132902
1866,-2.2462545107714087
1867,-3.2402065039812817
1868,-1.5056347899759988
1869,-3.2408278219376583
1870,2.5988005795571008
1871,-3.241035131583831
1872,-0.9198427531252504
1873,-2.897132773680958
1874,-3.910969164735584
1875,-3.431074592602746
1876,-2.898084106241059
1877,-2.4792307252082804
1878,-2.880916062975199
1879,-1.950918030255855
1880,-3.239797121601967
1881,-2.2386979004172853
1882,-3.4818307803566246
1883,-2.485857278395236
1884,-3.628940226443459
1885,-2.6094303272820882
1886,-2.77139308275184
1887,-3.2522536175717356
1888,-3.1794113133103243
1889,-4.703527861492567
1890,-0.17859167058466602
1891,-3.4288879638205576
1892,-2.7446547390547598
1893,-3.8768315174932084
1894,-2.465028420236103
1895,-3.444024650860046
1896,-3.2405852410381852
1897,2.6004191775181975
1898,-3.9445193962301817
1899,-1.3649956028077566
1900,-0.18633979757799915
1901,-3.333199488275323
1902,-0.7762435121206673
1903,-2.1219051150669186
1904,-1.735482461203347
1905,1.139374988602588
1906,-3.176599496586649
1907,-3.0189405067209263
1908,-1.9217826971255638
1909,-3.2411463900224478
1910,2.5999416125984336
1911,-3.241700218015299
1912,2.600058224114348
1913,2.6008716674934127
1914,-3.241071670867744
1915,-2.79182711136674
1916,-2.880916062975199
1917,-2.618965581838529
1918,-2.091121608127289
1919,-1.9346597031177624
1920,-2.7457165064412097
1921,-3.5399062800423726
1922,-3.354525473841459
1923,-2.3072334388606337
1924,-3.2199658963432247
1925,-3.4025908918747323
1926,-3.242112360042478
1927,-3.8002575125284843
1928,-2.173308243461424
1929,-3.5608974333252945
1930,-3.226244412926902
1931,-3.2414388347184446
1932,-3.779513617224476
1933,-3.604059289475179
1934,-3.241026122274198
1935,1.4608903921359069
1936,2.5999448236417053
1937,-3.240012122349559
1938,-2.889508793908699
1939,-3.241039062359195
1940,-3.241549297091962
1941,-2.573496517647999
1942,-1.90080973794096
1943,-3.4570512307248293
1944,-3.7270878147464646
1945,-3.3915762679596293
1946,-3.2410766895548533
1947,-3.2398557734733537
1948,-2.4394773678261084
1949,-3.2418288286860606
1950,-2.7298347635984097
1951,-3.2411648810361178
1952,-1.4142145944642595
1953,-3.450904940611513
1954,-3.412323466209757
1955,-3.4658328501859303
1956,-3.240535414453436
1957,-3.2412590762278803
1958,-3.2405109942128765
1959,-3.244463506559302
1960,-3.704141337795071
1961,-3.310091008810219
1962,-3.5526990134325365
1963,-3.494852432106847
1964,-2.140384217024608
1965,-3.241128527739147
1966,-3.2405688637378414
1967,-3.1585211254473093
1968,-2.3109627901278764
1969,-3.24119098707213
1970,-2.961959068775569
1971,-3.273228843260358
1972,-3.7368313785425107
1973,-2.754255870892819
1974,-2.1318071303682053
1975,-3.0590341215589647
1976,-3.660663088768928
1977,-2.711880427345982
1978,-1.4923426669651856
1979,-3.2336411649679744
1980,-2.4128103764057283
1981,-2.413129707553024
1982,-2.9749027117019944
1983,-2.347813977253493
1984,-3.036953774924405
1985,-3.5259292708113077
1986,-0.5233520680144272
1987,2.599700108492616
1988,1.8855556568299852
1989,2.5998609372617616
1990,-2.270854952237688
1991,-2.315921604144263
1992,-2.9982388707747942
1993,-2.623418737877676
1994,-2.7625874997913367
1995,-2.6364666164357766
1996,-2.4999034446018205
1997,-1.8376133494819633
1998,-2.6027718384764
1999,0.8776619873395766
2000,-3.1014369799894124
