Id,Predicted
1,-2.6162829506784764
2,-1.6318890546622442
3,-2.8578062893300404
4,-2.8960448856364396
5,-1.4610922871507408
6,-3.928751903377476
7,-3.4564556429537556
8,-2.88311154107813
9,-2.253105256340198
10,-3.6152794012923857
11,-3.3232536671231747
12,-0.4697816929815033
13,0.0
14,-2.9251638334737953
15,-4.594701095247905
16,-3.4706891214269198
17,-2.8985485512068743
18,-2.4247522558252004
19,-2.429888999638975
20,-2.1296426120890737
21,-3.1341977720957575
22,-3.222285934416056
23,-1.2331158002342204
24,-2.638698245838197
25,-2.982257038095104
26,-3.7151839497395844
27,-2.214392015949796
28,-1.487354028071692
29,-3.11299310256503
30,-2.5897550855777287
31,-1.6206831947408906
32,-3.6152794012923857
33,-3.5005619722910826
34,-3.0539134026069483
35,-3.1622146677452583
36,-2.256216247355401
37,-2.8395196205986135
38,-3.799639069374993
39,-0.9406485606364663
40,-3.1925930592903735
41,-3.5005619722910826
42,-2.1468977830308953
43,-3.603074044967368
44,-3.580949017433373
45,-3.928751903377476
46,-3.943852864745534
47,-1.7816376996875791
48,-2.7751936795719097
49,2.8246867602862817
50,-3.462218218470507
51,-3.4706891214269198
52,-4.10219698087203
53,-2.9648549302574194
54,-1.1754913202977937
55,-3.5064883001099587
56,-0.3151633358979152
57,-1.6206831947408906
58,-3.5187271397259243
59,-3.5005619722910826
60,-1.4471594302377038
61,-3.3663237382510016
62,-2.787187304811783
63,-2.8522795725381194
64,-4.545321703421001
65,-2.2425151763049103
66,-1.9363064384481328
67,-3.1258244802241038
68,-1.1075753544466764
69,-3.5738095044445206
70,-2.1420449644965
71,-4.654815059301188
72,-3.5228172554749264
73,-2.968652477603265
74,-2.787187304811783
75,-2.1357254809273267
76,-1.9913303981337436
77,-1.3674883934688824
78,-2.6055843545405266
79,-3.69052575489459
80,-1.3732808753918304
81,-3.5442350435283854
82,0.6012447428726805
83,-2.375497043691834
84,-3.5938690829342717
85,-2.4995436464466083
86,-2.2762844215356908
87,-2.1296426120890737
88,0.8213910899503561
89,-2.786078288958142
90,-3.5060316041749804
91,-1.7446017597114158
92,-1.4289706848685124
93,-1.592007030323292
94,-3.645066595788292
95,-3.894471358454816
96,-1.2712027473693093
97,-3.9325060881310385
98,-4.2919984029064
99,-3.16406371492178
100,-3.5212016778242416
101,-3.4946865365782998
102,-1.7090608066038206
103,-3.0197070788963676
104,-3.3723616729449266
105,-2.1485619692234463
106,-3.3671075722298274
107,-2.9799434902491635
108,-0.4384079519456058
109,-2.8971859565916236
110,-0.571153548951499
111,-3.9657275809436974
112,-1.9487743138037907
113,-3.109284575935752
114,-3.3855736315725427
115,-1.7815823165546103
116,-2.8659709711248453
117,-3.872911662759032
118,-2.0661405669612978
119,-2.6041979464468854
120,-2.114105070349418
121,-1.2712027473693093
122,-4.448156735705278
123,-3.977074600581208
124,-3.7540235490200153
125,-3.0539134026069483
126,-2.1276693341649056
127,-3.837359440275754
128,-3.215251791873459
129,-3.5060316041749804
130,-1.0939297322113113
131,-2.253105256340198
132,-2.844148093244225
133,-3.3429163312631163
134,-3.0659028778753186
135,-2.8597736015421553
136,-0.7713457888157245
137,-3.302093605323469
138,-3.7705273728021242
139,-3.152400005460502
140,1.8975525484760438
141,-2.4219724445141098
142,-2.375876340544228
143,-3.9657275809436974
144,1.750518107533835
145,-2.418910378656522
146,-4.012613501191494
147,-3.3208956021879725
148,-2.660598069825555
149,-1.8693582690424473
150,1.5753810156686676
151,-2.144537899302764
152,-2.9982673671962683
153,-2.8144453990590397
154,-2.4693461347954173
155,-3.3171915770422706
156,-1.6092075871860883
157,0.915619488645745
158,-3.5442350435283854
159,-3.3099165360032874
160,-3.5212016778242416
161,-3.6234980371470167
162,-2.5906388940795813
163,-2.7614996318352034
164,-2.6073865685335647
165,-2.743224360820731
166,-1.8102271922384081
167,-2.8057637873916517
168,-1.852734578105981
169,-3.1436864230657906
170,-3.4246393425573087
171,0.03251263417686399
172,-3.2978496625087756
173,-2.7455443400396202
174,-2.07585719864255
175,1.1418227170781747
176,-1.9542629903203836
177,-2.5752208793410944
178,-2.5752208793410944
179,-2.1752280083763718
180,-1.2712027473693093
181,-2.09644853672866
182,-3.500152671556295
183,-0.9047778830000481
184,-1.2296530998234987
185,-3.180279243381673
186,-1.9506332061142988
187,-4.594881544122316
188,-2.714054750670197
189,-0.4435874693583256
190,-2.2098325517835016
191,-2.6021661789349886
192,-0.6688154650340135
193,-2.4995436464466083
194,-2.7851640814490786
195,-4.1574229674571725
196,-4.148411059806718
197,-2.1473107528273787
198,-2.8167022230362524
199,-3.3153214002744686
200,-0.9537431546245185
201,-3.5494822823461205
202,-3.7338952769409275
203,-3.3506730767803368
204,-3.090770850688126
205,-3.2921879404930605
206,-2.769940850965232
207,-1.8569259693434632
208,2.8669744531229084
209,-3.5432323611822003
210,-3.715771116777571
211,-1.5435982109120616
212,-1.696503474618342
213,-1.022631671903365
214,-1.496384078975612
215,-3.2669896426254996
216,-3.16406371492178
217,-2.6271515326143176
218,-3.980698163889917
219,-2.5820641128067896
220,-1.7604344089116932
221,1.0359151594906622
222,-4.456308255894495
223,-3.0202471367720003
224,-3.3801716532819417
225,-2.750548185184423
226,-3.626645093011411
227,-2.49088738279691
228,-2.3122529415021704
229,-1.9198833261398935
230,-2.2828545143786876
231,-2.6041979464468854
232,-3.6559235633310485
233,-3.095095067537227
234,-3.095095067537227
235,-3.3328616390487538
236,-3.312177287419473
237,-4.001233877177442
238,0.1445906832494833
239,2.719496642032873
240,-1.6256657834269097
241,-2.59585227604119
242,-2.5550079006448856
243,-2.0245935134238566
244,-2.255679863663417
245,-3.175304104884782
246,-1.1075753544466764
247,-3.612598671849515
248,2.8682641118107957
249,0.0
250,-3.3015882109469334
251,-1.8805667541183553
252,-3.5898255822110006
253,-1.4471594302377038
254,-1.4646455784886268
255,-3.4931080853229233
256,-1.634506968211244
257,-1.3566601320577292
258,-2.438581877892643
259,-3.031336095528834
260,-3.03868077646691
261,-2.600914776932855
262,-2.9982673671962683
263,-0.9406485606364663
264,-2.3596221004541884
265,-2.977933998044018
266,-2.927574622039039
267,1.0359151594906622
268,-3.6080968518747287
269,-1.1876221541337983
270,-3.3564718586107767
271,-3.6152794012923857
272,-1.935893721873101
273,-2.604581330707407
274,-3.5491512296274013
275,-3.809302163626314
276,-1.7308132240134422
277,-2.745169271076681
278,0.1445906832494833
279,0.1445906832494833
280,-2.550541277467744
281,-3.6899647724912064
282,-2.153236432790163
283,-2.4931748976510923
284,-1.7242685959171578
285,-3.487172666038804
286,-2.5487559362864833
287,-3.057560382630156
288,-1.121732454202224
289,-2.690087448889555
290,-2.3158319074260776
291,1.5753810156686676
292,-3.488487382084847
293,-2.6552653290549286
294,-1.4685993206840242
295,-0.9415694672302031
296,-2.7194617382739774
297,-2.267663255767364
298,-2.1519010849640097
299,-1.835256652158796
300,-3.474832669426003
301,-0.4852935589247858
302,-3.276987536707175
303,-2.103512199101472
304,-2.0116492596637054
305,-1.8592070910804686
306,-2.7712354771676204
307,-1.9913303981337436
308,-2.714054750670197
309,-0.6495514455878995
310,-3.3465754000291934
311,-1.4298741974271043
312,0.6974818359486308
313,-3.010540106176121
314,-2.576514808634556
315,0.4168968450394379
316,-1.8076923637667501
317,-3.6629772349854575
318,-3.045911442469806
319,-2.8597736015421553
320,-4.633782383934822
321,-3.861543782176639
322,-1.8776565332311201
323,-3.5491512296274013
324,-2.739775872436724
325,-0.13565668208329185
326,-0.5497964033516624
327,-3.1447802793466906
328,-4.062012028500182
329,-4.059765545140988
330,-2.287075520088327
331,-3.130687265096643
332,-1.9506332061142988
333,0.028063138684408708
334,-3.277732529060654
335,-2.531380469322865
336,-2.0555841079721815
337,-1.496384078975612
338,-2.756506941742203
339,-2.2746596977789433
340,-3.3860133579631615
341,-3.594222495139015
342,-1.6835899981432205
343,-0.6688154650340135
344,-2.2938108595779245
345,-3.9079480119879304
346,-1.6027520884746977
347,-2.7851640814490786
348,-3.2641211780233896
349,-3.0343704514717658
350,-3.1183533639380707
351,-1.9969319123255873
352,-3.7338952769409275
353,-1.2622043841403063
354,-3.4817954849156227
355,-3.2783495941226866
356,-3.7308907469653896
357,-3.342145899850395
358,-1.1396134395002497
359,2.86860242806485
360,-3.7440258235295176
361,-2.370157394659582
362,-3.415758462068517
363,-3.4946147287216833
364,-3.6280040943629452
365,-4.089116299495218
366,-1.5917156292352317
367,-1.7423294547093857
368,-4.33423471027989
369,-3.0394474549331885
370,-2.213428466095801
371,-0.554920646034639
372,-1.5435982109120616
373,-3.6779785822000566
374,1.8416786162257721
375,-4.308974427747696
376,-0.8225112679170672
377,0.0
378,-4.67346531577441
379,-4.600239286016361
380,-2.176525220612571
381,-3.3956427511703424
382,-2.4729713261352457
383,-2.7752775229477518
384,-3.008285105174902
385,-3.1806395473185907
386,-3.302093605323469
387,2.6039663935308304
388,0.3492867679126186
389,-2.766935106640576
390,-3.4246393425573087
391,-2.981363324080037
392,-3.2574825108954286
393,-3.3208956021879725
394,2.867357504623632
395,-1.7479449713655846
396,0.6974818359486308
397,-1.0618595554464445
398,-3.015559440507613
399,-2.5803293958747573
400,-1.2103794796084775
401,0.5116747377370574
402,-1.4290600694861935
403,-3.19179197503514
404,-0.16551626529322758
405,-3.3015882109469334
406,-2.8478313137724363
407,-2.4224396714992498
408,-3.188524401389423
409,-3.354362942812803
410,-2.7561814418963424
411,-3.3024287342524685
412,-3.475286391000742
413,-2.430206493460444
414,-3.2841302995428587
415,-3.248500531846804
416,-2.9941113074875356
417,-4.506647767361117
418,-2.348515013686171
419,-1.9302933193597025
420,-3.5415645657113886
421,-3.1759190471162317
422,-1.266202459481301
423,-0.5040040839307423
424,-2.8752916021776147
425,-2.9433263478582075
426,-1.6092075871860883
427,-2.4360533644612654
428,-1.9387807158541643
429,-3.4120410562580425
430,3.7395059349086575
431,-1.9857243728104337
432,-3.5866569152557455
433,-4.172067813700887
434,-2.8039544657937157
435,-2.5106359032758183
436,-2.3245906024376866
437,-3.3637142683766523
438,-2.6324405483318922
439,-3.188524401389423
440,2.8681525005352717
441,-3.2032909448218607
442,-3.4293544291863505
443,-3.3643418876015168
444,-3.6430211396055863
445,-3.468968091003209
446,-3.3837875806832125
447,-0.634446436237504
448,-1.9279571304568648
449,-3.2032232540004193
450,-3.1299113169367367
451,-2.4833025911082087
452,-1.110840384952421
453,-1.8592070910804686
454,-3.0247320944903686
455,-3.408823184806986
456,2.380467152846425
457,-2.7406157811243346
458,-3.537380187638652
459,-2.7009006950894743
460,-2.576514808634556
461,-2.3233186702529984
462,-2.7553242939227496
463,-2.777591043757117
464,2.12048212109353
465,-2.3682778189867073
466,-2.343998357153277
467,-3.765037284177576
468,-2.418529266900661
469,-3.920393801379956
470,-4.1749461905073195
471,-1.60597805491016
472,-2.0903262150975213
473,1.3097804095103722
474,2.8679268599430143
475,-3.7150570961202236
476,-3.1454407906491757
477,0.5506971365167834
478,-2.8698569478998794
479,-3.081005646557431
480,-1.8980096751382425
481,-3.0061266933428477
482,-3.3742865396088613
483,-1.920114227353228
484,-1.1721689518457676
485,-3.7308907469653896
486,-2.2594102560677243
487,-3.2032909448218607
488,-2.776920964153609
489,-3.759778879503992
490,2.8676106722813888
491,-3.3526422309553015
492,-3.5671886825051886
493,-3.8022992522664736
494,-3.666159854217003
495,-2.6099206824012575
496,-2.904458363395608
497,-2.0101956669258785
498,-1.3437206191369073
499,-1.694274026105606
500,-3.696577198387165
501,-1.474451040356721
502,-2.110377788974826
503,-0.19915668627846056
504,-3.1858321855837257
505,-1.964506449567478
506,-2.769940850965232
507,-0.6545147267695166
508,0.9379876863721123
509,-2.2098325517835016
510,-2.0293000928717078
511,-1.0379658059093562
512,-3.302885742610154
513,-2.7772024788808203
514,-3.7754863100540352
515,1.0926661459525018
516,-3.7356110205787965
517,-1.8829701137772494
518,-2.3241723891212684
519,-3.579495059892982
520,-2.2938108595779245
521,-2.2686235367643204
522,-3.3854587683503636
523,1.750518107533835
524,-2.8048238130728955
525,-2.0475438603280405
526,-2.0206088352463007
527,-3.7308907469653896
528,-3.0555548533556305
529,-3.4880865544432718
530,-3.385785149333453
531,-3.2584984998822737
532,-3.7150230612814847
533,-1.1064165903491483
534,-3.0121311406835782
535,-3.471140378813961
536,-2.485882561355957
537,-2.221126355507585
538,-2.2249370502047254
539,-2.4737474854909918
540,-2.053523725348806
541,-2.4452924538155787
542,-2.4519369227673664
543,-3.5937665141702198
544,-3.386221692718334
545,-3.06557639871087
546,-0.33906462949652855
547,-3.6325986445270435
548,-2.5331521081265853
549,-2.3284999803922335
550,-2.577819459992219
551,-1.94085669744644
552,-3.4946147287216833
553,0.7861614697552519
554,-2.7328937465260426
555,-3.612984265636233
556,-3.4946865365782998
557,-2.5906388940795813
558,-1.7864663219204964
559,-3.8304388505938096
560,-0.33739304675240184
561,-3.1447802793466906
562,-2.368312638294101
563,0.30748856942568825
564,-2.343416483803421
565,-1.866457929014335
566,-0.4009243403485333
567,-1.6326447647048874
568,-3.2464107433218703
569,-3.2584984998822737
570,-3.415259522479847
571,-3.8022992522664736
572,-3.672024397574615
573,-2.7824034347118367
574,-1.0501544215415473
575,-2.97343492298431
576,-2.0555841079721815
577,2.5712853004323466
578,-3.4715561283969265
579,1.4287221686441067
580,-2.845975306283875
581,0.5976644307437274
582,-2.088284985270441
583,2.868461892288356
584,-4.011612218952339
585,-1.94085669744644
586,2.8690313157208247
587,-0.33739304675240184
588,-2.575589694797874
589,-3.3846671246850493
590,-4.65773645163366
591,-2.0175530443142526
592,-2.753902512735388
593,-3.551552934647086
594,-2.353096765260995
595,-1.1580894439224076
596,1.322570117649591
597,-2.9365282320597927
598,-3.5684302456258963
599,-1.6559571217483395
600,-3.467198955171021
601,2.2277221295522858
602,1.6072330934865267
603,-3.356864635687761
604,-3.4456764935767463
605,-1.2752511086684841
606,1.083936922511625
607,-1.892850929809281
608,-2.0532095095323184
609,-1.7472781911021817
610,-3.7303852706684917
611,-2.2981685290671563
612,-2.285147225868675
613,-1.1754991979703204
614,-4.019802546895187
615,-3.0580817508456644
616,-3.7647253517552075
617,-2.334724724249332
618,-3.342145899850395
619,-0.9362524335215213
620,-1.835690331612577
621,-2.494889365238875
622,-0.16755627687267372
623,-2.777591043757117
624,-3.781381592738102
625,-3.809302163626314
626,-3.38553922945997
627,-2.436190480636207
628,-1.0112000533859933
629,-3.9129932612874523
630,-1.2622043841403063
631,-2.0293000928717078
632,-3.384746833541213
633,-4.37938726578528
634,0.5586248351453197
635,-1.0819161620022488
636,-3.7308907469653896
637,-4.0420799715349585
638,-2.9474523057373228
639,-1.6363272223144745
640,-1.1396134395002497
641,-3.3614073368341164
642,-3.517033436897797
643,-3.5165856624499905
644,-3.4544346586954444
645,-4.557730158040364
646,-3.0562716288848466
647,2.907234118699409
648,-3.385770466957889
649,-3.130687265096643
650,-2.4729713261352457
651,-2.7032004448100215
652,-2.13064085153661
653,-2.360256237462057
654,-4.801091638103034
655,-4.67346531577441
656,-3.360974075950264
657,-3.102207024960228
658,-1.0698398052027778
659,-1.7594312187725112
660,-3.10852169287814
661,-3.657610519338711
662,-2.944470711883239
663,2.8678565129134315
664,-4.128105758853694
665,-2.724128216749386
666,-3.33942929097981
667,-2.906338250029437
668,-3.2622802465755947
669,-1.8472977338332353
670,-1.8942581999875991
671,-2.060618330344394
672,-0.3499350455374558
673,2.867978487804226
674,-3.159090076661312
675,-4.535322398292441
676,-3.515284609026164
677,-1.9482965908855925
678,-2.5727818397863538
679,-3.298342825097236
680,-1.1141459089565058
681,-3.448450190125372
682,-3.6430211396055863
683,0.6040393538497942
684,-2.7110390941442057
685,-3.5546774206103446
686,-1.5066643474060617
687,-0.8431648052381375
688,-2.658552097131572
689,2.380467152846425
690,-2.316314381504661
691,3.7395059349086575
692,-1.9679564724674279
693,-1.8263723313642817
694,1.1039111162891142
695,-2.8698569478998794
696,0.30572939000139027
697,-0.7867897176387693
698,-1.5159654276280528
699,-2.2190110962301004
700,-3.1066360302007063
701,-2.520881095684386
702,-3.658630687466118
703,-3.173384947660354
704,-3.3858409636445743
705,-2.590596622603863
706,-2.186934566711869
707,-2.7336258167628813
708,0.25424439403758914
709,-2.888687361603918
710,-2.531380469322865
711,-3.6694085082093735
712,-3.1489326691529365
713,-2.3122529415021704
714,-2.1672802980361183
715,-1.6554312914956595
716,-1.7469350622747137
717,-2.465852562041802
718,-1.6460354095912835
719,-3.1668718202512474
720,-2.6801537332311516
721,-3.5042105859782167
722,-2.4271709628498552
723,-1.6072549686306241
724,-0.2677768858914882
725,-3.418786664969461
726,-3.465681846705203
727,3.07777675217901
728,-2.8772483692848363
729,-4.1478176870684385
730,-1.8829701137772494
731,-2.219457252160592
732,-1.0642044913067077
733,-2.0169432172300685
734,1.0444848250846526
735,-2.820927100762804
736,-3.385149960349896
737,-4.920176393345971
738,-2.6073865685335647
739,0.924800884106058
740,-3.4112075024326205
741,-2.130915284442785
742,-2.745378801845028
743,-1.1141459089565058
744,-2.6584266215421106
745,-1.5477733105745795
746,-3.448450190125372
747,-3.4966302712280206
748,-3.1446437445244286
749,-3.0166317851132143
750,-2.4171401784781867
751,0.029096749791021174
752,1.322570117649591
753,-3.5940562422479165
754,-3.1862635715294005
755,0.08536177446620338
756,-1.474451040356721
757,-2.64779315548783
758,-3.352227209984866
759,-0.0772412220920297
760,-1.3045007184577417
761,-3.77409991737463
762,-3.3793585928933094
763,-2.3216607011839026
764,-2.2765577979276705
765,-3.3909006948158056
766,-3.2225133084741064
767,-1.920156259868311
768,-2.5926493673418256
769,-2.7075292885799347
770,-3.1286429117605428
771,-1.333916589332316
772,-3.5404537720534237
773,-2.7459512075245827
774,-3.3429163312631163
775,-3.5170378784122245
776,-2.207066303462595
777,-1.8638220877231617
778,-3.751468356733267
779,-2.7474703395514184
780,-0.4511659387168202
781,-2.3068490560853663
782,-2.875306500890226
783,0.30572939000139027
784,0.30572939000139027
785,-0.44014815701963494
786,-2.6324405483318922
787,-1.5535082231530593
788,-3.4073907159308465
789,-3.9285354452402315
790,-3.180279243381673
791,-2.4757534826888894
792,-3.5162956039095126
793,-3.1183533639380707
794,-2.7917783272423304
795,-3.103921959586128
796,-3.4249771383270757
797,-3.2881655822785416
798,-3.275387334737081
799,-1.591016518634032
800,-3.1828091185506646
801,-2.887317111419844
802,-2.659816807913054
803,-4.135694143607634
804,-3.0550826951781636
805,-2.690244140361028
806,-1.1947401702307545
807,-2.9771251053045167
808,-2.7553242939227496
809,-2.3306033295500397
810,-2.874497343350214
811,-3.7776423544870092
812,-2.920088597644044
813,-0.21153029787860103
814,-3.7400212028791624
815,2.8682894265617933
816,-3.4946147287216833
817,-3.385627040245242
818,-3.6831168883153214
819,-2.457980489982259
820,-1.874612004223218
821,-4.0924029166137
822,-4.920176393345971
823,-3.386120640455588
824,0.5506971365167834
825,-1.9381893421709155
826,-1.1754991979703204
827,-3.67114020310058
828,-2.6324405483318922
829,1.7730242356568577
830,-1.9731208860809715
831,-2.4449316375382297
832,-2.4962470786041897
833,-2.7917783272423304
834,-3.3818266770851384
835,-2.632642934204859
836,-1.4197514233881383
837,-0.800385778822711
838,-1.3872215247931359
839,-3.385236440897083
840,-2.895543181057712
841,-3.2296457152056455
842,-1.5503815508867125
843,-3.008285105174902
844,-1.9214716015602296
845,-2.975825137426957
846,-2.690087448889555
847,-3.660573875393028
848,-1.3405781053075108
849,-1.7133441384560286
850,-2.3602794255237063
851,-2.7249013671813787
852,-2.202028207964785
853,-1.2274687596478915
854,-3.7440258235295176
855,-3.7265201679477826
856,-2.2220946640875643
857,-2.6609286007383695
858,1.6072330934865267
859,-0.43601603666164135
860,-2.142860413184018
861,-3.5095694134922097
862,-1.9555313654419764
863,-3.248070350974258
864,-3.184315381872043
865,-3.9696281226274057
866,-3.3429163312631163
867,-2.724890804810593
868,-4.202814608364904
869,-3.5427377806344014
870,-3.578276117249419
871,-2.727479420567914
872,-3.8110641304820465
873,-3.2032430171918356
874,-3.105812583258208
875,-1.9375511617600982
876,-2.5277297239629033
877,-3.1296503839953056
878,-2.420894783838854
879,-3.3841281922307456
880,-3.0562716288848466
881,-3.867247424149584
882,-1.9129523076230748
883,0.9750806214066886
884,-1.7959858860453397
885,-4.132610270225713
886,-2.561932239486445
887,-3.625272470138719
888,-3.621929666222586
889,-2.5936753650102466
890,-3.415259522479847
891,-3.8022992522664736
892,-3.3855736315725427
893,-2.7807978145142545
894,-3.785843071439439
895,-2.5897349131793095
896,-3.8255971839803835
897,-4.313003907860045
898,-1.860860612247679
899,-2.806295524644335
900,-3.5684302456258963
901,-3.166316290189932
902,-1.9148663800811554
903,-3.385082017587013
904,-2.444291345524801
905,-3.3861932158896844
906,-2.613731319550677
907,-3.386837368860886
908,-0.4855772360422423
909,-1.3136592253714525
910,-3.372758783414318
911,-3.63223739446656
912,-2.8777365401121857
913,-2.7553242939227496
914,-3.3859707231254825
915,-0.8640035343751261
916,-3.179361929850668
917,-1.4905261150076219
918,-1.6159790449164686
919,2.8687916208127526
920,-4.0261154044231064
921,2.867254546967696
922,-3.384746833541213
923,-3.180345841042721
924,-3.1679302183883538
925,-2.944237323202373
926,-2.680250179796405
927,-4.344162479570934
928,0.7508022386139148
929,-2.3498377139903135
930,-2.176525220612571
931,-3.708510357317533
932,-1.9288559039286928
933,-2.1789082139807525
934,-1.4720046583844468
935,-3.397873970275557
936,-3.120914410750879
937,-3.120914410750879
938,-3.40620061378782
939,-2.580797075001885
940,-2.6073865685335647
941,-1.1770492013686806
942,-3.917117278471927
943,-1.6907315812648265
944,-2.157888810473282
945,-1.683907890769161
946,-3.2882167960498445
947,-2.6584266215421106
948,-3.5671886825051886
949,-3.468968091003209
950,-1.9197792655686141
951,-0.4697816929815033
952,-3.3853974574451664
953,-3.0186283759840338
954,-1.3872215247931359
955,-1.885974293320518
956,-2.292940313856806
957,-3.2140530329860133
958,-3.7815173674705505
959,2.5729944411725834
960,-2.3633903600118225
961,-3.3861932158896844
962,-0.6609413005285988
963,-2.5148776537955513
964,-0.8091162608109753
965,-2.0215783500267785
966,-3.3550294452495133
967,-1.8076923637667501
968,-3.6370939488310237
969,4.904815806347147
970,-1.9679564724674279
971,-2.9155000877412465
972,-3.6958839733044764
973,-0.8314206178301079
974,-3.2519681640157225
975,2.8673649925919724
976,-3.3544890412949586
977,-2.4456932241245553
978,-3.974687393211596
979,-3.953559583003125
980,-2.1442784513736246
981,-1.4428033557863036
982,-1.171880400411084
983,-2.149447053050814
984,-3.1879054698325553
985,-1.0585906133011858
986,-0.3203034255701514
987,-1.3373666778601492
988,-1.7242685959171578
989,-4.067169449745222
990,-2.974647706122649
991,-2.725269879376938
992,-2.957095963486979
993,-3.721600714116817
994,-2.769940850965232
995,-1.0561260076208723
996,-1.4104059366672503
997,-3.067407136858938
998,-2.094461039149798
999,-2.094461039149798
1000,-3.029304277642801
1001,-3.271511717229878
1002,-4.812570221114667
1003,-1.45302033216886
1004,1.3360121076026126
1005,1.2183759910398873
1006,-1.9469751763558072
1007,-0.12940120182502068
1008,-5.017404449598554
1009,-2.2912963184348087
1010,-3.702166349683658
1011,-3.386120640455588
1012,-1.943146167748233
1013,-3.2002747587788014
1014,-2.812055961173078
1015,-3.7524143694866963
1016,-3.726857686948511
1017,2.8681601539515524
1018,-3.1446437445244286
1019,-2.157386373335139
1020,-1.0698398052027778
1021,-1.6151577484128488
1022,-2.073436900072945
1023,-4.027577507699624
1024,-2.7546758328920715
1025,-3.3850504906897747
1026,-2.7361509062267553
1027,-2.686672243645957
1028,2.8674366633864397
1029,0.46921503818043925
1030,-2.9703637192816514
1031,-3.4212535945292117
1032,-3.1866435754057707
1033,-3.3865938469532924
1034,-3.379088986466087
1035,-0.3856280560915695
1036,0.5788834040529335
1037,-2.0497285955994275
1038,-1.8673043895355244
1039,-3.5427377806344014
1040,-3.6986263803039217
1041,-2.8371200533926464
1042,2.869130138849739
1043,-2.3759776978894815
1044,-2.5311694767105513
1045,-3.5803621453603625
1046,-4.536840989477759
1047,-2.9686445791700917
1048,-3.290578149328788
1049,0.6677624856237496
1050,-4.737784589233265
1051,-3.827397675875768
1052,-3.38529634342953
1053,2.885169481150997
1054,-3.3848121440577574
1055,2.8674681533066755
1056,-3.10852169287814
1057,-3.271511717229878
1058,-3.3839921038281235
1059,-4.363607583515582
1060,2.86855293707235
1061,-3.146382118243627
1062,-3.781989646481783
1063,-1.383660215618616
1064,-3.3861709541088154
1065,-1.4720046583844468
1066,-3.3846671246850493
1067,-4.368268441421406
1068,-2.8438307514051995
1069,-3.102207024960228
1070,-1.5871480564581766
1071,-4.002260349691799
1072,-3.3844704050639547
1073,-3.6406843691553044
1074,-2.813400823417483
1075,-1.81294184016679
1076,-3.180345841042721
1077,-4.142700938120284
1078,-3.181929396838513
1079,-3.3846412431348436
1080,-2.580548061688557
1081,-3.0435226000703897
1082,-3.9827449368994694
1083,-5.388753029640342
1084,-5.925829078374258
1085,-1.8985921161627843
1086,0.44155781799100946
1087,0.44155781799100946
1088,-4.2637167303996355
1089,-2.983996775884508
1090,1.4963448650491884
1091,-4.313003907860045
1092,2.867734621688911
1093,-3.40479329131653
1094,2.867503752145185
1095,-3.972355410343634
1096,-4.744233596262164
1097,-3.9349208813845844
1098,-2.8062989793572513
1099,-4.600239286016361
1100,-5.202704006981467
1101,-4.007493735249755
1102,2.8673085056543317
1103,2.8671976450019994
1104,-1.7100424717205374
1105,-2.7824034347118367
1106,-2.7639267184247265
1107,-2.49088738279691
1108,-2.361847979929686
1109,-4.012126063997018
1110,-3.3530723240525835
1111,-2.900646614901693
1112,-0.19932732864398964
1113,-2.626436001215862
1114,-3.6416421306890254
1115,-0.6159543404393794
1116,-4.551474776298277
1117,-0.6975444286109378
1118,-0.8060312327676592
1119,-0.8117410489452203
1120,-3.1006209126171274
1121,-1.2596888209646981
1122,-2.421750080072041
1123,-2.0301052249335805
1124,-3.6926194834288095
1125,0.2695421581635767
1126,-3.5474709628051877
1127,0.5506971365167834
1128,1.3166467150717975
1129,-3.516332357035642
1130,-3.2060427249639707
1131,-3.9030195197128754
1132,-3.5436134539274984
1133,-3.691061362657498
1134,-2.8128047012453705
1135,-3.3846314020561272
1136,-1.4242143097747397
1137,0.0
1138,-3.5845981244785783
1139,-3.6463101993240628
1140,0.0
1141,-2.389871015075695
1142,-2.1483159554004567
1143,-1.8719454095861832
1144,-2.211177015396413
1145,-2.0431169297367515
1146,-1.0869335264694382
1147,-3.3751592497588354
1148,3.085947529569236
1149,-2.1067697311675344
1150,-2.751202664197789
1151,0.18357040069117075
1152,-1.8418095094096771
1153,-2.9351453581762628
1154,-2.803933498199611
1155,-3.302885742610154
1156,-3.064342660949452
1157,-2.112456328971914
1158,-3.788049880939374
1159,-2.426724662052805
1160,-2.7328937465260426
1161,-3.87649951358351
1162,-0.6689566982333947
1163,-3.7262940595114338
1164,-1.1658132679740838
1165,-2.279098161900311
1166,-1.907562547247976
1167,-3.73581044517151
1168,-2.4552291722087505
1169,-3.476630904363775
1170,-1.0034256818994718
1171,-3.438128317659196
1172,-3.737655762361221
1173,-3.3838407530746295
1174,-3.6513851379961837
1175,-3.3727487391863487
1176,-3.5046836698579096
1177,-1.721300357587843
1178,-3.6508964907782935
1179,-3.2841302995428587
1180,-2.015971048422538
1181,-3.0732075048133214
1182,-3.5332667263386064
1183,-2.2594765779392794
1184,0.0
1185,-3.261650390906489
1186,0.029096749791021174
1187,1.0167672117669468
1188,-2.351241385211855
1189,-2.3820975741222896
1190,-3.275630894617734
1191,-3.547752917536536
1192,-3.385281598349276
1193,-2.70107376994766
1194,-3.2755843615483338
1195,1.8604291424214534
1196,2.8303904909476585
1197,-3.077945479864968
1198,-1.8479113007432535
1199,-2.367571988603381
1200,3.58868736149304
1201,2.8674363533301865
1202,-1.8446386359610074
1203,-3.1066302525990377
1204,-3.4639417850741774
1205,-1.6327134595357078
1206,-2.0143130219438077
1207,-0.46675804029342266
1208,-2.4237237616480103
1209,-1.575894512807599
1210,-3.7150570961202236
1211,-3.8041762810590067
1212,-3.6929455971839524
1213,-3.3459734468649023
1214,-2.3556676399146244
1215,-2.878964624391455
1216,-3.3846381927752254
1217,-3.67114020310058
1218,-3.4101910648968645
1219,-3.8378508672504865
1220,-3.210611599518293
1221,-3.918127882989075
1222,-3.3855337309462654
1223,-2.4850489598906913
1224,-1.721300357587843
1225,-3.3866464267504224
1226,-3.414558376358596
1227,-1.0669618884094103
1228,-1.8719454095861832
1229,-2.7224477778043634
1230,-3.290754619362591
1231,-1.9894886713323752
1232,-3.156354483629877
1233,-4.011585473633075
1234,-0.4762790293446859
1235,-3.7551518719326116
1236,-3.275387334737081
1237,-2.885061111822181
1238,-2.9719417140239917
1239,-2.172585103197344
1240,-1.121732454202224
1241,-2.831995979530018
1242,-3.337789775799979
1243,-2.356725399416166
1244,-3.3857961847514937
1245,-2.861944518010017
1246,-2.1118517616975527
1247,-2.8639094263187377
1248,-3.6878992187778747
1249,-3.2042139916159145
1250,-3.4705064857774817
1251,0.17755240793083366
1252,2.3548129534133597
1253,-2.0245080810196687
1254,2.868128770916627
1255,-3.385436890233699
1256,1.0447689748611966
1257,-3.4502295484924517
1258,-3.411048754615807
1259,-3.573853756089751
1260,-1.5466344096534363
1261,-2.706404656643017
1262,1.183975182894072
1263,-3.5857257050429117
1264,-3.7883202432867074
1265,-2.9934493762865038
1266,-2.7188475786205357
1267,-2.0138996245218945
1268,-3.833166551557942
1269,-3.675330278794173
1270,-4.098502557097572
1271,-4.098502557097572
1272,-3.779653363060893
1273,-3.385149960349896
1274,2.866637282892582
1275,-2.884021004814939
1276,-2.7760729869103313
1277,-0.6001099679726405
1278,-3.385610312342861
1279,-3.3843068632249977
1280,-2.754045094645789
1281,-1.019921803166884
1282,-3.2002747587788014
1283,-2.7670491332584497
1284,-2.5277682022346957
1285,-2.436190480636207
1286,-0.5311818850447831
1287,-3.214218096074288
1288,-4.059765545140988
1289,-3.213390032879206
1290,-1.3889927315715316
1291,-3.299102058967661
1292,-3.022376444864787
1293,-3.4139825130216432
1294,-2.2822588524714895
1295,-3.259549285899018
1296,-2.3257607594323035
1297,-3.745531566641444
1298,-3.1915738349188443
1299,-4.551474776298277
1300,1.9990731408587845
1301,-3.7092760874596564
1302,-2.9994867350126095
1303,-2.051343069766049
1304,-3.3846180737924643
1305,2.866977140875102
1306,2.529776207046977
1307,-3.6870155313857045
1308,-2.7131184174458847
1309,-2.227403582091884
1310,-1.5018905769832642
1311,-2.185693942043891
1312,-1.6378861341006237
1313,-3.3860992423964014
1314,-1.4073895058527366
1315,-3.031279062347121
1316,-2.801164640736414
1317,-3.3020441778832526
1318,-3.3847012977856266
1319,-3.3727442155016667
1320,1.9391285838300827
1321,-1.925749220793936
1322,-3.3849031372475857
1323,-3.385609240937795
1324,0.6974818359486308
1325,-3.244414622242028
1326,-3.3858547451371317
1327,-3.3846563268363727
1328,-3.8432862091591056
1329,-3.297056980070075
1330,-3.179361929850668
1331,-2.207915308873121
1332,-3.5788864416253388
1333,-3.1265879218488126
1334,-3.345183212200942
1335,-3.5029759252720307
1336,-3.344800472768636
1337,-4.5397603621760965
1338,-3.3841028810526583
1339,-3.273686369301654
1340,-2.394379201088375
1341,-2.926663062879426
1342,-2.1488414833275704
1343,2.868770725692221
1344,-2.837869945526771
1345,-2.4624487088372735
1346,-3.5615752980723725
1347,-2.06894898820317
1348,-3.4350426725686845
1349,-3.384816187036308
1350,-3.7082587667409936
1351,2.095163480601275
1352,-3.4983339703456826
1353,0.0
1354,-0.5882938959264137
1355,-3.6318336351048357
1356,-4.046110993592658
1357,-2.381289290204475
1358,-3.120914410750879
1359,-3.6364898272293704
1360,-3.4079057555947463
1361,-0.022479140661384716
1362,-3.0311996366906815
1363,-0.8081310729467869
1364,-2.2132866561252507
1365,-3.3849643856898943
1366,-3.2002747587788014
1367,-2.295686695604356
1368,-1.089912011226822
1369,-2.3166079490975195
1370,-2.759063528522382
1371,-3.2199689545490506
1372,-2.7872766320581643
1373,-3.5641229119091373
1374,-3.2037302149543505
1375,-3.740975321751995
1376,-2.2449390991684397
1377,-3.327363662313573
1378,-1.5917156292352317
1379,-3.0579851843904127
1380,-3.41416815826122
1381,-3.596939153085043
1382,-3.4946592745420637
1383,-1.8980511906650888
1384,-0.48735250002988134
1385,-3.1472147989359534
1386,-3.6436465499020576
1387,-2.9144497025505123
1388,-3.180279243381673
1389,2.8680869617386224
1390,-2.891029537327458
1391,-1.9342317755344263
1392,2.86836015702788
1393,-2.616132435816385
1394,-0.6339948201912623
1395,-3.3259678242693833
1396,1.4884854953536766
1397,-3.570864749812212
1398,-2.282213173705494
1399,-2.677911056529943
1400,-2.680172805668286
1401,-2.893101085983215
1402,-3.0776390556463658
1403,2.868172094684602
1404,-2.9816547677969925
1405,-3.548122933954678
1406,-3.941693669218367
1407,-3.588429281238543
1408,-1.835256652158796
1409,-1.6559558271120962
1410,-2.077765245579601
1411,-3.385765099756246
1412,-1.216213050538063
1413,-3.3852339721651794
1414,-0.03742013610660849
1415,-0.39049235056022996
1416,-2.0129095924526705
1417,-0.9280763498724178
1418,-3.3862018718378932
1419,-3.1148993946951617
1420,-0.8643988236625033
1421,-1.6471877179686227
1422,-2.0369901432142625
1423,-1.8594695499151987
1424,-3.382656738148556
1425,-1.4315193109857733
1426,-1.6899519202128543
1427,-3.3958025363559265
1428,-3.068964466028686
1429,-3.466776054042625
1430,-3.2296457152056455
1431,-3.118435544396637
1432,-3.203014322960694
1433,-3.453548798373932
1434,-2.011975381402254
1435,-3.81672007034016
1436,2.5729944411725834
1437,-0.9362524335215213
1438,-2.597405960543964
1439,-2.617881387885102
1440,-2.665977459646009
1441,-3.67264570374307
1442,-3.0790609152687076
1443,-1.811217680517988
1444,-2.5867143195256386
1445,-1.515637442321424
1446,-2.883954353153668
1447,-3.245757377877382
1448,-2.190839900281764
1449,-2.1796984512731754
1450,-2.3817220568020456
1451,-2.7266441283126026
1452,-3.5765405508216745
1453,-2.799850808712892
1454,-2.5217088770238343
1455,-1.8095697939663162
1456,-3.3220692066989677
1457,-2.7300008682013512
1458,-3.385278623448417
1459,-3.793828678057128
1460,-3.5669173780521475
1461,-3.385733235996017
1462,-3.116270286598393
1463,-1.8964639158932028
1464,-3.794685387206081
1465,2.867798783294124
1466,-3.059725666920183
1467,-2.3829617825398177
1468,-3.688093329635649
1469,-2.410405648101202
1470,-2.4040511250092402
1471,-0.8877669475884346
1472,-2.2088257723507723
1473,-2.7382518705230035
1474,-1.6861094112162842
1475,-3.4161229222075944
1476,-2.729386614904677
1477,-2.441523940094652
1478,-1.7606394694901666
1479,-2.9794487953218525
1480,-3.4260933541383016
1481,-3.3837586321028694
1482,-3.4566734929352925
1483,-3.0013768167028365
1484,-3.44443155241331
1485,-3.3852143235458594
1486,-3.3387483076053424
1487,-3.3439407022269902
1488,-3.1360875349010744
1489,-3.8812259149868216
1490,2.437910552487973
1491,-3.127163659045127
1492,-3.3857816356349786
1493,-2.002727189656867
1494,-3.2966317778167094
1495,-2.2084338862643005
1496,-1.907480954378711
1497,-1.5764880852294614
1498,-4.12593901851716
1499,-4.120731663647615
1500,-2.2187218987134485
1501,-2.821898319819106
1502,-2.709648319465742
1503,-3.4716508341165873
1504,-3.5675795502214878
1505,-3.624987368605087
1506,-4.344162479570934
1507,-3.782777074239807
1508,-3.195481939003697
1509,-2.7178098747810204
1510,-3.4716623501905595
1511,-1.1911416880886692
1512,-3.708510357317533
1513,-2.5546995276650186
1514,-3.3861966290390466
1515,-3.3848330665010407
1516,1.3097804095103722
1517,-3.3846412431348436
1518,-2.4102121764439
1519,-0.25739657982330993
1520,-3.87649951358351
1521,-3.385952423576099
1522,-3.779653363060893
1523,-2.5813247496773752
1524,-3.3321610917357063
1525,-2.335468913255074
1526,-2.7615708699744803
1527,-3.750455034240493
1528,-1.8017468877910263
1529,-3.153882417366616
1530,-1.4339668589602093
1531,-3.509237776379679
1532,-3.315617484959731
1533,-1.8817015603476648
1534,-2.575589694797874
1535,-3.3846945690886567
1536,-3.3954651036632093
1537,-1.6717670787872745
1538,-1.4150680677489078
1539,-2.368312638294101
1540,-3.385419725925495
1541,-1.0472781956537365
1542,-1.8927920079810145
1543,-3.0562716288848466
1544,-2.7425442258918107
1545,-1.5159654276280528
1546,-2.8443960832941912
1547,-2.9805109179843567
1548,-3.3044685916642766
1549,-2.6752787229142148
1550,-3.211365825503359
1551,-2.837836527693779
1552,-3.8801552451724124
1553,-3.7615670806426755
1554,-3.0214313177854155
1555,-1.1486526930529868
1556,-2.9177587499798623
1557,-3.391642747258612
1558,-3.3851954229513748
1559,-2.7421950610563712
1560,-3.8646040483744506
1561,-2.495462028784546
1562,-3.4335789144207927
1563,-1.683907890769161
1564,-3.4995428497567294
1565,-2.2793330630171327
1566,-1.6041516863625516
1567,0.38351967786157376
1568,-3.8837698542953065
1569,-0.8857171360226668
1570,-2.3379083976265287
1571,-0.31574692303191
1572,0.7212659114739429
1573,-2.9599616035612404
1574,-3.5998128178662387
1575,-3.3863857066721255
1576,-3.3860617037322838
1577,-3.4321186774298673
1578,-3.5438582923331308
1579,-4.797600752064981
1580,-0.3203034255701514
1581,-0.3132816841294836
1582,-2.616132435816385
1583,-5.032579613241596
1584,-3.127240071209223
1585,-3.370422420129365
1586,-4.914029335201427
1587,-4.4675452353407
1588,-3.542967771339887
1589,-2.785142695061222
1590,-4.426019534913387
1591,-4.40172817493551
1592,-3.1715874403461517
1593,-2.39456511356439
1594,2.8664938378556566
1595,-2.3542388924031648
1596,-1.632588013868111
1597,-4.020270402966417
1598,-3.8117632155270202
1599,-3.7119874246100917
1600,-3.888894010834787
1601,-0.7916083218045298
1602,-3.332637600262352
1603,-2.714250206669841
1604,-3.2792613843433163
1605,-3.790586421838807
1606,-3.1393461064846555
1607,-3.49133525943786
1608,-3.802614069308386
1609,-2.709312791603052
1610,-1.6959971899172015
1611,-2.8505675081720163
1612,-1.3615175046325876
1613,-1.7267916358504807
1614,-3.6791154753903133
1615,-3.263246752419947
1616,-2.5147926112208268
1617,-3.5442820019522228
1618,-1.980564141690211
1619,-3.374275789052385
1620,-3.0353984431263434
1621,-3.9363143595985286
1622,-2.5409512354004846
1623,-1.989136244545154
1624,-3.7235735387539237
1625,-2.1110648976796074
1626,-3.385733235996017
1627,-3.3855622639964866
1628,-2.4084277977607598
1629,-3.3853757328834204
1630,-2.410405648101202
1631,-3.608182232543013
1632,-2.8887406631327694
1633,-3.3852428372533723
1634,-3.3193535033976604
1635,-3.3906865217799362
1636,-2.3651878357809157
1637,-2.53760287706988
1638,-3.1951681377681136
1639,-3.2072399029246355
1640,-3.3408327088175964
1641,-3.221482156811331
1642,-2.943406749301323
1643,-3.6701462900977053
1644,-2.2237053631726655
1645,-2.9771251053045167
1646,-3.4506473384931424
1647,-2.425611018166696
1648,-2.7605002958768603
1649,0.1665149739724923
1650,-3.384232066585955
1651,-1.4537104169427766
1652,-1.8599027143350855
1653,-3.528446873275005
1654,-3.3854272067253826
1655,-3.4289597531230362
1656,-2.2358701398610084
1657,-1.4905261150076219
1658,-2.309216857554322
1659,-3.385562664807546
1660,-3.232256705490817
1661,-3.4182666697691872
1662,-3.3857671878543827
1663,2.005300347334087
1664,-3.1258665276470174
1665,-2.7822147638734145
1666,-3.3645060172697754
1667,-3.3854596852277394
1668,-3.3846612294734406
1669,-4.039862129091804
1670,-4.3667477731356765
1671,-3.045671203329456
1672,-4.519611141993471
1673,-4.286587331202639
1674,-2.1950809767217567
1675,-3.4845553824970614
1676,-3.248932622375654
1677,-4.568760327371224
1678,-4.434747950543583
1679,-4.490435565744556
1680,-3.210529296606924
1681,-3.263706173035851
1682,-3.9029941814983258
1683,-3.101165144244709
1684,-3.3854440337786325
1685,-3.289741497165994
1686,-3.38476535754548
1687,-3.750071537094066
1688,-1.147339934528203
1689,-3.0206070615099616
1690,-5.440926571433395
1691,-3.4716508341165873
1692,2.8682656560054305
1693,-3.14548370790042
1694,-0.9078837555521309
1695,-3.4899588752347017
1696,-2.8858128244452863
1697,-2.3094736176482575
1698,-4.174795744405587
1699,-3.3465464550473474
1700,-3.3859698633842368
1701,-2.0805328441846878
1702,-2.189305368116333
1703,-3.3855021773938625
1704,-1.0718128129671822
1705,-3.713920918728323
1706,-1.0367339786315486
1707,-3.351618369602298
1708,-3.3488843693787183
1709,-2.9901880201881426
1710,-1.2942628103294915
1711,-2.8201709681236444
1712,-3.9296961617897406
1713,-3.1795014651571325
1714,-3.5935884549887986
1715,-1.0550361889874238
1716,-3.7321459047231973
1717,-3.0235015991755354
1718,-2.217268252503959
1719,-3.7078830994273573
1720,-2.2519842034450415
1721,-4.7433262391558575
1722,-3.4812062237567565
1723,-3.400652011456784
1724,-3.7881025483406674
1725,-2.943072013575466
1726,-3.0147051508844243
1727,-3.560440071507729
1728,-3.3914159079727857
1729,-4.261526126103329
1730,-3.906690884084119
1731,-2.9856342994937832
1732,-5.259970831043305
1733,-3.3468202985512887
1734,-4.429967207377669
1735,-3.128250125136926
1736,-4.350044357189164
1737,-3.3896346123477477
1738,-3.630951386732698
1739,-3.496770824198249
1740,-3.386222470677544
1741,-3.3846381927752254
1742,-3.2388192455973286
1743,1.3166467150717975
1744,1.4762539189533992
1745,0.45028226483522527
1746,-3.0890473028196404
1747,-2.866864958089828
1748,-3.3853449730474483
1749,-1.9157992863713842
1750,-2.295686695604356
1751,-3.4025300684494972
1752,-3.839424598564453
1753,-0.22318914273558907
1754,-3.770978542710438
1755,-2.984967719150137
1756,-3.3845071416888293
1757,-1.1955844366880282
1758,-3.4544909934728145
1759,-3.4246393425573087
1760,-3.8733143051662
1761,-1.745965339258233
1762,-1.7242685959171578
1763,-0.9362524335215213
1764,-3.3846633297596758
1765,2.868186253750126
1766,-3.385578116810662
1767,2.8666995840623954
1768,-2.276995296580714
1769,-0.750763829428171
1770,-3.1866435754057707
1771,-3.5404537720534237
1772,3.58868736149304
1773,-0.6978052979083816
1774,-4.368292671245358
1775,1.4403830868894472
1776,-2.336287930179208
1777,-3.7502830561184433
1778,-3.8041762810590067
1779,-3.7371687013537946
1780,-2.2161564801916787
1781,-3.2388192455973286
1782,-3.2273269519092196
1783,-2.4410427005729813
1784,2.867054984285619
1785,-0.6325080061699582
1786,-3.103001998664143
1787,-2.7137207303539452
1788,-3.2828344823607707
1789,-3.603890299591456
1790,-3.3860617037322838
1791,-3.869398167431265
1792,-4.111750463237054
1793,-4.150741056142469
1794,-3.3852339721651794
1795,-2.725269879376938
1796,-2.756198127864007
1797,-0.2571237616464182
1798,-3.3614073368341164
1799,2.2277221295522858
1800,-1.3576828456903083
1801,-2.3769966652871317
1802,-2.874497343350214
1803,-1.4386360934563485
1804,1.12582724629505
1805,2.8673713679987776
1806,-4.096111238372899
1807,-3.6986263803039217
1808,-5.065829678292069
1809,-3.4241725586369545
1810,-2.9901880201881426
1811,-0.8514470908939618
1812,-2.7049257223731167
1813,-0.2526353932991638
1814,-3.3865198443835056
1815,-5.8782884527923995
1816,-3.3858458670982716
1817,-4.600239286016361
1818,-3.386570090978375
1819,-3.7912133829713803
1820,2.866425105639588
1821,-3.063481226562125
1822,0.6677624856237496
1823,-0.6043403645151695
1824,-3.3854475958966823
1825,-1.1064165903491483
1826,-1.1064165903491483
1827,-6.460679186959811
1828,-4.156572841485692
1829,2.8672017284900306
1830,-1.9376025004549906
1831,-2.7454024689879133
1832,3.0385458680494466
1833,-2.1110648976796074
1834,-3.3506730767803368
1835,-3.626645093011411
1836,-4.068734302633908
1837,-1.0937485988223328
1838,-3.3844656103654556
1839,2.1548947508679888
1840,-2.7460694975147235
1841,-3.6406843691553044
1842,-3.2674194280054696
1843,-3.5542984349157165
1844,-3.4009008923930537
1845,-3.3857355796999014
1846,-2.2532887201240377
1847,-0.8314206178301079
1848,-2.250129200484699
1849,-3.3968821412254915
1850,-3.485224341727246
1851,-1.0819161620022488
1852,-3.262954631765894
1853,-3.8110641304820465
1854,-4.557730158040364
1855,-3.197817076247149
1856,2.86724571595411
1857,-1.420692392395902
1858,-3.560031294853953
1859,-3.9491136368533715
1860,-3.3530458061662536
1861,-3.1127747380079738
1862,-0.9733516743570222
1863,-1.8024021811564834
1864,-3.38532127974735
1865,11.124514553367556
1866,-2.190839900281764
1867,-4.011745122409423
1868,-0.6819107586614795
1869,-3.3846563268363727
1870,2.868295144531729
1871,-3.3854980862938566
1872,-0.055182423576413266
1873,-2.729947564828039
1874,-4.105019073417388
1875,-3.520224495913055
1876,-2.3623166675320393
1877,-2.1725892175587265
1878,-2.9341856397916772
1879,-2.42256808801413
1880,-3.385336267545778
1881,-3.0292782141912826
1882,-5.277593495175355
1883,-3.061603516186541
1884,-3.9555546464650573
1885,-2.9760270889232308
1886,-2.357492013530208
1887,-3.5752862981898765
1888,-3.5611554988265612
1889,-5.0942947939745125
1890,-1.144216282245294
1891,-4.167884263543167
1892,-2.6723671471408514
1893,-4.049486847924212
1894,-2.279820304322828
1895,-3.875392424587781
1896,-3.3839401655483594
1897,2.8670347883545397
1898,-4.697518617282965
1899,-1.9376025004549906
1900,0.7466541895634182
1901,-3.51133888558568
1902,0.2184002588639946
1903,-1.9148663800811554
1904,1.147142716422249
1905,2.1880757086754956
1906,-3.40479329131653
1907,-3.2093522771141156
1908,-1.45302033216886
1909,-3.3852345501484677
1910,3.811626360977894
1911,-3.3843108987714214
1912,3.223089572777312
1913,2.8674732251786987
1914,-3.3850630573091096
1915,-3.9044591340040613
1916,-2.9341856397916772
1917,-3.022811045812055
1918,-2.5061762472210605
1919,-0.8514470908939618
1920,-3.0890473028196404
1921,-4.774299665650179
1922,-3.674130403601639
1923,-2.7549353354186468
1924,-3.896948432974974
1925,-4.500878165639146
1926,-2.293549617492234
1927,-4.4675452353407
1928,-2.6130993181865434
1929,-4.550794163749558
1930,-4.26678128782311
1931,-4.747089294304064
1932,-5.499663401854033
1933,-3.9549452767289646
1934,-3.3842404580270107
1935,0.3647226824487771
1936,2.8679105677552723
1937,-3.4639684225121905
1938,-3.1841276414223185
1939,-3.385867683961739
1940,-3.384884752354991
1941,-1.417730933791791
1942,-1.3436177046696853
1943,-4.354776074017488
1944,-4.4497852588247815
1945,-4.030342345076041
1946,-3.9580566548286087
1947,-3.451695523370719
1948,-2.1859994715125
1949,-3.809301433507798
1950,-3.186358259862258
1951,-3.386841168136721
1952,0.9944906840235521
1953,-4.551461697111914
1954,-4.315684761870927
1955,-4.508389589351842
1956,-4.428220625209678
1957,-3.3859066160163747
1958,-3.3851783505445003
1959,-3.8695634743727316
1960,-5.350688157360171
1961,-3.62369692904102
1962,-3.8656437738960245
1963,-4.483883891223198
1964,-2.001776078673735
1965,-3.385864278978288
1966,-3.8245108754993384
1967,-3.8142797704905327
1968,-3.1991577509406284
1969,-3.431568706842844
1970,-4.311599006930081
1971,-4.701092487924529
1972,-4.346529603409047
1973,-3.1579888075626434
1974,-2.328094472219072
1975,-3.9197859978886465
1976,-4.351799443591128
1977,-3.5052070012377525
1978,-0.9747845105805452
1979,-4.221101258678992
1980,-2.5026118242297493
1981,-4.23395483447022
1982,-3.443129869359067
1983,-2.348515013686171
1984,-3.01610364835307
1985,-4.111995814791517
1986,1.4158638299149562
1987,2.8677254966538093
1988,1.9913754531470718
1989,2.867984297686031
1990,-2.4552291722087505
1991,-0.19932732864398964
1992,-2.9094957390804757
1993,-2.9627354090073674
1994,-4.33423471027989
1995,-3.0449406175873253
1996,-3.7319798554650045
1997,-2.073436900072945
1998,-2.990379439711645
1999,1.7676163569462708
2000,-3.87226296160466
