Id,Predicted
1,-2.6627894221351007
2,-1.2425207560970195
3,-2.8075018159609977
4,-2.750250498653703
5,-1.892623159688834
6,-3.967556848420606
7,-3.4959151634520254
8,-2.660872751366836
9,-2.222211783381245
10,-3.1526797118819507
11,-3.0682618707432803
12,0.45118121984707793
13,-1.447294777545584
14,-2.7305480468567804
15,-4.443254490452143
16,-3.5599965169405317
17,-2.800928518632164
18,-2.645646142836921
19,-2.3248367992590273
20,-2.3764967864069297
21,-3.213691212417785
22,-3.0844151339765036
23,-2.2332860501633145
24,-2.734592413101313
25,-2.753159821030009
26,-3.289613654465676
27,-2.433222436032099
28,-1.9972328036802687
29,-2.460631703068013
30,-2.7080864758939494
31,-1.7197138456447676
32,-3.1526797118819507
33,-3.7295139434187106
34,-2.9372140434690808
35,-2.8121611981826202
36,-2.5220027427849563
37,-3.104657314652068
38,-3.888176438713681
39,-1.3004851732687812
40,-3.0463640348788146
41,-3.7295139434187106
42,-2.173319659392108
43,-3.4687913209151904
44,-3.4607944777064024
45,-3.967556848420606
46,-3.9222991100911813
47,-2.1824545450323116
48,-2.5314058661732664
49,-0.36632965827339836
50,-3.3312555031027817
51,-3.5599965169405317
52,-3.883848986467102
53,-2.808635212000933
54,-0.9926028132368312
55,-3.3451547928065666
56,-1.0378173854589847
57,-1.7197138456447676
58,-2.8794685603842938
59,-3.7295139434187106
60,-2.4858158533821966
61,-3.0767109550010083
62,-2.748412455374582
63,-2.32998764201264
64,-4.435335953409733
65,-2.1683222100120854
66,-1.923448310426917
67,-2.794938546925048
68,-1.6563677003277226
69,-3.1646962791496227
70,-2.2155142602913687
71,-4.509353936916081
72,-3.7391459610826874
73,-2.8402497631494033
74,-2.748412455374582
75,-2.0579609401713306
76,-1.9957197659796369
77,-1.6843902948956615
78,-2.41178442302279
79,-3.5453213551866667
80,-1.5707159322100481
81,-3.141875135200012
82,-0.11645584178067607
83,-2.522043275180393
84,-3.197219298736575
85,-2.5441355256708453
86,-2.087244873461251
87,-2.3764967864069297
88,0.3482668248005813
89,-2.8238782486872576
90,-3.0267674885999294
91,-2.169588736677724
92,-2.4477643454686233
93,-1.1285559763364847
94,-3.04299448370463
95,-3.7939003438799284
96,-1.7718722018283248
97,-4.095094098056624
98,-4.294913286947129
99,-2.710152609173869
100,-3.217582552994398
101,-2.9933091361204673
102,-2.1012809669664323
103,-2.8234340230822004
104,-3.1571379958895376
105,-2.447541412185307
106,-3.3889666773577853
107,-3.2953081002179863
108,-0.6741432605344422
109,-2.5317569299514577
110,-1.4692294194239561
111,-3.986496131087564
112,-2.260842629159631
113,-2.7880260675553967
114,-3.1102894136735126
115,-1.9580981647270193
116,-2.187675130204846
117,-3.4476953324431956
118,-1.9092895247044221
119,-2.4619642494262655
120,-2.2630803775042065
121,-1.7718722018283248
122,-4.402084149679518
123,-3.9883396333268135
124,-3.8151055277490666
125,-2.9372140434690808
126,-1.9870144831862018
127,-3.6702968477812843
128,-2.7198154597684234
129,-3.0267674885999294
130,-2.672688904727562
131,-2.222211783381245
132,-2.6444896844389443
133,-2.9499033665987646
134,-2.517279255279626
135,-2.7319102326220523
136,-1.7743098208432013
137,-3.30457916776509
138,-3.6797126639370648
139,-2.9188529635001275
140,1.4008931156222613
141,-2.748042121482339
142,-2.7273968449429957
143,-3.986496131087564
144,-0.876407435399718
145,-2.5393434389921024
146,-3.2391009274282743
147,-3.0398732030010134
148,-2.3334273432566968
149,-1.793735797278327
150,0.9680474387626519
151,-2.2765258614106783
152,-2.869126660201504
153,-2.8146970972378433
154,-2.0581846121187586
155,-2.989429868396498
156,-2.0356196708794907
157,-0.48295244938126725
158,-3.141875135200012
159,-2.705810999204117
160,-3.217582552994398
161,-3.189421769021547
162,-2.223039157643285
163,-2.7517111651430604
164,-1.9875098756662808
165,-2.968762634020685
166,-1.6787442073582866
167,-3.1358820882968432
168,-1.8551895646854104
169,-2.818119917934263
170,-2.9385915437351198
171,-0.6466592970920626
172,-3.092306649081158
173,-2.602587087919543
174,-2.6575252092878756
175,0.6032671020320856
176,-2.433327948549521
177,-2.2921296931567876
178,-2.2921296931567876
179,-2.2751716692147452
180,-1.7718722018283248
181,-1.7636074160743198
182,-3.138190360098241
183,-1.874783870043823
184,-2.0432631698542165
185,-2.9266859087745543
186,-1.5201011193548077
187,-4.550736015230217
188,-1.9909255359385467
189,-0.6415445451185746
190,-2.05820274746692
191,-2.9376320587570985
192,-2.0459501019481565
193,-2.5441355256708453
194,-2.5679273451021336
195,-3.933162606059588
196,-4.199865683836339
197,-2.2045302086485132
198,-2.793295815877336
199,-2.6019116976191556
200,-1.910107944613488
201,-3.555917512169101
202,-3.490814135908675
203,-3.090268818173109
204,-2.6451784756746597
205,-2.7158630683049974
206,-2.341667343799074
207,-1.9792804972513847
208,2.7893858786652914
209,-2.978696693250627
210,-3.0736024197333878
211,-1.7727503019968762
212,-2.0286097008615496
213,-0.16658503411603998
214,-2.0657038113075408
215,-3.0674799098109315
216,-2.710152609173869
217,-2.4278454004462238
218,-3.626736937517932
219,-2.196331531910407
220,-1.8236546463160572
221,1.2400664241468586
222,-4.399783471918695
223,-2.7762509163521614
224,-3.189828319774596
225,-2.6610498254378685
226,-3.2328517764654747
227,-2.420304712682211
228,-2.652955529297081
229,-1.4250026948853796
230,-2.042969461177189
231,-2.4619642494262655
232,-3.102585153306868
233,-2.464052507279467
234,-2.464052507279467
235,-3.1230562959990116
236,-2.7998469065441918
237,-3.9271797607993095
238,-1.7718628191748718
239,2.620348984952545
240,-2.1239035965873585
241,-2.7461895460393504
242,-2.0987271187730223
243,-2.4916216710223145
244,-2.4415593144816348
245,-2.7242228454504196
246,-1.6563677003277226
247,-3.200974478784837
248,2.7891522707555008
249,-2.087577433174882
250,-3.3975909398934276
251,-2.038004520494956
252,-3.4559042712583623
253,-2.4858158533821966
254,-2.023383733467958
255,-3.037431481005783
256,-1.7924225019375348
257,-1.3992512001946933
258,-2.3511526468930595
259,-2.9492730959659097
260,-2.9409768485789844
261,-2.3227720530040554
262,-2.869126660201504
263,-1.3004851732687812
264,-1.4893297105851013
265,-3.0033897110219603
266,-2.0987376806343074
267,1.2400664241468586
268,-3.3979769850917094
269,-1.7533479297908956
270,-3.211642447419675
271,-3.1526797118819507
272,-1.730107191109649
273,-2.7697670411790347
274,-3.0193327773681293
275,-3.0576647666826275
276,-1.233046268220567
277,-2.9580843474894847
278,-1.7718628191748718
279,-1.7718628191748718
280,-2.2372980422661657
281,-3.168711285691207
282,-2.289961099082833
283,-2.405587603147065
284,-1.4965271487667102
285,-3.3862426825108116
286,-2.3309335496369123
287,-2.9422726948364804
288,-1.744211864354292
289,-2.11877251313811
290,-2.4300136759589903
291,0.9680474387626519
292,-3.3970263896958315
293,-2.453535855673363
294,-2.0170278591332504
295,-1.4669501100634768
296,-2.7338150726351853
297,-2.7476648953160523
298,-2.0945950392924133
299,-1.943044767968776
300,-3.1369002246951285
301,-1.0960985360875706
302,-2.9350443172545466
303,-2.9172051579257365
304,-2.3847266840271533
305,-2.326759275016765
306,-2.6481636507521125
307,-1.9957197659796369
308,-1.9909255359385467
309,-1.4516823268863797
310,-2.6371678730647012
311,-1.108059234890312
312,0.5381812746929538
313,-3.0705893045920387
314,-2.223332189804045
315,-0.6385045307058028
316,-2.232858875770152
317,-3.4243201589881873
318,-2.926142946678669
319,-2.7319102326220523
320,-3.5852161364077517
321,-3.5868527186837804
322,-1.8531599963560643
323,-3.0193327773681293
324,-3.192377057062515
325,-0.7053322114040984
326,-2.459554425873082
327,-2.95669735881554
328,-4.0944989992012575
329,-3.402315116010184
330,-2.3217227137201117
331,-2.7236685477254943
332,-1.5201011193548077
333,-0.4912487732628763
334,-2.9004201268163365
335,-2.960132879037794
336,-2.061028045566102
337,-2.0657038113075408
338,-2.994124775946196
339,-1.9704284015258504
340,-3.323693350931874
341,-3.7295147934179322
342,-1.7283191817031063
343,-2.0459501019481565
344,-2.498716195350763
345,-3.2469907822876602
346,-1.7841572122003642
347,-2.5679273451021336
348,-3.431227035812995
349,-2.5517102062478814
350,-2.8873778944307915
351,-2.2011834044123906
352,-3.490814135908675
353,-1.0020543216567528
354,-3.4033522869665336
355,-2.95102345878082
356,-3.5735176106011823
357,-2.85209496787455
358,-1.6993038611482898
359,2.789689769764373
360,-3.584812108778298
361,-2.1380829105235684
362,-3.1320644719001103
363,-2.99152787115638
364,-3.1453134034978785
365,-4.093872748489102
366,-2.5414847802008884
367,-2.3363810406086394
368,-3.542253712017368
369,-2.8821058308069607
370,-2.2444416636388076
371,-0.915264930035162
372,-1.7727503019968762
373,-3.4208713209007717
374,1.3147103434282423
375,-3.8506110108085303
376,-1.581565223003049
377,-0.7479423666925606
378,-4.512726660898867
379,-4.461037869714846
380,-2.236628132968304
381,-3.2732027795231025
382,-2.4670121948238477
383,-2.785831999298235
384,-2.156099709178285
385,-2.835106617472146
386,-3.30457916776509
387,0.17299284904452356
388,-1.6586129253754298
389,-3.107328691045332
390,-2.9385915437351198
391,-3.01232537657612
392,-2.830533850166788
393,-3.0398732030010134
394,2.788969742969625
395,-1.5961649358294434
396,0.5381812746929538
397,-1.5763194686913036
398,-2.6945773799703208
399,-2.9589653924632935
400,-0.9938123520234581
401,-0.9906706916156901
402,-1.9188820085787701
403,-2.9578546498250886
404,-2.4118313241322333
405,-3.3975909398934276
406,-3.01528660230713
407,-2.5590262775486754
408,-3.1070854443689897
409,-3.165270385348612
410,-2.4360450972782393
411,-2.9626926094994563
412,-2.999103766290665
413,-1.5171403242508863
414,-3.146110311778474
415,-2.955936015101798
416,-2.202882861270785
417,-4.172554284045723
418,-2.3842969237012483
419,-2.3036724267981987
420,-3.4996863543862022
421,-3.1105187213708736
422,-0.5312457434857987
423,-1.4344676509329861
424,-2.707858779481364
425,-2.799630793088939
426,-2.0356196708794907
427,-2.6164770860472175
428,-1.8544606124523688
429,-3.3969558700156406
430,3.9399086013544644
431,-2.128885397524643
432,-3.0050826921483598
433,-3.7255332237905794
434,-2.840199131905286
435,-2.022800312801399
436,-1.9847368088582071
437,-3.2624331525046855
438,-1.788495971137814
439,-3.1070854443689897
440,2.7897099553339983
441,-3.3229923059498474
442,-3.5822181791160674
443,-2.8242465840371276
444,-3.292842211645155
445,-3.172760837231273
446,-3.267963094365846
447,-2.007245943679087
448,-1.9509634760382277
449,-2.8918768403516975
450,-2.9244380920572417
451,-2.562900681239001
452,-1.9364298891183533
453,-2.326759275016765
454,-3.2513993381820185
455,-3.3695986379328224
456,0.1556763491352643
457,-1.7119048698942136
458,-3.381288452750722
459,-2.323389650171177
460,-2.223332189804045
461,-2.596678224903271
462,-2.801943451180683
463,-2.7553523981866066
464,2.020665373729052
465,-2.432190356223576
466,-2.3329072726826543
467,-3.4336015670661832
468,-1.976163634586245
469,-4.3133498459437645
470,-4.1045475913472105
471,-1.4068562218180805
472,-2.7205035465718077
473,0.3614348034133765
474,2.787829135977882
475,-3.5216825045683318
476,-2.9891808729977587
477,-1.3560948736720249
478,-3.486349698847108
479,-2.9022581454853107
480,-2.2952131434287426
481,-3.1255709240330125
482,-3.308759636458956
483,-2.7253463457535307
484,-1.7188964353885374
485,-3.5735176106011823
486,-2.698350487408547
487,-3.3229923059498474
488,-3.1378275481062055
489,-3.510211171919743
490,2.7882452285144503
491,-3.057665160708625
492,-3.223319074747665
493,-3.5347851504868366
494,-3.5165147909499916
495,-2.5096427921105398
496,-2.7585098452065657
497,-2.0481670355807933
498,-1.5876630467917463
499,-2.039040801283309
500,-3.5762668300249767
501,-1.0139704665498177
502,-2.2175719267962246
503,-0.604780339275215
504,-3.525132200210538
505,-2.7702318957880387
506,-2.341667343799074
507,-1.7500164562314522
508,-0.4841107059684724
509,-2.05820274746692
510,-1.7040793346670835
511,-1.251305560403426
512,-3.063928929118309
513,-2.7244227015513394
514,-3.297302738722325
515,-0.5812966121736902
516,-3.453993289830859
517,-2.515646291583537
518,-2.324116542115673
519,-3.0784662419884343
520,-2.498716195350763
521,-2.2197405367002845
522,-3.3224839774549078
523,-0.876407435399718
524,-2.7328533609865895
525,-2.187536576007937
526,-2.671915188756232
527,-3.5735176106011823
528,-2.370039140705793
529,-3.49718237327246
530,-3.324010325114783
531,-3.0567717586598375
532,-3.2898538948008906
533,-0.5660263941240584
534,-3.236726123607624
535,-3.12377972705634
536,-2.1001404849342653
537,-2.0323910840094777
538,-2.149015113630399
539,-2.7574894956659524
540,-2.1141762091006546
541,-2.17510202879155
542,-1.4676679244532043
543,-3.345880203977725
544,-3.323408571032839
545,-2.675159813121064
546,-0.9207958906630441
547,-3.518829321172493
548,-2.3907390415139855
549,-1.700936909797103
550,-2.848577889748543
551,-2.0015897434823655
552,-2.99152787115638
553,0.14785716185595313
554,-2.6169790666915653
555,-3.6206443276817026
556,-2.9933091361204673
557,-2.223039157643285
558,-2.300787541539517
559,-3.204040342998664
560,-2.2739569059015783
561,-2.95669735881554
562,-1.7353685177391134
563,-0.5529814552803186
564,-2.1679404765815584
565,-2.1502774218132483
566,-1.5957203811238212
567,-1.9927061247819131
568,-3.229026570211791
569,-3.0567717586598375
570,-2.8850476872228117
571,-3.5347851504868366
572,-3.4540155556396672
573,-2.718978746033802
574,-1.3087781196808317
575,-2.761349875151361
576,-2.061028045566102
577,2.4688020396577475
578,-3.324331446005848
579,-0.7176224936726596
580,-2.1032476159531486
581,-0.34907592340476096
582,-2.2174698083330906
583,2.7906005411243098
584,-4.032234148877642
585,-2.0015897434823655
586,2.7889875265293202
587,-2.2739569059015783
588,-2.6780029422984963
589,-3.3235935656175
590,-4.499172328685966
591,-2.283554828357465
592,-2.6818040729722825
593,-3.0544745441075527
594,-2.9649784635354886
595,-2.102271566767531
596,-0.4995238943273171
597,-3.0385272060375685
598,-3.586958102194333
599,-2.447776889592009
600,-3.323578847487204
601,2.081695744552237
602,0.23230765064052322
603,-2.8514346366479275
604,-3.323913276082324
605,-1.8759017332986379
606,0.6358691450934147
607,-2.4209400350281913
608,-1.6077443182527755
609,-1.5684467073500816
610,-2.933880544261821
611,-1.5308376017642196
612,-2.757645732085573
613,-2.0954883036762966
614,-3.397192131894526
615,-2.5258864190226404
616,-3.0737701597622045
617,-1.9342666146296954
618,-2.85209496787455
619,-2.0469180227743884
620,-2.50745952075839
621,-2.810882154588783
622,-1.28409723848919
623,-2.7553523981866066
624,-3.027172306992979
625,-3.0576647666826275
626,-3.3234170662218663
627,-2.6297764024614065
628,-0.9214432467191822
629,-3.6338583116513505
630,-1.0020543216567528
631,-1.7040793346670835
632,-3.3244416128341845
633,-4.405627303675779
634,0.26664324463566985
635,-1.1107180919930622
636,-3.5735176106011823
637,-3.1798875125390214
638,-2.796579271891856
639,-2.2276438295086147
640,-1.6993038611482898
641,-3.2723957404280917
642,-3.273227263903037
643,-3.1326616312152336
644,-2.9203923787262864
645,-3.403115420345739
646,-2.7135120543213342
647,2.814354744263608
648,-3.3239982266239725
649,-2.7236685477254943
650,-2.4670121948238477
651,-2.9624262599821742
652,-1.6886800795983752
653,-2.3757197129614203
654,-4.6268614305240545
655,-4.512726660898867
656,-3.289172779197535
657,-3.11452740356957
658,-0.6692727007565771
659,-2.0008932615765405
660,-2.8324440396416293
661,-3.370090805174387
662,-2.872883478446973
663,2.789719103292295
664,-3.560016866231968
665,-2.8767154684429217
666,-3.136695741832107
667,-2.7666497545803965
668,-2.976304590334068
669,-2.0280109096329055
670,-1.4339255816774539
671,-1.9401782156623943
672,-1.4823797857113226
673,2.788121114442293
674,-3.0318194124528683
675,-3.5581386540897086
676,-3.4164220794195286
677,-2.7911395042072185
678,-3.323871405672562
679,-2.8562194964601675
680,-1.1819801950286286
681,-3.075155440100548
682,-3.292842211645155
683,-0.9622414021232766
684,-2.733402688673747
685,-3.3077864059350532
686,-1.895785236507706
687,-0.9836046148997085
688,-1.8898804161406766
689,0.1556763491352643
690,-2.331297983339218
691,3.9399086013544644
692,-1.1309658211585967
693,-2.481288086067218
694,0.8876353853487502
695,-3.486349698847108
696,-0.10681372861210624
697,-1.6086478096828
698,-1.5381376520913717
699,-2.505436298696296
700,-2.9786750291422845
701,-2.488400660928548
702,-3.089160214895305
703,-2.8279088736902955
704,-3.1555438732914736
705,-2.744259872592248
706,-2.3529244691751576
707,-2.626480412103202
708,-1.3502888275452734
709,-2.810804957657466
710,-2.960132879037794
711,-3.1980515665638762
712,-3.050923047981661
713,-2.652955529297081
714,-2.605143610460317
715,-1.2686043496011954
716,-1.8273028638380233
717,-2.2146697131389494
718,-2.148552531188981
719,-2.6872624214444665
720,-2.335308138271647
721,-3.357902374000969
722,-2.6387818175752127
723,-1.7409131704986414
724,-0.18556435694029516
725,-3.322905405295878
726,-3.3502318727089366
727,2.5807859480065707
728,-3.077100956021437
729,-4.247036547236322
730,-2.515646291583537
731,-2.7175892923233014
732,-1.9097689145139736
733,-2.1928823545387646
734,-0.5627043214518257
735,-2.6940822128425967
736,-3.3238795725896675
737,-4.322109493365751
738,-1.9875098756662808
739,1.0505665999649434
740,-2.963487061106783
741,-2.3891673512466727
742,-2.6700267337972328
743,-1.1819801950286286
744,-3.022015359209733
745,-2.0002580033366626
746,-3.075155440100548
747,-2.9963188771217877
748,-2.988256780872587
749,-2.9168782146328462
750,-2.4022656600773784
751,-0.3574120009255599
752,-0.4995238943273171
753,-3.185705471497056
754,-2.997540867825225
755,-0.8195394010181285
756,-1.0139704665498177
757,-2.5231222869628938
758,-2.576354226590811
759,-0.4213181661875495
760,-1.1819252527042234
761,-3.326058387433704
762,-3.3053470439446224
763,-2.125114145616172
764,-2.059597925725102
765,-3.154146946883599
766,-2.2239109328559183
767,-1.6778062667092586
768,-2.718082208429715
769,-1.7219387808798337
770,-2.7105663298161233
771,-2.2748532355843407
772,-3.4562642130450425
773,-2.9508292571860144
774,-2.9499033665987646
775,-3.2105280242862095
776,-2.0961347741533523
777,-1.9863322000770003
778,-3.4285530555686328
779,-2.6039873345315154
780,-2.151332785828846
781,-2.7383873055606607
782,-3.3248320766210577
783,-0.10681372861210624
784,-0.10681372861210624
785,-0.6934949059827559
786,-1.788495971137814
787,-1.7303086382446802
788,-3.324318890281034
789,-2.9268573622849083
790,-2.9266859087745543
791,-2.516170586593403
792,-2.941624829628049
793,-2.8873778944307915
794,-2.4795152718303086
795,-3.1480652914086806
796,-3.0463664606622007
797,-2.958922942525715
798,-2.851813319138084
799,-1.247941509566666
800,-2.791171188837749
801,-2.6652861795090077
802,-2.667555346668384
803,-3.9433448107586773
804,-2.637432385055112
805,-2.167106542162089
806,-1.2346888920024477
807,-2.8399915331574856
808,-2.801943451180683
809,-2.2818250550954065
810,-2.805818523133057
811,-3.346974362468438
812,-3.18554290453213
813,-1.219071481531988
814,-3.435599136947018
815,2.7887841677907304
816,-2.99152787115638
817,-3.324143815639786
818,-3.153349365779367
819,-2.6666084207666794
820,-1.9874962576690363
821,-3.5655495057126427
822,-4.322109493365751
823,-3.324296534615231
824,-1.3560948736720249
825,-2.6411623803627444
826,-2.0954883036762966
827,-3.359167734027956
828,-1.788495971137814
829,-0.8464040337032506
830,-2.1208682215528714
831,-2.677849248718954
832,-2.5682294916125286
833,-2.4795152718303086
834,-2.8327175549575534
835,-2.443181197564711
836,-2.011764620738763
837,-2.0000097783794217
838,-1.76762617071858
839,-3.324697786488124
840,-3.0639794634866266
841,-2.7487746027973516
842,-2.0471642796264753
843,-2.156099709178285
844,-1.5804760317799469
845,-2.8261168620908483
846,-2.11877251313811
847,-4.054953949362832
848,-1.984935121550253
849,-1.7896539182807356
850,-1.201307884043753
851,-2.8293349733182525
852,-2.432381873422793
853,-1.5759165254302239
854,-3.584812108778298
855,-2.8048352729424484
856,-2.432536053628991
857,-2.3173872096122543
858,0.23230765064052322
859,-0.8578869475606041
860,-2.497031001275916
861,-2.9631118671948853
862,-2.0678709680243603
863,-2.9880766819543596
864,-2.9555745835668095
865,-3.5015973253407
866,-2.9499033665987646
867,-2.2395096794718303
868,-3.4735372400683553
869,-3.3710677156289375
870,-3.1731590887660444
871,-2.8361415790617484
872,-3.324620286176885
873,-3.05740995197172
874,-3.1271284090576477
875,-2.0677380022974465
876,-2.6160261250633066
877,-2.170580900381573
878,-2.3814234700428125
879,-3.32306098590915
880,-2.7135120543213342
881,-3.6658886627681064
882,-2.0464711926903005
883,-0.5004026053966304
884,-1.7830583997687373
885,-3.7377334879785815
886,-2.562455620937337
887,-3.2861070481522554
888,-2.9477833716337383
889,-2.580021340474749
890,-2.8850476872228117
891,-3.5347851504868366
892,-3.1102894136735126
893,-2.6604625988669826
894,-3.4080123705146126
895,-2.6615510620261493
896,-3.4372611213693594
897,-4.1697751742821785
898,-2.036649796595413
899,-2.4328630792205104
900,-3.586958102194333
901,-2.734645738017265
902,-1.3821461203750043
903,-3.3240024721329537
904,-1.6947912020227867
905,-3.323138154368268
906,-2.7302800202672013
907,-3.3243567614408915
908,0.24464512016261591
909,-1.6637520892632374
910,-3.315955959827528
911,-3.499079625091017
912,-3.1654066136006835
913,-2.801943451180683
914,-3.3244134439013284
915,-1.6014605061339742
916,-3.1158967962919752
917,-2.413294796656089
918,-1.6630209882572804
919,2.7891305012106935
920,-4.085617513610661
921,2.7905865247067783
922,-3.3244416128341845
923,-2.8939655241622675
924,-2.90618831614892
925,-2.0114489188762867
926,-2.4813950895123256
927,-3.798754207653776
928,-0.5670308787498556
929,-1.9675377122775835
930,-2.236628132968304
931,-3.2072802633326813
932,-1.7219577117819103
933,-2.043598405120931
934,-1.105968120865433
935,-3.0035533766127447
936,-2.8736440886180428
937,-2.8736440886180428
938,-3.0510951065976264
939,-2.867209086879075
940,-1.9875098756662808
941,-2.006128375979463
942,-3.392380057933717
943,-2.3089015448678936
944,-1.9208163366968845
945,-1.2184377782064273
946,-2.71618399516217
947,-3.022015359209733
948,-3.223319074747665
949,-3.172760837231273
950,-2.496560037400292
951,0.45118121984707793
952,-3.3242137395287283
953,-3.0732401339495157
954,-1.76762617071858
955,-2.0697606577990313
956,-2.3962487922946263
957,-2.6240919569095795
958,-3.130213305290168
959,1.8269204537868
960,-1.75167511972936
961,-3.323138154368268
962,-1.4829671318128042
963,-2.1433366242658027
964,-0.9462515210078954
965,-2.817310490500531
966,-3.0459280141395344
967,-2.232858875770152
968,-3.323824672598331
969,5.2557684091645545
970,-1.1309658211585967
971,-2.8136320390868574
972,-2.4979386842151996
973,-1.7180745622789573
974,-2.9143438722469135
975,2.7883662322231118
976,-3.2521297195192336
977,-2.7229480201723106
978,-3.838659378962661
979,-3.7807899199624297
980,-2.055637319116403
981,-1.6550163189642195
982,-2.4691497615224285
983,-2.5738423368784527
984,-3.2602955909649323
985,-1.7024484609022277
986,-0.5829751736323795
987,-1.9847124213093637
988,-1.4965271487667102
989,-3.880584521446251
990,-3.199341359218594
991,-2.9564837949932685
992,-1.8275581362941782
993,-3.274044245108741
994,-2.341667343799074
995,-0.9743580219225373
996,-1.8580544578746254
997,-2.7194778397017627
998,-2.2985618622682
999,-2.2985618622682
1000,-3.037020237411411
1001,-2.697974613872883
1002,-4.7137600212938215
1003,-1.5723131789461824
1004,1.4182377838886657
1005,-0.5759837322878273
1006,-2.198142320937723
1007,-0.3435117544625413
1008,-4.602641409051233
1009,-2.0503367036965594
1010,-3.58025764292226
1011,-3.324296534615231
1012,-2.7629244591271007
1013,-3.1030317639292075
1014,-2.850372537847883
1015,-3.7612441259983838
1016,-3.323682235957831
1017,2.789167685278211
1018,-2.988256780872587
1019,-2.206027592450876
1020,-0.6692727007565771
1021,-2.190355458803757
1022,-1.7319600461308522
1023,-3.985323706983652
1024,-2.975936356290371
1025,-3.3240232397010265
1026,-1.7008797715276738
1027,-3.095246629456647
1028,2.7895808116619074
1029,-0.5642504672233812
1030,-3.0388077146566004
1031,-3.2841943830674323
1032,-3.1046049287846924
1033,-3.323955049333902
1034,-3.064687753663256
1035,-1.401088306955655
1036,-0.1923390347718084
1037,-2.6933644748202146
1038,-2.3667085726976924
1039,-3.3710677156289375
1040,-3.640228392705919
1041,-2.8139658536985515
1042,2.789247513850645
1043,-2.286044590514287
1044,-2.000613302941744
1045,-3.4469274279926823
1046,-4.272193484805339
1047,-3.074326768315716
1048,-3.634250292053126
1049,-1.097272332982973
1050,-4.169308880751599
1051,-3.2494184201562746
1052,-3.323326971094411
1053,2.805882799849536
1054,-3.3235399146008113
1055,2.7892312529266263
1056,-2.8324440396416293
1057,-2.697974613872883
1058,-3.324831424699152
1059,-4.315822771779825
1060,2.7892026359645894
1061,-3.3240752418029764
1062,-2.92182931278539
1063,-1.395245601342514
1064,-3.325124532506506
1065,-1.105968120865433
1066,-3.3235935656175
1067,-3.8528174892278955
1068,-3.2872183730788254
1069,-3.11452740356957
1070,0.0
1071,-3.621923994667217
1072,-3.3253617289743453
1073,-3.1410376399355147
1074,-2.867861142459117
1075,-2.0066935818521827
1076,-2.8939655241622675
1077,-3.9707579694737745
1078,-2.8019287506811987
1079,-3.3242631982946693
1080,-2.5397045403590437
1081,-3.012792208894786
1082,-3.417047444961592
1083,-5.114871729803478
1084,-5.718147787397954
1085,-1.6677134168692591
1086,-0.0982549649986529
1087,-0.0982549649986529
1088,-4.124563469649449
1089,-2.5766263918555303
1090,-0.2079239797170928
1091,-4.1697751742821785
1092,2.7877640246267292
1093,-3.2501204655179805
1094,2.788375350860399
1095,-3.780178059374713
1096,-4.8127899278398
1097,-3.322649896010947
1098,-3.0330505658848974
1099,-4.461037869714846
1100,-4.822953275204527
1101,-3.4738685788203005
1102,2.789033937721131
1103,2.78782296576441
1104,-1.9404519336756818
1105,-2.718978746033802
1106,-2.686443828781339
1107,-2.420304712682211
1108,-1.9987227150151785
1109,-3.5895446448168866
1110,-3.284842908128586
1111,-2.728278643678183
1112,-1.630833387835391
1113,-2.531614408423637
1114,-3.2464838903177
1115,-0.8181050263425702
1116,-4.128136235033197
1117,-1.3554198058729467
1118,-0.5960935474929523
1119,-0.9420010332790467
1120,-2.2140077112274215
1121,-2.214371654624202
1122,-2.297677253355434
1123,-1.9845191694374016
1124,-3.2495172841932582
1125,-0.5875887210377034
1126,-3.164280886560744
1127,-1.3560948736720249
1128,0.0
1129,-3.280910357733655
1130,-3.275732430767659
1131,-3.2375647036767012
1132,-3.5863532420054622
1133,-3.092305572050586
1134,-2.478444996763183
1135,-3.3239976770726445
1136,-1.819571047098221
1137,-0.978416141736617
1138,-3.2187451333897052
1139,-3.2305601574788123
1140,-1.2639746636183253
1141,-1.778844516034926
1142,-2.3850677001772427
1143,-1.809732406391205
1144,-2.2818804017255503
1145,-2.1128671376913504
1146,-1.5450826253457963
1147,-3.07420934032252
1148,0.6665206799857234
1149,-2.303195851976982
1150,-1.9952120741924328
1151,-0.21818148943857582
1152,-2.1487864770759657
1153,-2.2558864966279764
1154,-2.5541788550192597
1155,-3.063928929118309
1156,-3.343747384447879
1157,-2.0866159666710984
1158,-3.3200956667762447
1159,-2.383215096761494
1160,-2.6169790666915653
1161,-3.511480924715645
1162,-2.0598087080591108
1163,-3.6295170316875813
1164,-1.559026042331993
1165,-2.3579933384276526
1166,-2.259220442255807
1167,-3.310796180733483
1168,-2.4024501356607546
1169,-3.207099910827206
1170,-1.6990234048845607
1171,-3.342606395887165
1172,-3.5480072606376236
1173,-3.3239803487804833
1174,-2.7492618200577548
1175,-3.1898960389226154
1176,-3.037218335240772
1177,-2.0801280516612395
1178,-3.323568420198103
1179,-3.146110311778474
1180,-2.5179625192289676
1181,-3.034094106610785
1182,-2.903636236519239
1183,-2.516651444034307
1184,-1.2639746636183253
1185,-2.9599144018090833
1186,-0.3574120009255599
1187,0.5678127072977962
1188,-2.3145754533092826
1189,-1.812094398568534
1190,-3.0087189540428296
1191,-3.3259874244847034
1192,-3.3242564738837572
1193,-2.289733728645628
1194,-2.968032652084325
1195,0.09778880488653721
1196,2.7618642397747255
1197,-2.357947458075737
1198,-1.8138886420524183
1199,-2.4274650069457637
1200,3.0792205640385393
1201,2.789459827448985
1202,-1.6626775457524579
1203,-2.9333002587832797
1204,-3.054165291195148
1205,-2.3404225364793128
1206,-2.417044576018374
1207,-1.567935682179842
1208,-2.19658459186161
1209,-2.2806685880971918
1210,-3.5216825045683318
1211,-3.3567747422183816
1212,-3.2791810487402357
1213,-3.0550334447379823
1214,-2.3125594257182476
1215,-2.806027712866732
1216,-3.325483427777961
1217,-3.359167734027956
1218,-3.0924569362144982
1219,-3.299209855679075
1220,-3.1655519012000672
1221,-3.638424861977504
1222,-3.322680340159884
1223,-1.8476903872965085
1224,-2.0801280516612395
1225,-3.3234057349858697
1226,-3.3239065230226497
1227,-1.954189307524488
1228,-1.809732406391205
1229,-2.187896145655506
1230,-3.058423640288633
1231,-2.176801834200522
1232,-3.032327808516857
1233,-3.820695223062712
1234,-0.8578469840131647
1235,-3.435946482476018
1236,-2.851813319138084
1237,-2.8237829197022215
1238,-2.059772813478065
1239,-2.0915326629403075
1240,-1.744211864354292
1241,-2.8572728339586853
1242,-3.1987284155200113
1243,-2.3625632073172316
1244,-3.3239659358113185
1245,-3.0286087194602898
1246,-2.171411101867249
1247,-2.812197778951507
1248,-3.6246386460257933
1249,-3.0419704753151406
1250,-3.2608100913497795
1251,0.0
1252,0.616243674923543
1253,-2.1254966697912656
1254,2.7898870162354754
1255,-3.3246184741988682
1256,-0.2087553739806539
1257,-3.4050727883563665
1258,-2.99949691277756
1259,-3.322745896417653
1260,-2.042662646655242
1261,-2.3956554283741096
1262,-0.6430091701159916
1263,-3.04915429184484
1264,-3.395503586235602
1265,-2.6713395021953494
1266,-3.0303297356871695
1267,-2.2502862673920445
1268,-3.1957944645801057
1269,-3.2470694943220093
1270,-3.8190717687006646
1271,-3.8190717687006646
1272,-3.3243409049573054
1273,-3.3238795725896675
1274,2.788340982437365
1275,-2.3685202806651384
1276,-2.653463116110474
1277,-2.3019815898207425
1278,-3.3243401095604543
1279,-3.3242169713860674
1280,-2.241887428558203
1281,-0.9109873575315399
1282,-3.1030317639292075
1283,-2.935469068859812
1284,-2.589750422581647
1285,-2.6297764024614065
1286,-2.1405013672002897
1287,-3.078939157214174
1288,-3.402315116010184
1289,-3.0865568989680447
1290,-1.4466911722348477
1291,-3.0005535359581184
1292,-2.8845717511910536
1293,-2.9113362516508294
1294,-1.9841327456556526
1295,-3.361537462922772
1296,-2.4830399293571275
1297,-3.3238052821600985
1298,-2.956784093277355
1299,-4.128136235033197
1300,0.0234379710893929
1301,-3.3700435521676866
1302,-3.099023651855762
1303,-2.836789182915221
1304,-3.3248227426878088
1305,2.7889725241871695
1306,0.5958625167850267
1307,-3.3163406569189493
1308,-2.6636994360781596
1309,-2.14825145222641
1310,-2.4785889200251403
1311,-1.4067705692271044
1312,-1.2364389708814345
1313,-3.3225500718333016
1314,-0.7050065509685008
1315,-2.7058147786253053
1316,-2.94582018675143
1317,-2.6208462695672705
1318,-3.323160730889116
1319,-2.7385645452593246
1320,1.9478935422533228
1321,-2.2305325493597654
1322,-3.324451344238016
1323,-3.3239954275420516
1324,0.5381812746929538
1325,-3.101677068465712
1326,-3.3246531155642707
1327,-3.3231454867128614
1328,-3.3568445106161726
1329,-3.0188901706971443
1330,-3.1158967962919752
1331,-1.8115711333153273
1332,-3.3235492549851045
1333,-3.0704260837140995
1334,-2.7904829403459934
1335,-2.8346906470101283
1336,-2.4151597118774397
1337,-3.1343884825187946
1338,-3.3240441875313693
1339,-3.0467888509450867
1340,-2.584913762579859
1341,-2.7528036942512824
1342,-2.0460829152765103
1343,2.7880122415685364
1344,-2.249180223111391
1345,-2.1162397483462323
1346,-3.3618641833981084
1347,-2.259643634174239
1348,-3.3312704762170298
1349,-3.3250356287061833
1350,-3.1920749643173396
1351,1.8654542580428923
1352,-3.021303295056618
1353,-0.1369549455252275
1354,-1.7216240956309277
1355,-3.0682098082132248
1356,-3.32491613690716
1357,-2.1493916247560296
1358,-2.8736440886180428
1359,-3.121516943209548
1360,-3.289886407880137
1361,-0.4929513586495215
1362,-3.060415003086979
1363,-1.8469511450964848
1364,-2.669926136336928
1365,-3.324032097996701
1366,-3.1030317639292075
1367,-2.5382817408068132
1368,-1.1906876333289187
1369,-1.8310196225255138
1370,-2.716264905120368
1371,-3.0797693100964376
1372,-2.746776163822157
1373,-3.3235756865558
1374,-2.636781913544099
1375,-3.686154105506062
1376,-2.5914324915452642
1377,-3.122143672851199
1378,-2.5414847802008884
1379,-2.732235370436539
1380,-3.1255155474917413
1381,-3.005231448315251
1382,-3.2071676421535598
1383,-1.3900042343503825
1384,-1.2196297870501336
1385,-2.897204609798117
1386,-3.3914560349934204
1387,-3.219835426129193
1388,-2.9266859087745543
1389,2.790207316177669
1390,-2.5885114290294178
1391,-2.5379350808031034
1392,2.78920190240503
1393,-2.558249057214708
1394,-0.3777204717048047
1395,-3.280618156057126
1396,1.4227759440451335
1397,-3.4111633040009197
1398,-2.249059339249949
1399,-3.0596358014428273
1400,-2.3107646481888438
1401,-2.370986078039154
1402,-2.540183259694917
1403,2.7897801422754562
1404,-2.9529502656026536
1405,-3.440343997213413
1406,-3.324001094911749
1407,-3.332779454928395
1408,-1.943044767968776
1409,-1.8975322633200498
1410,-2.852895574984001
1411,-3.323393505244502
1412,-2.6340313401228665
1413,-3.325345359652267
1414,-0.6440528384829894
1415,-0.740613222898179
1416,-2.342272641053092
1417,-2.4651101077653097
1418,-3.322690650582088
1419,-2.7002340399644416
1420,-0.8574868298329837
1421,-1.9216635446522552
1422,-1.6238731672062534
1423,-1.984982967413873
1424,-3.3228012929556643
1425,-1.8020101498931662
1426,-2.240292384784974
1427,-3.161671620738883
1428,-2.7349360013006576
1429,-3.2060821797868977
1430,-2.7487746027973516
1431,-2.670197733313408
1432,-2.6296563464616143
1433,-3.104937652741484
1434,-1.6910740972187308
1435,-3.5445244790762267
1436,1.8269204537868
1437,-2.0469180227743884
1438,-2.477046797342743
1439,-2.4990355265920283
1440,-1.4419218911696747
1441,-3.3549115391536874
1442,-2.8813010512463544
1443,-2.0040994814127466
1444,-2.2164108767790602
1445,-1.0661454306654383
1446,-2.545058792109972
1447,-2.9974051820294596
1448,-1.7284540358907976
1449,-1.4131922456781412
1450,-2.3585009794480296
1451,-2.4935474724280837
1452,-3.001678977808259
1453,-2.746829433290352
1454,-2.3924775098024154
1455,-2.199299801305116
1456,-2.8368680332721277
1457,-2.1403665054968437
1458,-2.9884150691650073
1459,-3.295302842046884
1460,-3.323553814334975
1461,-3.324015670998663
1462,-2.964289327120595
1463,-2.1943863831889456
1464,-3.1872344263167434
1465,2.7888725262027556
1466,-2.433048810907589
1467,-2.2309295914827407
1468,-3.5711207649289154
1469,-2.289034143282209
1470,-2.2596613749122856
1471,-1.2285480230427852
1472,-1.9357320182704552
1473,-2.0988233313914124
1474,-1.1295024217271867
1475,-3.2024375795291493
1476,-2.14605998969247
1477,-2.4449662157665584
1478,-1.7637316650667396
1479,-2.446792455345944
1480,-2.7130993709215487
1481,-3.323646547680297
1482,-3.158671040203469
1483,-3.1565846536103996
1484,-3.419750006009966
1485,-3.3240467250441905
1486,-2.7897730419989974
1487,-3.0197809122492303
1488,-2.901590019579656
1489,-2.981234605885046
1490,1.5975309152058634
1491,-3.0336289252719415
1492,-3.4023186326661254
1493,-2.6247583814395825
1494,-2.9129050539806203
1495,-2.8180796398882295
1496,-2.3018979936468114
1497,-1.7833025785713181
1498,-4.147117888640288
1499,-3.9261658923098706
1500,-2.416063480088933
1501,-2.5973139591676717
1502,-2.5187281059751427
1503,-2.7655973100694786
1504,-2.9091042830513576
1505,-3.3384471941163194
1506,-3.798754207653776
1507,-2.8285497027673836
1508,-3.2541269618298214
1509,-2.5256015233644034
1510,-3.4487581812453487
1511,-1.2692368780213736
1512,-3.2072802633326813
1513,-2.5591557917751127
1514,-3.3236654217428563
1515,-3.3237347280084366
1516,0.3614348034133765
1517,-3.3242631982946693
1518,-3.094186581925694
1519,-1.2654756436340184
1520,-3.511480924715645
1521,-3.3239260770656975
1522,-3.3243409049573054
1523,-2.217403778619188
1524,-2.948632458052498
1525,-2.5602203146821787
1526,-2.787999162064489
1527,-3.4819720665019913
1528,-1.821459081136517
1529,-3.1038664104966545
1530,-1.9480798881587678
1531,-3.2806677156880477
1532,-2.7170387197760677
1533,-2.389571676210312
1534,-2.6780029422984963
1535,-3.3237041776805416
1536,-3.333260199224362
1537,-2.1627491511497086
1538,-2.296065580419863
1539,-1.7353685177391134
1540,-3.3239414210893563
1541,-0.9508527972651324
1542,-1.912238625667684
1543,-2.7135120543213342
1544,-2.9659022055496
1545,-1.5381376520913717
1546,-2.9170131349029433
1547,-2.6473636457246315
1548,-3.0796829675185142
1549,-2.5198159791873964
1550,-2.7863394154250583
1551,-2.726409110935328
1552,-3.0475126637062977
1553,-3.1793675223434867
1554,-2.668476725849032
1555,-1.5040134114413661
1556,-2.998413395696264
1557,-2.9604770493218218
1558,-3.3241995538164457
1559,-2.253296289231144
1560,-3.725860948007167
1561,-2.46440098420245
1562,-3.549978368919939
1563,-1.2184377782064273
1564,-3.366574396993356
1565,-2.1641053903642593
1566,-2.632698031907933
1567,-0.15378817933735126
1568,-3.3198442289122227
1569,-1.3586863521903532
1570,-2.279777112637402
1571,-1.3613619922118738
1572,0.21651660328633723
1573,-3.103279872486405
1574,-2.924082533959033
1575,-3.323969409233435
1576,-3.3247193905139563
1577,-3.6073879982082557
1578,-3.266828927945513
1579,-4.517685018864365
1580,-0.5829751736323795
1581,-0.7016294559694145
1582,-2.558249057214708
1583,-4.237696996959938
1584,-3.3393403780704882
1585,-3.3148282511237763
1586,-3.9507541822627896
1587,-4.3356732703619585
1588,-3.490187018976749
1589,-2.2934930767768593
1590,-4.0103260438735555
1591,-3.6481246026793968
1592,-2.996181706625607
1593,-2.5682729068587085
1594,2.789049948928083
1595,-2.285776677382297
1596,-1.4612174411575019
1597,-3.401955620597626
1598,-3.3600922737654586
1599,-3.093481304792657
1600,-3.3256738860536466
1601,-0.27555712618920325
1602,-3.372324336998391
1603,-2.9206012604226497
1604,-2.981599700160413
1605,-3.276537336658476
1606,-3.135270499515983
1607,-3.322977873183564
1608,-3.563843767649924
1609,-2.247127523699321
1610,-1.7136156591205203
1611,-2.728480779507397
1612,-1.8931792796747962
1613,-2.2329341775638576
1614,-3.535997928222938
1615,-3.0740014355395178
1616,-2.287018890446471
1617,-3.5218592651457525
1618,-1.7614353282129014
1619,-3.0141579603645323
1620,-3.056947019803579
1621,-3.3399843619287037
1622,-2.251272787567046
1623,-1.5967577110412103
1624,-3.271325967267897
1625,-2.4610537157886223
1626,-3.324015670998663
1627,-3.324946052975238
1628,-2.2984554010072884
1629,-3.3240579126632204
1630,-2.289034143282209
1631,-3.325533684206727
1632,-2.75031096704886
1633,-3.324036412513213
1634,-3.121650801866052
1635,-3.281965909511595
1636,-2.2490201378279315
1637,-2.4885521295637987
1638,-2.7303043915520555
1639,-3.2179186444920758
1640,-3.1442423931198533
1641,-2.809896596924486
1642,-2.8556377417301033
1643,-3.323994978461643
1644,-2.308022234562302
1645,-2.8399915331574856
1646,-3.2806081350752314
1647,-2.7250149765035423
1648,-2.0094865777334565
1649,-1.1871476927735403
1650,-3.322878914077807
1651,-2.252523306042979
1652,-1.7058668516867574
1653,-3.141287429251603
1654,-3.3237457244709248
1655,-2.564258570302073
1656,-1.9281513987001198
1657,-2.413294796656089
1658,-2.3382401293243547
1659,-3.3233077634490407
1660,-2.968291976954036
1661,-3.324660920289634
1662,-3.3240627001060545
1663,-0.18841633499372612
1664,-2.7539948763267885
1665,-2.364723497419182
1666,-3.0519867858046354
1667,-3.3253114048986174
1668,-3.324110349086131
1669,-3.6814286444601687
1670,-3.3259190382877626
1671,-2.548578861979031
1672,-4.058352205172935
1673,-4.052733045812665
1674,-2.2100859266106148
1675,-3.3229495476590496
1676,-2.767341772261479
1677,-3.7132035099908514
1678,-3.895669929466394
1679,-4.301811923899716
1680,-2.9572447958317367
1681,-3.1830907159992083
1682,-3.3740716380520572
1683,-3.0858842559832467
1684,-3.3238053795930487
1685,-2.7405309263639333
1686,-3.32323402635234
1687,-3.526052616535796
1688,-1.0985440018300954
1689,-2.738948280513154
1690,-5.125851949573328
1691,-2.7655973100694786
1692,2.7892635729656696
1693,-2.8215418673386643
1694,-2.2228467225756305
1695,-2.9299590078268647
1696,-2.142120273564288
1697,-2.9828665801409042
1698,-3.656202790228654
1699,-2.833793099792286
1700,-3.3249710417138227
1701,-2.267496886106944
1702,-1.580988808778315
1703,-3.3224514196816193
1704,-2.158582889559955
1705,-3.271963438948134
1706,-2.1327314426223136
1707,-3.0414308067231635
1708,-3.1247714818065226
1709,-2.84706063858296
1710,-1.868649756579433
1711,-2.824857955572872
1712,-3.670454743839099
1713,-3.0254598594733872
1714,-3.3238876930853714
1715,-1.1934184732758857
1716,-3.1188749043608084
1717,-2.574375798182689
1718,-2.9743016048867834
1719,-3.0988721488782267
1720,-2.47472054898851
1721,-4.0679489224167735
1722,-3.3236730705821524
1723,-3.324191613178473
1724,-3.4327853845594976
1725,-2.4893936079123415
1726,-2.8189252381888115
1727,-3.2809191133492916
1728,-2.7840650877200273
1729,-2.951205185498475
1730,-3.6284124534342572
1731,-2.776605394291098
1732,-4.246764587569471
1733,-3.0888883713918456
1734,-3.2657248388220115
1735,-3.110743405375437
1736,-3.445179669288618
1737,-3.3456369511234514
1738,-3.270088862842493
1739,-3.4277689888521667
1740,-3.324800985311971
1741,-3.325483427777961
1742,-3.9903674277457184
1743,0.0
1744,0.2796720604588061
1745,-0.6039199794757422
1746,-2.952091765355786
1747,-2.995532848628288
1748,-3.3232694627636676
1749,-2.207804435839401
1750,-2.5382817408068132
1751,-3.4047848746957015
1752,-3.63006546677071
1753,-0.5370576948823473
1754,-3.4152888048086316
1755,-2.948447297362221
1756,-3.3253095068046363
1757,-1.9818175517640257
1758,-3.3277793156726583
1759,-2.9385915437351198
1760,-3.5320106657207155
1761,-2.0105657190844193
1762,-1.4965271487667102
1763,-2.0469180227743884
1764,-3.323943452392374
1765,2.7905251920878866
1766,-3.362690860499688
1767,2.78977771344959
1768,-2.2842380824371746
1769,-1.481076236857918
1770,-3.1046049287846924
1771,-3.4562642130450425
1772,3.0792205640385393
1773,-1.5250409226061503
1774,-4.029193970140981
1775,0.9082476785809858
1776,-2.7133420460360846
1777,-3.642426700287243
1778,-3.3567747422183816
1779,-3.5017815786469404
1780,-1.511933992120684
1781,-3.9903674277457184
1782,-2.943832714926993
1783,-2.2196123577439373
1784,2.789354437961734
1785,-1.7184234734343706
1786,-2.956184639770607
1787,-2.413653815941981
1788,-3.3420592897259107
1789,-2.957892314152122
1790,-3.3247193905139563
1791,-3.5879120825996114
1792,-3.507409732199386
1793,-3.33771821101739
1794,-3.325345359652267
1795,-2.9564837949932685
1796,-2.168629092800156
1797,-1.1008178081851425
1798,-3.2723957404280917
1799,2.081695744552237
1800,-1.5776856111359132
1801,-3.060359158134661
1802,-2.805818523133057
1803,-1.5759322427908609
1804,1.2079834766879465
1805,2.788995403878859
1806,-3.642872681830868
1807,-3.640228392705919
1808,-4.375052684754979
1809,-3.3230854631529807
1810,-2.84706063858296
1811,-1.3221509673169796
1812,-3.075134214002566
1813,-1.8151934960808498
1814,-3.3241707535809346
1815,-5.693295088135476
1816,-3.3240117612012092
1817,-4.461037869714846
1818,-3.3239466495790784
1819,-3.520624387249869
1820,2.7889743274115966
1821,-2.6561845105292456
1822,-1.097272332982973
1823,-0.03274443347962465
1824,-3.3240243569893275
1825,-0.5660263941240584
1826,-0.5660263941240584
1827,-4.3088285959033925
1828,-3.644454050169626
1829,2.7881548857538845
1830,-2.28680943617091
1831,-2.8120248644447385
1832,2.938723574650573
1833,-2.4610537157886223
1834,-3.090268818173109
1835,-3.2328517764654747
1836,-4.031590958037041
1837,-2.252123642860028
1838,-3.3234526039404124
1839,1.5882365788970003
1840,-2.471798611689689
1841,-3.1410376399355147
1842,-3.1192468051163726
1843,-3.358621972248321
1844,-3.7305168083711404
1845,-3.324002993564787
1846,-2.5670638471275846
1847,-1.7180745622789573
1848,-2.4061840661112632
1849,-3.272802588092669
1850,-3.358558991255571
1851,-1.1107180919930622
1852,-3.0061907744272345
1853,-3.324620286176885
1854,-3.403115420345739
1855,-3.383988748205892
1856,2.7891822412697165
1857,-1.3550299147333018
1858,-3.3634386557365494
1859,-3.4307315613759988
1860,-2.94143220052553
1861,-3.054603176536874
1862,-2.2568948765905765
1863,-2.0100047896298134
1864,-3.3245722152248827
1865,4.139952454189066
1866,-1.7284540358907976
1867,-3.5256900934381177
1868,-0.8210834202989938
1869,-3.3231454867128614
1870,2.789537432106749
1871,-3.3244333420981445
1872,-0.3542558854359793
1873,-2.7218503480981333
1874,-4.111791998289244
1875,-3.5092116748668003
1876,-2.6928045829127445
1877,-2.199310380453823
1878,-2.726750868127585
1879,-2.285094903939841
1880,-3.3244593174567143
1881,-2.359381863613214
1882,-4.070206026838793
1883,-2.699861213079974
1884,-3.7998650595872445
1885,-2.759858501316848
1886,-2.675979471144928
1887,-3.403998385472289
1888,-3.3652672228170144
1889,-4.875030562445913
1890,-0.22925879415685121
1891,-3.92901161586188
1892,-2.6992700710413975
1893,-3.9327569433167375
1894,-2.342172930868084
1895,-3.578817414088814
1896,-3.323178419143609
1897,2.789120137790917
1898,-4.292272692985266
1899,-2.28680943617091
1900,0.3276435485169779
1901,-3.5125316171234426
1902,-0.30946956399503084
1903,-1.3821461203750043
1904,-0.037544219531450304
1905,2.1427276979941934
1906,-3.2501204655179805
1907,-3.0544239384507756
1908,-1.5723131789461824
1909,-3.324076231207182
1910,2.7903638517765503
1911,-3.323214920466387
1912,2.7888492865577086
1913,2.7889093652266843
1914,-3.323832278635867
1915,-3.2922516579426175
1916,-2.726750868127585
1917,-2.909164383481486
1918,-2.282036092788318
1919,-1.3221509673169796
1920,-2.952091765355786
1921,-4.01911055732923
1922,-3.506191861158059
1923,-2.755390503256231
1924,-3.3707171345823475
1925,-3.694167612339206
1926,-3.323774042656861
1927,-4.3356732703619585
1928,-2.1059526983391
1929,-3.5200763398491115
1930,-3.7378967311027
1931,-3.324491844424334
1932,-4.4106737415531
1933,-3.7634727812753956
1934,-3.3237616016945135
1935,1.2880853382777226
1936,2.79044321495953
1937,-3.32488319987365
1938,-2.6596452690348746
1939,-3.3224621246073727
1940,-3.3244253905945365
1941,-1.6775381897154937
1942,-1.7908208078918468
1943,-4.006733259162085
1944,-4.276423488980351
1945,-3.5551379320744068
1946,-3.3756613855142588
1947,-3.323872912110078
1948,-2.3691891802653875
1949,-3.323636527655855
1950,-2.6564782779682217
1951,-3.3247001713120055
1952,-0.5450898430302317
1953,-3.9346776084470405
1954,-3.6180259654380382
1955,-3.9226543186546396
1956,-3.7003612851326797
1957,-3.3242302281903053
1958,-3.323865492710491
1959,-3.4287136743209703
1960,-4.26578217039542
1961,-3.5797576306277534
1962,-3.856427359552942
1963,-3.709989013541628
1964,-2.468215720980985
1965,-3.325186920624743
1966,-3.636398009243756
1967,-3.3345838312273948
1968,-2.726055855593827
1969,-3.324164585448474
1970,-3.424420745964595
1971,-3.8389432343129792
1972,-3.991258204029361
1973,-3.027518994762356
1974,-2.3860303988942406
1975,-3.7036300821603287
1976,-3.9903391358049154
1977,-3.3105348206736798
1978,-0.6926096896748034
1979,-3.847127299590442
1980,-2.903438877012727
1981,-3.2114511062394238
1982,-3.1299407286958054
1983,-2.3842969237012483
1984,-3.0368584515454025
1985,-3.701452863648785
1986,0.3874044930456213
1987,2.789836030446577
1988,1.9811506379981216
1989,2.7882891871888047
1990,-2.4024501356607546
1991,-1.630833387835391
1992,-2.974266725875063
1993,-2.747186562153024
1994,-3.542253712017368
1995,-2.7793759805290392
1996,-3.1764277495353332
1997,-1.7319600461308522
1998,-2.965957784674642
1999,1.1474558170357587
2000,-3.3827481699539392
