Id,Predicted
1,-2.4608769408702273
2,-1.356576789951208
3,-2.7226594540671067
4,-2.740113492511905
5,-1.2628433711211688
6,-3.6917716278929515
7,-3.5816648564369733
8,-2.8783207258153665
9,-2.1310128965657964
10,-3.527153737105064
11,-3.212547851740678
12,-0.20549161847704236
13,0.4601976113535328
14,-2.92610138920391
15,-4.165557138044047
16,-3.2696949091916903
17,-2.698029962388964
18,-2.392293684919664
19,-2.3435089905387447
20,-1.8633478477008525
21,-3.1805922599536327
22,-3.1033506255224808
23,-1.0674652730053662
24,-2.5254740560371713
25,-2.842106092406142
26,-3.762566855766359
27,-2.1886649090219024
28,-1.5396366996763282
29,-2.9864547669147594
30,-2.5186441847017536
31,-2.4625574588305508
32,-3.527153737105064
33,-3.4048671536930377
34,-2.921681532529474
35,-2.9585913777776454
36,-2.0045489941154377
37,-3.4961821654109397
38,-3.5077092749745753
39,-0.7981062118056523
40,-3.113134692257985
41,-3.4048671536930377
42,-1.8861530078308373
43,-3.425561833105538
44,-3.4188450434149833
45,-3.6917716278929515
46,-3.4894486048591804
47,-1.5146927817939797
48,-2.6422348469835266
49,2.8738439109244225
50,-3.0300601884039966
51,-3.2696949091916903
52,-3.7328388990990886
53,-2.9679524727878817
54,-0.8892130405683129
55,-3.465400822477189
56,0.04942122394030526
57,-2.4625574588305508
58,-3.4495078436808724
59,-3.4048671536930377
60,-1.2095741409512304
61,-3.5045303953727878
62,-2.5840320926935205
63,-2.718091100188877
64,-4.0945114070883655
65,-2.4712545707940397
66,-1.7241617847547668
67,-2.9405978844218725
68,-0.7776212784246904
69,-3.5844665905039608
70,-2.0333783754348436
71,-4.163553202350576
72,-3.4141379103150635
73,-3.0295131491308362
74,-2.5840320926935205
75,-1.9976180175277278
76,-1.842210729370191
77,-1.4090139755787556
78,-2.4281615117885993
79,-3.440219445149529
80,-1.1826841757231223
81,-3.4457330773198236
82,0.8225843085427427
83,-2.152356387448583
84,-3.6013169816092145
85,-2.074942395595043
86,-2.24341735495846
87,-1.8633478477008525
88,1.4630786699158662
89,-2.5425587908831653
90,-3.470663300078692
91,-1.7040569256406488
92,-1.356812347042432
93,-1.325683456553915
94,-3.708816155326621
95,-3.3033577359273503
96,-1.3854818198643923
97,-3.5745208710923153
98,-3.681805593987955
99,-3.008023741219556
100,-3.478902049069762
101,-3.5069807077468473
102,-1.7941511411446722
103,-2.8967460478767517
104,-3.2933867711189166
105,-1.955824710574689
106,-3.456584094213621
107,-3.2059978831766056
108,-0.5276878275178871
109,-2.7601130451141884
110,-0.21263356434147437
111,-3.7738442040826126
112,-1.8238632410235418
113,-2.9712283624237124
114,-3.397562606901909
115,-2.00406063819116
116,-2.7221279362743007
117,-3.4949806677580257
118,-1.8674710344820311
119,-2.5361122824347855
120,-1.9584900778308556
121,-1.3854818198643923
122,-3.977585464615244
123,-3.7708067031621555
124,-3.351439376758329
125,-2.921681532529474
126,-1.9809026299297388
127,-4.025974596354974
128,-3.0615358174862237
129,-3.470663300078692
130,-1.6481706171826227
131,-2.1310128965657964
132,-2.7706611867496838
133,-3.28619473821953
134,-3.2284297437378724
135,-2.7591121137192425
136,-1.5472710888351782
137,-3.224917674777243
138,-3.207756338612932
139,-3.006589639052573
140,2.3445865194907753
141,-2.343925579169333
142,-3.242892408891043
143,-3.7738442040826126
144,2.1254169798813165
145,-2.299659390937561
146,-3.8838701617217484
147,-3.2184426150085215
148,-2.47322290355101
149,-2.03838272588685
150,1.743058063691311
151,-2.108419556904574
152,-2.9448302168951717
153,-2.5657142809735434
154,-2.314954103139163
155,-3.2101148277622378
156,-1.3661932376182366
157,1.3500594182217611
158,-3.4457330773198236
159,-3.3807185675696685
160,-3.478902049069762
161,-3.6017967913046665
162,-2.3994026413951914
163,-2.7065821107529455
164,-2.493859243241207
165,-2.7017641357223914
166,-1.604289154993749
167,-2.7560103836473115
168,-1.6722622388778408
169,-3.0072411601751132
170,-3.2276040285744694
171,0.03724213199637936
172,-3.200183582987922
173,-2.6442678861286515
174,-1.962651559102232
175,1.3974497103453285
176,-1.8317619149161675
177,-2.3245533224149737
178,-2.3245533224149737
179,-2.051409367251296
180,-1.3854818198643923
181,-1.881268993973075
182,-3.4015912606542145
183,-0.6571441903669106
184,-0.8716523893901199
185,-3.2198406920434164
186,-1.6702758162985873
187,-4.002707662683786
188,-2.654695808325517
189,-0.12980262205939738
190,-1.9957372915227312
191,-2.541278853735876
192,-0.4879348530814703
193,-2.074942395595043
194,-2.817633407785924
195,-3.7955207512807636
196,-3.582132865620449
197,-2.0744058347178926
198,-2.6908474122679897
199,-3.4602393759932695
200,-0.6855958665349565
201,-3.4487664523654478
202,-3.7463784901613097
203,-3.2468461684284553
204,-2.949185853345354
205,-3.186084092633171
206,-2.776780852247613
207,-1.9023589672282055
208,0.19541993424117546
209,-3.4608569571684074
210,-3.6627697485848514
211,-1.6029803681847832
212,-1.4420024327398642
213,-0.8536167192788956
214,-1.5610832568382764
215,-3.184916433658467
216,-3.008023741219556
217,-2.4471227204017074
218,-3.821894611987495
219,-2.4134218816561837
220,-1.8652372035620546
221,1.533078225112165
222,-3.970249366896492
223,-2.842008762376079
224,-3.216873176801078
225,-2.6271831571125155
226,-3.567296055071157
227,-2.420414454452904
228,-2.5119674571767017
229,-1.7486142547794072
230,-2.1983787836798165
231,-2.5361122824347855
232,-3.5044766789222757
233,-3.5382318334935925
234,-3.5382318334935925
235,-3.2050678673663153
236,-3.308089436547969
237,-3.549603077746153
238,0.603719264107639
239,-2.4845432205234474
240,-1.5035238413828669
241,-2.469654799589344
242,-2.372830137036943
243,-1.8507536255641572
244,-2.103462320930616
245,-3.0296006875957944
246,-0.7776212784246904
247,-3.5928440176752896
248,3.3590038204998875
249,-0.3589998483065295
250,-2.842209685833352
251,-1.7464825198232228
252,-3.5976451853525515
253,-1.2095741409512304
254,-1.1963902484919038
255,-3.5309995716122287
256,-1.2961587438316935
257,-0.9871259384631825
258,-2.23560025886978
259,-2.979683191697446
260,-2.960535498276531
261,-2.4002010928898
262,-2.9448302168951717
263,-0.7981062118056523
264,-2.25846225080458
265,-3.1733957834060957
266,-2.65807907169064
267,1.533078225112165
268,-3.4867776409608022
269,-1.0864558489715852
270,-3.4455330499072723
271,-3.527153737105064
272,-1.7851182216098116
273,-2.4264780887822446
274,-3.5342284507147106
275,-3.625683557672278
276,-2.1683617888598685
277,-2.7120640305230452
278,0.603719264107639
279,0.603719264107639
280,-2.321218874811166
281,-3.773250732456143
282,-1.9123914293707809
283,-2.352796404051163
284,-1.483883515601058
285,-3.4130147849619425
286,-2.3478987238170648
287,-2.9891032075575588
288,-0.8356805384696624
289,-2.558122905254772
290,-2.171204544640336
291,1.743058063691311
292,-3.174429720417213
293,-2.4541684456141635
294,-1.551760937140688
295,-0.9080911301257084
296,-2.6057770018921906
297,-2.1004396496548474
298,-2.0137970821540025
299,-1.6809162141992504
300,-3.3355270210259276
301,-0.27940450376378484
302,-3.124292211085059
303,-2.326620391067002
304,-1.7906188946758381
305,-1.6125657871042745
306,-2.8101554571453495
307,-1.842210729370191
308,-2.654695808325517
309,-2.2908331523499452
310,-3.3771237854062575
311,-1.2663684247239475
312,0.9323894131072767
313,-2.880050727394834
314,-2.4478816375044907
315,0.37821702219877973
316,-1.6510457201375086
317,-3.604771274098003
318,-2.9757987266168193
319,-2.7591121137192425
320,-4.735040358149991
321,-3.8262929376014934
322,-1.7684931907034565
323,-3.5342284507147106
324,-2.6840747992499927
325,0.25614455946148973
326,-0.790155308569793
327,-3.16748320499752
328,-3.6834433294015696
329,-4.050983829973263
330,-2.135267287163079
331,-3.059274954837693
332,-1.6702758162985873
333,0.2774567588978359
334,-3.1721056501544282
335,-2.418018837435962
336,-1.9915952479016203
337,-1.5610832568382764
338,-2.7266943382658786
339,-2.107891730848187
340,-3.554948036877992
341,-3.363095778457213
342,-1.5356309942715185
343,-0.4879348530814703
344,-2.1483332262982464
345,-3.8049981657976946
346,-1.7317747338136902
347,-2.817633407785924
348,-3.266207537577991
349,-2.8826985185232332
350,-3.034890860641264
351,-1.8114240975240097
352,-3.7463784901613097
353,-2.268525175333756
354,-3.331898799720477
355,-3.1589221871952278
356,-3.830233401882697
357,-3.153710868983989
358,-1.5215739715511167
359,0.369193521273414
360,-4.029363961540767
361,-2.176897119360199
362,-3.3489388871985044
363,-3.4232472820770568
364,-3.57777563393086
365,-3.6917071190363853
366,-1.3735564941563563
367,-1.6831811626411568
368,-4.324369278665223
369,-2.9441357921774873
370,-2.2649372510074284
371,-0.02842472084003748
372,-1.6029803681847832
373,-3.6849460944087027
374,1.977606521405684
375,-4.269223405541352
376,-0.608900808573667
377,0.16310743315911735
378,-4.106812083160596
379,-4.083035203874113
380,-2.0365558674118667
381,-3.3498093301103693
382,-2.3461264390104644
383,-2.7104900104637677
384,-3.1335448116094438
385,-3.0884540858762
386,-3.224917674777243
387,2.97185822277389
388,0.5842681148192678
389,-2.6825109065017885
390,-3.2276040285744694
391,-2.8942601279783973
392,-3.1805493855686375
393,-3.2184426150085215
394,3.3593577980094818
395,-1.4452512700064606
396,0.9323894131072767
397,-0.7671035791059895
398,-2.8872534720789753
399,-2.5119372880380175
400,-0.9158902607342452
401,0.5709557423465285
402,-1.3330610035373303
403,-3.304558861869221
404,-0.6616167657274548
405,-2.842209685833352
406,-2.689853412415984
407,-2.1875419686279924
408,-3.1315772160577535
409,-3.2545139721196676
410,-2.6942609192139413
411,-3.2718318129638115
412,-3.5283765141890484
413,-2.5112512053317313
414,-3.4754403423321336
415,-3.17039525300155
416,-2.7722066139254973
417,-4.6040526881407935
418,-2.3043058580898452
419,-2.01692724470898
420,-3.4792677615369447
421,-3.212403208978014
422,-0.9888507202097467
423,-0.13904998874601862
424,-2.709870712413327
425,-2.965012843698835
426,-1.3661932376182366
427,-2.4340031613942616
428,-1.8299899390988752
429,-3.4040477107143388
430,2.958602073422082
431,-1.7392741132095813
432,-3.5340800160201495
433,-4.117027034535828
434,-2.7176307608951324
435,-2.241206074646278
436,-2.2926699124447847
437,-3.2591265627480057
438,-2.2922610337832676
439,-3.1315772160577535
440,3.3600326926639923
441,-3.0723798216904137
442,-3.3598201859388075
443,-3.3475659896872503
444,-3.5548655020167343
445,-3.42551093771131
446,-3.2811536393956975
447,-0.49945522244269513
448,-2.175044142868114
449,-3.0763753834614582
450,-3.026511140296566
451,-2.364272397777275
452,-0.9205884059453471
453,-1.6125657871042745
454,-3.1148744877383345
455,-3.307441377201247
456,2.067878186496595
457,-2.578970496230054
458,-3.406438142744467
459,-2.551767796112001
460,-2.4478816375044907
461,-2.178588382933046
462,-2.6041540526208404
463,-2.6414408763377137
464,-1.4520861820197157
465,-2.1276185263970326
466,-2.3845314035200933
467,-3.7835441670970535
468,-2.2087972296588854
469,-3.50087146818282
470,-4.394582525033453
471,-1.8202737116620762
472,-3.5952531785630737
473,1.677631702540644
474,3.3595472471865797
475,-3.7297014548075795
476,-3.0550172256119854
477,0.8286393235834862
478,-3.254986776162108
479,-3.470889697890157
480,-1.7316352620732547
481,-2.816723681568259
482,-3.2092140862152516
483,-1.8325248764958346
484,-1.2653875220055397
485,-3.830233401882697
486,-2.2656178034237446
487,-3.0723798216904137
488,-2.9043552078327664
489,-3.6713338232368358
490,3.359630628312577
491,-3.2505452139674573
492,-3.5060863332847068
493,-3.8153898343710058
494,-3.6484193967572804
495,-2.403963321024475
496,-2.8176842385936163
497,-1.6866416202528485
498,-1.5197430707089323
499,-1.5942162728900346
500,-3.6751134230206763
501,-1.1678642790730065
502,-2.1781304332881106
503,-0.15932752995220087
504,-3.0226908741973597
505,-2.0069823232026
506,-2.776780852247613
507,-0.3223644395255165
508,1.1528741461248764
509,-1.9957372915227312
510,-1.900353602995019
511,-0.7649531382526472
512,-3.1949216245316956
513,-2.622575665100551
514,-3.7993158927632766
515,1.4611792652645224
516,-3.7321437626386076
517,-1.628757341691591
518,-2.5329026763800413
519,-3.537537622938245
520,-2.1483332262982464
521,-2.262086311483589
522,-3.286261386863756
523,2.1254169798813165
524,-2.7291575073684498
525,-1.9288912275938317
526,-1.974599994002812
527,-3.830233401882697
528,-3.3406328011385424
529,-3.453619088016547
530,-3.285666812386532
531,-3.1666463837122234
532,-3.7624150332637645
533,-0.8602973592459828
534,-2.8222596690163475
535,-3.34099802171404
536,-2.4127683673669056
537,-2.0420815763489912
538,-2.265113853192473
539,-2.243951875221319
540,-1.8614887088242236
541,-2.3228646114213487
542,-2.3022397248534228
543,-3.511600173041435
544,-3.2867803253509376
545,-3.0323244206739526
546,-0.6421587917269602
547,-3.4112859528067996
548,-2.483868943169604
549,-2.0370999611162026
550,-2.37170148667933
551,-1.8343991410784806
552,-3.4232472820770568
553,1.1535089236201683
554,-2.655308796718541
555,-3.393018994232203
556,-3.5069807077468473
557,-2.3994026413951914
558,-1.577438008963402
559,-3.7811947217914548
560,-0.519101326005778
561,-3.16748320499752
562,-2.0471944865241194
563,0.5881367067485094
564,-2.2063194829563457
565,-1.7930799091947047
566,-0.26679660605191
567,-1.4593669574232058
568,-3.151636847454163
569,-3.1666463837122234
570,-3.371548487985288
571,-3.8153898343710058
572,-3.4837041869875573
573,-2.8885890040119184
574,-0.6468403431563386
575,-2.8495141696510347
576,-1.9915952479016203
577,3.0204904543044813
578,-3.3627888622869424
579,1.6820168619562703
580,-2.9585242773408265
581,0.9826121357298889
582,-1.9544429157914416
583,3.3583716133601835
584,-4.01940349985426
585,-1.8343991410784806
586,3.3593342802315296
587,-0.519101326005778
588,-2.9059747194466063
589,-3.2854953610794637
590,-4.149617814355008
591,-1.7922286099495996
592,-2.675677144919407
593,-3.401052610733689
594,-2.745751619727848
595,-1.11775302041114
596,1.7068847067804875
597,-2.731373861329903
598,-3.4153777001052004
599,-1.3948534081022428
600,-3.4344489395585063
601,2.444477843113593
602,2.088274896995396
603,-3.5506474280068923
604,-3.5019259477660363
605,-1.141859647168126
606,1.3650312457712162
607,-1.7444839650047113
608,-1.9170626957085595
609,-1.5936433859438506
610,-3.7040436304225195
611,-2.231221382572335
612,-2.3307129329341225
613,-1.3449572854020808
614,-4.348852461583684
615,-3.005954969554182
616,-3.768154397282697
617,-2.274391878546154
618,-3.153710868983989
619,-1.011427491125397
620,-1.730716329954704
621,-2.328451844337268
622,0.07334927869535988
623,-2.6414408763377137
624,-3.61310363363033
625,-3.625683557672278
626,-3.284313947009089
627,-2.3506307959489505
628,-0.8693689069819605
629,-3.837288603238632
630,-2.268525175333756
631,-1.900353602995019
632,-3.2871040482834806
633,-3.8134841816562486
634,0.7434175677699646
635,-0.8854793755054515
636,-3.830233401882697
637,-3.92908151718759
638,-2.7286787847078258
639,-1.3969475186832567
640,-1.5215739715511167
641,-3.2607580571345465
642,-3.474074135696533
643,-3.3443986352967454
644,-3.3140797925818615
645,-4.551844563499806
646,-2.934427713661678
647,3.379255032406554
648,-3.4521226272021828
649,-3.059274954837693
650,-2.3461264390104644
651,-2.6552158705779596
652,-2.0843533634991607
653,-2.205941115650388
654,-4.070030461734096
655,-4.106812083160596
656,-3.201087085022342
657,-3.0180067216427684
658,-0.818560226193508
659,-1.495135835200574
660,-3.056861561603836
661,-3.761347968839663
662,-2.9448347316254155
663,3.3601454171828338
664,-4.327526825158585
665,-2.6772543206326755
666,-3.2142188085607772
667,-2.719511155675043
668,-3.1415064870869274
669,-1.6099577719438751
670,-1.7328224488799135
671,-1.8898648905187097
672,-0.12831992489565225
673,3.358962282149565
674,-3.100355390031568
675,-4.426330342949267
676,-3.445399141395273
677,-1.6579788482683993
678,-3.2868169343207887
679,-3.2600884979173848
680,-1.1605956091916232
681,-3.457216640558588
682,-3.5548655020167343
683,1.0093371431091567
684,-2.5628288070477976
685,-3.4706916554977068
686,-1.2909579988368032
687,-0.6514649504953944
688,-2.562258107859013
689,2.067878186496595
690,-2.024873347892052
691,2.958602073422082
692,-1.888230685805405
693,-2.3980685960536965
694,1.5027996266906136
695,-3.254986776162108
696,0.6033509630784554
697,-0.49333613045736974
698,-1.631185704754759
699,-2.040208208817447
700,-2.983253184734657
701,-2.2979525294362304
702,-3.4984455375113988
703,-3.056987257495173
704,-3.1824182012320104
705,-2.709244592142031
706,-2.1153669651656166
707,-2.593572711888439
708,0.2557408523873248
709,-2.8503388975280424
710,-2.418018837435962
711,-3.7252604576538766
712,-3.021224369137042
713,-2.5119674571767017
714,-1.9904432127557083
715,-2.2744247699828244
716,-1.5364530806327672
717,-2.3749757279119112
718,-1.4548869027012892
719,-2.9406364851316447
720,-2.529969996289354
721,-3.403710139104598
722,-2.2347385027746207
723,-1.4367694048838038
724,-0.21181744906257371
725,-3.2840980739117804
726,-3.3668909659592985
727,3.2656215961920516
728,-3.0059062727652264
729,-4.229043606243112
730,-1.628757341691591
731,-2.068733401832253
732,-1.2107286445504295
733,-2.0470919065034936
734,1.1579855198313198
735,-2.9049249613662917
736,-3.2861464664523354
737,-5.026254136706905
738,-2.493859243241207
739,-3.285630963884141
740,-3.398101848742327
741,-2.066344524863202
742,-2.6490304051586273
743,-1.1605956091916232
744,-2.5256086092803374
745,-1.3555921184643036
746,-3.457216640558588
747,-3.3635378259955786
748,-3.0842541197204323
749,-3.018686273025056
750,-2.211926297284359
751,0.2573934777225684
752,1.7068847067804875
753,-3.5118952588640515
754,-3.0791859583694245
755,0.11069940588579585
756,-1.1678642790730065
757,-2.3893207786211006
758,-3.338232617608214
759,-0.18469024341206433
760,-1.1282563236041925
761,-3.78237076533163
762,-3.2857189549372947
763,-2.107572110760704
764,-2.246770513589288
765,-3.231203979252276
766,-3.119559202253486
767,-1.7612187661848386
768,-2.5220947262758058
769,-2.5455171547157507
770,-2.871601861329195
771,-1.1769140011668782
772,-3.519593039407174
773,-2.687482523020359
774,-3.28619473821953
775,-3.4077344044331
776,-2.7389901403867656
777,-1.68395429131671
778,-3.747965299862451
779,-2.654718226061236
780,-0.29975287531411343
781,-2.4820361126116155
782,-3.286235100794367
783,0.6033509630784554
784,0.6033509630784554
785,-0.029186573652084425
786,-2.2922610337832676
787,-1.42753194592286
788,-3.3095926946620433
789,-3.8931702616468185
790,-3.2198406920434164
791,-2.3241079819527357
792,-3.293996529182706
793,-3.034890860641264
794,-2.644044977803713
795,-2.989115032300038
796,-3.3964493212218607
797,-3.145523974051759
798,-3.155277498663113
799,-1.2849930399803762
800,-3.1237349677670605
801,-2.7458137188632374
802,-2.567386593164909
803,-4.032157196103188
804,-3.0286037533805823
805,-2.859794919070444
806,-0.8928348434069777
807,-2.8859519090897683
808,-2.6041540526208404
809,-2.196603146830755
810,-2.8116066875504986
811,-3.7528741591923893
812,-2.8809749706243295
813,-0.0997808975505008
814,-3.617778672966497
815,3.360835138545149
816,-3.4232472820770568
817,-3.2854013785089986
818,-3.654368181067409
819,-2.2548589930623453
820,-1.7324665304168503
821,-4.050761553224316
822,-5.026254136706905
823,-3.2869156540330384
824,0.8286393235834862
825,-1.970994405951128
826,-1.3449572854020808
827,-3.516277708726055
828,-2.2922610337832676
829,2.1116284952995765
830,-1.8730033164114814
831,-2.257478205937794
832,-2.340963904374987
833,-2.644044977803713
834,-3.2151323753696683
835,-2.4739306024973025
836,-1.2976644337871026
837,-0.8262370656370124
838,-1.2910294728860172
839,-3.285877044640173
840,-2.7596559962356184
841,-3.090266680518964
842,-1.3896370605247053
843,-3.1335448116094438
844,-1.674468688103751
845,-3.092955469492261
846,-2.558122905254772
847,-3.1580335912479796
848,-1.2741419507303366
849,-1.493566522539394
850,-2.1999920433014717
851,-2.606753889550216
852,-2.282654673872644
853,-1.2402801931650773
854,-4.029363961540767
855,-3.716661883910883
856,-2.1112280816387736
857,-2.523887750448711
858,2.088274896995396
859,-0.10146577355951489
860,-2.025666430114082
861,-3.407512711579105
862,-1.7570815878496808
863,-3.1747975362553467
864,-3.091776985332997
865,-4.0095269690443285
866,-3.28619473821953
867,-2.7295829360900594
868,-4.019167294976539
869,-3.4190532718298146
870,-3.561274763812458
871,-2.9510819618941575
872,-3.7084633400563174
873,-3.085559859858972
874,-3.0855443728348955
875,-1.7419095442711898
876,-2.5182394079598813
877,-2.9225966132366756
878,-2.3216035438233162
879,-3.2843634861963094
880,-2.934427713661678
881,-3.886798052289651
882,-1.7352780964048835
883,0.9729282686934365
884,-1.6346502513522891
885,-4.073404836791726
886,-2.395630145922231
887,-3.4633919823707107
888,-3.6487748895727705
889,-2.430912379567854
890,-3.371548487985288
891,-3.8153898343710058
892,-3.397562606901909
893,-2.6642795923714724
894,-3.692775861658283
895,-2.3492866653269293
896,-3.903051769488647
897,-4.39288919914828
898,-1.6174073813714958
899,-2.68981620763172
900,-3.4153777001052004
901,-3.065701865024726
902,-1.7382807781212002
903,-3.287285693984412
904,-2.282487439483684
905,-3.285732035716685
906,-2.557043921528122
907,-3.285245060493467
908,-0.25508496111067347
909,-1.1810993721779632
910,-3.2746986273087795
911,-3.463163757619598
912,-2.772238805916812
913,-2.6041540526208404
914,-3.284185934498775
915,-0.6781158782663638
916,-3.1426219277969243
917,-1.3182554276938467
918,-1.6076265804806644
919,3.3604130657487885
920,-3.7515586004607386
921,3.359660482327014
922,-3.2871040482834806
923,-3.00775477530544
924,-3.085908348584195
925,-2.7479615015347894
926,-2.632830221198712
927,-4.430600700008886
928,1.2949093184988432
929,-2.066730155683811
930,-2.0365558674118667
931,-3.6839315361107827
932,-1.7969886480983726
933,-2.0510250621612593
934,-1.4814196949117764
935,-3.411170780688999
936,-3.028115337138737
937,-3.028115337138737
938,-3.264276160421017
939,-2.5328534684666275
940,-2.493859243241207
941,-1.094914052896819
942,-4.122563430521873
943,-1.4672990701699176
944,-1.9492177177398948
945,-1.3970226113830864
946,-3.2286834259432857
947,-2.5256086092803374
948,-3.5060863332847068
949,-3.42551093771131
950,-1.722938309624285
951,-0.20549161847704236
952,-3.286226071329871
953,-2.82432419520193
954,-1.2910294728860172
955,-1.6425326743498094
956,-2.267053477303931
957,-3.0897351219453384
958,-3.7246374346767612
959,2.730469100710004
960,-2.249389658390918
961,-3.285732035716685
962,-0.9141014379266544
963,-2.34614380494955
964,-0.5020243494963327
965,-1.9456783325982971
966,-3.1387823463859457
967,-1.6510457201375086
968,-3.7122233602292907
969,5.032197260621391
970,-1.888230685805405
971,-2.885347078481494
972,-3.694665113341805
973,-1.0129399814747193
974,-3.0402821658438697
975,3.360018086172516
976,-3.3840403750992643
977,-2.2979484297805053
978,-4.228062399904681
979,-4.1893349611455255
980,-1.9307111075469452
981,-1.3905542362007783
982,-1.0008827431403966
983,-2.0139014484765094
984,-3.071187198157983
985,-0.8402725895761811
986,-0.12336172708718314
987,-1.0208736664329425
988,-1.483883515601058
989,-4.3723670388286395
990,-3.058917708044664
991,-2.579356936693373
992,-3.347247849009433
993,-3.7466647682316445
994,-2.776780852247613
995,-0.9274238598470793
996,-1.1864721319221527
997,-3.025472707812171
998,-2.3173088623479403
999,-2.3173088623479403
1000,-2.9284095827830128
1001,-3.1087998764105853
1002,-3.92363666960623
1003,-1.248870105292913
1004,1.8994903522198419
1005,0.7581566830617722
1006,-1.7781875641037617
1007,0.06736181079226324
1008,-4.482282671003827
1009,-2.1595683553490757
1010,-3.4627682247536153
1011,-3.2869156540330384
1012,-1.824476632917804
1013,-3.0269901001421853
1014,-2.7958478978988968
1015,-3.6627619108719456
1016,-3.655110924657884
1017,3.3604425383253376
1018,-3.0842541197204323
1019,-1.972962537626156
1020,-0.818560226193508
1021,-1.25086818001932
1022,-1.997622522254297
1023,-3.8876766632908497
1024,-3.286446351124447
1025,-3.284531298612544
1026,-2.574202299030359
1027,-2.7331810911735754
1028,3.358352860295574
1029,0.5035402696342066
1030,-2.871932779911571
1031,-3.2813579427269457
1032,-3.067518195208768
1033,-3.286777306553244
1034,-3.2203211558556837
1035,-1.6052346481039288
1036,0.7701620799423587
1037,-1.99363452745638
1038,-2.1031141047180917
1039,-3.4190532718298146
1040,-3.7209403926579863
1041,-2.755866166647028
1042,3.359209979597074
1043,-2.310984308803929
1044,-2.413434113211139
1045,-3.666170478435201
1046,-3.911248865588602
1047,-2.8711057961249775
1048,-3.640859150135462
1049,0.6068626927784962
1050,-4.833144869497586
1051,-3.7842575215207934
1052,-3.2849529911274518
1053,3.3437654297749786
1054,-3.285547051129656
1055,3.3599443638846163
1056,-3.056861561603836
1057,-3.1087998764105853
1058,-3.2861216648092495
1059,-3.93041650891187
1060,1.7644055873411342
1061,-3.2866071454949823
1062,-3.5720431798640147
1063,-1.2110175084993637
1064,-3.2844847032228075
1065,-1.4814196949117764
1066,-3.2854953610794637
1067,-4.419082368960924
1068,-3.251314169362219
1069,-3.0180067216427684
1070,-1.389223621322756
1071,-4.088339098314255
1072,-3.287260691488029
1073,-3.654958912463555
1074,-2.7542744049745402
1075,-2.044214261090037
1076,-3.00775477530544
1077,-4.022069206827389
1078,-3.1289619358555467
1079,-3.2858094955183392
1080,-2.418941903462094
1081,-2.927362866886022
1082,-3.9118450071490645
1083,-3.9803847192298263
1084,-4.133273281820981
1085,-1.8056469711595768
1086,0.4535665085729737
1087,0.4535665085729737
1088,-4.001018069376317
1089,-2.7566203563719953
1090,1.9853076565502523
1091,-4.39288919914828
1092,3.3603223377746256
1093,-3.272067726137325
1094,3.3604177391010066
1095,-4.001659738989051
1096,-5.1456933430713265
1097,-3.999340645719288
1098,-2.729784829175108
1099,-4.083035203874113
1100,-5.465272413504374
1101,-4.522925717436428
1102,3.359298690497128
1103,3.358969505990081
1104,-1.579118443071535
1105,-2.8885890040119184
1106,-2.8142713990449586
1107,-2.420414454452904
1108,-2.263944547207274
1109,-4.004202882326945
1110,-3.3112213447831658
1111,-2.772442539373489
1112,0.23189086844662044
1113,-2.8221005609963337
1114,-3.5979851371263423
1115,-0.3166435155256031
1116,-4.388853924742293
1117,-2.7005431308463774
1118,-0.5032167562316999
1119,-0.6878622981981961
1120,-2.926740594598428
1121,-1.1062604307228892
1122,-2.3558651210732138
1123,-1.8529394962005084
1124,-3.6556029212708046
1125,0.18327731320868415
1126,-3.455120852230758
1127,0.8286393235834862
1128,1.703109998438228
1129,-3.45093071768708
1130,-3.1496862538758448
1131,-3.675620137069819
1132,-3.407506245208328
1133,-3.5438466747450703
1134,-3.0003252277567234
1135,-3.2846267332982113
1136,-2.786934860429232
1137,-2.114802263626353
1138,-3.533997930512888
1139,-3.6138525031748774
1140,0.3525502906563148
1141,-2.397252039542328
1142,-1.9100580450062545
1143,-1.5675809010637614
1144,-1.9968859382419681
1145,-1.8532793876345064
1146,-0.8920279182546109
1147,-3.3596209223235656
1148,3.374504054535755
1149,-2.2448854029784324
1150,-2.680490209945668
1151,0.07441173920461426
1152,-1.6273088019274793
1153,-2.7943299514363233
1154,-2.701335365344996
1155,-3.1949216245316956
1156,-3.0188025712245325
1157,-2.9603993347530744
1158,-3.8247613040851016
1159,-2.352307664759929
1160,-2.655308796718541
1161,-3.856903111631347
1162,-0.9661470014976817
1163,-3.364996637948663
1164,-1.2245343543027702
1165,-2.0582359596450823
1166,-2.9105506568250736
1167,-3.656063761034195
1168,-2.8936627789839746
1169,-3.465821550149711
1170,-1.4338983781761645
1171,-3.2283943523240137
1172,-3.7419335445948563
1173,-3.285356892970861
1174,-3.439220269277304
1175,-3.385506720241009
1176,-3.4912977069660482
1177,-1.61587983799703
1178,-3.5968016970768453
1179,-3.4754403423321336
1180,-1.7880155805139935
1181,-3.2845369697434394
1182,-3.3815514872910244
1183,-2.417885110907505
1184,0.3525502906563148
1185,-3.0686855000107576
1186,0.2573934777225684
1187,1.478311762594444
1188,-2.1467263239085885
1189,-2.4521569793405043
1190,-3.1649105537318416
1191,-3.4031313453986813
1192,-3.287126696675181
1193,-2.552095372518012
1194,-3.134896733789283
1195,2.0995337820958317
1196,3.334044416055581
1197,-2.8362437568977534
1198,-1.7255133076346323
1199,-2.5184315201316267
1200,3.829234151455313
1201,3.359461881767222
1202,-1.679655112776394
1203,-3.0067603806420755
1204,-3.3597462751040807
1205,-1.4165554311010908
1206,-1.8248095713056385
1207,-0.2332849098421319
1208,-2.254575940852843
1209,-1.4180265661071114
1210,-3.7297014548075795
1211,-3.7524119781327228
1212,-3.623284233510985
1213,-3.2393959747585654
1214,-2.1961989054603848
1215,-2.737009200646394
1216,-3.286262237551739
1217,-3.516277708726055
1218,-3.3266941459341126
1219,-3.8392689770761157
1220,-3.0990429672038573
1221,-3.840787872924334
1222,-3.2851683509762317
1223,-2.2894297854163854
1224,-1.61587983799703
1225,-3.286425210412211
1226,-3.5547324462858523
1227,-0.7416021404446577
1228,-1.5675809010637614
1229,-2.574014346600683
1230,-3.1394142293017415
1231,-2.0972094398868375
1232,-3.027867139217774
1233,-3.859725194309579
1234,-0.17651247359612784
1235,-3.6140565461846843
1236,-3.155277498663113
1237,-2.7824718106725896
1238,-2.728888939199075
1239,-1.9583569736921833
1240,-0.8356805384696624
1241,-2.7198021471688176
1242,-3.2393839278269025
1243,-2.2775691933127447
1244,-3.287444016461761
1245,-2.9358691334138878
1246,-2.120757566955385
1247,-2.8039404189024215
1248,-3.639501218393898
1249,-3.0517349194279753
1250,-3.3640070678314733
1251,0.5220978087162107
1252,2.806487543159787
1253,-1.8622921871124043
1254,3.3587495735565995
1255,-3.285745267837356
1256,1.504836304151359
1257,-3.5314313883610886
1258,-3.3621384963555068
1259,-3.618699081423932
1260,-1.289335035088809
1261,-2.588249730923584
1262,1.112481779456896
1263,-3.4607715500906666
1264,-3.5446714207493994
1265,-2.842662062255086
1266,-2.60972775590118
1267,-1.8876890802953403
1268,-3.736039602891317
1269,-3.5806732367330114
1270,-4.134491163794513
1271,-4.134491163794513
1272,-3.7138176157154796
1273,-3.2861464664523354
1274,2.0454089572101046
1275,-2.7451857762820975
1276,-2.7588779496357687
1277,-0.5773464119649185
1278,-3.285817425717368
1279,-3.2850843995542167
1280,-2.649891719923717
1281,-1.1591851878521922
1282,-3.0269901001421853
1283,-2.9027213128807166
1284,-2.4259955700531277
1285,-2.3506307959489505
1286,-0.48183641158218904
1287,-3.0716728606609536
1288,-4.050983829973263
1289,-3.1338818268440933
1290,-1.2216870660496868
1291,-3.3263003272666194
1292,-2.861149770920619
1293,-3.333555170740347
1294,-2.2367224954720117
1295,-3.1584137925557383
1296,-2.1500309910625774
1297,-3.6819056454299908
1298,-3.221410552852798
1299,-4.388853924742293
1300,2.4329946521551147
1301,-3.8641882351127634
1302,-2.909725355851544
1303,-1.9726101005987002
1304,-3.2850369405026996
1305,3.3598322978960904
1306,2.9968482518379553
1307,-3.765181809093577
1308,-2.574576806696608
1309,-2.2408638024029592
1310,-1.6806090146837673
1311,-2.0870529728068767
1312,-1.320308229865286
1313,-3.286480372721673
1314,-1.0939187402609156
1315,-2.900824165021323
1316,-2.6974596237153436
1317,-3.1843682850771122
1318,-3.2850743235764868
1319,-3.214687576753428
1320,2.4118544732656892
1321,-1.7503648158422818
1322,-3.286586982215978
1323,-3.2854891971182254
1324,0.9323894131072767
1325,-3.091952579900898
1326,-3.2866117372680805
1327,-3.2854345773081572
1328,-3.643803640770345
1329,-3.177357019474711
1330,-3.1426219277969243
1331,-2.3184364405356925
1332,-3.5572151720532754
1333,-3.5578435535578703
1334,-3.2939688237465248
1335,-3.39452728633106
1336,-3.570463732223299
1337,-4.181035455146625
1338,-3.2847239996024724
1339,-3.1436747348548417
1340,-2.311444827686775
1341,-2.725627725666062
1342,-2.0658746755871302
1343,3.3594051278398025
1344,-2.6437841713557657
1345,-2.304907705080411
1346,-3.532917177314528
1347,-1.9274835141425928
1348,-3.319594806239101
1349,-3.2866843833186663
1350,-3.6377108266508773
1351,2.5537551999580868
1352,-3.3735278367565704
1353,0.2851871512331006
1354,-0.2804782052127752
1355,-3.4306047512424174
1356,-3.924251688187103
1357,-2.194618226334669
1358,-3.028115337138737
1359,-3.5846948338770748
1360,-3.417581944382883
1361,-0.2538393306606039
1362,-2.960369207165077
1363,-1.1386927954998276
1364,-2.033276598208443
1365,-3.2860327267099847
1366,-3.0269901001421853
1367,-1.9658657705627198
1368,-3.1052051585936127
1369,-2.184045896573642
1370,-2.619919211138418
1371,-3.224647377262179
1372,-2.6613468766491986
1373,-3.501151672787684
1374,-2.973480872074654
1375,-3.9931771266521814
1376,-2.1367301133821948
1377,-3.2271080103372514
1378,-1.3735564941563563
1379,-2.9448192766630545
1380,-3.460063491659047
1381,-3.5216499340684235
1382,-3.366930082069817
1383,-1.7408116361288077
1384,-0.3308083495750979
1385,-3.0723076576010664
1386,-3.57062476323456
1387,-2.756357019534394
1388,-3.2198406920434164
1389,3.359171291846179
1390,-2.812179767382799
1391,-1.9037369142605451
1392,3.358783729776146
1393,-2.531854570679346
1394,-0.6846021092488668
1395,-3.2367072112613604
1396,2.0001041022594266
1397,-3.4863761474815433
1398,-2.111342079588429
1399,-2.6370970203746817
1400,-2.4462237547792745
1401,-2.743993735273929
1402,-3.0685723335803354
1403,3.3597817568447534
1404,-3.0235682943028714
1405,-3.4628309522267897
1406,-3.9311728484818573
1407,-3.6487746586032737
1408,-1.6809162141992504
1409,-1.3726241242739328
1410,-2.2675022905932574
1411,-3.285999914539464
1412,-1.0525454477837555
1413,-3.285451024575898
1414,0.2916104590730425
1415,0.0
1416,-1.9499822421796922
1417,-0.9238957126111877
1418,-3.347265032917281
1419,-2.961441948107978
1420,-0.5689552177456606
1421,-1.4104099206245033
1422,-1.8429459243126254
1423,-3.285814701704074
1424,-3.283720782811501
1425,-1.3484857750612338
1426,-1.47275492246224
1427,-3.3255875017576773
1428,-3.1024242843291727
1429,-3.3292797174919295
1430,-3.090266680518964
1431,-2.878162784989205
1432,-3.0028449836419324
1433,-3.304905504973962
1434,-1.9192209928216064
1435,-3.7999917231789624
1436,2.730469100710004
1437,-1.011427491125397
1438,-2.37509433651204
1439,-2.535639115795205
1440,-2.6664620885706056
1441,-3.5779705669596695
1442,-2.990069431626029
1443,-1.6357962556852288
1444,-2.520509606055968
1445,-1.2328848054396293
1446,-2.877572934483912
1447,-3.1508145639287655
1448,-2.0026143549962385
1449,-2.1438410601475106
1450,-2.186573875154121
1451,-2.7969724591574536
1452,-3.3729234302525297
1453,-2.7418675044276766
1454,-2.412490770664603
1455,-1.6810376766019923
1456,-3.234162600171757
1457,-2.677155808184476
1458,-3.2992740353211536
1459,-3.7656905966713374
1460,-3.5289716024748743
1461,-3.285837193325756
1462,-3.036759508672387
1463,-1.6999886804708548
1464,-3.8739442559397035
1465,0.3064284524510663
1466,-2.9602835967718057
1467,-2.2677273885715974
1468,-3.668899808121593
1469,-2.297633874309144
1470,-2.178707370649401
1471,-0.9172516875397613
1472,-2.531472794950336
1473,-2.6808540490483437
1474,-1.4519810899881367
1475,-3.3367403312415265
1476,-2.52259792870527
1477,-2.2784441448859525
1478,-1.6718186685866891
1479,-2.896540155108349
1480,-3.281186648339529
1481,-3.2854935227679034
1482,-3.4198602487608745
1483,-2.8377707851851985
1484,-3.3565709253655474
1485,-3.28698982448173
1486,-3.2189066028818196
1487,-3.23238923267187
1488,-3.029760341508835
1489,-3.8072433468916125
1490,2.552821780685928
1491,-2.986446820861165
1492,-3.285005032139639
1493,-2.255601696886152
1494,-3.244408324655133
1495,-3.2558750483104024
1496,-1.670958571808023
1497,-1.24382147729496
1498,-3.7373868168840985
1499,-4.2462731575544685
1500,-2.0159858275753963
1501,-2.9023931040372783
1502,-2.736050175811251
1503,-3.537450365623825
1504,-3.409290242405354
1505,-3.583849141294181
1506,-4.430600700008886
1507,-3.708416841349583
1508,-3.0522531614446407
1509,-2.560598506495643
1510,-3.3407922601283992
1511,-0.9876251096621164
1512,-3.6839315361107827
1513,-2.3712269280461986
1514,-3.6161481652515097
1515,-3.285389135955446
1516,1.677631702540644
1517,-3.2858094955183392
1518,-2.144526602910528
1519,-0.08170509735714654
1520,-3.856903111631347
1521,-3.286321280853584
1522,-3.7138176157154796
1523,-2.4828542515778698
1524,-3.2082521203776926
1525,-2.4633313644896657
1526,-2.646041034975643
1527,-3.8066524962937587
1528,-1.6362352637705213
1529,-3.076321396101845
1530,-1.2598439335044676
1531,-3.4846880868450345
1532,-3.236512056759036
1533,-3.323311807461029
1534,-2.9059747194466063
1535,-3.2862093017770153
1536,-3.285532326855848
1537,-1.875986454781781
1538,-1.0659150712229628
1539,-2.0471944865241194
1540,-3.2849321105533336
1541,-0.6845362129121262
1542,-1.9555071695551494
1543,-2.934427713661678
1544,-2.7539833908708187
1545,-1.631185704754759
1546,-3.0331259690506887
1547,-2.8554955141671337
1548,-3.190281920845919
1549,-2.578301471056882
1550,-3.075266274005953
1551,-2.8767724659441845
1552,-3.8693366654427055
1553,-3.5644678533468834
1554,-2.85481216662323
1555,-0.9012783186825573
1556,-2.883365546348224
1557,-3.4287838904765833
1558,-3.284701453965001
1559,-2.6577944340089226
1560,-3.470944813779334
1561,-2.332927925527124
1562,-3.47833216062928
1563,-1.3970226113830864
1564,-3.333026013518184
1565,-2.0989851861040845
1566,-2.4183817657566147
1567,0.6707986317265467
1568,-3.8755409973862367
1569,-0.5735261971943638
1570,-2.2201133615066015
1571,-0.556393254705162
1572,0.8858725798760407
1573,-2.8760282983441443
1574,-3.477136727536732
1575,-3.4043368846802973
1576,-3.3339047240192903
1577,-3.467587650942729
1578,-3.374556040429883
1579,-5.050128102108511
1580,-0.12336172708718314
1581,-0.2304108516547481
1582,-2.531854570679346
1583,-5.36690434561739
1584,-3.0945095618526905
1585,-3.274028869146034
1586,-5.030145834765522
1587,-4.649605548489522
1588,-3.678576631811568
1589,-2.663136311858736
1590,-4.654016721305526
1591,-4.421249430531539
1592,-3.064930939247021
1593,-2.388485216670541
1594,3.3603835312098713
1595,-2.3553898402432987
1596,-1.5302922586917118
1597,-3.9754332430035513
1598,-3.750021196020344
1599,-3.567027835041058
1600,-3.798716145063875
1601,-0.6189620558154177
1602,-3.638996638959309
1603,-2.62642404390698
1604,-3.1256669272778175
1605,-3.6785900503882534
1606,-2.9909999419930955
1607,-3.366903919034939
1608,-3.8059461183722054
1609,-2.7333407181528386
1610,-1.5010201645470314
1611,-2.7349618707653267
1612,-1.3863780101533572
1613,-1.850098902820674
1614,-3.66298926044246
1615,-3.1708695589975426
1616,-2.652484591182703
1617,-3.4201737581165834
1618,-1.890424172572742
1619,-3.4535903589852204
1620,-2.838461634236706
1621,-3.777890675845024
1622,-2.350336473111485
1623,-1.7296240576712794
1624,-3.7116659078656484
1625,-1.9584626945660257
1626,-3.285837193325756
1627,-3.2858509312666633
1628,-2.3583397166922397
1629,-3.286276231445323
1630,-2.297633874309144
1631,-3.4140130188066666
1632,-2.889369028994015
1633,-3.285695599027246
1634,-3.223348587243165
1635,-3.282608563529868
1636,-2.2152002747627577
1637,-2.3903974177211644
1638,-3.0649489776793013
1639,-3.0983335545858237
1640,-3.29206785667115
1641,-3.1392422933169737
1642,-2.905603858107784
1643,-3.628335742733689
1644,-2.2514556508711645
1645,-2.8859519090897683
1646,-3.2410264565825093
1647,-2.026261094112732
1648,-2.875653410455553
1649,0.5751534336718848
1650,-3.2849867266032375
1651,-1.2126495918432165
1652,-1.7017738295910894
1653,-3.416533784621203
1654,-3.286247834061607
1655,-3.3648025970035573
1656,-2.076077148829772
1657,-1.3182554276938467
1658,-2.349145264856829
1659,-3.2848368772573497
1660,-3.1644054164026154
1661,-3.3214422945246844
1662,-3.284340709913162
1663,1.3093302699250113
1664,-2.898436899922737
1665,-2.737690144898643
1666,-3.31706894096156
1667,-3.2860662684015933
1668,-3.2863530423146226
1669,-4.41408389575671
1670,-4.281502995095485
1671,-2.9732597604011612
1672,-4.606407950283619
1673,-4.302359002695597
1674,-1.9959202740346242
1675,-3.323151688175744
1676,-3.0944920685215243
1677,-4.727902905503036
1678,-4.4037459385108715
1679,-4.687396003518576
1680,-3.05044403125882
1681,-3.231838694929918
1682,-4.061219076441449
1683,-2.75891758024142
1684,-3.285822502877655
1685,-3.1689037025263493
1686,-3.284313262621958
1687,-3.675793875562237
1688,-0.7584535926079967
1689,-2.832713607863276
1690,-5.676397957428822
1691,-3.537450365623825
1692,3.360909313037953
1693,-2.9222599559711795
1694,-0.787201351850537
1695,-3.3669012679580375
1696,-2.6077116401099345
1697,-2.1290183537612997
1698,-4.157469473641137
1699,-3.3127867065200958
1700,-3.286370868748313
1701,-2.04987723399141
1702,-2.168558184734333
1703,-3.285683958630619
1704,-0.8883716233729866
1705,-3.7614903804760154
1706,-0.8585693503691049
1707,-3.2078837616926443
1708,-3.262372260693597
1709,-2.7689314254754587
1710,-1.0695081263116777
1711,-2.6586494791228583
1712,-4.002522378204001
1713,-3.0793241000761946
1714,-3.4685971827802815
1715,-1.8180293766698352
1716,-3.736763522625789
1717,-2.940688019145373
1718,-2.2646530787017
1719,-3.6541354539835456
1720,-2.0833414240135584
1721,-4.967685620306974
1722,-3.343335755897604
1723,-3.317118444403539
1724,-3.6492025663359082
1725,-3.066447981308577
1726,-2.9143135951987404
1727,-3.472923939433256
1728,-3.234979406562707
1729,-4.205500642452947
1730,-3.7919351490385274
1731,-2.9071892146447955
1732,-5.451921265387059
1733,-3.25533144450575
1734,-4.475148422118585
1735,-3.0330451687273445
1736,-4.7852208421156295
1737,-3.2852320009461566
1738,-3.5221181186325103
1739,-3.3912906362779207
1740,-3.2861629476503227
1741,-3.286262237551739
1742,-3.5557104842490213
1743,1.703109998438228
1744,1.7748642420210186
1745,0.7152714273861436
1746,-3.2865539312232004
1747,-2.8254831244296463
1748,-3.285925193373996
1749,-1.6793852670113512
1750,-1.9658657705627198
1751,-3.2963276963033654
1752,-3.7192375623239458
1753,-0.5648289687738433
1754,-3.8277661390323643
1755,-2.9122842404100457
1756,-3.2862895064042585
1757,-1.060683775408327
1758,-3.3850278018627407
1759,-3.2276040285744694
1760,-4.435445131962182
1761,-1.4546786010191395
1762,-1.483883515601058
1763,-1.011427491125397
1764,-3.2867762985535602
1765,3.359585983366242
1766,-3.285524231631153
1767,3.3587487366232645
1768,-2.201649578459869
1769,-0.364256972052865
1770,-3.067518195208768
1771,-3.519593039407174
1772,3.829234151455313
1773,-0.9394808651547999
1774,-4.490039720225793
1775,2.062481510378499
1776,-2.317070902457483
1777,-3.6950833819548676
1778,-3.7524119781327228
1779,-3.6345802452229536
1780,-1.7650852501923646
1781,-3.5557104842490213
1782,-3.289205270401555
1783,-3.2860292257912826
1784,1.1054755760768333
1785,-0.5574806561131939
1786,-3.020773580340489
1787,-2.3726811763197073
1788,-3.25749789616686
1789,-3.5036568906165955
1790,-3.3339047240192903
1791,-4.135573041963819
1792,-4.078161589805017
1793,-4.3086145740810835
1794,-3.285451024575898
1795,-2.579356936693373
1796,-2.794305901704832
1797,-0.43747005243041287
1798,-3.2607580571345465
1799,2.444477843113593
1800,-1.1413072416551837
1801,-2.2407911324000174
1802,-2.8116066875504986
1803,-1.3979313109060656
1804,1.5353983559952005
1805,3.358406356293089
1806,-4.06375731622736
1807,-3.7209403926579863
1808,-5.394387972044655
1809,-3.2843075402334168
1810,-2.7689314254754587
1811,-0.5664730758643808
1812,-3.0731304967761384
1813,-0.15470044781396078
1814,-3.285883389918768
1815,-4.1031517557248876
1816,-3.285978434367323
1817,-4.083035203874113
1818,-3.285767429358806
1819,-3.9283452937578636
1820,3.3602096466400537
1821,-2.8557395720180767
1822,0.6068626927784962
1823,-0.16776005850097486
1824,-3.2857422305028465
1825,-0.8602973592459828
1826,-0.8602973592459828
1827,-6.765619151018369
1828,-4.273156569875199
1829,3.359128529185703
1830,-1.737245420092861
1831,-2.6971543780865246
1832,3.4679338134996365
1833,-1.9584626945660257
1834,-3.2468461684284553
1835,-3.567296055071157
1836,-4.109256882169008
1837,-1.1157830543130205
1838,-3.2859047781480206
1839,2.6741319118211604
1840,-2.6553966391576944
1841,-3.654958912463555
1842,-3.1844960350808305
1843,-3.4343442771197794
1844,-3.451632322826348
1845,-3.286278219837722
1846,-2.0919989795044693
1847,-1.0129399814747193
1848,-2.1650538444806213
1849,-3.685549317370877
1850,-3.509406800128755
1851,-0.8854793755054515
1852,-3.1240837853324854
1853,-3.7084633400563174
1854,-4.551844563499806
1855,-3.1808926501081993
1856,3.1912455239547683
1857,-1.021180483636531
1858,-3.438768940655771
1859,-3.890764178176727
1860,-3.3014794457234906
1861,-2.9816328363260376
1862,-1.131842157530127
1863,-1.577836867572942
1864,-3.2857784345318355
1865,10.88588209135135
1866,-2.0026143549962385
1867,-4.004874032718041
1868,-0.7660328368235749
1869,-3.2854345773081572
1870,1.9709206733573135
1871,-3.285299979678803
1872,0.3070137088891318
1873,-2.5545782454998354
1874,-4.099487841640527
1875,-4.190878140243634
1876,-2.703933676450583
1877,-1.9979843049056034
1878,-2.77491355008602
1879,-2.337710682385406
1880,-3.285463867695888
1881,-2.7605119315925
1882,-4.931044535390516
1883,-3.028774189502433
1884,-3.6248890208013314
1885,-3.218850134324483
1886,-1.9113280068585476
1887,-3.637032080746929
1888,-3.435013975739494
1889,-3.8720721678435437
1890,-1.8876754346685316
1891,-4.262947650885069
1892,-2.669288422165057
1893,-4.049124917879487
1894,-2.064082669297141
1895,-3.448931220444326
1896,-3.2862584150385667
1897,2.304040922031729
1898,-4.66398437514143
1899,-1.737245420092861
1900,0.9434813416883797
1901,-3.407057735318334
1902,0.4488297437419048
1903,-1.7382807781212002
1904,0.7294033904664321
1905,2.4231009041294573
1906,-3.272067726137325
1907,-3.0776629073454673
1908,-1.248870105292913
1909,-3.286063258745243
1910,3.368655111643882
1911,-3.2851036582143447
1912,3.3595008655383753
1913,3.3606204737169816
1914,-3.28515348526919
1915,-3.7826179944222322
1916,-2.77491355008602
1917,-3.050286113830561
1918,-2.3898350174666008
1919,-0.5664730758643808
1920,-3.2865539312232004
1921,-5.131060676623814
1922,-3.740308845298559
1923,-2.6093215942831187
1924,-3.8248796551006903
1925,-4.1052890123033645
1926,-3.2866961980566467
1927,-4.649605548489522
1928,-2.4350543794478248
1929,-4.631209118923397
1930,-4.186069212747516
1931,-4.616329293652529
1932,-5.718453747579991
1933,-4.217932025220068
1934,-3.3597475300181716
1935,0.6696405478489293
1936,3.358473728304262
1937,-3.3540021905675315
1938,-3.7743570426323534
1939,-3.328001470286687
1940,-3.2862791789487127
1941,-0.9329760295373273
1942,-1.1719752130816137
1943,-4.385027492075795
1944,-3.934636241878054
1945,-3.837839060467309
1946,-3.9768029644419327
1947,-3.2851162724103404
1948,-2.1205885944975047
1949,-4.267854671847359
1950,-3.090780800275154
1951,-3.29097915257463
1952,1.177414393052746
1953,-5.030071966885362
1954,-4.360393174570185
1955,-4.8435485565186385
1956,-4.712188585676812
1957,-3.4004242828785527
1958,-3.2853742477658026
1959,-4.100455405300482
1960,-5.895057436928779
1961,-3.6961131935806173
1962,-3.3503210078874823
1963,-4.8158501128728135
1964,-2.326400805859747
1965,-3.284914519388072
1966,-3.7438012499976914
1967,-3.959394941563912
1968,-3.284742831552934
1969,-3.344591963169067
1970,-4.423307208739585
1971,-5.4885482120657505
1972,-4.641979139560583
1973,-3.163300464090635
1974,-2.111912153450957
1975,-3.907485093723891
1976,-4.427193293814754
1977,-3.4308774773596538
1978,-1.0499265839103646
1979,-4.382900343617384
1980,-2.4570565525012547
1981,-4.168926769946382
1982,-3.41851386617867
1983,-2.3043058580898452
1984,-2.891199419311067
1985,-3.972241555419882
1986,1.8232787513758562
1987,3.3606290670528804
1988,-1.6589039801389942
1989,-1.3747767312438384
1990,-2.8936627789839746
1991,0.23189086844662044
1992,-2.8239922688482095
1993,-2.765921093327167
1994,-4.324369278665223
1995,-2.970241656434767
1996,-3.6760954560367765
1997,-1.997622522254297
1998,-3.05688138335376
1999,1.1909150509563637
2000,-3.791396896512082
