Id,Predicted
1,-3.305602097268684
2,-1.1711315336216503
3,-3.2489421460918306
4,-3.101256864166732
5,-1.4173059080549277
6,-3.6039401523266954
7,-3.4469621661315606
8,-2.3334833868200993
9,-2.075044503944029
10,-3.8240316001363044
11,-3.887244412380486
12,-1.4388220257946842
13,2.0048731642187563
14,-3.2526866867284254
15,-3.7603657113264863
16,-3.165546752312561
17,-3.347898206658867
18,-1.8289797248782236
19,-0.9343417028009358
20,-1.851081348139548
21,-3.0511879667773214
22,-3.66624670492587
23,-1.241448498372086
24,-2.7326071087757793
25,-3.0647085139178167
26,-3.1776116480961707
27,-1.98212486526009
28,-0.9442696606434366
29,-2.6904724817374364
30,-2.2607647760714484
31,-2.1198495488016613
32,-3.8240316001363044
33,-3.358174057528003
34,-3.435377455515309
35,-3.669913571557158
36,-2.1049516151823973
37,-3.8924625737528036
38,-3.4298510231599693
39,0.3986656471544016
40,-3.509112156681432
41,-3.358174057528003
42,-1.5393409067491577
43,-3.8772856356499874
44,-3.5503738073201583
45,-3.6039401523266954
46,-3.4583287768524893
47,-0.8962034246497673
48,-2.9618446885139273
49,3.2777953214585667
50,-3.0257888087304217
51,-3.165546752312561
52,-3.720326625906971
53,-2.953331258974165
54,-1.3992816101715337
55,-3.4564132638339204
56,0.13157079204621383
57,-2.1198495488016613
58,-4.082269093579535
59,-3.358174057528003
60,-1.2155981582083875
61,-3.117285826303944
62,-2.8256601136728166
63,-2.8634696363231695
64,-4.238271804199942
65,-2.7118538388043882
66,-2.764466428543669
67,-3.2373069610385072
68,0.25497448581403004
69,-4.006160670907392
70,-1.5760801403772715
71,-4.081408875748522
72,-3.3486503080563974
73,-3.0176008036225195
74,-2.8256601136728166
75,-2.2160955102618916
76,-0.5279023921096085
77,-1.9862439350333212
78,-2.1280916954316886
79,-4.038786769228065
80,-1.1836216126650179
81,-3.6248179160867364
82,1.8528023482872087
83,-2.1943778914493977
84,-4.014500083189353
85,-2.167588379143521
86,-1.7377179693026759
87,-1.851081348139548
88,1.6091493261830312
89,-1.7096104696808374
90,-3.0742510144027824
91,-2.755292196508992
92,-2.086980488526653
93,0.8036932354264037
94,-3.8544238072666834
95,-3.4231299210755797
96,-2.0020128976549154
97,-3.557596816731898
98,-3.853600529145539
99,-3.4145268189702116
100,-3.83489587038981
101,-4.101447368350179
102,-0.5235765621929088
103,-3.4141619672587766
104,-3.44447872739004
105,-2.181261817226465
106,-3.0131855885037666
107,-2.9422521569399303
108,-0.9079064436217552
109,-2.8829596381996336
110,1.0658970447927065
111,-3.6579833771282595
112,-1.6517162389802489
113,-3.26009289706357
114,-3.5909484905424156
115,-1.8430993453083573
116,-2.5129859713739893
117,-3.9227133149021354
118,-1.5707338482730118
119,-2.257207680076422
120,-2.1374369748340722
121,-2.0020128976549154
122,-3.87817668973118
123,-3.6170985640809756
124,-3.2973840227987012
125,-3.435377455515309
126,-1.871421182956748
127,-4.3360408591439965
128,-3.192375211598789
129,-3.0742510144027824
130,-1.0853580496647528
131,-2.075044503944029
132,-2.9961799239591063
133,-3.4590015836935284
134,-3.4942658412137773
135,-2.7207614459738516
136,-1.1613778614169643
137,-3.0422597904301862
138,-3.3164928370402262
139,-3.0186354120037553
140,2.120144850146751
141,-2.2217469812052153
142,-3.5768453804260303
143,-3.6579833771282595
144,2.1744079032561725
145,-2.9563284719181984
146,-3.9520367613196896
147,-3.824343239111445
148,-2.7199126190024563
149,-0.5463247614791737
150,2.7269700887372377
151,-2.2547781213559226
152,-2.8360299295959575
153,-3.1202306986285344
154,-2.9874214785140243
155,-3.818605726065554
156,-1.5121306589767662
157,5.0173745480857015
158,-3.6248179160867364
159,-3.6977302382919075
160,-3.83489587038981
161,-4.030323402366402
162,-2.323491001605744
163,-2.95540338219193
164,-1.792877113118215
165,-2.7504631491557543
166,-1.7173981590158676
167,-2.872945433732327
168,-2.548840957948415
169,-3.1199758728504476
170,-3.699802909678399
171,1.0880818817475972
172,-3.8970252577625657
173,-2.990548066834404
174,-2.3063205616699824
175,1.7303395939850539
176,-1.6070789225594315
177,-2.21412182166233
178,-2.21412182166233
179,-2.1691299538061335
180,-2.0020128976549154
181,-1.6636030374018411
182,-3.636737391282206
183,0.459675529315127
184,0.0
185,-3.7221831185621133
186,-2.4610798585548257
187,-3.844596762021998
188,-2.527883285867639
189,0.3253728884882598
190,-1.4463934086119674
191,-2.736412681353806
192,-1.942869117027305
193,-2.167588379143521
194,-2.76104478392581
195,-3.680945881910139
196,-3.621689130413288
197,-2.251959592793105
198,-2.5922012083649273
199,-3.304537750939401
200,0.45612049907084595
201,-3.577613937594385
202,-3.9745850761082635
203,-3.4451910597382134
204,-4.175497213960526
205,-3.1590531214271786
206,-3.039851656409302
207,-0.9685739356718007
208,-0.6725330159889435
209,-4.038461737815209
210,-2.3651340944228427
211,-0.35921801388008057
212,-2.8140643328061485
213,-1.0757017358113146
214,-2.5269842194406515
215,-3.480413434763751
216,-3.4145268189702116
217,-2.1403578220845216
218,-3.932837266954495
219,-2.8816805631287123
220,-2.40499771582346
221,2.0676022246352175
222,-3.8287223171352607
223,-3.3787295753964792
224,-3.226501672803487
225,-2.065602133862026
226,-3.053204871918114
227,-2.692164954913135
228,-2.6615940038212282
229,-1.4004616103178749
230,-1.9677657873742387
231,-2.257207680076422
232,-3.6194182370560126
233,-2.466877676113835
234,-2.466877676113835
235,-3.572199927001447
236,-3.16925234475433
237,-3.6638157507919815
238,1.2088285731611155
239,-2.8771038418145674
240,-1.423183723612873
241,-2.7534822803905805
242,-2.7054333211994748
243,0.0
244,-2.112701545193584
245,-3.1126098587370388
246,0.25497448581403004
247,-4.050516383859971
248,3.190408892954235
249,-0.7063530712620363
250,-3.483979569433716
251,-2.2607634133097267
252,-4.073816515689259
253,-1.2155981582083875
254,-0.7630532183368198
255,-3.818416135506359
256,-1.9770931180914395
257,-0.2792577440042635
258,-2.1369262560666824
259,-3.055102898132254
260,-2.540408360420272
261,-2.861748604797564
262,-2.8360299295959575
263,0.3986656471544016
264,-2.8304126406036856
265,-3.164573487609798
266,-2.725455132561803
267,2.0676022246352175
268,-3.5567724167083004
269,0.9830157802689881
270,-3.7841066646983803
271,-3.8240316001363044
272,-1.5788926975849322
273,-2.4734917576217152
274,-3.8929440551443935
275,-3.8647485018648817
276,-1.9938178136885363
277,-2.9364729464939416
278,1.2088285731611155
279,1.2088285731611155
280,-2.6889278418063816
281,-4.266195492540941
282,-1.7075301463359498
283,-2.323798706485729
284,-2.254206795641117
285,-3.8662311814027848
286,-2.9627092655043534
287,-3.196586295872786
288,-1.1310340055735069
289,-2.5917737447682883
290,-1.9914498832820329
291,2.7269700887372377
292,-3.3155271242883626
293,-3.3917929490708976
294,-1.1847475771319933
295,1.332160294663794
296,-2.6628982856280428
297,-1.815420988911995
298,-1.1945609600775182
299,-2.2396690844394564
300,-3.22116852434208
301,-1.9525446814123597
302,-3.531401942439127
303,-1.5037016385808273
304,-1.46463456945187
305,-1.2392105133581952
306,-3.0852441628575855
307,-0.5279023921096085
308,-2.527883285867639
309,-1.254541397245146
310,-3.673045708176262
311,-1.2719418108234757
312,0.6086972315766932
313,-2.794545682586289
314,-2.1889538514023226
315,3.7824113754405744
316,-2.08173783061775
317,-4.038553677328453
318,-3.306009424646708
319,-2.7207614459738516
320,-4.338034970335702
321,-4.129591953814958
322,-2.2130434776733967
323,-3.8929440551443935
324,-3.0826043203741866
325,0.4794742776390215
326,1.5148166579313567
327,-2.758528830331389
328,-3.944193876984902
329,-4.040035651793138
330,-1.8694907958856866
331,-3.3379505425696077
332,-2.4610798585548257
333,0.33674735154756147
334,-2.7451954029968015
335,-2.8669270852935056
336,-1.0108078505100002
337,-2.5269842194406515
338,-2.4365211184216404
339,-2.0256348231464507
340,-3.1734424879488197
341,-3.1562049609860137
342,-2.127829413895715
343,-1.942869117027305
344,-2.5457941471464065
345,-4.531660078060606
346,-1.6816242214515715
347,-2.76104478392581
348,-3.6027609559574967
349,-2.237832849965089
350,-3.419709229586768
351,-1.8879276016567956
352,-3.9745850761082635
353,-2.113812133960811
354,-4.2316967187964325
355,-3.2291743757091647
356,-4.33116882625738
357,-3.506679243379501
358,-1.7986068258277292
359,-0.8724018960422807
360,-3.6360281059132884
361,-2.366654097962284
362,-3.004754217978884
363,-3.6344364614255986
364,-4.02696944967106
365,-3.9262780316473664
366,-1.1658271903859152
367,-1.692029976127024
368,-4.237348079419641
369,-3.377066639741501
370,-2.6466850708684793
371,0.0540589175581203
372,-0.35921801388008057
373,-4.194665033265295
374,2.003280808696239
375,-4.62555886766289
376,-0.6499204032010178
377,1.9022449660269873
378,-4.830535623053198
379,-5.050790083233317
380,-2.360445834776237
381,-3.3702028358296876
382,-2.8526202045462696
383,-2.52048593025753
384,-3.455712519162222
385,-3.0337548457945314
386,-3.0422597904301862
387,3.199004879640385
388,0.7351920189480036
389,-2.696775603676521
390,-3.699802909678399
391,-3.6013139957973066
392,-3.1573121441076863
393,-3.824343239111445
394,3.335917597745686
395,-2.166586815678363
396,0.6086972315766932
397,-2.356503401548809
398,-3.1009848733895597
399,-2.009705616705863
400,-0.533588447174632
401,1.0163339894812828
402,-0.7575255314392438
403,-3.664840240125145
404,0.0
405,-3.483979569433716
406,-3.035050639725201
407,-1.9146587753828275
408,-3.087518478732522
409,-3.8446726494043135
410,-1.9111572108059705
411,-3.8386907445339236
412,-3.944769329940559
413,-2.7026395216185195
414,-3.823222475141852
415,-2.996619236399411
416,-2.4395001146462882
417,-4.565301287837733
418,-2.033505358706574
419,-1.206676565350513
420,-3.4948922337913975
421,-2.771819518192191
422,-2.126918749405367
423,0.7315625370743208
424,-2.883672537275381
425,-3.0954573429191576
426,-1.5121306589767662
427,-2.4797205994405935
428,-1.0566816260012173
429,-3.0750558169551305
430,3.08106114325604
431,-2.0243941414152684
432,-3.9052497211156783
433,-4.006191782551489
434,-2.7216619029663294
435,-2.816275663724442
436,-0.1580941227202265
437,-3.3394758404929665
438,-0.9217471604154506
439,-3.087518478732522
440,3.3332656800121887
441,-3.4818450188751857
442,-3.8950631852772437
443,-3.888491039250865
444,-3.122617962680636
445,-3.309680870022339
446,-3.1117417979557347
447,-0.06217311347531078
448,-2.609070952139172
449,-3.6874074851391696
450,-3.4247289307354465
451,-2.2072408451447845
452,-0.7750917095279408
453,-1.2392105133581952
454,-2.836826828634449
455,-3.1053705408008367
456,3.0945392332827146
457,-3.129230841553937
458,-4.157025725898175
459,-3.710916999571993
460,-2.1889538514023226
461,-1.8999219373389327
462,-2.606212818430048
463,-2.7087458407168707
464,-1.8057816967663967
465,-2.275600837747953
466,-2.6437149203509263
467,-3.9425208914368026
468,-2.4503851989250482
469,-3.584836943243577
470,-3.9500156262614454
471,-1.330401277274156
472,-3.0124929907743176
473,1.2636457716949512
474,3.334438976300012
475,-3.295841604350123
476,-3.255771084089135
477,1.933740898206751
478,-3.5616011014207407
479,-3.2284677225380083
480,-0.7959957366066864
481,-3.1950152147349953
482,-3.5754039525662913
483,-1.8215928478068122
484,-1.9088732282490317
485,-4.33116882625738
486,-3.7670876039887045
487,-3.4818450188751857
488,-2.4476864248542003
489,-2.9435643207343927
490,1.532440074738297
491,-3.055119554359517
492,-3.3897890475077923
493,-4.1655677860446705
494,-3.554313871366037
495,-2.242237974929669
496,-2.6497506214445212
497,-0.7948057053004305
498,-0.4527537501429583
499,-2.7365404180722703
500,-3.8677657382169266
501,-2.332151046221624
502,-2.3306019613576026
503,-0.25876752125648617
504,-2.732227825000881
505,-0.3993873634827654
506,-3.039851656409302
507,0.7600648430358207
508,1.0511778637340585
509,-1.4463934086119674
510,-2.0300636556833265
511,-1.8748188777661345
512,-3.8359895960748274
513,-3.4476831717598024
514,-3.502618450738927
515,2.188047286949952
516,-4.010257376727444
517,-1.73515023220907
518,-2.1012174691269103
519,-3.6190617990119525
520,-2.5457941471464065
521,-2.110174545036188
522,-3.1719455626382262
523,2.1744079032561725
524,-3.023886649430883
525,-2.1426223766565857
526,-2.475201002192704
527,-4.33116882625738
528,-3.2835792139467475
529,-4.530654233857135
530,-3.1730776307762207
531,-3.492195516981626
532,-3.1722190283809204
533,-0.8903321214592336
534,-2.251036768741507
535,-3.199867783103185
536,-1.7365037746713348
537,-2.711036024141544
538,-3.1145624661362303
539,-1.951998391162033
540,-1.9873176441756177
541,-1.984363977275
542,-2.7431679043416604
543,-4.343893465310798
544,-3.1731276869025327
545,-2.7595376164593244
546,-0.13631424001089673
547,-4.164174625346395
548,-2.8935641217792902
549,-0.96862169334869
550,-2.558098959650001
551,-1.098197558808659
552,-3.6344364614255986
553,0.8371788517101412
554,-2.1317932672211986
555,-3.811101674978247
556,-4.101447368350179
557,-2.323491001605744
558,-1.7553435413588045
559,-4.258410774748108
560,-0.02639046388244471
561,-2.758528830331389
562,-0.9891361517484178
563,2.2365116650417742
564,-1.264586549630668
565,-1.9747212426526226
566,0.6780122988812969
567,-1.1474392308878285
568,-2.875316875395543
569,-3.492195516981626
570,-3.3585407934330505
571,-4.1655677860446705
572,-3.3510174504382944
573,-3.490727916142357
574,-0.6411970513741984
575,-2.60052154152561
576,-1.0108078505100002
577,2.8791381220245045
578,-3.1740289098269403
579,1.7988444442840783
580,-3.2074309264395557
581,1.5634296993821266
582,-2.1461699569037513
583,2.6479115711962793
584,-4.849829869798689
585,-1.098197558808659
586,3.2790255619707986
587,-0.02639046388244471
588,-2.931963359963023
589,-3.173953425172925
590,-4.020705557694572
591,-1.7190670133386152
592,-2.908655001960155
593,-3.827989964721474
594,-2.8092163977135756
595,-1.6305960894606126
596,2.5028343291827384
597,-1.7966457334114632
598,-2.8712282527849036
599,-0.889893745422969
600,-3.3070401553242457
601,1.8159818930478306
602,3.5389788110614178
603,-3.5017032624701416
604,-4.0965402299877605
605,-1.7156994819323967
606,1.709044694083893
607,-2.619656914274802
608,-1.519139593971933
609,-1.7313768596348296
610,-4.777783641552737
611,-1.9032570680092251
612,-1.955667335497253
613,-1.7772494803109264
614,-5.251235854414792
615,-3.110778921449066
616,-3.6679056998929624
617,-2.3988706726586217
618,-3.506679243379501
619,0.8764436932717194
620,-1.4361413068247233
621,-1.9043300582044442
622,0.5436299963329233
623,-2.7087458407168707
624,-3.8648098099880657
625,-3.8647485018648817
626,-3.2940575984129468
627,-2.4037216567360775
628,-0.3854356440620848
629,-3.817607814460185
630,-2.113812133960811
631,-2.0300636556833265
632,-3.173253386762878
633,-4.174781450605878
634,0.9111394156726815
635,-0.5230425676153373
636,-4.33116882625738
637,-3.675344990306828
638,-2.968291155012122
639,-2.2798753982095388
640,-1.7986068258277292
641,-3.158968624998395
642,-3.741255914937129
643,-3.4581055707385575
644,-2.9302964401119427
645,-4.609938627036611
646,-3.1358953660708178
647,3.276191041910228
648,-3.258564586090806
649,-3.3379505425696077
650,-2.8526202045462696
651,-2.4710055881421242
652,-1.6801344776059224
653,-2.44493819845179
654,-4.0781057823369204
655,-4.830535623053198
656,-3.084284784797688
657,-2.9370934020499817
658,-2.0547275302949353
659,-1.4289639356262018
660,-2.8858727056146547
661,-3.993066365970215
662,-2.2735298255787533
663,3.3354906248482554
664,-5.242336673909525
665,-2.9105589190471837
666,-3.715934692094883
667,-3.0584642331531566
668,-3.9848877732860477
669,-2.015071909440954
670,-2.027077048101096
671,-2.473508539929406
672,-0.20246311482025753
673,3.4086048830351166
674,-3.278572616752659
675,-4.901641751180503
676,-3.1373337249159
677,-0.7535959320629159
678,-3.172913937304861
679,-3.379378957977457
680,-2.0348304651579956
681,-3.9286639903977907
682,-3.122617962680636
683,1.1619577561703045
684,-2.142793361818832
685,-3.3036531741749666
686,-0.11118667300782337
687,-0.3463378632402576
688,-3.187339631389722
689,3.0945392332827146
690,-1.0596840274089185
691,3.08106114325604
692,-2.2498215209291517
693,-1.8074311250819464
694,1.4070961685294403
695,-3.5616011014207407
696,0.8780989564870564
697,-0.9061126519889022
698,-1.451369764267873
699,-0.8453578167326687
700,-3.1371238897149047
701,-2.3862837700195096
702,-3.955843173772474
703,-3.2030551246223644
704,-3.617661129332254
705,-2.397948445769586
706,-3.0209153261016612
707,-2.839818413407271
708,0.03925819442750173
709,-2.838026664222088
710,-2.8669270852935056
711,-4.081314635368699
712,-3.089581943195541
713,-2.6615940038212282
714,-0.31176805190507273
715,-1.6711127799201353
716,-1.6852497396343973
717,-2.057870505158319
718,-1.6550966703182353
719,-3.255209058918582
720,-2.773713004356056
721,-3.224955645314965
722,-1.7575653905177397
723,-0.9063752414133772
724,0.504454062885484
725,-4.282737727292021
726,-3.768497476077706
727,4.110965196687278
728,-3.922433769108114
729,-3.459686666537094
730,-1.73515023220907
731,-2.294508704238137
732,-0.8514373833768681
733,-2.436821562894134
734,1.8307950241314899
735,-2.272812640584165
736,-3.174532229804023
737,-4.498174765013268
738,-1.792877113118215
739,-3.173123775370345
740,-3.423196306661466
741,-2.3907615937351565
742,-3.0921395673923056
743,-2.0348304651579956
744,-2.1075271874127512
745,0.3834258105855701
746,-3.9286639903977907
747,-3.6715942490302833
748,-3.0187759964321965
749,-3.3027177733129824
750,-2.377011842494626
751,0.5202899372399605
752,2.5028343291827384
753,-3.663821304871269
754,-2.9609410163614016
755,-0.7074211998707269
756,-2.332151046221624
757,-2.8943357533861294
758,-3.819707916883953
759,-0.5826641603326544
760,-2.255221741230573
761,-4.245197211702662
762,-3.1943301201641177
763,-1.473758430278244
764,-2.2059423231370796
765,-3.9777644485844843
766,-3.6233013138089594
767,-1.4209830455361327
768,-2.289977537356103
769,-2.3479369666469685
770,-2.591457693011119
771,-0.9109310447881305
772,-3.9277987653751674
773,-2.7329359850912427
774,-3.4590015836935284
775,-3.7550494474724787
776,-3.984670767506648
777,-1.4820992205300434
778,-4.401453995839053
779,-2.3301071717799506
780,0.3807939096406794
781,-2.483183985937089
782,-3.1742565807490104
783,0.8780989564870564
784,0.8780989564870564
785,1.1459515692159334
786,-0.9217471604154506
787,-1.884430190080524
788,-3.700670098685869
789,-3.7449463403332275
790,-3.7221831185621133
791,-2.249930914809458
792,-3.925379528001292
793,-3.419709229586768
794,-3.422451756211019
795,-3.3602395626901846
796,-2.953307117277337
797,-2.8238809952641843
798,-3.7440214506795013
799,-1.94029741398848
800,-3.367183040063045
801,-3.2012710027650555
802,-2.8569396145476316
803,-4.355759179081056
804,-3.2220299195957116
805,-2.096160493105251
806,-2.5656225696991664
807,-3.1302393380706803
808,-2.606212818430048
809,-1.9545931113101827
810,-3.1703271367324226
811,-3.232241519833008
812,-2.968242422540283
813,0.4932652101880049
814,-4.150025130702587
815,3.335394406597566
816,-3.6344364614255986
817,-3.1741598843468815
818,-3.920743754374423
819,-2.035313788281002
820,-1.5516564516091138
821,-4.240720744594929
822,-4.498174765013268
823,-3.286090742585737
824,1.933740898206751
825,-1.6853398466379559
826,-1.7772494803109264
827,-3.3726547423027964
828,-0.9217471604154506
829,2.168456020438639
830,-2.616437346667459
831,-2.2016778471459157
832,-1.7825505648664206
833,-3.422451756211019
834,-3.514053858254337
835,-2.5406486087837967
836,0.0
837,-0.4208912182590252
838,-1.4698506517176806
839,-3.172653078059351
840,-2.7871254155161056
841,-2.9730919996871585
842,-0.635394374996382
843,-3.455712519162222
844,-1.6868049165057155
845,-2.7616946085034835
846,-2.5917737447682883
847,-2.8172002806553613
848,-0.5851130636624226
849,-2.153458449877067
850,-2.7353129956233198
851,-2.6208696989480473
852,-2.760075001356461
853,-1.8117815292356878
854,-3.6360281059132884
855,-4.048733601870999
856,-2.052380412038168
857,-2.2834435814691747
858,3.5389788110614178
859,-0.22204357678359077
860,-1.7270718836186763
861,-3.9431399120005084
862,-1.812264701318959
863,-3.239794316396751
864,-3.7352035001384976
865,-4.4642584738802515
866,-3.4590015836935284
867,-3.3651031190664975
868,-3.9443448734676765
869,-3.2996958767776445
870,-3.325745389235979
871,-3.0483977802430364
872,-3.705606033601477
873,-3.597021035688349
874,-3.6941497679368402
875,-2.027124411603584
876,-2.28257559795814
877,-4.179643965917817
878,-1.8234096930652433
879,-3.172357119555007
880,-3.1358953660708178
881,-4.037001839414454
882,-1.9292108145468272
883,2.9155340217928964
884,-1.893660745316944
885,-4.404076010110287
886,-1.8428435674608838
887,-3.41730034913157
888,-3.216000370801765
889,-2.7022926830799623
890,-3.3585407934330505
891,-4.1655677860446705
892,-3.5909484905424156
893,-2.8494527892741925
894,-4.100121259959327
895,-2.092630616507294
896,-3.303355221691278
897,-4.023136377825909
898,-2.1936983024575385
899,-2.2246039684323184
900,-2.8712282527849036
901,-4.160470160870123
902,-2.333396015389355
903,-3.17320592744283
904,-2.897586983040442
905,-3.1729514754324493
906,-2.9987150824228594
907,-3.1734788943671925
908,-0.5499313581615334
909,-1.342996958188914
910,-3.183187119346728
911,-3.9421013889644887
912,-2.3785299474065513
913,-2.606212818430048
914,-3.1721091720551184
915,0.15207979551271894
916,-3.27266573390803
917,-1.6571487700975787
918,-1.2575935042341941
919,3.335440847959022
920,-3.41132722538196
921,3.3346223456567623
922,-3.173253386762878
923,-3.2274294367800995
924,-3.27894738448189
925,-3.0151324233870582
926,-2.5932818521255308
927,-3.907454921886573
928,0.7863635066808622
929,-1.4644050190015547
930,-2.360445834776237
931,-4.158483467893825
932,-1.0894115212382596
933,-2.304125773607435
934,-0.12505298117469002
935,-3.5716109540846546
936,-3.6108045760985017
937,-3.6108045760985017
938,-2.952594601487524
939,-1.1445068905027616
940,-1.792877113118215
941,1.6906103954202871
942,-4.769432237944673
943,-1.442446096050236
944,-1.872100656114369
945,-1.2433419425649486
946,-3.4200512117358093
947,-2.1075271874127512
948,-3.3897890475077923
949,-3.309680870022339
950,-0.30087355518592385
951,-1.4388220257946842
952,-3.17327586755632
953,-2.5800805678770327
954,-1.4698506517176806
955,-2.2671629439628926
956,-2.7267620855328323
957,-3.704224953173065
958,-2.520249069940039
959,1.361324085865842
960,-2.7403534757358297
961,-3.1729514754324493
962,1.9656328008735684
963,-1.1331915443286695
964,-0.47865962832130043
965,-1.6968508819885642
966,-4.032476735019741
967,-2.08173783061775
968,-3.865473133583809
969,4.63376063368738
970,-2.2498215209291517
971,-3.767224153719634
972,-4.268300621763898
973,-1.8936505082384247
974,-4.070417983068936
975,0.9841503173202336
976,-2.3101452433789538
977,-1.197593047501124
978,-4.415882897184272
979,-4.348349636925946
980,-2.08666345300426
981,-1.899667824364759
982,-1.5781831230523102
983,-1.7747599580736457
984,-2.8963485796790303
985,-2.7606277614220422
986,0.7515365892576726
987,0.0
988,-2.254206795641117
989,-4.658365229192794
990,-3.1719894152987718
991,-3.3578287928174633
992,-3.771556839266455
993,-3.2355453213427867
994,-3.039851656409302
995,-1.1750357034623204
996,-0.1588913903568349
997,-2.9346399866380937
998,-2.3737485496349215
999,-2.3737485496349215
1000,-3.0502382945648137
1001,-2.7358721194406592
1002,-4.3933653812590405
1003,-1.6164217142896047
1004,1.385652136264136
1005,0.24225492571148866
1006,-1.9804080769099144
1007,0.4819735844556836
1008,-4.49622280582281
1009,-2.5554252821143355
1010,-4.010446503542774
1011,-3.286090742585737
1012,-1.339785085433266
1013,-2.8331793979970743
1014,-2.670654271541228
1015,-3.9873957405639504
1016,-3.702910196059242
1017,3.335460109860308
1018,-3.0187759964321965
1019,-1.7372355214793718
1020,-2.0547275302949353
1021,-1.993111549273236
1022,-2.348129854837754
1023,-3.766703792448503
1024,-2.2822933543298967
1025,-3.1736949945997104
1026,-3.0967899815872437
1027,-3.1083027833807715
1028,3.33468340745759
1029,1.3097786161068754
1030,-3.127716250085837
1031,-4.248249646413985
1032,-2.5838537703300606
1033,-3.174579462002359
1034,-3.8580619876279783
1035,-2.0599498088114543
1036,1.0624931158657684
1037,-2.481840921457305
1038,-2.7539248874447866
1039,-3.2996958767776445
1040,-3.7547265762864472
1041,-3.028298477902666
1042,3.3355382911421487
1043,-2.257763308516951
1044,-1.6443540294464742
1045,-4.119447623637472
1046,-4.03385518871928
1047,-2.756727772042189
1048,-4.606709132247814
1049,1.2499405446887737
1050,-4.8037972485152
1051,-4.041268631353301
1052,-4.0271342870790985
1053,3.3341315779344267
1054,-3.174797160738419
1055,2.9020144147256492
1056,-2.8858727056146547
1057,-2.7358721194406592
1058,-3.1731930701851323
1059,-4.2254982165733495
1060,0.0
1061,-0.5660487230520181
1062,-3.1458989231585965
1063,0.9490714286612086
1064,-3.378736761059842
1065,-0.12505298117469002
1066,-3.173953425172925
1067,-4.838932666615714
1068,-3.162333957796275
1069,-2.9370934020499817
1070,-1.644129761808427
1071,-2.890909994421748
1072,-3.171962967848313
1073,-3.1875355204071676
1074,-2.986072091881854
1075,-2.1198353661831395
1076,-3.2274294367800995
1077,-3.8226040515633626
1078,-2.932869708605797
1079,-3.1738269667196386
1080,-2.1835909394804256
1081,-2.961358447256029
1082,-3.844067604922225
1083,-4.101916208291513
1084,-4.218020626598747
1085,-1.599308651246095
1086,0.3561159705370432
1087,0.3561159705370432
1088,-4.091621300146897
1089,-2.4332357685190673
1090,1.931759547061356
1091,-4.023136377825909
1092,3.3345136121309507
1093,-3.301955922858848
1094,2.986561671967026
1095,-3.9999802777941325
1096,-4.324072720494122
1097,-4.227790052734158
1098,-2.7222384077342516
1099,-5.050790083233317
1100,-4.837852006764316
1101,-4.673184182759319
1102,3.0379918644692294
1103,0.5990488971957764
1104,-1.8987802821540603
1105,-3.490727916142357
1106,-3.129049504775062
1107,-2.692164954913135
1108,-2.9790368246675687
1109,-4.2282160496102925
1110,-2.8217393874845773
1111,-2.750032656902975
1112,0.856627851734568
1113,-4.590306969385071
1114,-3.720864034900095
1115,-0.16659212177440874
1116,-4.089574070748422
1117,-2.627991973863611
1118,-0.932531909233664
1119,-0.41070699374048913
1120,-3.646623746562877
1121,-1.7960678755146111
1122,-2.6676257260874356
1123,-0.4223140160081083
1124,-4.035843272748643
1125,1.1232933491340227
1126,-4.06050977126185
1127,1.933740898206751
1128,3.133919207087458
1129,-3.984941139584776
1130,-3.8862569711991313
1131,-4.44709285163589
1132,-3.9528958261664346
1133,-3.518451724902416
1134,-3.408771176030829
1135,-3.1730390655166127
1136,-2.7794786580958895
1137,-2.0068498969436157
1138,-3.8818064078029932
1139,-4.02688669951723
1140,0.4960414051057493
1141,-2.7208065759609275
1142,-1.9426537651475573
1143,0.2467509299355943
1144,-2.0694946506785925
1145,-1.9953392778358692
1146,-0.5224141829219705
1147,-3.5820075651956356
1148,4.272079843797743
1149,-2.7367217458737305
1150,-2.9058037303340374
1151,-0.6849902238771277
1152,-1.4050107213973457
1153,-3.018547365041744
1154,-2.7500267070735354
1155,-3.8359895960748274
1156,-3.0252759017989255
1157,-2.7433687371092974
1158,-4.005855775735115
1159,-2.7719897279172736
1160,-2.1317932672211986
1161,-3.8015206422473256
1162,0.05110199925854176
1163,-3.0911823371569844
1164,-0.13105370781445708
1165,-2.4397850402373003
1166,-2.6044877711878907
1167,-4.224460693425355
1168,-3.1334977090201406
1169,-3.412778723016099
1170,-2.302810563532401
1171,-3.5311275021285473
1172,-4.093949927662715
1173,-3.1727508228753645
1174,-4.043288545494312
1175,-3.320488693693639
1176,-3.902503394222942
1177,-1.680871105830657
1178,-3.2168550237638818
1179,-3.823222475141852
1180,-1.9465517124275973
1181,-2.733910348494349
1182,-3.4283945223757852
1183,-3.147497124766733
1184,0.4960414051057493
1185,-3.627505709187809
1186,0.5202899372399605
1187,2.328702524773653
1188,-2.0439761667313547
1189,-2.5681158869213085
1190,-3.156475519909459
1191,-4.311268016108228
1192,-3.172482979004145
1193,-3.654084870039267
1194,-3.239976499550581
1195,2.825379797903358
1196,3.3253553001359486
1197,-2.8901049298384534
1198,-1.7087758240829756
1199,-2.75209075376759
1200,1.6350607649467466
1201,2.69996687334427
1202,-1.8781214691112693
1203,-3.5346274524729577
1204,-4.21487989252929
1205,-1.7086864459836744
1206,-1.7891873335423851
1207,-0.33403190094090385
1208,-2.340197315055675
1209,-1.1896921364521411
1210,-3.295841604350123
1211,-4.213910632821796
1212,-3.5754487533556025
1213,-3.2114494916210186
1214,-2.4812367348798574
1215,-3.2444503325966094
1216,-3.1738803453183797
1217,-3.3726547423027964
1218,-3.3632147103932977
1219,-3.733513769620145
1220,-2.9812709543388416
1221,-3.8215008040218024
1222,-3.4979406521959806
1223,-2.628757384444068
1224,-1.680871105830657
1225,-3.1736904123427614
1226,-3.5518269341367263
1227,1.3155164029084905
1228,0.2467509299355943
1229,-2.11243639542607
1230,-2.903410097482574
1231,-2.959361815914498
1232,-2.929948518212024
1233,-3.738065477740646
1234,0.7661743062475186
1235,-3.4163569024596003
1236,-3.7440214506795013
1237,-3.236015531227947
1238,-3.159041968722538
1239,-1.2926747792974218
1240,-1.1310340055735069
1241,-3.6084045272455
1242,-3.3678197702695294
1243,-2.9236260848226414
1244,-3.172924752090551
1245,-2.837318234672669
1246,-2.4469217797565106
1247,-3.305424389832202
1248,-4.006763948715144
1249,-3.43425749279235
1250,-3.243793428781688
1251,0.8627514286808632
1252,1.7405559274203526
1253,-1.1157087783958424
1254,3.33415136035292
1255,-3.174758823102753
1256,2.3227833499281676
1257,-3.7910965770574694
1258,-3.7502518405975867
1259,-3.6250715636535644
1260,-1.7792061754081485
1261,-2.3968441811279604
1262,1.9580433401304045
1263,-3.8489964050710546
1264,-3.7746661267623307
1265,-3.016991000117849
1266,-2.310964462670442
1267,-2.512387348336447
1268,-3.786368617523445
1269,-3.497890718988701
1270,-4.335676049141521
1271,-4.335676049141521
1272,-3.8013107119990583
1273,-3.174532229804023
1274,0.0
1275,-2.376139385705224
1276,-2.7508491782878073
1277,0.7555356558603405
1278,-3.173779415690016
1279,-3.171905010905356
1280,-3.2786438798460793
1281,-1.7212996216713443
1282,-2.8331793979970743
1283,-3.316352110883747
1284,-2.7594743454101374
1285,-2.4037216567360775
1286,0.07759261355469436
1287,-2.9582508579827356
1288,-4.040035651793138
1289,-3.876683222274961
1290,-2.927834526918383
1291,-3.1801606637751845
1292,-3.2749983996984726
1293,-3.7223483677347406
1294,-2.3274692612411285
1295,-3.1799341630487032
1296,-2.5908040911767976
1297,-3.644890019656883
1298,-3.7034681440483728
1299,-4.089574070748422
1300,1.3438786281222124
1301,-4.164357716504412
1302,-2.5729442027358034
1303,-0.5735392129926234
1304,-3.6556260123162025
1305,3.3333053015675302
1306,2.7855944376272275
1307,-3.675605521775069
1308,-2.0689592437989752
1309,-2.427882086942833
1310,-1.6047225587915306
1311,-2.559150131262011
1312,-1.9800716215735918
1313,-4.0069798403326935
1314,-1.8278416333188319
1315,-3.1078520647209262
1316,-3.3930409216036868
1317,-3.278826642518993
1318,-3.1723365439446263
1319,-4.166124979419503
1320,2.608912218468614
1321,-2.004702289673621
1322,-3.1722960506100795
1323,-3.173053494640209
1324,0.6086972315766932
1325,-2.9638035499927833
1326,-3.8167337915729513
1327,-3.1735222517389414
1328,-4.735537213823683
1329,-3.7596568576591864
1330,-3.27266573390803
1331,-1.295493468714756
1332,-3.484205083553816
1333,-3.4190363371662738
1334,-3.179776778577399
1335,-4.54786327000069
1336,-3.5608733629295686
1337,-3.917245667595242
1338,-3.857048909114597
1339,-3.4899703268552096
1340,-2.442460300610304
1341,-3.4758265828455976
1342,-2.632768941388314
1343,2.906550047074596
1344,-2.9441342921122176
1345,-2.3906879526282454
1346,-3.8031592566612646
1347,-2.5058987771198082
1348,-3.179090055990561
1349,-3.5451256828898288
1350,-3.416082621344786
1351,2.5988721450042678
1352,-3.250825041280266
1353,1.077965951311951
1354,0.613775373637231
1355,-3.362664475700909
1356,-5.384560314965998
1357,-2.6897674443274058
1358,-3.6108045760985017
1359,-2.955459681598095
1360,-3.2519670884977825
1361,-0.5385226936988369
1362,-2.90575017067244
1363,-0.40582656589101146
1364,-2.0733926346274045
1365,-3.1781098433819746
1366,-2.8331793979970743
1367,-3.7327810909208776
1368,-3.816107834489266
1369,-2.8810703386418024
1370,-2.5966979933812646
1371,-3.479430752315221
1372,-2.3487569724596487
1373,-3.5648030413265492
1374,-3.779277989149962
1375,-4.158936692535602
1376,-2.67442112403824
1377,-3.5262372994061746
1378,-1.1658271903859152
1379,-2.7360545940786403
1380,-4.584432368071713
1381,-4.294426964463076
1382,-3.489212819975471
1383,-2.368520250214616
1384,-0.5429094407030471
1385,-3.144148553221837
1386,-3.4645288084333004
1387,-2.5756552451463257
1388,-3.7221831185621133
1389,3.2890154538350265
1390,-2.73059666469158
1391,-2.6799142604283395
1392,2.8040460955666204
1393,-2.262041126173068
1394,-0.8759827251304119
1395,-3.5862887681235223
1396,1.5178382208061783
1397,-3.7551226575609653
1398,-1.4961495807719178
1399,-2.75521021665634
1400,-2.262416936755704
1401,-3.12826122566396
1402,-4.220940387205811
1403,2.1985072237421037
1404,-2.5495146082193294
1405,-3.3396976829092986
1406,-3.173026097522862
1407,-3.173133364611165
1408,-2.2396690844394564
1409,-1.8721721375476392
1410,-2.6860097312979057
1411,-3.174255935474241
1412,-1.2158881502174497
1413,-3.1730589936462255
1414,2.254261423198355
1415,1.948430792927989
1416,-0.34275205819656296
1417,-1.9159587068398605
1418,-3.642420589219952
1419,-3.22596223156161
1420,-0.03401832307343837
1421,-0.7038599474218139
1422,-1.8131561835720211
1423,-3.173874320027299
1424,-3.184086041269349
1425,-1.0520003112324967
1426,-0.955170676611719
1427,-3.633697283246209
1428,-3.208805047612131
1429,-3.190820286684718
1430,-2.9730919996871585
1431,-3.189137163742836
1432,-3.542665379055972
1433,-4.2010788535279096
1434,-1.8479085767390078
1435,-3.9850145038197198
1436,1.361324085865842
1437,0.8764436932717194
1438,-2.077676511534774
1439,-2.7772097891202088
1440,-3.8695649220517323
1441,-4.352842476118286
1442,-3.523988107018696
1443,-1.573292750376731
1444,-2.8733477247947294
1445,-2.1523428037037613
1446,-3.1854551849011443
1447,-2.969288477221948
1448,-2.958005200962583
1449,-2.2944653933961425
1450,-2.4882763604172755
1451,-3.2827458252392097
1452,-3.3521190813107586
1453,-3.1692802635983415
1454,-1.7819228328093233
1455,-1.6085928075541016
1456,-3.6478862798642995
1457,-2.0478152872021917
1458,-3.2989034939571433
1459,-3.3396442599903335
1460,-3.2435138010356677
1461,-3.173840700485662
1462,-3.3117678232895416
1463,-0.2516365827975904
1464,-5.421455844486953
1465,2.577911026715402
1466,-0.5525336736297649
1467,-3.7825844209782473
1468,-3.8837936948159686
1469,-2.3754064593600415
1470,-1.411612131439693
1471,-0.8736148817708991
1472,-3.750823168008859
1473,-2.5623749533654983
1474,-2.7208038507160777
1475,-3.164957164293057
1476,-3.167515474088435
1477,-2.9901770115218174
1478,-1.3859114062050857
1479,-3.0235117401870513
1480,-4.81140561560202
1481,-3.173703565925905
1482,-3.7360125659958454
1483,-1.5746325054060517
1484,-3.4117090861443273
1485,-3.173309795578628
1486,-3.0644623235353694
1487,-3.3514697684958126
1488,-3.0823848650306465
1489,-4.6029290366843005
1490,1.1885440029814203
1491,-2.767205305732648
1492,-3.889742049405007
1493,-2.3348132882321107
1494,-3.7665716601771297
1495,-2.5780191145768727
1496,-1.269897329196754
1497,-1.858586493133315
1498,-3.249491412511369
1499,-4.204974373929268
1500,-2.743336184572105
1501,-3.335174035964039
1502,-1.947827118430427
1503,-3.157367575570409
1504,-3.5808160951946784
1505,-4.127148249020854
1506,-3.907454921886573
1507,-3.500065053444321
1508,-3.319085223159972
1509,-2.8096022247941286
1510,-3.566199566676381
1511,-0.826325224067496
1512,-4.158483467893825
1513,-2.774031478643836
1514,-3.5307822411889624
1515,-3.1730887466425837
1516,1.2636457716949512
1517,-3.1738269667196386
1518,-2.1320944823916683
1519,-0.5996144362259561
1520,-3.8015206422473256
1521,-3.1757276896079483
1522,-3.8013107119990583
1523,-2.460470137011594
1524,-3.000091284629399
1525,-2.599400593824242
1526,-2.4815300257681314
1527,-4.833243894593552
1528,-2.328136227163857
1529,-3.5073129477618847
1530,-0.6911481954736369
1531,-3.33322795855335
1532,-2.443984107858146
1533,-2.8437485185753455
1534,-2.931963359963023
1535,-3.240990488183349
1536,-3.176533594327191
1537,-2.9776297469337987
1538,-0.7844622630412508
1539,-0.9891361517484178
1540,-3.173599398352314
1541,-0.9103159030839278
1542,-2.6137530925883437
1543,-3.1358953660708178
1544,-3.239804173305314
1545,-1.451369764267873
1546,-2.7001632140884535
1547,-2.7392600799841764
1548,-3.2127578798400918
1549,-2.929060354880931
1550,-2.674759387925084
1551,-3.0251599484971656
1552,-3.545196495319612
1553,-4.49188467757971
1554,-3.0139702137302615
1555,-0.7770681215607523
1556,-3.149922681108427
1557,-4.125593037874201
1558,-3.3001563823515525
1559,-2.80073594724303
1560,-3.528329050217333
1561,-2.929350595451928
1562,-3.4897621145775464
1563,-1.2433419425649486
1564,-3.35912846677186
1565,-2.323900595271478
1566,-2.209546966677897
1567,1.5271873978591972
1568,-4.720410702131271
1569,-0.9098167996475964
1570,-2.6428718397506383
1571,-0.16799969495611783
1572,2.6539191911633377
1573,-2.881831847721176
1574,-3.6892202607026396
1575,-4.375207748544036
1576,-3.764134570018684
1577,-3.9843034601346683
1578,-3.198406774463791
1579,-4.888280905332186
1580,0.7515365892576726
1581,-0.425888749770295
1582,-2.262041126173068
1583,-5.401163299469835
1584,-3.2582255823139152
1585,-3.1699310532608207
1586,-5.339543597874019
1587,-4.436738904135669
1588,-4.01495799808493
1589,-2.9290145206916716
1590,-5.139112661129293
1591,-4.407831267913011
1592,-3.949902610355825
1593,-2.7343041571951865
1594,3.3358326726765304
1595,-2.7657552948916893
1596,-1.79154897703059
1597,-3.174084487733019
1598,-4.586043096932512
1599,-3.946454542002919
1600,-4.258146696687622
1601,-2.1715407324054734
1602,-3.33305248273425
1603,-2.578710156245218
1604,-3.411433708382065
1605,-3.1906645208455626
1606,-3.164285447633789
1607,-4.541840808964774
1608,-4.183822782629322
1609,-1.9972808666103319
1610,-2.3203833650422743
1611,-2.6180645479037166
1612,-0.9640333569465758
1613,-1.1865122812214914
1614,-3.074567209688069
1615,-4.714132385563802
1616,-2.3561434537108914
1617,-3.5845780022542053
1618,-2.3214523184154445
1619,-3.81731000272517
1620,-2.6209687825216013
1621,-3.552308216482725
1622,-2.7568369565806785
1623,-1.766937548227601
1624,-3.340035611383145
1625,-1.1508276240049733
1626,-3.173840700485662
1627,-3.1741198933624353
1628,-1.9243621986874064
1629,-3.313818257338698
1630,-2.3754064593600415
1631,-3.2702817549422556
1632,-3.023493145250381
1633,-3.173385484631563
1634,-3.8948495080782806
1635,-3.917705817432214
1636,-1.076426149196556
1637,-2.8605009051601553
1638,-3.6938019633362686
1639,-3.206224153019375
1640,-3.9549941127188974
1641,-2.8862923276463808
1642,-3.524596598734301
1643,-3.401199601708363
1644,-2.7358143511117645
1645,-3.1302393380706803
1646,-3.012731781260171
1647,-0.649438794013618
1648,-2.9658242463975957
1649,1.2925304101440345
1650,-3.1746643159293453
1651,-0.60204425470323
1652,-1.48221777893453
1653,-3.743817345785398
1654,-3.173350533203352
1655,-4.054226981927025
1656,-2.2036468640069486
1657,-1.6571487700975787
1658,-1.923874844125085
1659,-3.1730151973454728
1660,-3.252070233451044
1661,-3.507705570948517
1662,-3.173839006787247
1663,2.8336446674762015
1664,-3.4752888192074733
1665,-2.8585036760594513
1666,-3.7291986610586116
1667,-4.218676208274883
1668,-3.1732990797897442
1669,-4.89115478059548
1670,-5.424237123141484
1671,-3.4608961631447235
1672,-5.152848761900848
1673,-5.231621555270053
1674,-2.0311089331748016
1675,-3.2993924124341083
1676,-4.224198881236685
1677,-4.730614763314778
1678,-4.429532348821724
1679,-4.049185657450442
1680,-3.3846511625362137
1681,-3.2195614551885674
1682,-4.554857289879353
1683,-3.805475046252156
1684,-3.172985514379575
1685,-3.7355802442427755
1686,-3.1744701375932913
1687,-3.8683980507378544
1688,-0.6725218067093481
1689,-3.2837754704814546
1690,-5.611697702246869
1691,-3.157367575570409
1692,3.334491275765187
1693,-2.9042998348254057
1694,-2.0562707607757824
1695,-3.0698526510822943
1696,-2.095579712790978
1697,-2.743472226067191
1698,-4.1106954911099916
1699,-3.9381880222562735
1700,-3.1744048808956893
1701,-2.0112993768362655
1702,-0.9990390501384422
1703,-3.1722364090083355
1704,0.4486509335598749
1705,-3.849001997013567
1706,-0.3731022403969269
1707,-3.775109215337628
1708,-3.0390874872012184
1709,-3.334096997816239
1710,-0.33197513293039804
1711,-2.410254972780736
1712,-3.390513683516351
1713,-2.77856011952512
1714,-4.08225426037552
1715,-1.7187412849110597
1716,-3.731330362840098
1717,-3.6357155005805653
1718,-1.3454960363148123
1719,-4.3278484201391345
1720,-2.821087082490943
1721,-5.3209981868762775
1722,-3.6639254683085825
1723,-3.241203338779745
1724,-3.5868260216464103
1725,-4.373087112926573
1726,-2.978563855225871
1727,-4.192628028598403
1728,-2.828636286791005
1729,-4.068913566066616
1730,-4.592062338367483
1731,-3.2802499868544777
1732,-5.185154078717993
1733,-3.7522937220193033
1734,-4.715340955435093
1735,-2.9848482857824994
1736,-4.149551029248986
1737,-4.152446908965594
1738,-3.066321136776437
1739,-3.560562605576973
1740,-3.415047667745471
1741,-3.1738803453183797
1742,-3.9914011384159997
1743,3.133919207087458
1744,2.158458866081839
1745,1.3699457399023551
1746,-3.1723397747461273
1747,-2.4654914941619626
1748,-3.172686401209345
1749,-1.9413700577742796
1750,-3.7327810909208776
1751,-3.3468621160259726
1752,-4.831668801274253
1753,-0.3119201087165953
1754,-4.515670142873347
1755,-3.133863461368938
1756,-3.373530971671719
1757,-1.1392395536992215
1758,-3.28669950952329
1759,-3.699802909678399
1760,-4.266818361906322
1761,-0.5225755839017078
1762,-2.254206795641117
1763,0.8764436932717194
1764,-3.172927950321067
1765,3.333846754336588
1766,-3.1733699056386606
1767,3.334136812457633
1768,-2.0511882819658855
1769,-0.03192682228207644
1770,-2.5838537703300606
1771,-3.9277987653751674
1772,1.6350607649467466
1773,-1.0659323362242192
1774,-4.151245162349657
1775,1.6692285932079296
1776,-2.9181428298818672
1777,-3.644793852545915
1778,-4.213910632821796
1779,-3.207633281005236
1780,-1.6815975408712673
1781,-3.9914011384159997
1782,-2.788569660142548
1783,-3.1733684142207728
1784,1.096463511317812
1785,1.7364050877955517
1786,-3.2450854557973248
1787,-2.4882714012711413
1788,-3.3573086850559553
1789,-3.594945993010097
1790,-3.764134570018684
1791,-4.31237991066524
1792,-3.912219291000729
1793,-3.6395294506204223
1794,-3.1730589936462255
1795,-3.3578287928174633
1796,-4.583295815480014
1797,0.1355173195664814
1798,-3.158968624998395
1799,1.8159818930478306
1800,-1.3350272191391461
1801,-2.688901357164292
1802,-3.1703271367324226
1803,-0.8957649092385821
1804,1.131837971189333
1805,3.0589504364924913
1806,-4.09000591912147
1807,-3.7547265762864472
1808,-5.27682402946735
1809,-3.2643230136277275
1810,-3.334096997816239
1811,-0.9244821778118164
1812,-2.2376497923915792
1813,1.552091512907546
1814,-0.622860591665734
1815,-4.217295182433907
1816,-3.1720418457281516
1817,-5.050790083233317
1818,-3.172264158660097
1819,-3.615931366399913
1820,3.334573595506797
1821,-2.478263742362528
1822,1.2499405446887737
1823,-1.0922526994608384
1824,-3.5055126119731637
1825,-0.8903321214592336
1826,-0.8903321214592336
1827,-7.748642399475125
1828,-3.38757782609703
1829,2.617849355654091
1830,-0.9893674644530449
1831,-2.8650035054401033
1832,3.624573395256606
1833,-1.1508276240049733
1834,-3.4451910597382134
1835,-3.053204871918114
1836,-3.7765405814548694
1837,-0.7502922778691701
1838,-3.1739041436300894
1839,3.1069383162437485
1840,-1.135686123900986
1841,-3.1875355204071676
1842,-2.677750261477464
1843,-3.2860489955359444
1844,-2.9151586344748877
1845,-3.172652279379785
1846,-1.2714513699055288
1847,-1.8936505082384247
1848,-2.1324858066523253
1849,-3.4795129118313293
1850,-4.4883175774178055
1851,-0.5230425676153373
1852,-3.61073486790863
1853,-3.705606033601477
1854,-4.609938627036611
1855,-3.916507917620742
1856,1.2673720819226761
1857,-1.0957237394570116
1858,-3.291993504165581
1859,-4.020033850363572
1860,-3.202523725466381
1861,-3.2210144723628953
1862,0.2628931739051508
1863,-1.1623818501683922
1864,-3.1723323527530822
1865,12.067635158936625
1866,-2.958005200962583
1867,-3.612161045957283
1868,-2.451705171705162
1869,-3.1735222517389414
1870,1.8568124459039774
1871,-3.1720494654354
1872,-0.34996685876830297
1873,-2.7189397355414284
1874,-3.954903708631003
1875,-3.209212327241112
1876,-2.340340471481932
1877,-2.6493475322704403
1878,-2.925222822370872
1879,-2.722226429867847
1880,-3.7593322830350804
1881,-2.8568392099901843
1882,-5.639053996883322
1883,-2.5993173149982995
1884,-3.8539303321437215
1885,-3.795897543370844
1886,-2.141577771879718
1887,-4.064483867472929
1888,-3.2862089677524087
1889,-3.977182492981767
1890,-1.593239811537267
1891,-5.110419656301525
1892,-2.6340600841917117
1893,-3.964411141467491
1894,-2.5203732050095264
1895,-3.47135265474383
1896,-3.1749211923106793
1897,1.721713285887318
1898,-4.616724400066933
1899,-0.9893674644530449
1900,2.1078109295810106
1901,-3.6161334623852044
1902,-0.07276441536577258
1903,-2.333396015389355
1904,3.100679758151258
1905,3.158912508781945
1906,-3.301955922858848
1907,-2.748769831376025
1908,-1.6164217142896047
1909,-3.1738524940450077
1910,3.4639702490569824
1911,-3.174619743650456
1912,3.336020541467401
1913,3.335130431606177
1914,-3.174420463993555
1915,-4.681484706414094
1916,-2.925222822370872
1917,-3.457493738210922
1918,-2.0457348802634763
1919,-0.9244821778118164
1920,-3.1723397747461273
1921,-6.897555762720136
1922,-4.206030497474866
1923,-2.2882338957337454
1924,-3.8633125532582917
1925,-5.057797383335843
1926,-3.1740133857935393
1927,-4.436738904135669
1928,-1.7792935190274681
1929,-4.663285986647159
1930,-3.1347669715884985
1931,-6.2302826457055085
1932,-5.826034564852949
1933,-3.9509575287123093
1934,-3.1740813421413288
1935,0.07628598466494281
1936,3.3355701514373006
1937,-3.2158592512912705
1938,-3.5950588488823176
1939,-3.9184515878809414
1940,-3.1736750429881693
1941,0.9498400731793278
1942,-1.1978991234446632
1943,-4.274919299390259
1944,-4.014767842374967
1945,-3.909582720176263
1946,-4.002477580410463
1947,-3.7223462478122573
1948,-1.3139128641937678
1949,-4.284661354136898
1950,-3.7146199647772495
1951,-3.1741449625505207
1952,3.3137926505914175
1953,-6.3496475060309665
1954,-4.709906549150317
1955,-5.478576980410097
1956,-3.5391898860003397
1957,-3.2244412116995087
1958,-5.604589333783503
1959,-3.953597892229399
1960,-5.887035677915037
1961,-4.020128819349708
1962,-3.440315383009378
1963,-5.144272577888597
1964,-3.3906340658377623
1965,-3.1724483598384885
1966,-4.128434068923301
1967,-3.642367252883047
1968,-3.559794753359891
1969,-3.8095721411852868
1970,-5.567103557775533
1971,-5.110388244030156
1972,-5.096806413249021
1973,-3.0386995115360604
1974,-2.3514343557968735
1975,-5.147241337146647
1976,-3.9924408260035644
1977,-3.488268531474841
1978,0.6174570894398108
1979,-4.94567668208666
1980,-1.9953702236953739
1981,-4.115964202562993
1982,-3.5905117340127752
1983,-2.033505358706574
1984,-2.6610027774743785
1985,-3.657610234401902
1986,2.417397375128701
1987,2.522066766332529
1988,-1.7441723324823708
1989,-1.5542637443343577
1990,-3.1334977090201406
1991,0.856627851734568
1992,-2.8116966092679143
1993,-2.7391480649903768
1994,-4.237348079419641
1995,-2.886138293988415
1996,-3.527735532262313
1997,-2.348129854837754
1998,-3.360150323497708
1999,2.1043806512498224
2000,-3.711114352677447
